{"learner":{"attributes":{"scikit_learn":"{\"_estimator_type\": \"classifier\"}"},"feature_names":["days_since_last_build_update","build_update_count_last_30d","build_update_count_last_90d","build_update_count_last_180d","mean_days_between_build_updates","std_days_between_build_updates","max_hiatus_ever_days","hiatus_recovery_count","update_frequency_trend","build_gap_vs_allowable_ratio","avg_changelog_word_count","changelog_word_count_trend","ccu_avg_last_30d","ccu_avg_last_90d","ccu_avg_last_180d","ccu_median_all","ccu_at_launch_30d","peak_ccu_alltime","ccu_vs_peak_ratio","ccu_vs_launch_ratio","ccu_trend_slope_30d","ccu_trend_slope_90d","ccu_trend_slope_180d","ccu_floor_established","days_since_ccu_above_100","ccu_low_regime","dev_posts_last_30d","dev_posts_last_90d","dev_posts_last_180d","dev_engagement_trend","days_since_dev_post","build_to_post_ratio","dev_previous_ea_count","dev_has_prior_success","dev_total_games_shipped","review_count_at_T","review_score_at_T","review_score_last_30d","review_score_last_90d","review_score_last_180d","review_score_delta_30d","review_velocity_30d","review_velocity_90d","review_velocity_180d","review_velocity_trend","initial_price_usd","current_price_at_T","discount_count_to_date","max_discount_ever_pct","early_deep_discount_flag","discount_frequency","price_trend_encoded","price_vs_genre_median","ea_age_days","ea_age_lt_180d","owner_estimate_at_T","genre_scope","review_update_divergence","l1_composite_score","l1_update_health_score","l1_player_retention_score","l1_dev_engagement_score","l1_sentiment_score","l1_price_market_score","l1_state_encoded","genre_Action","genre_Adventure","genre_Casual","genre_Massively Multiplayer","genre_RPG","genre_Racing","genre_Simulation","genre_Sports","genre_Strategy","genre_Survival","genre_Visual Novel"],"feature_types":["int","int","int","int","float","float","int","int","float","float","float","float","float","float","float","float","float","float","float","float","float","float","float","float","float","float","int","int","int","float","int","float","float","float","int","int","float","float","float","float","float","float","float","float","float","float","float","int","float","int","float","float","float","int","int","int","float","float","float","float","float","float","float","float","int","float","float","float","float","float","float","float","float","float","float","float"],"gradient_booster":{"model":{"cats":{"enc":[],"feature_segments":[],"sorted_idx":[]},"gbtree_model_param":{"num_parallel_tree":"1","num_trees":"99"},"iteration_indptr":[0,1,2,3,4,5,6,7,8,9,10,11,12,13,14,15,16,17,18,19,20,21,22,23,24,25,26,27,28,29,30,31,32,33,34,35,36,37,38,39,40,41,42,43,44,45,46,47,48,49,50,51,52,53,54,55,56,57,58,59,60,61,62,63,64,65,66,67,68,69,70,71,72,73,74,75,76,77,78,79,80,81,82,83,84,85,86,87,88,89,90,91,92,93,94,95,96,97,98,99],"tree_info":[0,0,0,0,0,0,0,0,0,0,0,0,0,0,0,0,0,0,0,0,0,0,0,0,0,0,0,0,0,0,0,0,0,0,0,0,0,0,0,0,0,0,0,0,0,0,0,0,0,0,0,0,0,0,0,0,0,0,0,0,0,0,0,0,0,0,0,0,0,0,0,0,0,0,0,0,0,0,0,0,0,0,0,0,0,0,0,0,0,0,0,0,0,0,0,0,0,0,0],"trees":[{"base_weights":[3.1125925E-2,-7.0056224E-1,8.6486524E-1,-1.3557178E0,-7.017255E-2,1.054964E0,-5.8151126E-2,-3.61457E-1,-1.5573568E0,2.868738E-1,-9.461729E-1,1.248938E0,4.410908E-1,7.498174E-1,-8.636545E-1,5.233846E-1,-1.1061646E0,-8.392913E-1,-1.816313E0,-8.191131E-1,6.26021E-1,-1.2985457E0,2.6886585E-1,-6.349745E-3,1.3047875E0,1.1536272E0,4.8615318E-2,-1.107088E-1,1.3883641E0,6.1296057E-3,-1.1243578E0,1.265569E0,-1.0520966E-2,-2.4489585E-2,1.4836078E-2,-1.5198221E0,-2.0322017E-1,-1.8960229E0,1.9820107E-3,-1.2069917E0,1.1431524E-2,2.7214578E-1,1.3971678E0,-7.141227E-1,-1.6494602E0,1.759797E-2,-1.9665264E-2,1.5641557E0,1.0672157E0,4.3080975E-3,1.7231915E-2,-5.1114565E-1,7.8544194E-1,9.87534E-3,-1.5706575E-2,7.209273E-3,2.0628775E-2,-5.7821906E-1,-2.4489515E-2,2.4474898E-2,6.1296057E-3,-2.448958E-2,-9.595478E-3,4.517974E-3,-2.055259E-2,-2.382303E-2,-8.538167E-3,-4.788795E-3,-2.44896E-2,7.94993E-3,-6.3986965E-3,2.3478536E-4,2.0584358E-2,8.3177263E-4,-1.50123965E-2,-1.5274735E-2,-2.4489615E-2,2.3227807E-2,1.7778153E-2,1.584036E-2,2.6462993E-3,2.081257E-3,-2.4489457E-2,1.5072411E-2,-3.266453E-3,-2.0927027E-2,3.995377E-3],"categories":[],"categories_nodes":[],"categories_segments":[],"categories_sizes":[],"default_left":[0,0,1,0,0,0,1,0,0,0,0,0,0,0,0,0,0,0,0,0,0,0,0,0,1,0,1,0,0,0,0,1,0,0,0,0,0,0,0,0,0,1,0,0,0,0,0,0,0,0,0,0,1,0,0,0,0,1,0,0,0,0,0,0,0,0,0,0,0,0,0,0,0,0,0,0,0,0,0,0,0,0,0,0,0,0,0],"id":0,"left_children":[1,3,5,7,9,11,13,15,17,19,21,23,25,27,29,31,33,35,37,39,41,43,45,-1,47,49,51,53,55,-1,57,59,-1,-1,-1,61,63,65,-1,67,-1,69,71,73,75,-1,-1,77,79,-1,-1,81,83,-1,-1,-1,-1,85,-1,-1,-1,-1,-1,-1,-1,-1,-1,-1,-1,-1,-1,-1,-1,-1,-1,-1,-1,-1,-1,-1,-1,-1,-1,-1,-1,-1,-1],"loss_changes":[6.982791E2,2.5178079E2,9.387628E1,5.9932373E1,9.717557E1,5.282672E1,5.9465588E1,3.3214478E1,4.621454E1,8.27922E1,3.8518555E1,3.3281555E1,2.9789644E1,2.5065231E1,1.6275253E1,2.3641628E1,5.6747868E1,2.8514488E1,2.8803955E1,3.522079E1,4.6097343E1,1.43016815E1,4.4328033E1,0E0,2.0135803E1,7.7055855E0,2.8331059E1,2.08985E1,6.2125053E0,0E0,1.8381893E1,8.412155E0,0E0,0E0,0E0,1.1259132E1,2.8757603E1,1.0541748E1,0E0,2.7458508E1,0E0,3.4724503E1,2.0821693E1,1.0482477E1,6.1441727E0,0E0,0E0,5.8236084E0,3.2920242E1,0E0,0E0,3.9603024E1,1.3912701E1,0E0,0E0,0E0,0E0,2.42192E1,0E0,0E0,0E0,0E0,0E0,0E0,0E0,0E0,0E0,0E0,0E0,0E0,0E0,0E0,0E0,0E0,0E0,0E0,0E0,0E0,0E0,0E0,0E0,0E0,0E0,0E0,0E0,0E0,0E0],"parents":[2147483647,0,0,1,1,2,2,3,3,4,4,5,5,6,6,7,7,8,8,9,9,10,10,11,11,12,12,13,13,14,14,15,15,16,16,17,17,18,18,19,19,20,20,21,21,22,22,24,24,25,25,26,26,27,27,28,28,30,30,31,31,35,35,36,36,37,37,39,39,41,41,42,42,43,43,44,44,47,47,48,48,51,51,52,52,57,57],"right_children":[2,4,6,8,10,12,14,16,18,20,22,24,26,28,30,32,34,36,38,40,42,44,46,-1,48,50,52,54,56,-1,58,60,-1,-1,-1,62,64,66,-1,68,-1,70,72,74,76,-1,-1,78,80,-1,-1,82,84,-1,-1,-1,-1,86,-1,-1,-1,-1,-1,-1,-1,-1,-1,-1,-1,-1,-1,-1,-1,-1,-1,-1,-1,-1,-1,-1,-1,-1,-1,-1,-1,-1,-1],"split_conditions":[7E1,5.75E2,8.72E-2,7.06E-1,6.55772E-1,4.10018E-1,7.1408147E-1,5.44207E-1,7.5E1,3.5E1,4.4155E2,4E0,6.324E-1,1.072E1,7.5E1,2.1533E2,2.0010011E0,7.3E1,9.16E1,1E0,3.2222E0,6.78676E-1,4.6667E0,-6.349745E-3,1.2563218E1,5.652E-1,1.3333E0,5.3333E0,5.3E1,6.1296057E-3,1E0,5.997332E-1,-1.0520966E-2,-2.4489585E-2,1.4836078E-2,2.6E1,9.184E-1,2.0843E4,1.9820107E-3,8.704E-1,1.1431524E-2,7.35E-1,2.5E0,1.136E2,8.29497E-1,1.759797E-2,-1.9665264E-2,2.505E1,8.986E-1,4.3080975E-3,1.7231915E-2,7.6E1,9E-1,9.87534E-3,-1.5706575E-2,7.209273E-3,2.0628775E-2,1.5E1,-2.4489515E-2,2.4474898E-2,6.1296057E-3,-2.448958E-2,-9.595478E-3,4.517974E-3,-2.055259E-2,-2.382303E-2,-8.538167E-3,-4.788795E-3,-2.44896E-2,7.94993E-3,-6.3986965E-3,2.3478536E-4,2.0584358E-2,8.3177263E-4,-1.50123965E-2,-1.5274735E-2,-2.4489615E-2,2.3227807E-2,1.7778153E-2,1.584036E-2,2.6462993E-3,2.081257E-3,-2.4489457E-2,1.5072411E-2,-3.266453E-3,-2.0927027E-2,3.995377E-3],"split_indices":[0,24,19,39,58,61,52,58,17,35,50,35,39,15,17,10,52,35,4,65,8,58,31,0,4,36,31,31,30,0,7,52,0,0,0,31,39,35,0,39,0,50,31,10,59,0,0,10,36,0,0,35,38,0,0,0,0,4,0,0,0,0,0,0,0,0,0,0,0,0,0,0,0,0,0,0,0,0,0,0,0,0,0,0,0,0,0],"split_type":[0,0,0,0,0,0,0,0,0,0,0,0,0,0,0,0,0,0,0,0,0,0,0,0,0,0,0,0,0,0,0,0,0,0,0,0,0,0,0,0,0,0,0,0,0,0,0,0,0,0,0,0,0,0,0,0,0,0,0,0,0,0,0,0,0,0,0,0,0,0,0,0,0,0,0,0,0,0,0,0,0,0,0,0,0,0,0],"sum_hessian":[1.1446499E3,6.0963495E2,5.3501495E2,2.9894498E2,3.1068997E2,4.4364496E2,9.1369995E1,5.0404995E1,2.4853998E2,2.2072498E2,8.9965E1,3.3711996E2,1.06524994E2,4.5614998E1,4.5754997E1,2.3034998E1,2.7369999E1,6.587499E1,1.82665E2,5.1799995E1,1.6892499E2,6.974E1,2.0224998E1,1.0324999E1,3.2679498E2,3.7834995E1,6.8689995E1,1.9429998E1,2.6184998E1,7.339999E0,3.8414997E1,1.4989999E1,8.044999E0,1.9749998E1,7.6199994E0,3.1824999E1,3.405E1,1.7559E2,7.0749993E0,4.2414997E1,9.384999E0,1.1578999E2,5.3134995E1,2.6164999E1,4.3574997E1,1.2459999E1,7.7649994E0,1.5622998E2,1.7056499E2,9.105E0,2.8729998E1,3.9034996E1,2.9654997E1,1.0899999E1,8.53E0,7.089999E0,1.9094997E1,2.3664999E1,1.4749999E1,7.649999E0,7.339999E0,1.9249998E1,1.2574999E1,2.4534998E1,9.514999E0,1.6854498E2,7.0449996E0,2.0914999E1,2.1499998E1,7.852E1,3.7269997E1,9.089999E0,4.4044994E1,1.0355E1,1.58099985E1,2.0324999E1,2.3249998E1,3.9249996E1,1.1697999E2,1.3467499E2,3.5889996E1,2.6784998E1,1.2249999E1,2.0829998E1,8.824999E0,1.0514999E1,1.3149999E1],"tree_param":{"num_deleted":"0","num_feature":"76","num_nodes":"87","size_leaf_vector":"1"}},{"base_weights":[7.3100097E-4,7.443392E-1,-8.1746095E-1,-2.564477E-1,9.7037566E-1,1.6345088E-1,-1.1003497E0,1.1185949E0,-5.961601E-1,1.1161741E0,-2.3871476E-3,4.3596876E-1,-1.1182271E0,-6.5115774E-1,-1.7471163E0,2.438024E-3,2.078244E-2,-9.378249E-1,5.000844E-1,1.2593634E0,5.3607976E-1,7.6794636E-1,-9.2237E-1,9.1076833E-1,-3.1832826E-1,-2.4257952E-2,-1.6048063E-3,-4.1228428E-1,-1.5242993E0,-1.8111101E0,-3.2035133E-3,-1.2185166E0,1.6130403E-2,-9.603451E-3,1.5103695E-2,1.4263874E0,7.0405847E-1,1.5300344E0,-2.6844373E-1,-2.7597172E-3,1.3118353E0,4.048865E-3,-2.430609E-2,1.2922713E0,1.8512633E-1,-7.953297E-1,1.9565884E-2,-1.262795E0,-1.434433E-1,-5.2463645E-3,-2.1720864E-2,-1.8777684E0,-1.1897922E-2,-1.8745976E-2,-7.7315536E-4,2.1271423E-2,1.5294848E-2,-1.7605333E-3,1.3902262E-2,2.224943E-2,5.023444E-3,3.3795938E-3,-2.4429176E-2,9.0296855E-3,2.3208981E-2,6.413277E-3,1.934814E-2,-5.584656E-3,1.7543418E-2,-3.2118766E-3,-2.4281282E-2,2.0901135E-3,-1.861435E-2,4.4259365E-4,-2.179821E-2,-1.35553E-2,-2.3444196E-2],"categories":[],"categories_nodes":[],"categories_segments":[],"categories_sizes":[],"default_left":[1,0,0,0,1,0,1,1,0,0,0,0,0,0,0,0,0,1,0,0,1,0,0,0,0,0,0,0,0,0,0,0,0,0,0,1,1,0,1,0,0,0,0,0,0,1,0,0,1,0,0,0,0,0,0,0,0,0,0,0,0,0,0,0,0,0,0,0,0,0,0,0,0,0,0,0,0],"id":1,"left_children":[1,3,5,7,9,11,13,15,17,19,21,23,25,27,29,-1,-1,31,33,35,37,39,41,43,45,-1,-1,47,49,51,-1,53,-1,-1,-1,55,57,59,61,-1,63,-1,-1,65,67,69,-1,71,73,-1,-1,75,-1,-1,-1,-1,-1,-1,-1,-1,-1,-1,-1,-1,-1,-1,-1,-1,-1,-1,-1,-1,-1,-1,-1,-1,-1],"loss_changes":[6.8658716E2,1.337356E2,1.4909436E2,5.0880062E1,6.839877E1,4.200709E1,1.2115552E2,1.1489565E1,3.2714928E1,3.4836548E1,4.454884E1,3.5520584E1,1.7972801E1,5.132959E1,1.624701E1,0E0,0E0,4.2159122E1,1.9562143E1,3.1197815E1,6.639661E1,1.8485228E1,3.816897E1,1.6849667E1,3.5027733E1,0E0,0E0,4.4184097E1,1.4486145E1,9.1651E0,0E0,2.1405418E1,0E0,0E0,0E0,1.4242432E1,2.8465263E1,1.1957138E1,4.3158012E1,0E0,7.4142876E0,0E0,0E0,8.836159E0,1.6787914E1,1.9426716E1,0E0,1.7153938E1,4.3175613E1,0E0,0E0,4.373535E0,0E0,0E0,0E0,0E0,0E0,0E0,0E0,0E0,0E0,0E0,0E0,0E0,0E0,0E0,0E0,0E0,0E0,0E0,0E0,0E0,0E0,0E0,0E0,0E0,0E0],"parents":[2147483647,0,0,1,1,2,2,3,3,4,4,5,5,6,6,7,7,8,8,9,9,10,10,11,11,12,12,13,13,14,14,17,17,18,18,19,19,20,20,21,21,22,22,23,23,24,24,27,27,28,28,29,29,31,31,35,35,36,36,37,37,38,38,40,40,43,43,44,44,45,45,47,47,48,48,51,51],"right_children":[2,4,6,8,10,12,14,16,18,20,22,24,26,28,30,-1,-1,32,34,36,38,40,42,44,46,-1,-1,48,50,52,-1,54,-1,-1,-1,56,58,60,62,-1,64,-1,-1,66,68,70,-1,72,74,-1,-1,76,-1,-1,-1,-1,-1,-1,-1,-1,-1,-1,-1,-1,-1,-1,-1,-1,-1,-1,-1,-1,-1,-1,-1,-1,-1],"split_conditions":[3.04E-1,6.9E1,6.981E-1,7E0,8.34E-2,8.32466E-1,7.3E1,1.6067E2,2.5862E0,9.212E-1,8.526E-1,2.2077E2,1.13E2,1.5E1,7.1E1,2.438024E-3,2.078244E-2,6.9327E2,1.05E2,3.25342E-1,5.857E1,9.433E-1,4.93E0,6.844E-1,2.0010011E0,-2.4257952E-2,-1.6048063E-3,3.5E1,3.84E0,1.4203E4,-3.2035133E-3,2.0010011E0,1.6130403E-2,-9.603451E-3,1.5103695E-2,2.36E-1,2E-1,7E0,3.45E1,-2.7597172E-3,7.94E-2,4.048865E-3,-2.430609E-2,1.8E2,3.2931034E1,2.14E-2,1.9565884E-2,3.49E0,1.023E0,-5.2463645E-3,-2.1720864E-2,1.048E-1,-1.1897922E-2,-1.8745976E-2,-7.7315536E-4,2.1271423E-2,1.5294848E-2,-1.7605333E-3,1.3902262E-2,2.224943E-2,5.023444E-3,3.3795938E-3,-2.4429176E-2,9.0296855E-3,2.3208981E-2,6.413277E-3,1.934814E-2,-5.584656E-3,1.7543418E-2,-3.2118766E-3,-2.4281282E-2,2.0901135E-3,-1.861435E-2,4.4259365E-4,-2.179821E-2,-1.35553E-2,-2.3444196E-2],"split_indices":[11,30,39,45,19,59,17,10,31,36,36,10,30,3,4,0,0,10,35,61,10,20,15,36,52,0,0,35,13,17,0,52,0,0,0,50,31,45,4,0,18,0,0,53,4,18,0,45,50,0,0,19,0,0,0,0,0,0,0,0,0,0,0,0,0,0,0,0,0,0,0,0,0,0,0,0,0],"split_type":[0,0,0,0,0,0,0,0,0,0,0,0,0,0,0,0,0,0,0,0,0,0,0,0,0,0,0,0,0,0,0,0,0,0,0,0,0,0,0,0,0,0,0,0,0,0,0,0,0,0,0,0,0,0,0,0,0,0,0,0,0,0,0,0,0,0,0,0,0,0,0,0,0,0,0,0,0],"sum_hessian":[1.1284863E3,5.911888E2,5.3729755E2,1.0892348E2,4.8226532E2,1.20268234E2,4.170293E2,2.1578783E1,8.734469E1,4.1940488E2,6.2860424E1,9.9180214E1,2.108802E1,2.4610509E2,1.7092421E2,8.339551E0,1.3239232E1,6.659075E1,2.0753937E1,3.3637436E2,8.303054E1,3.4212643E1,2.8647781E1,6.0867195E1,3.831302E1,1.1248698E1,9.839322E0,1.9323923E2,5.2865868E1,1.6386449E2,7.059718E0,5.9221066E1,7.369687E0,7.544703E0,1.3209234E1,2.5859412E2,7.7780235E1,3.7142704E1,4.5887836E1,1.2104221E1,2.2108423E1,1.3149348E1,1.5498434E1,3.9893124E1,2.0974075E1,3.0678314E1,7.6347055E0,4.6411053E1,1.4682817E2,9.824296E0,4.304157E1,1.5180551E2,1.205897E1,4.6601707E1,1.2619357E1,9.371751E1,1.648766E2,2.6238035E1,5.15422E1,2.9553047E1,7.5896573E0,3.4888493E1,1.0999344E1,1.114923E1,1.0959193E1,1.088446E1,2.9008661E1,1.38542385E1,7.119837E0,2.1179176E1,9.499137E0,7.0744915E0,3.9336563E1,1.3231387E2,1.4514294E1,7.029075E0,1.4477644E2],"tree_param":{"num_deleted":"0","num_feature":"76","num_nodes":"77","size_leaf_vector":"1"}},{"base_weights":[1.6197534E-2,6.875376E-1,-9.799565E-1,-1.1675546E-1,1.0163263E0,-4.2747733E-1,-1.558642E0,4.726183E-1,-9.4637704E-1,1.177757E0,1.9635291E-1,3.6961728E-1,-7.37153E-1,7.5058844E-3,-1.6912596E0,7.224401E-1,-1.6337788E-2,1.1447343E-2,-1.2499473E0,-1.4486628E-2,1.2225676E0,9.671791E-1,-4.7448838E-1,1.4079858E0,-1.6584031E-1,-1.0375649E0,6.282566E-2,-1.2300409E0,-1.8643034E0,8.8192326E-1,-1.1757773E-2,-1.4337815E0,-9.497239E-4,6.3436484E-1,1.3647665E0,-3.2013939E-3,1.2565199E0,1.0146203E-2,-1.0432445E0,9.590447E-3,2.3286177E-2,-7.855019E-1,1.578068E-2,-7.645617E-1,-1.7099068E0,-1.777041E-2,5.8085686E-1,-2.493289E-1,-1.6621696E0,-8.315023E-3,-2.3517868E-2,1.7318616E-2,5.648695E-3,-1.1047317E-2,-2.1301873E-2,2.0427419E-2,-1.7254715E-3,1.3264138E-2,1.9705025E-2,5.107118E-3,1.8863719E-2,-4.0867543E-3,-2.1517245E-2,-1.8231794E-2,3.8278466E-3,-1.7634256E-2,-4.143358E-3,-2.4072418E-2,-1.3484984E-2,-7.4012936E-3,1.628694E-2,-1.5875991E-2,1.0379785E-2,-2.4105014E-2,-1.358461E-2],"categories":[],"categories_nodes":[],"categories_segments":[],"categories_sizes":[],"default_left":[1,0,1,1,1,0,1,0,0,0,1,0,0,0,0,1,0,0,1,0,0,1,0,0,0,0,0,1,1,0,0,1,0,0,1,0,0,0,0,0,0,0,0,0,0,0,0,0,0,0,0,0,0,0,0,0,0,0,0,0,0,0,0,0,0,0,0,0,0,0,0,0,0,0,0],"id":2,"left_children":[1,3,5,7,9,11,13,15,17,19,21,23,25,-1,27,29,-1,-1,31,-1,33,35,37,39,41,43,45,47,49,51,-1,53,-1,55,57,-1,59,-1,61,-1,-1,63,-1,65,67,-1,69,71,73,-1,-1,-1,-1,-1,-1,-1,-1,-1,-1,-1,-1,-1,-1,-1,-1,-1,-1,-1,-1,-1,-1,-1,-1,-1,-1],"loss_changes":[7.6305615E2,1.8025266E2,1.4686633E2,9.6711105E1,6.4045166E1,5.800971E1,6.4621704E1,5.220993E1,4.692286E1,4.27724E1,4.1154884E1,3.6560482E1,4.067569E1,0E0,1.6875305E1,2.7268162E1,0E0,0E0,1.5245117E1,0E0,3.318213E1,1.3166424E1,3.1543993E1,6.9051857E0,3.911392E1,2.2584534E1,3.6251495E1,2.4448303E1,1.0364746E1,2.0791435E1,0E0,9.953476E0,0E0,6.1941948E1,2.2006287E1,0E0,7.156311E0,0E0,1.501561E1,0E0,0E0,2.3518917E1,0E0,2.5205833E1,5.545204E0,0E0,3.0597229E1,2.0283144E1,6.790222E0,0E0,0E0,0E0,0E0,0E0,0E0,0E0,0E0,0E0,0E0,0E0,0E0,0E0,0E0,0E0,0E0,0E0,0E0,0E0,0E0,0E0,0E0,0E0,0E0,0E0,0E0],"parents":[2147483647,0,0,1,1,2,2,3,3,4,4,5,5,6,6,7,7,8,8,9,9,10,10,11,11,12,12,14,14,15,15,18,18,20,20,21,21,22,22,23,23,24,24,25,25,26,26,27,27,28,28,29,29,31,31,33,33,34,34,36,36,38,38,41,41,43,43,44,44,46,46,47,47,48,48],"right_children":[2,4,6,8,10,12,14,16,18,20,22,24,26,-1,28,30,-1,-1,32,-1,34,36,38,40,42,44,46,48,50,52,-1,54,-1,56,58,-1,60,-1,62,-1,-1,64,-1,66,68,-1,70,72,74,-1,-1,-1,-1,-1,-1,-1,-1,-1,-1,-1,-1,-1,-1,-1,-1,-1,-1,-1,-1,-1,-1,-1,-1,-1,-1],"split_conditions":[6.03728E-1,0E0,1.54E0,5E0,9.36E-2,7.26E-1,3.333E-1,5.7668E-1,5.49E0,1.918E-1,7.1408147E-1,1.0362E2,8.54135E-1,7.5058844E-3,7.561E-1,8.819E-1,-1.6337788E-2,1.1447343E-2,6.9E1,-1.4486628E-2,9.25E2,5.2859E-1,7.5E1,3.8E1,3.52E2,8.39054E-1,1.1428572E1,5E-1,1.99E0,1.0128E2,-1.1757773E-2,-1.3925E1,-9.497239E-4,9.37E0,7.2554E-1,-3.2013939E-3,1.22E2,1.0146203E-2,1E0,9.590447E-3,2.3286177E-2,2.388E-1,1.578068E-2,3E0,5.9E1,-1.777041E-2,1.025E3,7.333E-1,8.17851E-1,-8.315023E-3,-2.3517868E-2,1.7318616E-2,5.648695E-3,-1.1047317E-2,-2.1301873E-2,2.0427419E-2,-1.7254715E-3,1.3264138E-2,1.9705025E-2,5.107118E-3,1.8863719E-2,-4.0867543E-3,-2.1517245E-2,-1.8231794E-2,3.8278466E-3,-1.7634256E-2,-4.143358E-3,-2.4072418E-2,-1.3484984E-2,-7.4012936E-3,1.628694E-2,-1.5875991E-2,1.0379785E-2,-2.4105014E-2,-1.358461E-2],"split_indices":[59,51,16,24,19,36,37,58,45,31,52,10,63,0,37,57,0,0,4,0,55,63,17,6,53,59,4,31,46,10,0,21,0,46,63,0,10,0,7,0,0,57,0,41,6,0,55,44,62,0,0,0,0,0,0,0,0,0,0,0,0,0,0,0,0,0,0,0,0,0,0,0,0,0,0],"split_type":[0,0,0,0,0,0,0,0,0,0,0,0,0,0,0,0,0,0,0,0,0,0,0,0,0,0,0,0,0,0,0,0,0,0,0,0,0,0,0,0,0,0,0,0,0,0,0,0,0,0,0,0,0,0,0,0,0,0,0,0,0,0,0,0,0,0,0,0,0,0,0,0,0,0,0],"sum_hessian":[1.1410049E3,6.816317E2,4.593731E2,1.977902E2,4.8384152E2,2.350081E2,2.2436499E2,1.1563865E2,8.2151566E1,4.042543E2,7.958722E1,6.575526E1,1.6925285E2,1.2911887E1,2.114531E2,1.01595116E2,1.4043532E1,1.1413016E1,7.073855E1,7.528925E0,3.9672537E2,3.7034E1,4.255322E1,2.2371895E1,4.338336E1,1.23046295E2,4.620655E1,5.7690598E1,1.537625E2,9.280106E1,8.794058E0,6.1149616E1,9.58893E0,7.723731E1,3.1948807E2,7.0585055E0,2.9975496E1,1.2927808E1,2.9625412E1,9.8839035E0,1.2487991E1,3.0425581E1,1.2957782E1,8.75125E1,3.55338E1,1.1776491E1,3.443006E1,1.7645363E1,4.0045235E1,7.0433145E0,1.467192E2,4.0930977E1,5.1870083E1,2.2365343E1,3.878427E1,3.3090824E1,4.4146484E1,1.4873567E2,1.707524E2,7.5881376E0,2.238736E1,1.486618E1,1.4759232E1,1.8541899E1,1.1883681E1,3.3833946E1,5.3678555E1,2.4991758E1,1.054204E1,1.3337561E1,2.1092499E1,9.027143E0,8.61822E0,2.5740686E1,1.4304549E1],"tree_param":{"num_deleted":"0","num_feature":"76","num_nodes":"75","size_leaf_vector":"1"}},{"base_weights":[4.722327E-3,7.7726454E-1,-7.5238514E-1,9.911714E-1,-4.4561397E-2,-3.5000563E-1,-1.4191518E0,1.1979055E0,4.2875612E-1,3.0717504E-1,-1.4490656E0,-1.873722E-1,-1.5967404E0,1.6549828E-2,-1.5649421E0,1.3745694E0,6.113418E-1,1.234863E0,8.128338E-2,4.761226E-1,-1.9226871E-2,-2.1778945E-2,-8.266311E-3,-6.154365E-1,2.4622591E-1,-2.1849189E-2,-8.178442E-3,-3.1240088E-1,-1.6739229E0,1.4676595E0,7.5016236E-1,9.243246E-1,-1.2484927E-2,1.9480938E-2,7.117266E-3,1.1947647E0,-3.0465528E-1,7.260981E-1,-6.3457763E-1,-1.2431902E0,-1.0952712E-1,4.0156743E-1,-1.068812E0,9.528674E-3,-1.9084323E-2,-1.7443879E0,1.9459479E-3,1.997419E-2,1.458125E-2,1.4785322E-2,-3.0645137E-3,1.7102059E-2,-2.015915E-4,7.8950427E-4,2.1604678E-2,-2.4342157E-2,-5.157451E-4,-1.7413163E-3,1.2582206E-2,-2.4073789E-2,1.2306748E-2,3.3713508E-4,-1.7466303E-2,1.4022331E-2,-4.311783E-3,1.001774E-2,-3.7434118E-4,-3.1153862E-3,-2.0290518E-2,-9.4513E-3,-2.2059511E-2],"categories":[],"categories_nodes":[],"categories_segments":[],"categories_sizes":[],"default_left":[1,1,1,1,0,1,0,0,0,0,0,0,0,0,0,0,0,0,0,0,0,0,0,1,0,0,0,0,0,1,0,1,0,0,0,1,0,0,1,1,0,0,0,0,0,0,0,0,0,0,0,0,0,0,0,0,0,0,0,0,0,0,0,0,0,0,0,0,0,0,0],"id":3,"left_children":[1,3,5,7,9,11,13,15,17,19,21,23,25,-1,27,29,31,33,35,37,-1,-1,-1,39,41,-1,-1,43,45,47,49,51,-1,-1,-1,53,55,57,59,61,63,65,67,-1,-1,69,-1,-1,-1,-1,-1,-1,-1,-1,-1,-1,-1,-1,-1,-1,-1,-1,-1,-1,-1,-1,-1,-1,-1,-1,-1],"loss_changes":[6.727621E2,1.0008145E2,1.558547E2,5.25224E1,5.808534E1,7.345638E1,8.832715E1,3.4227936E1,3.4008766E1,2.9830784E1,6.013527E0,5.9483448E1,7.3029327E0,0E0,2.835141E1,1.4754944E1,3.9035583E1,8.520119E0,3.6461468E1,2.3952063E1,0E0,0E0,0E0,5.1216335E1,3.2523155E1,0E0,0E0,2.2607693E1,2.4679016E1,1.0019867E1,1.5081566E1,2.853188E1,0E0,0E0,0E0,1.407247E1,2.7851902E1,1.8451847E1,3.46198E1,1.6794907E1,2.7200851E1,2.5646677E1,8.063051E0,0E0,0E0,1.0316345E1,0E0,0E0,0E0,0E0,0E0,0E0,0E0,0E0,0E0,0E0,0E0,0E0,0E0,0E0,0E0,0E0,0E0,0E0,0E0,0E0,0E0,0E0,0E0,0E0,0E0],"parents":[2147483647,0,0,1,1,2,2,3,3,4,4,5,5,6,6,7,7,8,8,9,9,10,10,11,11,12,12,14,14,15,15,16,16,17,17,18,18,19,19,23,23,24,24,27,27,28,28,29,29,30,30,31,31,35,35,36,36,37,37,38,38,39,39,40,40,41,41,42,42,45,45],"right_children":[2,4,6,8,10,12,14,16,18,20,22,24,26,-1,28,30,32,34,36,38,-1,-1,-1,40,42,-1,-1,44,46,48,50,52,-1,-1,-1,54,56,58,60,62,64,66,68,-1,-1,70,-1,-1,-1,-1,-1,-1,-1,-1,-1,-1,-1,-1,-1,-1,-1,-1,-1,-1,-1,-1,-1,-1,-1,-1,-1],"split_conditions":[7.69E-2,2.5E-3,4.79E0,3.25342E-1,5.45415E-1,1.008E0,3.333E-1,9.038E-1,7E0,9.429E-1,1.041E-1,3E1,4.4784E2,1.6549828E-2,5.49E0,2.78E2,9E0,3E1,6.768E-1,1.9E1,-1.9226871E-2,-2.1778945E-2,-8.266311E-3,1.9285326E1,9.703E-1,-2.1849189E-2,-8.178442E-3,8.497E-1,8.4E1,5.39E-1,1.376E2,9.327E1,-1.2484927E-2,1.9480938E-2,7.117266E-3,1.18E1,4.9E1,1.1775E2,3.9748E2,6.587E-1,6.364E-1,1.476E2,1E0,9.528674E-3,-1.9084323E-2,-1.6057E2,1.9459479E-3,1.997419E-2,1.458125E-2,1.4785322E-2,-3.0645137E-3,1.7102059E-2,-2.015915E-4,7.8950427E-4,2.1604678E-2,-2.4342157E-2,-5.157451E-4,-1.7413163E-3,1.2582206E-2,-2.4073789E-2,1.2306748E-2,3.3713508E-4,-1.7466303E-2,1.4022331E-2,-4.311783E-3,1.001774E-2,-3.7434118E-4,-3.1153862E-3,-2.0290518E-2,-9.4513E-3,-2.2059511E-2],"split_indices":[8,18,13,61,59,50,37,36,45,36,18,0,10,0,45,0,47,43,36,47,0,0,0,5,36,0,0,38,4,50,10,10,0,0,0,4,6,10,10,36,36,10,47,0,0,21,0,0,0,0,0,0,0,0,0,0,0,0,0,0,0,0,0,0,0,0,0,0,0,0,0],"split_type":[0,0,0,0,0,0,0,0,0,0,0,0,0,0,0,0,0,0,0,0,0,0,0,0,0,0,0,0,0,0,0,0,0,0,0,0,0,0,0,0,0,0,0,0,0,0,0,0,0,0,0,0,0,0,0,0,0,0,0,0,0,0,0,0,0,0,0,0,0,0,0],"sum_hessian":[1.1502223E3,5.693082E2,5.80914E2,4.51731E2,1.1757726E2,3.6228387E2,2.1863014E2,3.3031302E2,1.2141796E2,9.402894E1,2.3548326E1,3.2047852E2,4.1805355E1,1.092727E1,2.0770287E2,2.5385524E2,7.6457794E1,3.6572334E1,8.484563E1,8.626765E1,7.7612853E0,1.6506706E1,7.0416203E0,1.6126874E2,1.5920978E2,3.4762444E1,7.042912E0,1.6625463E1,1.9107741E2,2.209189E2,3.293634E1,6.4149734E1,1.2308056E1,2.3661306E1,1.291103E1,2.1838797E1,6.300683E1,7.041929E1,1.5848358E1,7.196762E1,8.930111E1,1.4238992E2,1.681985E1,8.866697E0,7.7587667E0,1.840036E2,7.073802E0,1.3865648E2,8.226242E1,2.259915E1,1.0337193E1,4.2695404E1,2.1454332E1,7.322605E0,1.45161915E1,8.497996E0,5.4508835E1,1.8159786E1,5.2259506E1,8.745244E0,7.103114E0,9.0871E0,6.288052E1,1.4470952E1,7.483016E1,7.2483444E1,6.990649E1,7.0580187E0,9.761832E0,1.0302579E1,1.7370102E2],"tree_param":{"num_deleted":"0","num_feature":"76","num_nodes":"71","size_leaf_vector":"1"}},{"base_weights":[-3.9494723E-2,6.9604945E-1,-8.798196E-1,9.041313E-1,-1.6597332E-1,-4.6197826E-1,-1.4724549E0,1.1045567E0,1.21770084E-1,1.0242633E0,-5.236042E-1,-6.7220914E-1,6.4170307E-1,-1.601754E0,6.204611E-3,1.2457411E0,4.7352028E-1,-1.1434076E0,6.5962064E-1,1.4744503E0,-3.1482454E-3,5.834775E-1,-1.0915612E0,7.1062356E-1,-8.704961E-1,1.2361401E0,-2.3931589E-2,-5.453801E-4,-1.6634315E0,-3.4505497E-3,1.289536E0,7.959826E-1,-1.2520057E-2,-2.1947002E-2,-1.2132524E-3,1.1128259E0,-3.9658427E-1,2.402905E-2,8.730474E-3,-1.0894943E-2,1.1305232E0,-1.555657E0,6.2528127E-3,1.4612026E0,-8.056599E-3,1.7432824E-1,-1.0722048E0,2.3522577E-3,1.5077428E0,-1.7558057E0,-6.5644383E-1,1.6928295E-2,9.544629E-3,1.4849726E-2,1.1507162E-3,6.1625455E-5,1.8109469E-2,4.3151435E-3,-1.3872152E-2,2.4141144E-2,7.6142694E-3,-2.2828631E-2,-2.9594703E-3,2.2313075E-2,1.0025471E-2,-4.246442E-3,1.8319083E-2,-1.594731E-2,-1.9760977E-3,9.396968E-3,2.2496695E-2,-2.2429273E-2,-5.1901164E-3,5.623439E-3,-2.3653248E-2],"categories":[],"categories_nodes":[],"categories_segments":[],"categories_sizes":[],"default_left":[0,1,1,1,0,0,0,0,0,0,0,0,0,0,0,0,1,0,0,1,0,0,1,0,0,1,0,0,0,0,0,0,0,0,0,0,1,0,0,0,1,0,0,0,0,0,0,0,0,0,0,0,0,0,0,0,0,0,0,0,0,0,0,0,0,0,0,0,0,0,0,0,0,0,0],"id":4,"left_children":[1,3,5,7,9,11,13,15,17,19,21,23,25,27,-1,29,31,33,35,37,-1,39,41,43,45,47,-1,-1,49,-1,51,53,-1,-1,-1,55,57,-1,-1,-1,59,61,-1,63,-1,65,67,-1,69,71,73,-1,-1,-1,-1,-1,-1,-1,-1,-1,-1,-1,-1,-1,-1,-1,-1,-1,-1,-1,-1,-1,-1,-1,-1],"loss_changes":[7.002547E2,1.08362976E2,1.3094406E2,7.6309326E1,5.0003532E1,7.195997E1,5.596109E1,3.4514496E1,6.75347E1,1.5657988E1,5.679769E1,7.1431915E1,7.659553E1,1.971289E1,0E0,2.1179901E1,3.417511E1,2.007854E1,3.333581E1,7.4682846E0,0E0,2.4688526E1,4.4397743E1,3.3564953E1,4.8018036E1,1.1448856E1,0E0,0E0,1.836444E1,0E0,1.4645691E1,1.7061375E1,0E0,0E0,0E0,1.9787292E1,1.1538468E1,0E0,0E0,0E0,9.557907E0,1.8808357E1,0E0,4.8986816E0,0E0,2.5407887E1,4.0098557E1,0E0,7.8256073E0,1.8413818E1,2.3617233E1,0E0,0E0,0E0,0E0,0E0,0E0,0E0,0E0,0E0,0E0,0E0,0E0,0E0,0E0,0E0,0E0,0E0,0E0,0E0,0E0,0E0,0E0,0E0,0E0],"parents":[2147483647,0,0,1,1,2,2,3,3,4,4,5,5,6,6,7,7,8,8,9,9,10,10,11,11,12,12,13,13,15,15,16,16,17,17,18,18,19,19,21,21,22,22,23,23,24,24,25,25,28,28,30,30,31,31,35,35,36,36,40,40,41,41,43,43,45,45,46,46,48,48,49,49,50,50],"right_children":[2,4,6,8,10,12,14,16,18,20,22,24,26,28,-1,30,32,34,36,38,-1,40,42,44,46,48,-1,-1,50,-1,52,54,-1,-1,-1,56,58,-1,-1,-1,60,62,-1,64,-1,66,68,-1,70,72,74,-1,-1,-1,-1,-1,-1,-1,-1,-1,-1,-1,-1,-1,-1,-1,-1,-1,-1,-1,-1,-1,-1,-1,-1],"split_conditions":[5.53445E-1,4.1E-3,7.4E1,2.576E-1,5.49E0,4.4155E2,1.21E2,9.205E-1,3.5E1,8.724E-1,6.364E-1,6.587E-1,6E0,6.64623E-1,6.204611E-3,4.545E-1,1.2581E2,8.1E1,1.75E2,2.5E1,-3.1482454E-3,5.39E0,8.02615E-1,1E0,5.49E0,5E-1,-2.3931589E-2,-5.453801E-4,1.4203E4,-3.4505497E-3,2.62E2,7E0,-1.2520057E-2,-2.1947002E-2,-1.2132524E-3,1.45E1,-8.26E-2,2.402905E-2,8.730474E-3,-1.0894943E-2,5.43515E-1,1E0,6.2528127E-3,6.11299E-1,-8.056599E-3,5.6E1,1E0,2.3522577E-3,1.9519E2,1.3379213E2,8.667E-1,1.6928295E-2,9.544629E-3,1.4849726E-2,1.1507162E-3,6.1625455E-5,1.8109469E-2,4.3151435E-3,-1.3872152E-2,2.4141144E-2,7.6142694E-3,-2.2828631E-2,-2.9594703E-3,2.2313075E-2,1.0025471E-2,-4.246442E-3,1.8319083E-2,-1.594731E-2,-1.9760977E-3,9.396968E-3,2.2496695E-2,-2.2429273E-2,-5.1901164E-3,5.623439E-3,-2.3653248E-2],"split_indices":[58,18,17,11,45,50,0,36,35,38,38,36,2,62,0,31,10,48,10,48,0,12,63,54,45,31,0,0,17,0,0,45,0,0,0,31,40,0,0,0,62,32,0,58,0,0,71,0,10,5,37,0,0,0,0,0,0,0,0,0,0,0,0,0,0,0,0,0,0,0,0,0,0,0,0],"split_type":[0,0,0,0,0,0,0,0,0,0,0,0,0,0,0,0,0,0,0,0,0,0,0,0,0,0,0,0,0,0,0,0,0,0,0,0,0,0,0,0,0,0,0,0,0,0,0,0,0,0,0,0,0,0,0,0,0,0,0,0,0,0,0,0,0,0,0,0,0,0,0,0,0,0,0],"sum_hessian":[1.1329221E3,6.0412524E2,5.287968E2,4.8665338E2,1.1747183E2,3.1013486E2,2.1866199E2,3.8740698E2,9.924641E1,2.7141361E1,9.0330475E1,2.6051236E2,4.9622494E1,2.0525389E2,1.3408092E1,3.1657727E2,7.0829704E1,2.960542E1,6.964098E1,2.0085379E1,7.055983E0,3.0628246E1,5.970223E1,3.2670433E1,2.2784192E2,4.0379013E1,9.243481E0,7.8201528E0,1.9743375E2,8.822709E0,3.0775458E2,5.8271885E1,1.255782E1,1.825325E1,1.1352171E1,4.873127E1,2.0909714E1,1.2234213E1,7.8511662E0,8.29221E0,2.2336037E1,4.6294117E1,1.3408108E1,2.1100185E1,1.1570248E1,3.6868168E1,1.9097375E2,8.336496E0,3.204252E1,1.8084402E2,1.6589724E1,2.6012613E2,4.7628426E1,3.6552647E1,2.171924E1,1.2115718E1,3.6615555E1,1.0367028E1,1.05426855E1,8.412572E0,1.3923464E1,3.7474224E1,8.819895E0,1.34994755E1,7.600709E0,2.6443447E1,1.0424722E1,1.5239761E2,3.8576153E1,9.88222E0,2.2160297E1,1.710257E2,9.818315E0,8.849581E0,7.740143E0],"tree_param":{"num_deleted":"0","num_feature":"76","num_nodes":"75","size_leaf_vector":"1"}},{"base_weights":[-3.5483688E-3,6.975242E-1,-8.920337E-1,8.9890903E-1,-1.5575926E-1,-3.393662E-1,-1.4638554E0,-1.1456128E0,9.5906353E-1,7.6538044E-1,-6.127135E-1,-8.8102394E-1,3.900813E-1,-6.0185784E-1,-1.620654E0,-2.4093175E-2,-2.9691274E-3,1.1393688E0,2.6791E-1,-6.2505757E-3,1.2013065E0,-3.1436458E-1,-2.1413138E-2,-5.65672E-1,-1.4255317E0,8.743335E-1,-9.295514E-1,1.5726618E-2,-1.0523697E0,-6.7709446E-1,-1.7028483E0,1.2657193E0,5.810971E-1,1.0516745E0,-4.914619E-1,-2.3258512E-3,2.1177582E-2,3.3090013E-1,-8.8340944E-1,-1.2676903E0,-1.3304757E-1,-1.1089566E-4,-1.6650158E0,-4.2498058E-1,1.1889195E0,5.989761E-3,-1.516923E0,-2.1536632E-2,-2.267357E-3,-1.9578392E-2,5.4799337E-3,-7.941678E-1,-1.8156958E0,1.6139526E-2,2.9389807E-3,1.3090297E-2,-1.8265046E-3,1.7696427E-2,8.2664256E-4,7.6759346E-3,-1.7665628E-2,-8.370389E-3,9.762851E-3,2.6970436E-3,-1.7265623E-2,-1.9846924E-2,4.9760455E-4,2.5585867E-3,-1.5639767E-2,-1.4099443E-2,-2.2469897E-2,6.905412E-3,-1.5264755E-2,-5.2633043E-4,1.6635902E-2,-8.182395E-3,-2.3892768E-2,-2.3634033E-2,-7.9236095E-5,-2.2829045E-2,-1.47189135E-2],"categories":[],"categories_nodes":[],"categories_segments":[],"categories_sizes":[],"default_left":[0,1,1,0,1,0,0,0,0,0,0,0,0,0,0,0,0,0,0,0,0,0,0,0,0,0,1,0,0,0,0,1,1,1,1,0,0,0,0,0,0,0,0,0,0,0,0,0,0,0,0,0,1,0,0,0,0,0,0,0,0,0,0,0,0,0,0,0,0,0,0,0,0,0,0,0,0,0,0,0,0],"id":5,"left_children":[1,3,5,7,9,11,13,15,17,19,21,23,25,27,29,-1,-1,31,33,-1,35,37,-1,39,41,43,45,-1,47,49,51,53,55,57,59,-1,-1,61,63,65,67,-1,69,71,73,-1,75,-1,-1,-1,-1,77,79,-1,-1,-1,-1,-1,-1,-1,-1,-1,-1,-1,-1,-1,-1,-1,-1,-1,-1,-1,-1,-1,-1,-1,-1,-1,-1,-1,-1],"loss_changes":[7.1335986E2,1.0999936E2,1.5962659E2,6.369513E1,5.1448982E1,1.0148638E2,3.3552856E1,1.0994865E1,6.2695038E1,2.2544266E1,2.7702902E1,2.5309868E1,6.994475E1,3.2473465E1,1.6289124E1,0E0,0E0,2.8144592E1,6.195237E1,0E0,2.2222012E1,2.3761974E1,0E0,2.834863E1,1.833741E1,3.2728985E1,2.448774E1,0E0,1.890736E1,1.7459951E1,1.9811523E1,1.759552E1,2.6258392E1,1.9859436E1,5.6275436E1,0E0,0E0,1.4358706E1,2.0003899E1,1.6466301E1,2.2611248E1,0E0,4.046814E0,1.26896925E1,1.3506958E1,0E0,7.667198E0,0E0,0E0,0E0,0E0,1.9107311E1,5.1875E0,0E0,0E0,0E0,0E0,0E0,0E0,0E0,0E0,0E0,0E0,0E0,0E0,0E0,0E0,0E0,0E0,0E0,0E0,0E0,0E0,0E0,0E0,0E0,0E0,0E0,0E0,0E0,0E0],"parents":[2147483647,0,0,1,1,2,2,3,3,4,4,5,5,6,6,7,7,8,8,9,9,10,10,11,11,12,12,13,13,14,14,17,17,18,18,20,20,21,21,23,23,24,24,25,25,26,26,28,28,29,29,30,30,31,31,32,32,33,33,34,34,37,37,38,38,39,39,40,40,42,42,43,43,44,44,46,46,51,51,52,52],"right_children":[2,4,6,8,10,12,14,16,18,20,22,24,26,28,30,-1,-1,32,34,-1,36,38,-1,40,42,44,46,-1,48,50,52,54,56,58,60,-1,-1,62,64,66,68,-1,70,72,74,-1,76,-1,-1,-1,-1,78,80,-1,-1,-1,-1,-1,-1,-1,-1,-1,-1,-1,-1,-1,-1,-1,-1,-1,-1,-1,-1,-1,-1,-1,-1,-1,-1,-1,-1],"split_conditions":[2E0,7.85E-2,2.34E0,1.667E-1,5.59E0,8.5E1,7.027E-1,8.468E-1,9.212E-1,1.2E2,9.099E-1,6E0,9.146E-1,5.07375E-1,4E0,-2.4093175E-2,-2.9691274E-3,5.18978E-1,7E0,-6.2505757E-3,3.8053364E1,2E0,-2.1413138E-2,4E1,5.133E1,2.3077E0,3.49E0,1.5726618E-2,6.532E-1,6.17171E1,3.29E0,1.3379213E2,1.099E1,8.717E1,1.7944668E1,-2.3258512E-3,2.1177582E-2,2.67E-2,7.28E0,9.0499E-1,2.5849E2,-1.1089566E-4,6.40622E-1,7.592E-1,3.4E1,5.989761E-3,5E0,-2.1536632E-2,-2.267357E-3,-1.9578392E-2,5.4799337E-3,1.5E1,8.9711E2,1.6139526E-2,2.9389807E-3,1.3090297E-2,-1.8265046E-3,1.7696427E-2,8.2664256E-4,7.6759346E-3,-1.7665628E-2,-8.370389E-3,9.762851E-3,2.6970436E-3,-1.7265623E-2,-1.9846924E-2,4.9760455E-4,2.5585867E-3,-1.5639767E-2,-1.4099443E-2,-2.2469897E-2,6.905412E-3,-1.5264755E-2,-5.2633043E-4,1.6635902E-2,-8.182395E-3,-2.3892768E-2,-2.3634033E-2,-7.9236095E-5,-2.2829045E-2,-1.47189135E-2],"split_indices":[2,19,14,31,46,6,39,36,36,10,38,2,36,58,3,0,0,58,45,0,5,3,0,35,10,31,46,0,39,5,15,5,46,10,5,0,0,18,14,63,10,0,58,36,35,0,3,0,0,0,0,42,13,0,0,0,0,0,0,0,0,0,0,0,0,0,0,0,0,0,0,0,0,0,0,0,0,0,0,0,0],"split_type":[0,0,0,0,0,0,0,0,0,0,0,0,0,0,0,0,0,0,0,0,0,0,0,0,0,0,0,0,0,0,0,0,0,0,0,0,0,0,0,0,0,0,0,0,0,0,0,0,0,0,0,0,0,0,0,0,0,0,0,0,0,0,0,0,0,0,0,0,0,0,0,0,0,0,0,0,0,0,0,0,0],"sum_hessian":[1.145237E3,6.401314E2,5.0510562E2,5.179011E2,1.22230316E2,2.56855E2,2.4825061E2,1.4802161E1,5.0309897E2,4.052941E1,8.1700905E1,1.474013E2,1.09453705E2,3.820754E1,2.1004308E2,7.7460985E0,7.0560627E0,3.9900717E2,1.0409179E2,1.0320284E1,3.0209126E1,6.4713486E1,1.6987415E1,9.334254E1,5.4058765E1,8.007108E1,2.9382626E1,7.3649893E0,3.084255E1,1.683119E1,1.9321188E2,3.2536786E2,7.3639305E1,5.1223404E1,5.2868385E1,8.31837E0,2.1890757E1,3.0325506E1,3.438798E1,3.5589996E1,5.775254E1,7.8181615E0,4.6240604E1,1.5607482E1,6.44636E1,8.6023E0,2.0780325E1,1.6990278E1,1.3852272E1,9.248159E0,7.5830297E0,2.1344301E1,1.7186758E2,3.0945798E2,1.5909897E1,4.4133545E1,2.9505754E1,3.6579952E1,1.4643453E1,2.4303392E1,2.8564993E1,9.5527E0,2.0772806E1,1.1113317E1,2.3274664E1,2.8017649E1,7.5723495E0,4.446403E1,1.3288507E1,1.1534764E1,3.4705837E1,7.0836353E0,8.523847E0,7.819945E0,5.6643654E1,7.0419216E0,1.3738403E1,8.737352E0,1.260695E1,1.5909781E2,1.2769771E1],"tree_param":{"num_deleted":"0","num_feature":"76","num_nodes":"81","size_leaf_vector":"1"}},{"base_weights":[-9.091212E-3,6.908613E-1,-7.5705296E-1,-6.767623E-2,1.0036991E0,-1.3517153E0,-3.078492E-1,-1.0393845E0,5.483197E-1,1.2841758E0,4.5983207E-1,6.51466E-2,-1.5333737E0,-4.580152E-2,-1.3270622E0,9.414467E-3,-1.2737038E0,-7.035961E-1,8.151833E-1,3.2918766E-1,1.4550545E0,5.819254E-1,-1.9172147E-2,-4.5030314E-1,1.4049841E-2,-3.1968767E-3,-1.6030122E0,2.6975876E-1,-8.55044E-1,4.4347676E-3,-1.6084406E0,-4.238229E-3,-1.4958389E0,3.696624E-3,-2.070365E-2,1.1237906E0,-1.4622994E-1,1.1664621E0,-3.8196054E-1,9.154692E-1,1.6003933E0,6.961593E-1,-1.4627253E-2,1.2972777E-3,-1.457744E-2,-1.6794094E0,-1.0514851E0,-1.1443031E0,5.567622E-1,1.6004039E-2,-1.1112663E0,-2.1378221E-2,-1.1935879E-2,-2.3874814E-2,-1.3878071E-2,2.0305712E-3,1.584337E-2,1.1604092E-2,-1.4375943E-2,6.0572005E-3,2.2661032E-2,1.1891265E-2,-1.4070618E-2,4.3807575E-3,2.2199979E-2,5.7837637E-3,2.0169148E-2,-1.0482775E-2,1.0277384E-2,-2.1109153E-2,-7.4877827E-3,-2.0718157E-2,-2.441325E-3,-9.116436E-4,-2.166382E-2,-8.447062E-4,1.3186899E-2,2.3860917E-3,-1.6078867E-2],"categories":[],"categories_nodes":[],"categories_segments":[],"categories_sizes":[],"default_left":[1,0,0,0,1,0,1,0,1,0,1,0,0,1,0,0,0,0,1,0,0,0,0,0,0,0,0,0,0,0,0,0,0,0,0,0,0,0,0,0,0,1,0,0,0,0,0,0,0,0,0,0,0,0,0,0,0,0,0,0,0,0,0,0,0,0,0,0,0,0,0,0,0,0,0,0,0,0,0],"id":6,"left_children":[1,3,5,7,9,11,13,15,17,19,21,23,25,27,29,-1,31,33,35,37,39,41,-1,43,-1,-1,45,47,49,-1,51,-1,53,-1,-1,55,57,59,61,63,65,67,-1,-1,-1,69,71,73,75,-1,77,-1,-1,-1,-1,-1,-1,-1,-1,-1,-1,-1,-1,-1,-1,-1,-1,-1,-1,-1,-1,-1,-1,-1,-1,-1,-1,-1,-1],"loss_changes":[5.9224713E2,1.386719E2,1.4608084E2,1.0213688E2,6.311212E1,6.0571045E1,8.320509E1,2.8054138E1,3.488981E1,4.454425E1,3.482153E1,1.4923528E1,1.847931E1,6.328449E1,3.0287415E1,0E0,1.2074432E1,1.822523E1,2.5540932E1,2.4668768E1,1.8156921E1,2.694904E1,0E0,7.46354E0,0E0,0E0,8.331848E0,7.235872E1,3.852119E1,0E0,4.7718353E0,0E0,7.781563E0,0E0,0E0,1.0640373E1,2.3531542E1,8.750101E0,2.3268648E1,2.4602692E1,9.717804E0,2.7774498E1,0E0,0E0,0E0,8.347168E0,1.3140835E1,2.0127018E1,4.8273354E1,0E0,1.6419724E1,0E0,0E0,0E0,0E0,0E0,0E0,0E0,0E0,0E0,0E0,0E0,0E0,0E0,0E0,0E0,0E0,0E0,0E0,0E0,0E0,0E0,0E0,0E0,0E0,0E0,0E0,0E0,0E0],"parents":[2147483647,0,0,1,1,2,2,3,3,4,4,5,5,6,6,7,7,8,8,9,9,10,10,11,11,12,12,13,13,14,14,16,16,17,17,18,18,19,19,20,20,21,21,23,23,26,26,27,27,28,28,30,30,32,32,35,35,36,36,37,37,38,38,39,39,40,40,41,41,45,45,46,46,47,47,48,48,50,50],"right_children":[2,4,6,8,10,12,14,16,18,20,22,24,26,28,30,-1,32,34,36,38,40,42,-1,44,-1,-1,46,48,50,-1,52,-1,54,-1,-1,56,58,60,62,64,66,68,-1,-1,-1,70,72,74,76,-1,78,-1,-1,-1,-1,-1,-1,-1,-1,-1,-1,-1,-1,-1,-1,-1,-1,-1,-1,-1,-1,-1,-1,-1,-1,-1,-1,-1,-1],"split_conditions":[2.378E-1,0E0,0E0,2.00001E0,6.06E-1,6.43746E-1,1.248E1,5.49E0,2E1,1.25E0,9.1186E-1,3.86E2,5.605E1,6.79E-1,6.731E-1,9.414467E-3,-3.5325713E0,3.175E1,6.897E-1,1.099E1,3.9E1,2.255E0,-1.9172147E-2,5.48E-2,1.4049841E-2,-3.1968767E-3,1E0,3.2E1,5.455E-1,4.4347676E-3,4.1119E2,-4.238229E-3,2.0189E2,3.696624E-3,-2.070365E-2,9.1E1,1.0442E2,6.6E1,1.4877E2,2.5506E2,1.32E2,4.861E-3,-1.4627253E-2,1.2972777E-3,-1.457744E-2,1.75E2,4.6667E0,8.131E-1,7.67E-2,1.6004039E-2,7.4102E-2,-2.1378221E-2,-1.1935879E-2,-2.3874814E-2,-1.3878071E-2,2.0305712E-3,1.584337E-2,1.1604092E-2,-1.4375943E-2,6.0572005E-3,2.2661032E-2,1.1891265E-2,-1.4070618E-2,4.3807575E-3,2.2199979E-2,5.7837637E-3,2.0169148E-2,-1.0482775E-2,1.0277384E-2,-2.1109153E-2,-7.4877827E-3,-2.0718157E-2,-2.441325E-3,-9.116436E-4,-2.166382E-2,-8.447062E-4,1.3186899E-2,2.3860917E-3,-1.6078867E-2],"split_indices":[11,51,51,23,50,62,13,45,48,31,62,53,10,50,36,0,22,4,57,45,35,50,0,9,0,0,71,35,36,0,15,0,10,0,0,30,10,35,10,10,53,61,0,0,0,47,31,36,9,0,61,0,0,0,0,0,0,0,0,0,0,0,0,0,0,0,0,0,0,0,0,0,0,0,0,0,0,0,0],"split_type":[0,0,0,0,0,0,0,0,0,0,0,0,0,0,0,0,0,0,0,0,0,0,0,0,0,0,0,0,0,0,0,0,0,0,0,0,0,0,0,0,0,0,0,0,0,0,0,0,0,0,0,0,0,0,0,0,0,0,0,0,0,0,0,0,0,0,0,0,0,0,0,0,0,0,0,0,0,0,0],"sum_hessian":[1.1312406E3,5.8437463E2,5.4686597E2,1.7063501E2,4.1373962E2,2.3533086E2,3.1153513E2,6.620301E1,1.04432E2,2.7296747E2,1.4077216E2,2.6743172E1,2.0858768E2,2.4781918E2,6.3715935E1,7.593738E0,5.8609272E1,1.8349453E1,8.608255E1,4.1430004E1,2.3153746E2,1.3277116E2,8.000991E0,1.8116947E1,8.626224E0,1.0825332E1,1.9776234E2,1.7829391E2,6.952527E1,9.097166E0,5.4618767E1,1.1325094E1,4.7284176E1,9.092278E0,9.2571745E0,6.516526E1,2.0917288E1,1.9027878E1,2.2402126E1,4.913201E1,1.8240546E2,1.24751015E2,8.020141E0,1.0345303E1,7.7716446E0,1.7370084E2,2.4061522E1,3.0081524E1,1.4821239E2,7.3651066E0,6.2160164E1,4.4849514E1,9.769255E0,2.0967258E1,2.6316917E1,9.844843E0,5.5320415E1,1.0133122E1,1.0784164E1,9.605974E0,9.421904E0,8.106586E0,1.4295539E1,3.031187E1,1.882014E1,7.332402E0,1.7507304E2,1.0548791E1,1.14202225E2,1.6667427E2,7.0265613E0,1.3731211E1,1.0330311E1,1.1098107E1,1.8983416E1,6.7299286E1,8.091311E1,8.333334E0,5.3826828E1],"tree_param":{"num_deleted":"0","num_feature":"76","num_nodes":"79","size_leaf_vector":"1"}},{"base_weights":[1.3409488E-2,6.642421E-1,-8.778592E-1,8.870374E-1,-3.0924997E-1,-1.5026283E0,-3.5472426E-1,1.0471829E0,7.564377E-2,1.849126E-2,-5.3365755E-1,1.6395072E-3,-1.5800043E0,-1.7894663E-2,-1.2156999E0,5.2671415E-1,1.2030776E0,9.029029E-1,-8.8369095E-1,3.2092768E-1,-1.0252794E0,-1.7635312E0,-1.2747313E0,9.552809E-1,-4.2192063E-1,-2.3860366E-4,-1.390701E0,8.143751E-1,-6.713809E-1,3.891401E-1,1.2899085E0,-2.4062757E-1,2.0026322E-2,5.6394767E-3,-1.2329724E0,-1.9438718E-2,8.634028E-1,-6.5880114E-1,-2.3384424E-2,-2.2352135E-2,-7.886696E-3,-9.3264604E-1,-2.115558E-2,-6.618293E-3,1.2140801E0,6.7052263E-1,-6.5755105E-1,-4.5200055E-3,-1.5655282E0,1.2399092E-2,-9.182098E-3,-2.1489598E-2,1.4035914E-2,-1.0750115E-2,9.592559E-3,1.6491197E-2,1.8005304E-3,-1.9249564E-2,7.814942E-3,-2.2163985E-2,-4.6265186E-3,1.6315568E-2,-8.649497E-3,-1.2171758E-2,1.4788974E-2,-1.54008325E-2,-2.4971059E-3,1.8238822E-3,1.7703485E-2,-2.4786755E-3,1.9024612E-2,7.1690963E-3,-1.1374277E-2,-2.2884296E-2,-1.559503E-2],"categories":[],"categories_nodes":[],"categories_segments":[],"categories_sizes":[],"default_left":[0,1,0,0,0,0,0,0,0,0,0,0,0,1,0,1,0,0,1,0,0,0,0,0,1,0,0,0,0,1,1,0,0,0,0,0,0,0,0,0,0,0,0,0,0,0,0,0,0,0,0,0,0,0,0,0,0,0,0,0,0,0,0,0,0,0,0,0,0,0,0,0,0,0,0],"id":7,"left_children":[1,3,5,7,9,11,13,15,17,-1,19,-1,21,23,25,27,29,31,33,35,37,39,41,43,45,-1,47,49,51,53,55,57,-1,-1,59,-1,61,63,-1,-1,-1,65,-1,-1,67,69,71,-1,73,-1,-1,-1,-1,-1,-1,-1,-1,-1,-1,-1,-1,-1,-1,-1,-1,-1,-1,-1,-1,-1,-1,-1,-1,-1,-1],"loss_changes":[6.736969E2,1.4558661E2,1.6020438E2,7.097803E1,5.1052113E1,2.8287598E1,7.736708E1,3.7014313E1,7.1457466E1,0E0,4.675634E1,0E0,1.1949219E1,7.5398384E1,1.5704155E1,3.6238995E1,2.4809631E1,4.052975E1,1.957735E1,4.2084923E1,2.291272E1,9.307343E0,1.2422928E1,2.1779724E1,3.4880867E1,0E0,1.1686569E1,2.6333504E1,4.012372E1,1.6917843E1,2.0759766E1,2.2111887E1,0E0,0E0,1.6343704E1,0E0,2.3324394E1,3.1293968E1,0E0,0E0,0E0,1.0825432E1,0E0,0E0,1.1856873E1,1.8546015E1,3.763915E1,0E0,4.9503937E0,0E0,0E0,0E0,0E0,0E0,0E0,0E0,0E0,0E0,0E0,0E0,0E0,0E0,0E0,0E0,0E0,0E0,0E0,0E0,0E0,0E0,0E0,0E0,0E0,0E0,0E0],"parents":[2147483647,0,0,1,1,2,2,3,3,4,4,5,5,6,6,7,7,8,8,10,10,12,12,13,13,14,14,15,15,16,16,17,17,18,18,19,19,20,20,21,21,22,22,23,23,24,24,26,26,27,27,28,28,29,29,30,30,31,31,34,34,36,36,37,37,41,41,44,44,45,45,46,46,48,48],"right_children":[2,4,6,8,10,12,14,16,18,-1,20,-1,22,24,26,28,30,32,34,36,38,40,42,44,46,-1,48,50,52,54,56,58,-1,-1,60,-1,62,64,-1,-1,-1,66,-1,-1,68,70,72,-1,74,-1,-1,-1,-1,-1,-1,-1,-1,-1,-1,-1,-1,-1,-1,-1,-1,-1,-1,-1,-1,-1,-1,-1,-1,-1,-1],"split_conditions":[5.655E-1,9.2E-3,0E0,9.286E-1,3.333E-1,6.364E-1,6E0,0E0,7E0,1.849126E-2,5E0,1.6395072E-3,1.3394E4,3.5668334E-1,2.6E1,2.1533E2,2.018E1,3.452E-1,9E0,0E0,6.875E0,7.254366E2,6.66836E-1,4.286E-1,9.956522E0,-2.3860366E-4,6.888E-1,8.686E-1,4.7333E2,5.80701E-1,1.3379213E2,0E0,2.0026322E-2,5.6394767E-3,1.5E1,-1.9438718E-2,9.091E-1,1E0,-2.3384424E-2,-2.2352135E-2,-7.886696E-3,3.8E1,-2.115558E-2,-6.618293E-3,7.08E0,1.89E-1,7.059E-1,-4.5200055E-3,1.4203E4,1.2399092E-2,-9.182098E-3,-2.1489598E-2,1.4035914E-2,-1.0750115E-2,9.592559E-3,1.6491197E-2,1.8005304E-3,-1.9249564E-2,7.814942E-3,-2.2163985E-2,-4.6265186E-3,1.6315568E-2,-8.649497E-3,-1.2171758E-2,1.4788974E-2,-1.54008325E-2,-2.4971059E-3,1.8238822E-3,1.7703485E-2,-2.4786755E-3,1.9024612E-2,7.1690963E-3,-1.1374277E-2,-2.2884296E-2,-1.559503E-2],"split_indices":[58,18,51,36,37,36,2,51,45,0,47,0,17,52,17,10,14,9,4,51,31,5,58,31,4,0,36,36,10,63,5,51,0,0,31,0,38,65,0,0,0,42,0,0,12,9,36,0,17,0,0,0,0,0,0,0,0,0,0,0,0,0,0,0,0,0,0,0,0,0,0,0,0,0,0],"split_type":[0,0,0,0,0,0,0,0,0,0,0,0,0,0,0,0,0,0,0,0,0,0,0,0,0,0,0,0,0,0,0,0,0,0,0,0,0,0,0,0,0,0,0,0,0,0,0,0,0,0,0,0,0,0,0,0,0,0,0,0,0,0,0,0,0,0,0,0,0,0,0,0,0,0,0],"sum_hessian":[1.1614128E3,6.712472E2,4.9016562E2,5.462351E2,1.2501211E2,2.2338315E2,2.6678247E2,4.5619504E2,9.0040054E1,1.3723244E1,1.11288864E2,1.0084488E1,2.1329866E2,1.9176201E2,7.502046E1,1.051486E2,3.5104645E2,4.8348354E1,4.16917E1,4.064138E1,7.0647484E1,1.3321199E2,8.0086655E1,5.6256474E1,1.3550552E2,9.574753E0,6.544571E1,8.479073E1,2.0357864E1,3.3840027E1,3.1720642E2,1.8886341E1,2.9462015E1,8.597813E0,3.3093887E1,8.993608E0,3.1647772E1,4.9959747E1,2.0687735E1,1.26174095E2,7.0379014E0,4.5650665E1,3.4435993E1,8.296881E0,4.7959595E1,2.4041512E1,1.1146402E2,9.564613E0,5.5881096E1,7.524334E1,9.547392E0,1.2753029E1,7.604835E0,8.032803E0,2.5807224E1,3.0206915E2,1.5137262E1,7.5091376E0,1.1377203E1,1.9750792E1,1.3343095E1,2.4363333E1,7.2844396E0,4.2349075E1,7.610671E0,3.1555702E1,1.4094963E1,8.582333E0,3.9377262E1,1.209313E1,1.1948381E1,1.9986286E1,9.147773E1,2.736077E1,2.8520327E1],"tree_param":{"num_deleted":"0","num_feature":"76","num_nodes":"75","size_leaf_vector":"1"}},{"base_weights":[1.4879705E-2,7.036787E-1,-7.8237647E-1,9.528675E-1,-3.7636716E-2,-1.4385355E0,-2.5933215E-1,1.1022751E0,-2.6371466E-2,-1.1063868E0,2.5173217E-1,-9.4685155E-1,-1.6363788E0,2.7663413E-1,-8.1964827E-1,6.7692727E-1,1.2793568E0,3.723481E-1,-1.3118075E0,-7.6603854E-1,-2.368905E-2,8.351866E-1,-4.473109E-1,-5.304712E-1,-1.9911008E-2,-1.7966498E0,-1.3836533E0,6.609577E-1,-7.7030337E-1,-1.4221462E0,-3.943816E-1,-5.3026265E-1,9.6148574E-1,9.872062E-1,1.5242658E0,6.516304E-1,-1.09897405E-2,-8.341592E-3,-2.355673E-2,1.0463235E-3,-2.036813E-2,1.4141732E0,3.248494E-1,1.8424006E-2,-1.1001333E0,-2.441589E-1,-2.3100834E-2,-1.348663E-2,-2.2695467E-2,-8.2133627E-1,-1.6764643E0,-6.055717E-1,1.0794278E0,-9.853518E-2,-2.0949675E-2,-3.045044E-3,-1.7394788E0,-1.0102183E0,1.5780371E-1,3.7929257E-3,-1.7854014E-2,6.4906566E-3,1.8477438E-2,1.3457735E-2,-9.691286E-3,8.181917E-3,1.9954758E-2,-8.320772E-3,1.1719699E-2,2.035633E-2,8.433731E-3,-5.3130956E-3,9.914862E-3,2.1056645E-3,-1.7580913E-2,-1.0591253E-2,4.785824E-3,-2.0002399E-2,-1.4322E-3,-2.3118552E-2,-1.2647753E-2,7.3275366E-4,-2.0321146E-2,-1.9060016E-3,1.4915344E-2,-1.4738389E-2,6.8772417E-3,-2.2865284E-2,-1.27717815E-2,-1.9361792E-2,1.7755514E-3,9.074891E-3,-9.124514E-3],"categories":[],"categories_nodes":[],"categories_segments":[],"categories_sizes":[],"default_left":[0,1,0,1,0,1,1,0,0,0,1,1,0,0,0,0,1,0,0,0,0,0,0,0,0,0,1,0,1,1,0,0,0,1,0,0,0,0,0,0,0,0,0,0,0,0,0,0,0,0,1,0,0,1,0,0,0,0,1,0,0,0,0,0,0,0,0,0,0,0,0,0,0,0,0,0,0,0,0,0,0,0,0,0,0,0,0,0,0,0,0,0,0],"id":8,"left_children":[1,3,5,7,9,11,13,15,17,19,21,23,25,27,29,31,33,35,37,39,-1,41,43,45,-1,47,49,51,53,55,57,59,61,63,65,67,-1,-1,-1,-1,-1,69,71,-1,73,75,-1,-1,-1,77,79,81,83,85,-1,-1,87,89,91,-1,-1,-1,-1,-1,-1,-1,-1,-1,-1,-1,-1,-1,-1,-1,-1,-1,-1,-1,-1,-1,-1,-1,-1,-1,-1,-1,-1,-1,-1,-1,-1,-1,-1],"loss_changes":[6.221554E2,1.1228046E2,1.8022375E2,6.655527E1,4.7290432E1,2.2657227E1,8.775222E1,2.9727478E1,3.0864119E1,9.189346E0,4.90786E1,1.89136E1,6.7264404E0,6.009163E1,3.660264E1,3.9853596E1,1.9937958E1,1.6303457E1,5.504307E0,1.7658337E1,0E0,1.9379494E1,6.9772964E1,1.6097328E1,0E0,4.0500793E0,1.0612015E1,5.7900215E1,2.5352E1,2.200969E1,2.8478737E1,1.725828E1,2.2185303E1,2.5355896E1,1.37326355E1,1.5337616E1,0E0,0E0,0E0,0E0,0E0,5.5423393E0,1.2833784E1,0E0,1.7539623E1,1.3498636E1,0E0,0E0,0E0,1.2632926E1,5.7819595E0,1.9037603E1,1.4099525E1,1.7081463E1,0E0,0E0,4.1579437E0,2.613829E1,2.3271305E1,0E0,0E0,0E0,0E0,0E0,0E0,0E0,0E0,0E0,0E0,0E0,0E0,0E0,0E0,0E0,0E0,0E0,0E0,0E0,0E0,0E0,0E0,0E0,0E0,0E0,0E0,0E0,0E0,0E0,0E0,0E0,0E0,0E0,0E0],"parents":[2147483647,0,0,1,1,2,2,3,3,4,4,5,5,6,6,7,7,8,8,9,9,10,10,11,11,12,12,13,13,14,14,15,15,16,16,17,17,18,18,19,19,21,21,22,22,23,23,25,25,26,26,27,27,28,28,29,29,30,30,31,31,32,32,33,33,34,34,35,35,41,41,42,42,44,44,45,45,49,49,50,50,51,51,52,52,53,53,56,56,57,57,58,58],"right_children":[2,4,6,8,10,12,14,16,18,20,22,24,26,28,30,32,34,36,38,40,-1,42,44,46,-1,48,50,52,54,56,58,60,62,64,66,68,-1,-1,-1,-1,-1,70,72,-1,74,76,-1,-1,-1,78,80,82,84,86,-1,-1,88,90,92,-1,-1,-1,-1,-1,-1,-1,-1,-1,-1,-1,-1,-1,-1,-1,-1,-1,-1,-1,-1,-1,-1,-1,-1,-1,-1,-1,-1,-1,-1,-1,-1,-1,-1],"split_conditions":[5.52038E-1,7.69E-2,0E0,-4.41E0,8.75E2,1.3034E2,1.299E1,1.05E3,8.89894E-1,2.72919E-1,2.02E0,3.03E0,5.6972E2,6E0,5.6768E2,3.125E0,6.76285E-1,3E0,3.67E2,2.55E2,-2.368905E-2,7.4102E-2,6.67688E-1,1.1E1,-1.9911008E-2,3.235E-1,6.685E-1,6.53933E-1,2.1667E0,2.263E-1,1.9058823E1,7.143E-1,7.5E1,9.038E-1,0E0,7.015E-1,-1.09897405E-2,-8.341592E-3,-2.355673E-2,1.0463235E-3,-2.036813E-2,1.4303E2,6.608E-1,1.8424006E-2,4E0,1.3E1,-2.3100834E-2,-1.348663E-2,-2.2695467E-2,6E0,5E0,5.48535E-1,1.47E2,1E0,-2.0949675E-2,-3.045044E-3,1.3052E0,2.7E1,2.9E1,3.7929257E-3,-1.7854014E-2,6.4906566E-3,1.8477438E-2,1.3457735E-2,-9.691286E-3,8.181917E-3,1.9954758E-2,-8.320772E-3,1.1719699E-2,2.035633E-2,8.433731E-3,-5.3130956E-3,9.914862E-3,2.1056645E-3,-1.7580913E-2,-1.0591253E-2,4.785824E-3,-2.0002399E-2,-1.4322E-3,-2.3118552E-2,-1.2647753E-2,7.3275366E-4,-2.0321146E-2,-1.9060016E-3,1.4915344E-2,-1.4738389E-2,6.8772417E-3,-2.2865284E-2,-1.27717815E-2,-1.9361792E-2,1.7755514E-3,9.074891E-3,-9.124514E-3],"split_indices":[58,8,51,21,55,10,46,55,62,61,15,15,14,2,12,31,63,3,24,30,0,61,62,2,0,31,11,63,31,11,4,31,4,57,51,20,0,0,0,0,0,10,63,0,3,42,0,0,0,3,31,63,24,44,0,0,19,42,4,0,0,0,0,0,0,0,0,0,0,0,0,0,0,0,0,0,0,0,0,0,0,0,0,0,0,0,0,0,0,0,0,0,0],"split_type":[0,0,0,0,0,0,0,0,0,0,0,0,0,0,0,0,0,0,0,0,0,0,0,0,0,0,0,0,0,0,0,0,0,0,0,0,0,0,0,0,0,0,0,0,0,0,0,0,0,0,0,0,0,0,0,0,0,0,0,0,0,0,0,0,0,0,0,0,0,0,0,0,0,0,0,0,0,0,0,0,0,0,0,0,0,0,0,0,0,0,0,0,0],"sum_hessian":[1.132944E3,6.078152E2,5.251288E2,4.549028E2,1.529124E2,2.329245E2,2.922043E2,3.9468408E2,6.021872E1,3.2580658E1,1.2033174E2,6.683261E1,1.6609189E2,1.4934698E2,1.4285735E2,1.16016266E2,2.7866782E2,4.59619E1,1.425682E1,2.3096348E1,9.48431E0,6.558874E1,5.4743E1,4.1444256E1,2.5388353E1,1.0163604E2,6.445584E1,1.09244415E2,4.0102562E1,5.9110943E1,8.37464E1,2.2130466E1,9.38858E1,1.27078224E2,1.5158957E2,3.7677334E1,8.284567E0,7.0264707E0,7.2303486E0,1.1853856E1,1.1242491E1,3.0727358E1,3.486138E1,1.3717604E1,4.10254E1,3.422214E1,7.222116E0,7.749696E0,9.3886345E1,2.2071213E1,4.238463E1,2.7130692E1,8.211372E1,2.3399721E1,1.670284E1,1.2583229E1,4.6527714E1,3.9591595E1,4.41548E1,1.1616538E1,1.0513928E1,5.2537228E1,4.1348576E1,1.19540985E2,7.537242E0,1.6684757E1,1.3490482E2,7.036672E0,3.0640661E1,2.2879326E1,7.848033E0,1.3594254E1,2.1267126E1,8.572756E0,3.2452644E1,1.7302965E1,1.6919174E1,1.0247312E1,1.1823902E1,3.1874142E1,1.05104885E1,1.6633657E1,1.0497034E1,8.306835E0,7.3806885E1,8.750807E0,1.4648915E1,3.928187E1,7.245843E0,2.6488947E1,1.310265E1,2.6824501E1,1.7330301E1],"tree_param":{"num_deleted":"0","num_feature":"76","num_nodes":"93","size_leaf_vector":"1"}},{"base_weights":[1.3559254E-2,6.3184077E-1,-8.306638E-1,8.535914E-1,-2.9404414E-1,1.1364182E-1,-1.0935045E0,1.0128307E0,2.1390656E-1,-5.6897277E-1,1.0449454E0,-1.5906204E-1,1.3565052E0,-6.370873E-1,-1.5895767E0,1.1976337E0,6.063578E-1,-1.5317778E-1,1.6042257E-2,-2.0162815E-1,-1.4796253E0,1.2533996E-3,2.248377E-2,-5.234241E-1,1.0744764E0,2.3377247E-2,1.1132728E-2,-1.3206065E0,-3.0987048E-1,-1.671453E0,-8.65395E-1,1.4597707E0,1.0246643E0,7.370259E-1,-1.9124104E-2,3.3428118E-1,-1.5171474E0,6.8202734E-2,-2.3319554E-2,-6.7005386E-3,-2.2798281E-2,2.6560256E-1,-1.1619836E0,2.1544274E-2,-9.889885E-5,-2.6229424E-3,-1.5428013E0,1.0047971E-1,-1.1019701E0,-1.1971151E-2,-2.122034E-2,4.609529E-3,-2.2635518E-2,1.8810645E-2,9.459091E-3,6.706731E-3,1.4993693E-2,-9.5130615E-3,1.0649064E-2,1.5287426E-2,-2.7670092E-3,-2.377237E-2,-8.416985E-3,3.810923E-3,-1.8836206E-2,-5.4306164E-3,1.330482E-2,-9.368699E-3,-2.3062749E-2,-9.459866E-3,-2.0581238E-2,5.3401636E-3,-1.6345743E-2,-4.299708E-3,-1.8236475E-2],"categories":[],"categories_nodes":[],"categories_segments":[],"categories_sizes":[],"default_left":[1,1,0,1,1,0,1,0,1,1,0,0,0,0,0,0,1,0,0,0,0,0,0,0,0,0,0,1,1,0,0,1,0,0,0,1,0,0,0,0,0,0,0,0,0,0,0,0,1,0,0,0,0,0,0,0,0,0,0,0,0,0,0,0,0,0,0,0,0,0,0,0,0,0,0],"id":9,"left_children":[1,3,5,7,9,11,13,15,17,19,21,23,25,27,29,31,33,35,-1,37,39,-1,-1,41,43,-1,-1,45,47,49,51,53,55,57,-1,59,61,63,-1,-1,-1,65,67,-1,-1,-1,69,71,73,-1,-1,-1,-1,-1,-1,-1,-1,-1,-1,-1,-1,-1,-1,-1,-1,-1,-1,-1,-1,-1,-1,-1,-1,-1,-1],"loss_changes":[5.9155975E2,1.3431918E2,1.1891879E2,5.3762726E1,4.653407E1,3.535861E1,8.48595E1,3.1744019E1,4.2347836E1,3.508258E1,1.606931E1,3.8450905E1,4.641533E0,4.3657967E1,1.0648041E1,1.3171661E1,3.7428207E1,5.2403477E1,0E0,3.434805E1,1.0756348E1,0E0,0E0,3.327545E1,1.4476702E1,0E0,0E0,1.5534012E1,4.2907593E1,6.9426575E0,2.2288567E1,6.099655E0,1.6704529E1,2.5069466E1,0E0,2.9755201E1,7.312443E0,2.5202085E1,0E0,0E0,0E0,1.7207062E1,1.0453045E1,0E0,0E0,0E0,5.611244E0,4.192009E1,1.3113903E1,0E0,0E0,0E0,0E0,0E0,0E0,0E0,0E0,0E0,0E0,0E0,0E0,0E0,0E0,0E0,0E0,0E0,0E0,0E0,0E0,0E0,0E0,0E0,0E0,0E0,0E0],"parents":[2147483647,0,0,1,1,2,2,3,3,4,4,5,5,6,6,7,7,8,8,9,9,10,10,11,11,12,12,13,13,14,14,15,15,16,16,17,17,19,19,20,20,23,23,24,24,27,27,28,28,29,29,30,30,31,31,32,32,33,33,35,35,36,36,37,37,41,41,42,42,46,46,47,47,48,48],"right_children":[2,4,6,8,10,12,14,16,18,20,22,24,26,28,30,32,34,36,-1,38,40,-1,-1,42,44,-1,-1,46,48,50,52,54,56,58,-1,60,62,64,-1,-1,-1,66,68,-1,-1,-1,70,72,74,-1,-1,-1,-1,-1,-1,-1,-1,-1,-1,-1,-1,-1,-1,-1,-1,-1,-1,-1,-1,-1,-1,-1,-1,-1,-1],"split_conditions":[5.78679E-1,9.11E-2,6.981E-1,4.05144E-1,9.77477E-1,2.8E2,3.1E1,8.684E-1,3.7967E2,2.222E-1,8.38055E-1,4.999E1,5.63642E-1,1E3,1.197E3,9.767E1,2.59E2,1.699E1,1.6042257E-2,2.255E0,5.27285E-1,1.2533996E-3,2.248377E-2,6.11722E-1,5E0,2.3377247E-2,1.1132728E-2,1.19E0,6.49E-1,4E0,8.667E-1,6E1,6.3699E-1,5.20128E-1,-1.9124104E-2,4.5404914E-1,4.875E3,9.318E-1,-2.3319554E-2,-6.7005386E-3,-2.2798281E-2,1.0968E0,9.8E-1,2.1544274E-2,-9.889885E-5,-2.6229424E-3,7.794E-1,8.65999E-1,5.714E-1,-1.1971151E-2,-2.122034E-2,4.609529E-3,-2.2635518E-2,1.8810645E-2,9.459091E-3,6.706731E-3,1.4993693E-2,-9.5130615E-3,1.0649064E-2,1.5287426E-2,-2.7670092E-3,-2.377237E-2,-8.416985E-3,3.810923E-3,-1.8836206E-2,-5.4306164E-3,1.330482E-2,-9.368699E-3,-2.3062749E-2,-9.459866E-3,-2.0581238E-2,5.3401636E-3,-1.6345743E-2,-4.299708E-3,-1.8236475E-2],"split_indices":[59,19,39,61,63,30,17,39,10,8,62,46,62,55,42,10,24,45,0,50,58,0,0,62,2,0,0,46,50,3,37,48,63,62,0,52,55,39,0,0,0,44,50,0,0,0,39,59,8,0,0,0,0,0,0,0,0,0,0,0,0,0,0,0,0,0,0,0,0,0,0,0,0,0,0],"split_type":[0,0,0,0,0,0,0,0,0,0,0,0,0,0,0,0,0,0,0,0,0,0,0,0,0,0,0,0,0,0,0,0,0,0,0,0,0,0,0,0,0,0,0,0,0,0,0,0,0,0,0,0,0,0,0,0,0,0,0,0,0,0,0,0,0,0,0,0,0,0,0,0,0,0,0],"sum_hessian":[1.1333269E3,6.542073E2,4.7911972E2,5.27799E2,1.2640822E2,1.0432195E2,3.7479776E2,4.2259924E2,1.051998E2,1.0487496E2,2.1533257E1,8.555055E1,1.87714E1,1.9520119E2,1.7959657E2,2.9051547E2,1.3208377E2,7.881595E1,2.6383854E1,7.47302E1,3.0144762E1,9.830741E0,1.1702515E1,6.6043045E1,1.9507502E1,8.389511E0,1.0381889E1,6.3194332E1,1.3200685E2,1.6135345E2,1.8243118E1,1.15488914E2,1.7502655E2,1.2457762E2,7.506155E0,5.806448E1,2.0751467E1,6.45108E1,1.0219398E1,8.7747965E0,2.1369967E1,2.9540842E1,3.6502205E1,1.1944423E1,7.5630784E0,1.0569399E1,5.2624935E1,8.695769E1,4.504916E1,1.3251333E1,1.4810213E2,8.063075E0,1.0180043E1,1.038656E2,1.1623307E1,5.1756046E1,1.232705E2,1.0052114E1,1.14525505E2,2.205945E1,3.6005028E1,1.3723174E1,7.0282917E0,5.6033695E1,8.477111E0,1.5851505E1,1.3689337E1,2.3559921E1,1.2942286E1,8.022487E0,4.4602448E1,7.047666E1,1.6481031E1,1.5344226E1,2.9704935E1],"tree_param":{"num_deleted":"0","num_feature":"76","num_nodes":"75","size_leaf_vector":"1"}},{"base_weights":[-1.0245335E-2,6.727914E-1,-7.383483E-1,8.7465924E-1,-2.3054454E-1,2.4574886E-1,-9.949574E-1,1.0807285E0,2.2072464E-1,-5.768622E-1,9.796399E-1,5.3129774E-1,-8.6345834E-1,-1.5204442E0,-6.502447E-1,1.2455764E0,3.2975748E-1,1.2215804E0,-1.4557377E-1,-1.2702508E-1,-1.4525265E0,-3.2949832E-3,1.8855225E-2,7.126121E-1,-1.4652854E-2,-2.0462647E-2,5.338899E-3,-2.3811223E-1,-1.6744318E0,-9.156729E-1,3.642471E-1,1.4571364E0,9.854558E-1,1.5039797E-2,-2.1778725E-1,5.6399424E-3,1.8466849E-2,7.1699923E-1,-6.4830565E-1,2.9126388E-1,-1.7494211E-2,-9.829293E-3,-2.2960108E-2,3.4279418E-1,1.4663342E0,9.726306E-3,-2.2471406E-2,-2.1148741E-2,-6.97241E-3,-1.1226811E0,7.1466014E-2,-1.5544735E-2,7.1240467E-1,1.861952E-2,5.449391E-4,-5.3113126E-3,1.33758765E-2,6.6043073E-3,-9.729682E-3,-3.719646E-3,1.2519918E-2,-2.469472E-3,-2.1313392E-2,9.439275E-3,-9.435074E-3,8.498306E-3,-1.1727041E-2,2.124757E-2,1.0729303E-2,-1.5830796E-2,-5.6310664E-3,-1.9118577E-2,7.820728E-3,1.3822498E-2,-1.1355699E-2],"categories":[],"categories_nodes":[],"categories_segments":[],"categories_sizes":[],"default_left":[1,1,0,0,1,0,0,0,0,0,0,1,0,0,0,1,1,0,0,0,0,0,0,0,0,0,0,1,0,0,0,1,0,0,0,0,0,0,0,0,0,0,0,1,0,0,0,0,0,1,0,0,1,0,0,0,0,0,0,0,0,0,0,0,0,0,0,0,0,0,0,0,0,0,0],"id":10,"left_children":[1,3,5,7,9,11,13,15,17,19,21,23,25,27,29,31,33,35,37,39,41,-1,-1,43,-1,-1,-1,45,47,49,51,53,55,-1,57,-1,-1,59,61,63,-1,-1,-1,65,67,-1,-1,-1,-1,69,71,-1,73,-1,-1,-1,-1,-1,-1,-1,-1,-1,-1,-1,-1,-1,-1,-1,-1,-1,-1,-1,-1,-1,-1],"loss_changes":[5.58459E2,1.05656006E2,1.3725848E2,6.3815918E1,4.4353264E1,3.5605938E1,7.809317E1,4.457785E1,4.1601467E1,3.2410786E1,1.648636E1,2.8015268E1,2.4172142E1,3.3721985E1,7.010325E1,1.6248657E1,3.1901163E1,6.638054E0,3.602328E1,2.9606377E1,7.6734505E0,0E0,0E0,2.2553207E1,0E0,0E0,0E0,3.0206724E1,8.964935E0,4.216745E1,3.071548E1,1.469928E1,2.0156647E1,0E0,1.7602089E1,0E0,0E0,9.548023E0,2.5611872E1,2.0965458E1,0E0,0E0,0E0,2.4814053E1,4.2311325E0,0E0,0E0,0E0,0E0,1.9277924E1,3.31505E1,0E0,3.0421087E1,0E0,0E0,0E0,0E0,0E0,0E0,0E0,0E0,0E0,0E0,0E0,0E0,0E0,0E0,0E0,0E0,0E0,0E0,0E0,0E0,0E0,0E0],"parents":[2147483647,0,0,1,1,2,2,3,3,4,4,5,5,6,6,7,7,8,8,9,9,10,10,11,11,12,12,13,13,14,14,15,15,16,16,17,17,18,18,19,19,20,20,23,23,27,27,28,28,29,29,30,30,31,31,32,32,34,34,37,37,38,38,39,39,43,43,44,44,49,49,50,50,52,52],"right_children":[2,4,6,8,10,12,14,16,18,20,22,24,26,28,30,32,34,36,38,40,42,-1,-1,44,-1,-1,-1,46,48,50,52,54,56,-1,58,-1,-1,60,62,64,-1,-1,-1,66,68,-1,-1,-1,-1,70,72,-1,74,-1,-1,-1,-1,-1,-1,-1,-1,-1,-1,-1,-1,-1,-1,-1,-1,-1,-1,-1,-1,-1,-1],"split_conditions":[2.263E-1,9.36E-2,7.143E-1,4.16644E-1,5.811111E1,5.54301E-1,1E0,9.212E-1,7E0,8.86154E-1,3.87E-2,3.64E-2,3.4E1,7.115E-1,2.83E2,4.92E-1,6.5E0,4.1E1,6.667E-1,5.40535E-1,3.008E-1,-3.2949832E-3,1.8855225E-2,3.81E2,-1.4652854E-2,-2.0462647E-2,5.338899E-3,-1.156E1,1.108E3,9.29077E-1,8.585714E-1,1.3379213E2,8.977E-1,1.5039797E-2,7E0,5.6399424E-3,1.8466849E-2,9.334E-1,7.74254E-1,3.28E2,-1.7494211E-2,-9.829293E-3,-2.2960108E-2,3.2400074E1,6.5E-1,9.726306E-3,-2.2471406E-2,-2.1148741E-2,-6.97241E-3,5.3969365E-1,1.1205882E1,-1.5544735E-2,9.29E-1,1.861952E-2,5.449391E-4,-5.3113126E-3,1.33758765E-2,6.6043073E-3,-9.729682E-3,-3.719646E-3,1.2519918E-2,-2.469472E-3,-2.1313392E-2,9.439275E-3,-9.435074E-3,8.498306E-3,-1.1727041E-2,2.124757E-2,1.0729303E-2,-1.5830796E-2,-5.6310664E-3,-1.9118577E-2,7.820728E-3,1.3822498E-2,-1.1355699E-2],"split_indices":[11,19,36,61,4,61,25,36,45,62,18,18,0,38,30,50,4,35,39,59,19,0,0,53,0,0,0,21,41,63,22,5,20,0,45,0,0,20,61,24,0,0,0,5,36,0,0,0,0,57,4,0,36,0,0,0,0,0,0,0,0,0,0,0,0,0,0,0,0,0,0,0,0,0,0],"split_type":[0,0,0,0,0,0,0,0,0,0,0,0,0,0,0,0,0,0,0,0,0,0,0,0,0,0,0,0,0,0,0,0,0,0,0,0,0,0,0,0,0,0,0,0,0,0,0,0,0,0,0,0,0,0,0,0,0,0,0,0,0,0,0,0,0,0,0,0,0,0,0,0,0,0,0],"sum_hessian":[1.1229343E3,5.7939795E2,5.435363E2,4.7356998E2,1.05827995E2,1.12416626E2,4.311197E2,3.6009543E2,1.1347455E2,8.228175E1,2.3546244E1,8.9401764E1,2.301486E1,1.7077933E2,2.6034036E2,2.952777E2,6.48177E1,3.0403202E1,8.307134E1,5.4357937E1,2.7923819E1,7.295532E0,1.6250711E1,8.09134E1,8.488366E0,1.419069E1,8.82417E0,1.8309452E1,1.5246988E2,2.0635158E2,5.3988792E1,1.6283794E2,1.3243979E2,2.4537449E1,4.0280254E1,8.327327E0,2.2075876E1,3.058825E1,5.2483093E1,4.1141273E1,1.3216662E1,1.1014517E1,1.6909302E1,5.4280704E1,2.6632694E1,1.1120875E1,7.188577E0,1.4546243E2,7.0074425E0,1.7058029E2,3.5771275E1,9.482227E0,4.4506565E1,1.5579005E2,7.047875E0,9.302528E0,1.2313726E2,1.7419071E1,2.2861183E1,7.0497694E0,2.353848E1,3.7257923E1,1.5225171E1,2.8338041E1,1.2803232E1,4.2735058E1,1.1545648E1,1.828233E1,8.350364E0,1.3566498E2,3.491533E1,9.222931E0,2.6548344E1,3.548858E1,9.017988E0],"tree_param":{"num_deleted":"0","num_feature":"76","num_nodes":"75","size_leaf_vector":"1"}},{"base_weights":[2.3139711E-2,6.779269E-1,-8.114031E-1,9.049309E-1,-5.1461016E-3,-1.0307205E0,7.139994E-1,1.089913E0,2.9339E-1,-1.3376603E0,3.2533202E-1,-6.478372E-1,-1.5427691E0,1.0469946E0,-2.2908624E-2,-1.3837331E-2,1.1344814E0,5.16931E-1,-2.0291774E-2,-2.127057E-2,-9.127846E-3,1.0125024E0,-4.561771E-1,-2.3967183E-1,-1.2118741E0,-1.6102395E0,1.542496E-3,3.3505172E-1,1.3891667E0,1.2308551E0,5.0330937E-1,1.0566411E0,-3.8396474E-2,1.2196395E0,-4.12951E-3,5.5820227E-1,-1.1824639E0,1.7297667E-1,-8.956243E-1,-1.3627063E0,4.774896E-3,-1.6957616E0,-7.5952554E-1,-8.969314E-3,1.334771E-2,2.1313477E-2,8.3409184E-1,1.8188998E-2,1.2386055E-2,9.990371E-3,-1.2207912E-2,-1.4482735E-3,1.6164089E-2,-4.36882E-3,2.2623817E-2,8.486289E-3,1.9120963E-2,2.158204E-2,-5.1300926E-3,6.003987E-4,-1.9768955E-2,7.7584297E-3,-7.248193E-3,-1.8606553E-2,3.839652E-4,-2.1124005E-2,-1.2874278E-2,-1.6630871E-2,-2.177758E-2,6.423302E-3,-2.2609869E-2,1.9864142E-2,4.8600754E-4],"categories":[],"categories_nodes":[],"categories_segments":[],"categories_sizes":[],"default_left":[0,1,0,0,0,1,0,0,1,0,1,0,0,0,0,0,0,0,0,0,0,0,0,0,0,0,0,0,1,1,0,0,1,0,0,1,1,1,0,0,0,0,0,0,0,0,0,0,0,0,0,0,0,0,0,0,0,0,0,0,0,0,0,0,0,0,0,0,0,0,0,0,0],"id":11,"left_children":[1,3,5,7,9,11,13,15,17,19,21,23,25,27,-1,-1,29,31,-1,-1,-1,33,35,37,39,41,-1,43,45,47,49,51,53,55,-1,57,59,61,63,65,-1,67,69,-1,-1,-1,71,-1,-1,-1,-1,-1,-1,-1,-1,-1,-1,-1,-1,-1,-1,-1,-1,-1,-1,-1,-1,-1,-1,-1,-1,-1,-1],"loss_changes":[6.243966E2,9.928223E1,1.6806549E2,5.4363953E1,7.033001E1,8.611008E1,5.4366783E1,3.6510925E1,4.867565E1,7.5137367E0,6.872341E1,5.7855125E1,2.1158081E1,1.3627735E1,0E0,0E0,2.2001343E1,3.0012196E1,0E0,0E0,0E0,1.9039764E1,4.4111458E1,3.9464695E1,2.549324E1,1.3139496E1,0E0,1.46464E1,7.380432E0,1.7526367E1,2.2490364E1,1.5741062E1,2.965354E1,1.0638504E1,0E0,2.9416397E1,1.858398E1,3.1553358E1,3.2586327E1,1.0882843E1,0E0,4.6062317E0,2.3042353E1,0E0,0E0,0E0,9.18441E0,0E0,0E0,0E0,0E0,0E0,0E0,0E0,0E0,0E0,0E0,0E0,0E0,0E0,0E0,0E0,0E0,0E0,0E0,0E0,0E0,0E0,0E0,0E0,0E0,0E0,0E0],"parents":[2147483647,0,0,1,1,2,2,3,3,4,4,5,5,6,6,7,7,8,8,9,9,10,10,11,11,12,12,13,13,16,16,17,17,21,21,22,22,23,23,24,24,25,25,27,27,28,28,29,29,30,30,31,31,32,32,33,33,35,35,36,36,37,37,38,38,39,39,41,41,42,42,46,46],"right_children":[2,4,6,8,10,12,14,16,18,20,22,24,26,28,-1,-1,30,32,-1,-1,-1,34,36,38,40,42,-1,44,46,48,50,52,54,56,-1,58,60,62,64,66,-1,68,70,-1,-1,-1,72,-1,-1,-1,-1,-1,-1,-1,-1,-1,-1,-1,-1,-1,-1,-1,-1,-1,-1,-1,-1,-1,-1,-1,-1,-1,-1],"split_conditions":[5.60251E-1,2.378E-1,4.999E1,8.986E-1,3.5E1,7.5E1,1.6E1,1.282E-1,3.51E2,8.1E1,2E0,6.48907E-1,1.23E2,5.7E1,-2.2908624E-2,-1.3837331E-2,2.62E2,6.66E0,-2.0291774E-2,-2.127057E-2,-9.127846E-3,7.00463E-1,7.576E-1,8.899E-1,4.26E2,1.4203E4,1.542496E-3,3.2E1,4.170465E1,4.76E-1,5.1E1,3.61183E-1,1.45E1,1.35E1,-4.12951E-3,8.99E0,4.17E-1,1.19075E-1,7.499E-1,5E0,4.774896E-3,5.92955E-1,1.3034E3,-8.969314E-3,1.334771E-2,2.1313477E-2,9.375E-1,1.8188998E-2,1.2386055E-2,9.990371E-3,-1.2207912E-2,-1.4482735E-3,1.6164089E-2,-4.36882E-3,2.2623817E-2,8.486289E-3,1.9120963E-2,2.158204E-2,-5.1300926E-3,6.003987E-4,-1.9768955E-2,7.7584297E-3,-7.248193E-3,-1.8606553E-2,3.839652E-4,-2.1124005E-2,-1.2874278E-2,-1.6630871E-2,-2.177758E-2,6.423302E-3,-2.2609869E-2,1.9864142E-2,4.8600754E-4],"split_indices":[58,11,46,36,35,17,3,31,24,48,24,58,0,6,0,0,0,45,0,0,0,59,36,36,53,17,0,0,5,50,48,58,31,31,0,46,50,57,57,41,0,58,15,0,0,0,44,0,0,0,0,0,0,0,0,0,0,0,0,0,0,0,0,0,0,0,0,0,0,0,0,0,0],"split_type":[0,0,0,0,0,0,0,0,0,0,0,0,0,0,0,0,0,0,0,0,0,0,0,0,0,0,0,0,0,0,0,0,0,0,0,0,0,0,0,0,0,0,0,0,0,0,0,0,0,0,0,0,0,0,0,0,0,0,0,0,0,0,0,0,0,0,0,0,0,0,0,0,0],"sum_hessian":[1.1426462E3,6.4027954E2,5.023667E2,4.805725E2,1.5970705E2,4.3921765E2,6.3149048E1,3.6896536E2,1.1160716E2,3.173797E1,1.2796907E2,2.5130531E2,1.8791234E2,5.5943768E1,7.2052794E0,7.260421E0,3.6170493E2,1.0013439E2,1.1472771E1,1.894111E1,1.279686E1,6.809472E1,5.987435E1,1.4579868E2,1.05506645E2,1.8061026E2,7.3020806E0,1.8160002E1,3.7783768E1,3.1379156E2,4.7913372E1,5.0781548E1,4.9352844E1,5.903577E1,9.058949E0,2.4982176E1,3.4892178E1,8.9497086E1,5.6301582E1,9.6427605E1,9.079041E0,1.6411177E2,1.6498493E1,7.5237517E0,1.0636249E1,2.3122421E1,1.46613455E1,1.4498497E2,1.688066E2,3.9648487E1,8.264884E0,9.311138E0,4.147041E1,4.2224503E1,7.1283393E0,2.3265596E1,3.5770176E1,1.1188591E1,1.3793586E1,9.068382E0,2.5823793E1,5.5855515E1,3.364157E1,3.3642597E1,2.2658983E1,4.4498238E1,5.1929367E1,3.2501186E1,1.3161058E2,7.5647516E0,8.933743E0,7.3571715E0,7.304174E0],"tree_param":{"num_deleted":"0","num_feature":"76","num_nodes":"73","size_leaf_vector":"1"}},{"base_weights":[-4.707252E-2,5.973411E-1,-8.318554E-1,7.520884E-1,-3.7178034E-1,-3.035432E-1,-1.3728961E0,9.203353E-1,1.5259065E-1,-1.972763E-2,7.888799E-2,-8.337049E-1,1.4148575E-1,-5.41551E-1,-1.4992696E0,1.1107777E0,4.0347293E-1,1.0853443E0,-3.434277E-1,-4.688011E-1,1.0139184E0,-5.64858E-1,-2.1522067E-2,-5.446431E-1,7.4834085E-1,1.5522695E-2,-1.0587988E0,-5.56383E-1,-1.5753893E0,1.1663624E0,2.356264E-1,1.0944942E0,-8.273089E-2,-9.3791885E-3,1.8253E-2,5.5292094E-1,-9.782771E-1,1.2790638E-2,-1.1867466E0,2.0817515E-2,1.6044821E-3,1.3123851E-2,-7.421202E-1,4.704825E-1,-9.89367E-1,1.0796455E0,-5.483639E-1,-2.0487653E-2,3.003699E-4,8.23871E-3,-1.8392652E-2,-2.1643696E-2,-1.3725548E0,1.514476E-2,-9.875823E-4,-1.5737144E-2,1.6036134E-2,2.2087966E-3,1.6712647E-2,-1.254054E-2,5.0174347E-3,7.050353E-4,2.3509571E-2,-5.1291925E-3,-2.1449467E-2,-2.08411E-3,-1.8984385E-2,-1.538907E-2,-3.2341578E-3,1.2318274E-2,-4.4999607E-3,-1.6453508E-2,1.1518294E-2,1.1872759E-3,1.5257277E-2,6.7360355E-3,-1.8608984E-2,-1.9592997E-2,-1.1839843E-2],"categories":[],"categories_nodes":[],"categories_segments":[],"categories_sizes":[],"default_left":[0,1,1,1,1,1,0,0,1,0,1,0,0,0,0,1,1,0,0,1,0,0,0,0,0,0,0,0,1,1,1,1,0,0,0,1,1,0,0,0,0,0,0,0,1,0,0,0,0,0,0,0,0,0,0,0,0,0,0,0,0,0,0,0,0,0,0,0,0,0,0,0,0,0,0,0,0,0,0],"id":12,"left_children":[1,3,5,7,9,11,13,15,17,-1,19,21,23,25,27,29,31,33,35,37,39,41,-1,43,45,-1,47,49,51,53,55,57,59,-1,-1,61,63,-1,65,-1,-1,-1,67,69,71,73,75,-1,-1,-1,-1,-1,77,-1,-1,-1,-1,-1,-1,-1,-1,-1,-1,-1,-1,-1,-1,-1,-1,-1,-1,-1,-1,-1,-1,-1,-1,-1,-1],"loss_changes":[5.683769E2,9.255107E1,1.4484848E2,5.3675232E1,4.747803E1,6.049266E1,2.6302094E1,4.090219E1,5.3956127E1,0E0,3.1914612E1,2.9079025E1,5.8038136E1,3.092213E1,1.5597107E1,1.4770782E1,3.7591125E1,3.0416607E1,4.3323734E1,4.2708736E1,1.3954895E1,2.6302145E1,0E0,2.9534199E1,3.1776588E1,0E0,1.7113972E1,1.8883677E1,7.8587036E0,2.5217163E1,2.9638773E1,1.143647E1,3.0466703E1,0E0,0E0,2.1381971E1,1.9290321E1,0E0,9.865238E0,0E0,0E0,0E0,2.0130722E1,8.949449E0,3.1149601E1,9.652077E0,1.6071161E1,0E0,0E0,0E0,0E0,0E0,9.0538025E0,0E0,0E0,0E0,0E0,0E0,0E0,0E0,0E0,0E0,0E0,0E0,0E0,0E0,0E0,0E0,0E0,0E0,0E0,0E0,0E0,0E0,0E0,0E0,0E0,0E0,0E0],"parents":[2147483647,0,0,1,1,2,2,3,3,4,4,5,5,6,6,7,7,8,8,10,10,11,11,12,12,13,13,14,14,15,15,16,16,17,17,18,18,19,19,20,20,21,21,23,23,24,24,26,26,27,27,28,28,29,29,30,30,31,31,32,32,35,35,36,36,38,38,42,42,43,43,44,44,45,45,46,46,52,52],"right_children":[2,4,6,8,10,12,14,16,18,-1,20,22,24,26,28,30,32,34,36,38,40,42,-1,44,46,-1,48,50,52,54,56,58,60,-1,-1,62,64,-1,66,-1,-1,-1,68,70,72,74,76,-1,-1,-1,-1,-1,78,-1,-1,-1,-1,-1,-1,-1,-1,-1,-1,-1,-1,-1,-1,-1,-1,-1,-1,-1,-1,-1,-1,-1,-1,-1,-1],"split_conditions":[2E0,2.169E-1,2.17E0,4.05144E-1,5.86333E-1,1.820395E1,7.027E-1,8.953E-1,5.711222E-1,-1.972763E-2,5.15E-2,2.4324E2,7.29133E-1,1.21056E-1,5.49E0,1.3379213E2,1.3416667E1,1.05E3,6.683E-1,3.9959973E-1,1E0,1.00951E-1,-2.1522067E-2,6.66E0,9.382E-1,1.5522695E-2,3.2E1,7.25E0,4.4E-3,4.02E2,2.5E0,4.87053E-1,1.05E3,-9.3791885E-3,1.8253E-2,6.82E2,3.175E1,1.2790638E-2,4.655E-1,2.0817515E-2,1.6044821E-3,1.3123851E-2,4.3E1,8.696E-1,1.4E1,8.998999E-1,6.66E0,-2.0487653E-2,3.003699E-4,8.23871E-3,-1.8392652E-2,-2.1643696E-2,7.084E-1,1.514476E-2,-9.875823E-4,-1.5737144E-2,1.6036134E-2,2.2087966E-3,1.6712647E-2,-1.254054E-2,5.0174347E-3,7.050353E-4,2.3509571E-2,-5.1291925E-3,-2.1449467E-2,-2.08411E-3,-1.8984385E-2,-1.538907E-2,-3.2341578E-3,1.2318274E-2,-4.4999607E-3,-1.6453508E-2,1.1518294E-2,1.1872759E-3,1.5257277E-2,6.7360355E-3,-1.8608984E-2,-1.9592997E-2,-1.1839843E-2],"split_indices":[2,19,14,61,63,5,39,36,52,0,40,10,63,61,45,5,4,55,39,52,27,61,0,45,36,0,0,31,40,24,31,63,55,0,0,10,4,0,31,0,0,0,43,39,31,52,45,0,0,0,0,0,63,0,0,0,0,0,0,0,0,0,0,0,0,0,0,0,0,0,0,0,0,0,0,0,0,0,0],"split_type":[0,0,0,0,0,0,0,0,0,0,0,0,0,0,0,0,0,0,0,0,0,0,0,0,0,0,0,0,0,0,0,0,0,0,0,0,0,0,0,0,0,0,0,0,0,0,0,0,0,0,0,0,0,0,0,0,0,0,0,0,0,0,0,0,0,0,0,0,0,0,0,0,0,0,0,0,0,0,0],"sum_hessian":[1.1238856E3,6.171341E2,5.0675153E2,5.3216016E2,8.497392E1,2.56392E2,2.5035954E2,4.155399E2,1.1662028E2,2.2653942E1,6.2319977E1,1.17005005E2,1.3938698E2,3.303594E1,2.173236E2,3.0365494E2,1.1188497E2,4.04866E1,7.613368E1,3.9299915E1,2.3020061E1,9.0644264E1,2.636074E1,6.542028E1,7.39667E1,7.343569E0,2.569237E1,1.6234377E1,2.0108922E2,2.8552E2,1.8134949E1,4.6209698E1,6.567527E1,7.277446E0,3.3209152E1,3.1565542E1,4.456814E1,1.2643213E1,2.6656702E1,1.29484215E1,1.0071641E1,8.856428E0,8.1787834E1,1.9929205E1,4.5491077E1,5.891446E1,1.505224E1,1.6390303E1,9.302068E0,7.0600715E0,9.174305E0,1.0312047E2,9.796876E1,2.7017618E2,1.5343799E1,7.5063863E0,1.0628563E1,1.05607195E1,3.564898E1,2.2555956E1,4.3119316E1,2.317284E1,8.392702E0,2.5872488E1,1.869565E1,7.0303288E0,1.9626373E1,3.9365517E1,4.2422318E1,1.2157236E1,7.7719684E0,3.842915E1,7.0619283E0,8.546462E0,5.0367996E1,7.0649753E0,7.9872646E0,6.2699482E1,3.526927E1],"tree_param":{"num_deleted":"0","num_feature":"76","num_nodes":"79","size_leaf_vector":"1"}},{"base_weights":[3.1421673E-2,7.1349657E-1,-6.643381E-1,-4.8309345E-2,1.0076755E0,3.5820833E-1,-8.934886E-1,4.345898E-1,-8.64262E-1,1.1959113E0,4.875279E-1,-4.6456102E-1,7.454503E-1,-4.2587087E-1,-1.4424206E0,-6.214945E-1,6.8433815E-1,3.3221447E-1,-1.2337046E0,-2.9634356E-1,1.277389E0,1.2080754E0,1.3436005E-1,9.766358E-3,-9.07458E-1,1.5209912E-1,1.8295811E-2,-1.1158755E0,-1.6460966E-2,-1.5123211E0,5.5510933E-3,5.290299E-3,-2.0997768E-2,-9.060765E-3,8.8403064E-1,-8.473601E-3,1.646823E-2,-7.4290997E-1,-2.1222772E-2,9.010614E-3,-1.8609446E-2,5.4584813E-1,1.3965179E0,1.857623E-2,-3.2609928E-4,-5.926992E-1,5.0475097E-1,-2.5445563E-1,-2.3298366E-2,-5.795018E-1,7.4353665E-1,8.992459E-3,-1.3163012E0,-2.263771E-2,1.549739E-1,-1.5821723E0,-6.410674E-1,1.3267222E-2,-3.7396934E-3,-2.3111088E-2,-2.3865062E-3,1.6829824E-2,-1.5669874E-3,1.2093702E-2,1.858483E-2,1.5909028E-3,-2.3840163E-2,1.1073375E-2,-8.931097E-3,-1.3599092E-2,8.3688665E-3,-1.655397E-2,6.9367676E-3,-3.799887E-3,1.8325923E-2,-1.9709086E-2,-1.089113E-2,3.863404E-3,-1.9723421E-2,-1.3927019E-2,-2.0597588E-2,4.988996E-3,-2.2241333E-2],"categories":[],"categories_nodes":[],"categories_segments":[],"categories_sizes":[],"default_left":[1,0,0,1,1,0,1,1,0,0,0,0,0,0,0,0,0,0,0,1,0,0,1,0,0,0,0,0,0,0,0,0,0,0,1,0,0,0,0,0,0,0,0,0,0,0,0,0,0,0,0,0,0,0,1,0,0,0,0,0,0,0,0,0,0,0,0,0,0,0,0,0,0,0,0,0,0,0,0,0,0,0,0],"id":13,"left_children":[1,3,5,7,9,11,13,15,17,19,21,23,25,27,29,31,33,35,37,39,41,43,45,-1,47,49,-1,51,53,55,-1,-1,-1,-1,57,-1,-1,59,-1,-1,-1,61,63,-1,-1,65,67,69,-1,71,73,-1,75,-1,77,79,81,-1,-1,-1,-1,-1,-1,-1,-1,-1,-1,-1,-1,-1,-1,-1,-1,-1,-1,-1,-1,-1,-1,-1,-1,-1,-1],"loss_changes":[5.421521E2,1.2928534E2,1.3251614E2,6.3323887E1,4.074759E1,3.2987293E1,1.1859213E2,2.6628767E1,2.6411915E1,3.7155426E1,2.8141779E1,1.8525442E1,3.129293E1,7.047696E1,2.8165009E1,2.2254469E1,2.3226963E1,1.4630174E1,1.1202545E1,1.9991297E1,2.5251862E1,1.389777E1,1.9985695E1,0E0,1.5949284E1,1.69987E1,0E0,3.445671E1,4.9198982E1,1.2473236E1,0E0,0E0,0E0,0E0,1.7018295E1,0E0,0E0,1.4455094E1,0E0,0E0,0E0,2.2669083E1,1.238855E1,0E0,0E0,2.4523731E1,2.4266033E1,1.1902874E1,0E0,1.5555595E1,1.7252934E1,0E0,1.0503433E1,0E0,4.062163E1,8.471649E0,1.8759039E1,0E0,0E0,0E0,0E0,0E0,0E0,0E0,0E0,0E0,0E0,0E0,0E0,0E0,0E0,0E0,0E0,0E0,0E0,0E0,0E0,0E0,0E0,0E0,0E0,0E0,0E0],"parents":[2147483647,0,0,1,1,2,2,3,3,4,4,5,5,6,6,7,7,8,8,9,9,10,10,11,11,12,12,13,13,14,14,15,15,16,16,17,17,18,18,19,19,20,20,21,21,22,22,24,24,25,25,27,27,28,28,29,29,34,34,37,37,41,41,42,42,45,45,46,46,47,47,49,49,50,50,52,52,54,54,55,55,56,56],"right_children":[2,4,6,8,10,12,14,16,18,20,22,24,26,28,30,32,34,36,38,40,42,44,46,-1,48,50,-1,52,54,56,-1,-1,-1,-1,58,-1,-1,60,-1,-1,-1,62,64,-1,-1,66,68,70,-1,72,74,-1,76,-1,78,80,82,-1,-1,-1,-1,-1,-1,-1,-1,-1,-1,-1,-1,-1,-1,-1,-1,-1,-1,-1,-1,-1,-1,-1,-1,-1,-1],"split_conditions":[1E-1,0E0,6.67688E-1,5E0,6.94E-1,9E2,4.3E1,2E1,4.9371E-1,4.19E-2,6.958E-1,6.296E-1,3.33E2,0E0,9.02E1,9.9E-1,6.5E1,2.04E2,1.39E1,9.09375E0,1.3333E0,5.1E1,2E-1,9.766358E-3,6.9E1,6.62452E-1,1.8295811E-2,5.605E1,5.75E2,1.4203E4,5.5510933E-3,5.290299E-3,-2.0997768E-2,-9.060765E-3,2.1533E2,-8.473601E-3,1.646823E-2,7.8E1,-2.1222772E-2,9.010614E-3,-1.8609446E-2,7.553E-1,1.025E3,1.857623E-2,-3.2609928E-4,3.3E2,9.061E-1,4.2E1,-2.3298366E-2,4.225E3,4E1,8.992459E-3,1.6E1,-2.263771E-2,9.87E-1,3.86E-1,5.6E1,1.3267222E-2,-3.7396934E-3,-2.3111088E-2,-2.3865062E-3,1.6829824E-2,-1.5669874E-3,1.2093702E-2,1.858483E-2,1.5909028E-3,-2.3840163E-2,1.1073375E-2,-8.931097E-3,-1.3599092E-2,8.3688665E-3,-1.655397E-2,6.9367676E-3,-3.799887E-3,1.8325923E-2,-1.9709086E-2,-1.089113E-2,3.863404E-3,-1.9723421E-2,-1.3927019E-2,-2.0597588E-2,4.988996E-3,-2.2241333E-2],"split_indices":[8,51,62,24,50,55,17,48,63,18,36,36,53,51,4,46,30,17,16,4,31,48,31,0,6,63,0,10,55,17,0,0,0,0,10,0,0,30,0,0,0,36,55,0,0,53,38,6,0,55,0,0,42,0,50,8,6,0,0,0,0,0,0,0,0,0,0,0,0,0,0,0,0,0,0,0,0,0,0,0,0,0,0],"split_type":[0,0,0,0,0,0,0,0,0,0,0,0,0,0,0,0,0,0,0,0,0,0,0,0,0,0,0,0,0,0,0,0,0,0,0,0,0,0,0,0,0,0,0,0,0,0,0,0,0,0,0,0,0,0,0,0,0,0,0,0,0,0,0,0,0,0,0,0,0,0,0,0,0,0,0,0,0,0,0,0,0,0,0],"sum_hessian":[1.1424303E3,5.768888E2,5.655415E2,1.6071086E2,4.1617792E2,1.0353446E2,4.6200702E2,1.0096004E2,5.975082E1,3.055883E2,1.1058963E2,3.313404E1,7.040042E1,2.494819E2,2.1252512E2,1.9308964E1,8.165107E1,1.4096624E1,4.5654198E1,1.58212E1,2.897671E2,3.637498E1,7.421465E1,8.605425E0,2.4528616E1,3.9285393E1,3.1115028E1,9.290403E1,1.5657788E2,2.0496823E2,7.556893E0,9.8349E0,9.474065E0,1.0038589E1,7.161249E1,7.008916E0,7.087708E0,2.3039455E1,2.2614742E1,8.581674E0,7.239527E0,4.057972E1,2.4918736E2,2.9086058E1,7.2889233E0,2.5047249E1,4.91674E1,1.4814346E1,9.71427E0,1.7561493E1,2.1723898E1,9.078956E0,8.382507E1,1.3393065E1,1.4318481E2,1.8975462E2,1.5213609E1,6.1315098E1,1.0297386E1,7.456714E0,1.5582741E1,1.8195608E1,2.238411E1,5.718584E1,1.9200153E2,1.6334293E1,8.712955E0,3.7137638E1,1.2029761E1,7.7443695E0,7.069977E0,1.0489356E1,7.072137E0,9.056332E0,1.2667566E1,4.9641903E1,3.418317E1,1.3124835E2,1.1936466E1,3.49823E1,1.5477231E2,8.041702E0,7.171906E0],"tree_param":{"num_deleted":"0","num_feature":"76","num_nodes":"83","size_leaf_vector":"1"}},{"base_weights":[6.558381E-2,7.28744E-1,-6.153306E-1,-3.394101E-1,8.871034E-1,5.289008E-1,-8.370763E-1,1.2123188E-2,-5.9158546E-1,1.0259305E0,3.7696693E-2,9.826409E-1,-3.2610223E-1,-4.1830635E-1,-1.4138501E0,-8.5978836E-1,1.20958565E-2,1.17108E0,5.6292814E-1,5.359522E-1,-1.3762915E0,1.2789223E0,-2.2835913E-3,-8.798595E-1,1.4905204E-2,-1.3230689E0,-1.4431761E-1,-2.4866357E-3,-1.5061841E0,-1.2191794E0,2.098007E-3,-7.4634893E-4,1.2130452E0,9.2862105E-1,-1.1611518E0,1.7644887E-1,1.959682E-2,-2.2612914E-2,-7.955051E-3,1.5488809E0,6.7651365E-3,6.203086E-3,-1.8577397E-2,-1.5504062E0,-1.4328981E-3,-3.8050807E-1,8.661576E-1,-3.8320774E-3,-1.5761077E0,-2.0547789E-2,-4.357468E-3,9.344736E-3,1.5806703E-2,1.4082919E-2,-5.4389127E-3,-2.440018E-2,-6.117139E-3,-3.801492E-3,1.6202018E-2,2.1419907E-2,1.1758494E-2,-9.147918E-3,-2.146129E-2,-7.193237E-3,8.018003E-3,1.5445618E-2,3.3297767E-3,-2.018874E-2,-8.829695E-3],"categories":[],"categories_nodes":[],"categories_segments":[],"categories_sizes":[],"default_left":[1,0,0,0,1,0,1,0,0,0,0,0,0,0,1,0,0,0,1,0,0,0,0,0,0,0,0,0,0,1,0,0,0,0,0,0,0,0,0,0,0,0,0,0,0,0,1,0,0,0,0,0,0,0,0,0,0,0,0,0,0,0,0,0,0,0,0,0,0],"id":14,"left_children":[1,3,5,7,9,11,13,-1,15,17,19,21,23,25,27,29,-1,31,33,35,37,39,-1,41,-1,43,45,-1,47,49,-1,-1,51,53,55,57,-1,-1,-1,59,-1,-1,-1,61,-1,63,65,-1,67,-1,-1,-1,-1,-1,-1,-1,-1,-1,-1,-1,-1,-1,-1,-1,-1,-1,-1,-1,-1],"loss_changes":[5.140735E2,9.755786E1,1.4252092E2,2.4970528E1,5.922879E1,3.5375076E1,1.13647156E2,0E0,2.6520285E1,2.9012909E1,4.971159E1,2.0636284E1,2.702433E1,6.757557E1,2.2125214E1,1.9830978E1,0E0,1.6994171E1,6.496513E1,1.997447E1,6.2893257E0,9.317734E0,0E0,2.057515E1,0E0,1.737175E1,4.9937313E1,0E0,1.5341644E1,1.5734589E1,0E0,0E0,1.1178284E1,2.5889381E1,9.923336E0,2.1791199E1,0E0,0E0,0E0,4.0948257E0,0E0,0E0,0E0,8.681412E0,0E0,3.6372383E1,9.317072E0,0E0,1.0857574E1,0E0,0E0,0E0,0E0,0E0,0E0,0E0,0E0,0E0,0E0,0E0,0E0,0E0,0E0,0E0,0E0,0E0,0E0,0E0,0E0],"parents":[2147483647,0,0,1,1,2,2,3,3,4,4,5,5,6,6,8,8,9,9,10,10,11,11,12,12,13,13,14,14,15,15,17,17,18,18,19,19,20,20,21,21,23,23,25,25,26,26,28,28,29,29,32,32,33,33,34,34,35,35,39,39,43,43,45,45,46,46,48,48],"right_children":[2,4,6,8,10,12,14,-1,16,18,20,22,24,26,28,30,-1,32,34,36,38,40,-1,42,-1,44,46,-1,48,50,-1,-1,52,54,56,58,-1,-1,-1,60,-1,-1,-1,62,-1,64,66,-1,68,-1,-1,-1,-1,-1,-1,-1,-1,-1,-1,-1,-1,-1,-1,-1,-1,-1,-1,-1,-1],"split_conditions":[7.69E-2,5.1E1,6.833E-1,7E0,8.34E-2,2.2077E2,7.3E1,1.2123188E-2,6.9327E2,9.016E-1,8.86154E-1,8.43434E-1,1.8189263E0,8.75E2,1.9946632E-1,2.4E0,1.20958565E-2,4.545E-1,3.9666668E1,1E0,5.13E2,1E0,-2.2835913E-3,6E0,1.4905204E-2,3.5732665E0,6.5E1,-2.4866357E-3,7.133E1,3.03E-2,2.098007E-3,-7.4634893E-4,1.45E2,1E1,9.5997334E-1,8.95E-2,1.959682E-2,-2.2612914E-2,-7.955051E-3,3.387226E-1,6.7651365E-3,6.203086E-3,-1.8577397E-2,8.108E-1,-1.4328981E-3,3.25E2,6.664443E-1,-3.8320774E-3,1.4203E4,-2.0547789E-2,-4.357468E-3,9.344736E-3,1.5806703E-2,1.4082919E-2,-5.4389127E-3,-2.440018E-2,-6.117139E-3,-3.801492E-3,1.6202018E-2,2.1419907E-2,1.1758494E-2,-9.147918E-3,-2.146129E-2,-7.193237E-3,8.018003E-3,1.5445618E-2,3.3297767E-3,-2.018874E-2,-8.829695E-3],"split_indices":[8,30,36,45,19,10,17,0,10,36,62,59,52,55,52,31,0,31,4,32,17,54,0,42,0,52,0,0,10,18,0,0,30,47,52,18,0,0,0,57,0,0,0,36,0,30,52,0,17,0,0,0,0,0,0,0,0,0,0,0,0,0,0,0,0,0,0,0,0],"split_type":[0,0,0,0,0,0,0,0,0,0,0,0,0,0,0,0,0,0,0,0,0,0,0,0,0,0,0,0,0,0,0,0,0,0,0,0,0,0,0,0,0,0,0,0,0,0,0,0,0,0,0,0,0,0,0,0,0,0,0,0,0,0,0,0,0,0,0,0,0],"sum_hessian":[1.1384508E3,5.767447E2,5.617061E2,7.446525E1,5.0227942E2,9.118425E1,4.7052185E2,1.1870244E1,6.2595E1,4.3171887E2,7.056056E1,5.9571E1,3.1613255E1,2.7259976E2,1.9792207E2,5.3510216E1,9.0847845E0,3.2867862E2,1.0304024E2,5.217543E1,1.8385136E1,4.752746E1,1.204354E1,2.326715E1,8.346103E0,6.3362762E1,2.09237E2,1.4024994E1,1.8389708E2,3.968077E1,1.3829445E1,1.0826203E1,3.1785242E2,8.50092E1,1.803103E1,3.90074E1,1.3168031E1,1.115352E1,7.2316165E0,3.464816E1,1.2879299E1,7.329852E0,1.5937299E1,5.331286E1,1.0049905E1,1.695957E2,3.9641308E1,1.0180872E1,1.737162E2,2.5898058E1,1.3782713E1,4.709566E1,2.7075674E2,7.3185074E1,1.1824134E1,7.9850464E0,1.0045983E1,2.7382196E1,1.1625202E1,2.5827087E1,8.821071E0,1.0747849E1,4.256501E1,1.4132872E2,2.8266975E1,2.3796291E1,1.5845017E1,1.6002652E2,1.36896925E1],"tree_param":{"num_deleted":"0","num_feature":"76","num_nodes":"69","size_leaf_vector":"1"}},{"base_weights":[2.851275E-2,6.7402095E-1,-6.8551254E-1,8.5918516E-1,-2.4464041E-1,-8.9325243E-1,6.4987814E-1,1.053918E0,4.0342927E-1,5.2048177E-1,-8.8032174E-1,-5.421768E-1,-1.3013842E0,-6.535022E-1,1.1954E0,1.130126E0,1.963597E-1,-1.326444E0,6.0205096E-1,1.8663684E-2,1.5977564E-1,1.7223902E-1,-1.3533256E0,-1.0106727E0,-1.5093604E-1,-5.2207285E-1,-1.4952302E0,8.182928E-3,-2.0043893E-2,1.3870447E0,2.177698E-3,1.229397E0,7.048794E-1,6.1945313E-1,-1.0608909E-2,-8.586175E-3,-2.3189548E-2,-1.5798232E-1,8.796559E-1,1.8962502E-2,-3.6669934E-1,-9.549717E-3,1.2057054E-2,1.6248799E-3,-2.0970907E-2,5.439411E-3,-1.1335597E0,7.17674E-2,-1.3955004E0,-6.268E-2,-1.9113697E-2,-8.1981456E-1,-1.622048E0,2.0527108E-2,5.049063E-3,1.1133498E-3,1.5442519E-2,7.0087693E-4,1.3174123E-2,1.6068347E-2,9.396312E-4,-1.0422103E-2,7.6547586E-3,2.5730631E-3,1.4080655E-2,-1.2445023E-2,1.05843395E-2,-1.8125439E-2,-6.733614E-3,1.4610949E-2,-1.3697401E-3,-7.0487424E-3,-2.2248972E-2,-7.2032246E-3,1.4302643E-2,-4.9320725E-4,-1.7354593E-2,-1.1534992E-2,-2.0532895E-2],"categories":[],"categories_nodes":[],"categories_segments":[],"categories_sizes":[],"default_left":[0,1,0,0,0,1,0,0,0,1,1,0,1,0,1,1,1,1,1,0,0,1,0,0,0,0,0,0,0,0,0,0,0,1,0,0,0,0,0,0,0,0,0,0,0,0,0,0,0,0,0,0,0,0,0,0,0,0,0,0,0,0,0,0,0,0,0,0,0,0,0,0,0,0,0,0,0,0,0],"id":15,"left_children":[1,3,5,7,9,11,13,15,17,19,21,23,25,27,29,31,33,35,37,-1,39,41,43,45,47,49,51,-1,-1,53,-1,55,57,59,-1,-1,-1,61,63,-1,65,-1,-1,-1,-1,-1,67,69,71,73,-1,75,77,-1,-1,-1,-1,-1,-1,-1,-1,-1,-1,-1,-1,-1,-1,-1,-1,-1,-1,-1,-1,-1,-1,-1,-1,-1,-1],"loss_changes":[5.1960077E2,1.0071445E2,1.4848906E2,4.3732056E1,4.8306442E1,6.636963E1,5.1235016E1,2.2562195E1,5.0684288E1,1.6324444E1,2.7008919E1,4.5641403E1,3.2357117E1,2.7653675E1,9.904915E0,1.3384216E1,1.2672527E1,5.392174E0,2.7918644E1,0E0,2.4254145E1,1.3018391E1,2.001332E1,2.0261421E1,3.7610016E1,2.0371273E1,1.4691589E1,0E0,0E0,1.20733795E1,0E0,9.397156E0,1.4430498E1,7.5816083E0,0E0,0E0,0E0,1.9227736E1,1.755754E1,0E0,1.9244741E1,0E0,0E0,0E0,0E0,0E0,2.1162827E1,2.371414E1,7.123951E0,1.9150867E1,0E0,1.2637516E1,5.4273376E0,0E0,0E0,0E0,0E0,0E0,0E0,0E0,0E0,0E0,0E0,0E0,0E0,0E0,0E0,0E0,0E0,0E0,0E0,0E0,0E0,0E0,0E0,0E0,0E0,0E0,0E0],"parents":[2147483647,0,0,1,1,2,2,3,3,4,4,5,5,6,6,7,7,8,8,9,9,10,10,11,11,12,12,13,13,14,14,15,15,16,16,17,17,18,18,20,20,21,21,22,22,23,23,24,24,25,25,26,26,29,29,31,31,32,32,33,33,37,37,38,38,40,40,46,46,47,47,48,48,49,49,51,51,52,52],"right_children":[2,4,6,8,10,12,14,16,18,20,22,24,26,28,30,32,34,36,38,-1,40,42,44,46,48,50,52,-1,-1,54,-1,56,58,60,-1,-1,-1,62,64,-1,66,-1,-1,-1,-1,-1,68,70,72,74,-1,76,78,-1,-1,-1,-1,-1,-1,-1,-1,-1,-1,-1,-1,-1,-1,-1,-1,-1,-1,-1,-1,-1,-1,-1,-1,-1,-1],"split_conditions":[5.477E-1,6.68E-2,3.5732665E0,8.684E-1,7.206E-1,1.46E-2,1.5425845E1,1E0,5.6768E-1,1.0128E2,4.54E-1,2.0902054E1,2.308E-1,8.088E-1,6.780011E1,7.69E-2,3.2400074E1,1.7166035E1,8.333E-1,1.8663684E-2,4.516E-1,1.25395E-1,1.0294E0,4.545E-1,9.98E-1,3E0,4.79E0,8.182928E-3,-2.0043893E-2,9.5E0,2.177698E-3,4.545E-1,8.4E1,4.53299E-1,-1.0608909E-2,-8.586175E-3,-2.3189548E-2,1.75E2,1.17E2,1.8962502E-2,5.762834E1,-9.549717E-3,1.2057054E-2,1.6248799E-3,-2.0970907E-2,5.439411E-3,2.4E1,3.4953538E-1,7.212E-1,6.4E1,-1.9113697E-2,1.7206E2,2.59E-1,2.0527108E-2,5.049063E-3,1.1133498E-3,1.5442519E-2,7.0087693E-4,1.3174123E-2,1.6068347E-2,9.396312E-4,-1.0422103E-2,7.6547586E-3,2.5730631E-3,1.4080655E-2,-1.2445023E-2,1.05843395E-2,-1.8125439E-2,-6.733614E-3,1.4610949E-2,-1.3697401E-3,-7.0487424E-3,-2.2248972E-2,-7.2032246E-3,1.4302643E-2,-4.9320725E-4,-1.7354593E-2,-1.1534992E-2,-2.0532895E-2],"split_indices":[58,19,52,39,38,18,5,27,60,10,50,5,8,11,5,8,5,5,38,0,39,61,31,38,50,2,14,0,0,31,0,31,6,61,0,0,0,0,6,0,5,0,0,0,0,0,42,52,39,41,0,10,50,0,0,0,0,0,0,0,0,0,0,0,0,0,0,0,0,0,0,0,0,0,0,0,0,0,0],"split_type":[0,0,0,0,0,0,0,0,0,0,0,0,0,0,0,0,0,0,0,0,0,0,0,0,0,0,0,0,0,0,0,0,0,0,0,0,0,0,0,0,0,0,0,0,0,0,0,0,0,0,0,0,0,0,0,0,0,0,0,0,0,0,0,0,0,0,0,0,0,0,0,0,0,0,0,0,0,0,0],"sum_hessian":[1.1273387E3,5.9207715E2,5.352616E2,4.9275784E2,9.931931E1,4.632036E2,7.205796E1,3.4524344E2,1.475144E2,4.507064E1,5.4248672E1,2.4900761E2,2.14196E2,2.1260653E1,5.079731E1,3.1706653E2,2.8176882E1,1.5192795E1,1.3232161E2,1.1910949E1,3.315969E1,1.681968E1,3.7428993E1,1.1331562E2,1.35692E2,4.2666653E1,1.7152936E2,9.071621E0,1.2189032E1,4.2745884E1,8.051426E0,2.570574E2,6.0009125E1,2.0155138E1,8.021744E0,7.233022E0,7.959772E0,3.5400406E1,9.692121E1,9.112876E0,2.4046814E1,7.7442713E0,9.075408E0,7.295592E0,3.0133402E1,8.824774E0,1.04490845E2,1.15096306E2,2.059569E1,2.9588629E1,1.3078023E1,2.7115944E1,1.444134E2,3.294743E1,9.798453E0,7.052203E0,2.5000522E2,2.1868742E1,3.8140385E1,8.850207E0,1.1304931E1,1.8777967E1,1.6622438E1,2.7899612E1,6.90216E1,1.5739335E1,8.30748E0,6.551505E1,3.8975796E1,1.6192738E1,9.8903564E1,7.000288E0,1.3595402E1,2.0733994E1,8.854636E0,1.177041E1,1.5345535E1,1.0864641E1,1.3354877E2],"tree_param":{"num_deleted":"0","num_feature":"76","num_nodes":"79","size_leaf_vector":"1"}},{"base_weights":[-1.585269E-2,7.222293E-1,-7.1013683E-1,-2.8424773E-2,1.0004368E0,-1.2723405E0,-2.7548626E-1,4.0490204E-1,-1.0159451E0,1.0938987E0,-2.0606011E-1,2.1251772E-1,-1.3770134E0,1.3149652E-1,-9.378749E-1,-5.3175014E-1,7.324106E-1,5.897681E-3,-1.363702E0,1.1791352E0,2.4795215E-1,-7.205797E-1,1.6184371E-2,-7.60545E-3,1.5198011E-2,-1.0836161E0,-1.6112983E0,-9.5910454E-1,4.186902E-1,-1.837248E-2,-1.2586328E0,3.8674132E-3,-1.1828126E0,9.1829497E-1,-6.0988176E-3,-2.732576E-3,-2.0106489E-2,1.3319479E0,7.8386277E-1,9.571286E-1,-1.2767043E-2,4.7184783E-3,-1.6001504E-2,-1.2504522E0,-1.6392548E-1,-9.803642E-3,-1.6940181E0,5.4017575E-3,-1.3241494E0,7.454529E-1,-7.547893E-1,1.2424538E-2,-5.0468975E-1,-1.4086862E0,-2.2418585E-4,-3.8097077E-3,-2.4212841E-2,6.889544E-3,1.7228788E-2,1.7906776E-2,1.1485433E-2,1.12471E-2,-8.924632E-3,1.9687805E-2,5.253098E-3,-1.7817402E-2,-7.5197513E-3,-9.946542E-3,7.2235684E-3,-1.1419119E-2,-2.1343447E-2,-1.08509585E-2,-2.2691518E-2,1.247957E-2,-1.3393089E-2,5.340644E-3,-1.4299833E-2,3.7199804E-3,-1.8333973E-2,-6.8256482E-3,-1.9091057E-2],"categories":[],"categories_nodes":[],"categories_segments":[],"categories_sizes":[],"default_left":[1,0,0,1,0,0,1,0,0,0,1,0,1,0,0,0,1,0,1,0,0,0,0,0,0,0,0,1,1,1,0,0,0,0,0,0,0,1,0,0,0,0,0,0,1,0,0,0,1,0,0,0,0,0,0,0,0,0,0,0,0,0,0,0,0,0,0,0,0,0,0,0,0,0,0,0,0,0,0,0,0],"id":16,"left_children":[1,3,5,7,9,11,13,15,17,19,21,23,25,27,29,31,33,-1,35,37,39,41,-1,-1,-1,43,45,47,49,51,53,-1,55,57,-1,-1,-1,59,61,63,-1,-1,-1,65,67,-1,69,-1,71,73,75,-1,77,79,-1,-1,-1,-1,-1,-1,-1,-1,-1,-1,-1,-1,-1,-1,-1,-1,-1,-1,-1,-1,-1,-1,-1,-1,-1,-1,-1],"loss_changes":[5.652148E2,1.1165146E2,1.3888486E2,6.1862656E1,4.398465E1,3.851712E1,8.641221E1,3.0822317E1,2.2964188E1,2.6103333E1,2.2050026E1,1.4001922E1,1.5911957E1,6.2188217E1,3.5979782E1,1.436625E1,1.702996E1,0E0,1.1377106E1,1.9864777E1,3.0337307E1,1.361217E1,0E0,0E0,0E0,1.5770294E1,8.628113E0,2.1156986E1,6.0264084E1,1.5854785E1,1.6832169E1,0E0,1.02028885E1,1.124535E1,0E0,0E0,0E0,1.22196045E1,1.8717628E1,7.3531914E0,0E0,0E0,0E0,1.1348755E1,7.718877E0,0E0,4.4034424E0,0E0,7.60857E0,6.196457E1,1.6854063E1,0E0,1.7226414E1,1.0359451E1,0E0,0E0,0E0,0E0,0E0,0E0,0E0,0E0,0E0,0E0,0E0,0E0,0E0,0E0,0E0,0E0,0E0,0E0,0E0,0E0,0E0,0E0,0E0,0E0,0E0,0E0,0E0],"parents":[2147483647,0,0,1,1,2,2,3,3,4,4,5,5,6,6,7,7,8,8,9,9,10,10,11,11,12,12,13,13,14,14,15,15,16,16,18,18,19,19,20,20,21,21,25,25,26,26,27,27,28,28,29,29,30,30,32,32,33,33,37,37,38,38,39,39,43,43,44,44,46,46,48,48,49,49,50,50,52,52,53,53],"right_children":[2,4,6,8,10,12,14,16,18,20,22,24,26,28,30,32,34,-1,36,38,40,42,-1,-1,-1,44,46,48,50,52,54,-1,56,58,-1,-1,-1,60,62,64,-1,-1,-1,66,68,-1,70,-1,72,74,76,-1,78,80,-1,-1,-1,-1,-1,-1,-1,-1,-1,-1,-1,-1,-1,-1,-1,-1,-1,-1,-1,-1,-1,-1,-1,-1,-1,-1,-1],"split_conditions":[5.17991E-1,0E0,0E0,2.33543E-1,1.6E1,6.481E-1,2.23E0,4E0,4.25612E-1,7.616E-1,4.7012E2,1E0,2.64052E-1,8E2,6.968E-1,6.71066E-1,2.1533E2,5.897681E-3,-1.29E-1,3E0,4.3E1,3.45232E-1,1.6184371E-2,-7.60545E-3,1.5198011E-2,1E0,2.96E0,5E-1,7.03E-1,-1.6575E1,5.9421516E1,3.8674132E-3,2.1E1,4.2E1,-6.0988176E-3,-2.732576E-3,-2.0106489E-2,6.21E-1,5.3251E-1,1.86E-1,-1.2767043E-2,4.7184783E-3,-1.6001504E-2,1.26E-1,8.864E-1,-9.803642E-3,1.94E-2,5.4017575E-3,-1.215E-1,1.6E1,6.958E-1,1.2424538E-2,5.50704E-1,8.54317E0,-2.2418585E-4,-3.8097077E-3,-2.4212841E-2,6.889544E-3,1.7228788E-2,1.7906776E-2,1.1485433E-2,1.12471E-2,-8.924632E-3,1.9687805E-2,5.253098E-3,-1.7817402E-2,-7.5197513E-3,-9.946542E-3,7.2235684E-3,-1.1419119E-2,-2.1343447E-2,-1.08509585E-2,-2.2691518E-2,1.247957E-2,-1.3393089E-2,5.340644E-3,-1.4299833E-2,3.7199804E-3,-1.8333973E-2,-6.8256482E-3,-1.9091057E-2],"split_indices":[59,51,51,60,47,36,16,47,58,9,10,73,60,55,38,62,10,0,40,3,48,58,0,0,0,71,16,36,50,21,5,0,48,48,0,0,0,50,61,50,0,0,0,9,39,0,18,0,40,3,36,0,58,5,0,0,0,0,0,0,0,0,0,0,0,0,0,0,0,0,0,0,0,0,0,0,0,0,0,0,0],"split_type":[0,0,0,0,0,0,0,0,0,0,0,0,0,0,0,0,0,0,0,0,0,0,0,0,0,0,0,0,0,0,0,0,0,0,0,0,0,0,0,0,0,0,0,0,0,0,0,0,0,0,0,0,0,0,0,0,0,0,0,0,0,0,0,0,0,0,0,0,0,0,0,0,0,0,0,0,0,0,0,0,0],"sum_hessian":[1.1029902E3,5.3463165E2,5.683586E2,1.445658E2,3.9006586E2,2.478166E2,3.2054196E2,1.0047621E2,4.4089584E1,3.6202194E2,2.8043924E1,1.6318882E1,2.3149773E2,1.9854938E2,1.2199258E2,2.603031E1,7.444591E1,8.307906E0,3.5781677E1,3.288836E2,3.3138313E1,2.0980291E1,7.0636315E0,9.014295E0,7.3045864E0,1.0278297E2,1.2871477E2,4.138628E1,1.5716309E2,3.1550154E1,9.044242E1,1.1307491E1,1.4722819E1,6.4676834E1,9.7690735E0,7.029315E0,2.8752361E1,2.3718633E2,9.1697296E1,2.1388472E1,1.1749844E1,7.2706904E0,1.3709601E1,8.700035E1,1.5782608E1,1.1921361E1,1.167934E2,8.557455E0,3.2828823E1,1.2293215E2,3.423094E1,1.0096388E1,2.1453766E1,8.068136E1,9.761068E0,7.0239763E0,7.698843E0,3.7456013E1,2.7220818E1,1.7801247E2,5.9173855E1,8.418961E1,7.5076823E0,9.576801E0,1.1811669E1,6.579206E1,2.120829E1,8.484574E0,7.298034E0,7.137408E0,1.0965599E2,1.7972725E1,1.4856099E1,1.069948E2,1.5937349E1,8.819152E0,2.541179E1,1.1824917E1,9.628849E0,1.2149152E1,6.85322E1],"tree_param":{"num_deleted":"0","num_feature":"76","num_nodes":"81","size_leaf_vector":"1"}},{"base_weights":[4.652043E-2,6.1955154E-1,-7.307557E-1,-1.352927E-1,9.130984E-1,-1.2347667E0,-2.2429588E-1,4.8556346E-1,-1.0134465E0,1.0247726E0,-3.6667925E-1,7.3057213E-3,-1.3289788E0,5.845212E-1,-5.593296E-1,1.3548683E-1,1.1796247E0,-4.4199318E-1,-2.1006975E-2,1.1424334E0,4.4845214E-1,5.7819706E-1,-1.1564275E0,-5.996655E-1,-1.5200231E0,-1.8798903E-2,1.847535E-2,-3.315801E-1,-1.9591747E-2,3.8816586E-1,-1.49310855E-2,1.9156812E-2,4.1141026E-3,-1.020208E0,1.0947721E-2,1.2346166E0,6.3429534E-1,-3.633355E-1,9.302506E-1,-3.3628237E-3,1.7800782E-2,-4.4810767E-3,-2.2787524E-2,1.32586835E-2,-9.0066874E-1,-1.5942863E0,-9.805985E-1,1.0087091E0,-5.898656E-1,-6.63002E-1,6.5734905E-1,1.0504805E-2,-8.252628E-3,5.1531233E-3,-1.8835936E-2,1.6214523E-2,6.234764E-3,1.6306607E-2,-3.035688E-3,9.946665E-3,-1.12339845E-2,1.4413256E-2,7.8611437E-4,-4.580892E-3,-2.1881983E-2,-8.779193E-3,-2.0354552E-2,-2.1993406E-2,8.653445E-3,1.90851E-2,5.321367E-3,1.4560303E-3,-1.5194536E-2,-1.0299296E-2,9.381734E-3,2.5984552E-3,1.8292202E-2],"categories":[],"categories_nodes":[],"categories_segments":[],"categories_sizes":[],"default_left":[1,0,0,1,0,0,0,1,0,1,0,0,0,0,0,0,1,0,0,0,0,0,0,0,0,0,0,0,0,1,0,0,0,0,0,0,0,0,0,0,0,0,0,0,1,0,0,0,0,0,0,0,0,0,0,0,0,0,0,0,0,0,0,0,0,0,0,0,0,0,0,0,0,0,0,0,0],"id":17,"left_children":[1,3,5,7,9,11,13,15,17,19,21,-1,23,25,27,29,31,33,-1,35,37,39,41,43,45,47,-1,49,-1,51,-1,-1,-1,53,-1,55,57,59,61,-1,-1,-1,-1,-1,63,65,67,69,71,73,75,-1,-1,-1,-1,-1,-1,-1,-1,-1,-1,-1,-1,-1,-1,-1,-1,-1,-1,-1,-1,-1,-1,-1,-1,-1,-1],"loss_changes":[4.9525616E2,1.4182567E2,1.20449554E2,9.77091E1,6.586313E1,4.0810944E1,6.377897E1,2.5508892E1,2.9802696E1,2.8741455E1,2.7599566E1,0E0,3.1339874E1,3.8461823E1,3.946181E1,2.3897524E1,1.1440094E1,3.1629436E1,0E0,1.6487457E1,2.810722E1,1.2580966E1,1.1226898E1,2.3650297E1,7.139557E0,2.4479536E1,0E0,4.475612E1,0E0,2.936768E1,0E0,0E0,0E0,2.1351185E1,0E0,1.9439026E1,3.3277668E1,1.7447905E1,9.653431E0,0E0,0E0,0E0,0E0,0E0,1.8492043E1,9.411102E0,2.9704565E1,4.7074614E0,1.23814E1,2.607478E1,1.2767751E1,0E0,0E0,0E0,0E0,0E0,0E0,0E0,0E0,0E0,0E0,0E0,0E0,0E0,0E0,0E0,0E0,0E0,0E0,0E0,0E0,0E0,0E0,0E0,0E0,0E0,0E0],"parents":[2147483647,0,0,1,1,2,2,3,3,4,4,5,5,6,6,7,7,8,8,9,9,10,10,12,12,13,13,14,14,15,15,16,16,17,17,19,19,20,20,21,21,22,22,23,23,24,24,25,25,27,27,29,29,33,33,35,35,36,36,37,37,38,38,44,44,45,45,46,46,47,47,48,48,49,49,50,50],"right_children":[2,4,6,8,10,12,14,16,18,20,22,-1,24,26,28,30,32,34,-1,36,38,40,42,44,46,48,-1,50,-1,52,-1,-1,-1,54,-1,56,58,60,62,-1,-1,-1,-1,-1,64,66,68,70,72,74,76,-1,-1,-1,-1,-1,-1,-1,-1,-1,-1,-1,-1,-1,-1,-1,-1,-1,-1,-1,-1,-1,-1,-1,-1,-1,-1],"split_conditions":[5.7293E-1,0E0,5.75E2,5E0,1.5E1,4E-1,7.111E-1,4.8E1,8.686E-1,1.105E-1,6.683E-1,7.3057213E-3,4.79E0,3.52E2,1.6E1,1E0,2.2531214E1,2.26E2,-2.1006975E-2,9.355E-1,3.1E1,6.71E2,2.2E1,5.49E0,3.49742E3,9.842E1,1.847535E-2,7.7E1,-1.9591747E-2,8.692E-1,-1.49310855E-2,1.9156812E-2,4.1141026E-3,1.099E1,1.0947721E-2,2.78E2,7E0,6.996997E-1,1.9781E2,-3.3628237E-3,1.7800782E-2,-4.4810767E-3,-2.2787524E-2,1.32586835E-2,2.2E1,7.133E1,5.52469E-1,2.505E1,5.9188E-1,1E0,1E0,1.0504805E-2,-8.252628E-3,5.1531233E-3,-1.8835936E-2,1.6214523E-2,6.234764E-3,1.6306607E-2,-3.035688E-3,9.946665E-3,-1.12339845E-2,1.4413256E-2,7.8611437E-4,-4.580892E-3,-2.1881983E-2,-8.779193E-3,-2.0354552E-2,-2.1993406E-2,8.653445E-3,1.90851E-2,5.321367E-3,1.4560303E-3,-1.5194536E-2,-1.0299296E-2,9.381734E-3,2.5984552E-3,1.8292202E-2],"split_indices":[59,51,24,24,47,37,36,48,36,11,39,0,13,53,3,66,5,30,0,36,48,53,47,45,12,10,0,48,0,36,0,0,0,45,0,0,45,52,10,0,0,0,0,0,48,10,60,10,58,34,69,0,0,0,0,0,0,0,0,0,0,0,0,0,0,0,0,0,0,0,0,0,0,0,0,0,0],"split_type":[0,0,0,0,0,0,0,0,0,0,0,0,0,0,0,0,0,0,0,0,0,0,0,0,0,0,0,0,0,0,0,0,0,0,0,0,0,0,0,0,0,0,0,0,0,0,0,0,0,0,0,0,0,0,0,0,0,0,0,0,0,0,0,0,0,0,0,0,0,0,0,0,0,0,0,0,0],"sum_hessian":[1.1119274E3,6.40058E2,4.718694E2,1.7921432E2,4.6084366E2,2.3650613E2,2.3536325E2,1.04987564E2,7.422675E1,4.238578E2,3.6985844E1,1.157002E1,2.2493611E2,6.8937584E1,1.6642567E2,6.978784E1,3.5199722E1,4.093466E1,3.3292088E1,3.519945E2,7.1863304E1,1.6838907E1,2.0146936E1,4.6691753E1,1.7824435E2,4.1718956E1,2.7218624E1,1.3655447E2,2.98712E1,5.8820965E1,1.0966878E1,2.4162523E1,1.1037199E1,2.8572021E1,1.2362642E1,2.9794293E2,5.405158E1,2.6765366E1,4.509794E1,8.531529E0,8.307379E0,9.499338E0,1.0647597E1,7.084478E0,3.9607273E1,1.5667424E2,2.1570124E1,1.4903264E1,2.6815691E1,1.02278114E2,3.4276352E1,4.0780025E1,1.8040941E1,7.559697E0,2.1012323E1,2.6506638E2,3.2876553E1,3.0181355E1,2.3870222E1,8.57544E0,1.8189926E1,3.5084084E1,1.0013854E1,2.4854229E1,1.4753045E1,1.134832E1,1.4532591E2,1.45392885E1,7.0308356E0,7.6080003E0,7.2952633E0,1.2841564E1,1.3974127E1,9.093225E1,1.134587E1,2.2376984E1,1.189937E1],"tree_param":{"num_deleted":"0","num_feature":"76","num_nodes":"77","size_leaf_vector":"1"}},{"base_weights":[5.5540238E-2,6.0417604E-1,-6.8687564E-1,-1.6800445E-1,8.95594E-1,3.0028963E-1,-9.6267927E-1,4.159127E-1,-1.0351101E0,1.116976E0,2.6825014E-1,6.3609615E-2,1.7320516E-2,-5.206837E-1,-1.4944768E0,8.201102E-1,-7.075086E-1,1.1313772E-2,-1.3506547E0,-1.2029865E-2,1.1670262E0,6.597121E-1,-3.3236402E-1,-2.1151946E-1,1.156162E0,-1.115104E0,-1.5843388E-1,-1.5627772E0,-8.868118E-1,9.569285E-1,-6.03193E-3,1.9577187E-3,-1.3674518E0,-7.1543147E-4,-1.5407411E0,4.74749E-1,1.295245E0,-8.926683E-3,8.075077E-1,4.4790938E-1,-9.06599E-1,2.6236039E-2,-2.2041913E-2,2.065179E-2,4.8822807E-3,-1.3975294E0,-7.327478E-2,-1.1997709E0,1.9824216E-1,-2.0091508E-2,-1.1575677E0,3.5688346E-3,-2.1064674E-2,7.065383E-3,1.6046558E-2,-8.03214E-3,-2.338037E-2,-2.2024378E-2,-1.3842301E-2,9.7151445E-3,-1.3026943E-2,3.5165064E-3,1.6513057E-2,1.703868E-2,5.9185456E-3,1.365968E-2,-9.173268E-3,-4.5069987E-3,-2.2557018E-2,4.370428E-3,-1.4083098E-2,-2.0474164E-2,-1.3688606E-2,-1.25930095E-2,7.957846E-3,8.4752525E-4,-2.0549053E-2,9.164986E-3,-6.2571103E-3,1.1662535E-3,-2.0959014E-2],"categories":[],"categories_nodes":[],"categories_segments":[],"categories_sizes":[],"default_left":[1,0,0,1,1,0,1,0,0,1,0,0,0,0,0,1,0,0,0,0,0,0,0,0,0,0,0,1,0,0,0,0,0,0,1,1,0,0,1,0,0,1,0,0,0,1,0,1,1,0,0,0,0,0,0,0,0,0,0,0,0,0,0,0,0,0,0,0,0,0,0,0,0,0,0,0,0,0,0,0,0],"id":18,"left_children":[1,3,5,7,9,11,13,15,17,19,21,23,-1,25,27,29,31,-1,33,-1,35,37,39,41,43,45,47,49,51,53,-1,-1,55,-1,57,59,61,-1,63,65,67,69,-1,-1,-1,71,73,75,77,-1,79,-1,-1,-1,-1,-1,-1,-1,-1,-1,-1,-1,-1,-1,-1,-1,-1,-1,-1,-1,-1,-1,-1,-1,-1,-1,-1,-1,-1,-1,-1],"loss_changes":[4.666582E2,1.4825429E2,1.3255573E2,9.139732E1,6.642908E1,2.8047924E1,8.944711E1,4.898271E1,4.491169E1,3.7154694E1,2.9334309E1,2.6361805E1,0E0,4.4749004E1,7.1679688E0,1.4249607E1,1.6339397E1,0E0,1.5367699E1,0E0,3.065094E1,1.5505539E1,2.2058207E1,2.6469032E1,7.092495E0,2.3153748E1,4.7960804E1,4.9388123E0,1.7151644E1,9.65535E0,0E0,0E0,6.254282E0,0E0,5.7778473E0,2.6482138E1,1.57751465E1,0E0,1.2926495E1,1.669099E1,1.4292885E1,2.3719196E1,0E0,0E0,0E0,4.7544403E0,1.1599421E1,2.0021599E1,3.7557957E1,0E0,1.7511375E1,0E0,0E0,0E0,0E0,0E0,0E0,0E0,0E0,0E0,0E0,0E0,0E0,0E0,0E0,0E0,0E0,0E0,0E0,0E0,0E0,0E0,0E0,0E0,0E0,0E0,0E0,0E0,0E0,0E0,0E0],"parents":[2147483647,0,0,1,1,2,2,3,3,4,4,5,5,6,6,7,7,8,8,9,9,10,10,11,11,13,13,14,14,15,15,16,16,18,18,20,20,21,21,22,22,23,23,24,24,25,25,26,26,27,27,28,28,29,29,32,32,34,34,35,35,36,36,38,38,39,39,40,40,41,41,45,45,46,46,47,47,48,48,50,50],"right_children":[2,4,6,8,10,12,14,16,18,20,22,24,-1,26,28,30,32,-1,34,-1,36,38,40,42,44,46,48,50,52,54,-1,-1,56,-1,58,60,62,-1,64,66,68,70,-1,-1,-1,72,74,76,78,-1,80,-1,-1,-1,-1,-1,-1,-1,-1,-1,-1,-1,-1,-1,-1,-1,-1,-1,-1,-1,-1,-1,-1,-1,-1,-1,-1,-1,-1,-1,-1],"split_conditions":[5.7293E-1,0E0,6.981E-1,5E0,6.88E-1,2.92E2,3.73E0,8.899E-1,5.49E0,3.056E-1,7.84019E-1,4.999E1,1.7320516E-2,0E0,5.83962E5,8.2659E-1,4.32885E-1,1.1313772E-2,-1.313E-1,-1.2029865E-2,1.3333E0,2.353E-1,2E0,6.55772E-1,7.87E-2,5.4858E-1,1E3,4.170465E1,8.667E-1,8.577296E1,-6.03193E-3,1.9577187E-3,9.39E-1,-7.1543147E-4,2.84E-2,9.122071E1,5E2,-8.926683E-3,1.1373703E1,8.955E-1,3E0,-1.6575E1,-2.2041913E-2,2.065179E-2,4.8822807E-3,1.9827831E1,4.3E-1,3.99E0,5.39E-1,-2.0091508E-2,1.25E1,3.5688346E-3,-2.1064674E-2,7.065383E-3,1.6046558E-2,-8.03214E-3,-2.338037E-2,-2.2024378E-2,-1.3842301E-2,9.7151445E-3,-1.3026943E-2,3.5165064E-3,1.6513057E-2,1.703868E-2,5.9185456E-3,1.365968E-2,-9.173268E-3,-4.5069987E-3,-2.2557018E-2,4.370428E-3,-1.4083098E-2,-2.0474164E-2,-1.3688606E-2,-1.25930095E-2,7.957846E-3,8.4752525E-4,-2.0549053E-2,9.164986E-3,-6.2571103E-3,1.1662535E-3,-2.0959014E-2],"split_indices":[59,51,39,24,50,30,15,36,45,36,62,46,0,51,55,63,58,0,40,0,31,31,56,58,57,57,55,5,37,5,0,0,38,0,40,5,55,0,5,38,3,21,0,0,0,5,50,46,50,0,45,0,0,0,0,0,0,0,0,0,0,0,0,0,0,0,0,0,0,0,0,0,0,0,0,0,0,0,0,0,0],"split_type":[0,0,0,0,0,0,0,0,0,0,0,0,0,0,0,0,0,0,0,0,0,0,0,0,0,0,0,0,0,0,0,0,0,0,0,0,0,0,0,0,0,0,0,0,0,0,0,0,0,0,0,0,0,0,0,0,0,0,0,0,0,0,0,0,0,0,0,0,0,0,0,0,0,0,0,0,0,0,0,0,0],"sum_hessian":[1.1456912E3,6.5882697E2,4.868642E2,1.8051332E2,4.7831363E2,1.06319786E2,3.805444E2,1.0787136E2,7.264196E1,3.5354968E2,1.2476394E2,8.7698326E1,1.8621456E1,2.0781921E2,1.727252E2,7.9329544E1,2.8541815E1,1.0075879E1,6.2566086E1,8.231108E0,3.4531857E2,7.553383E1,4.9230106E1,7.00563E1,1.764203E1,7.869186E1,1.2912735E2,1.5527237E2,1.7452826E1,7.184279E1,7.486758E0,1.233201E1,1.6209803E1,8.02355E0,5.4542534E1,5.3963337E1,2.9135526E2,7.2642627E0,6.826957E1,2.0870543E1,2.8359564E1,6.093866E1,9.117635E0,1.0371223E1,7.2708077E0,6.1908905E1,1.6782953E1,3.2944576E1,9.618278E1,1.3006999E2,2.5202381E1,7.2328687E0,1.0219957E1,3.4657288E1,3.71855E1,7.0140305E0,9.195773E0,3.3452526E1,2.1090008E1,4.47009E1,9.262435E0,1.4741592E1,2.7661365E2,2.4350475E1,4.3919094E1,1.3396788E1,7.4737554E0,1.8004305E1,1.0355258E1,4.7567085E1,1.3371577E1,3.1192879E1,3.0716024E1,7.2315264E0,9.551427E0,9.026058E0,2.391852E1,5.4158722E1,4.2024055E1,7.7328715E0,1.746951E1],"tree_param":{"num_deleted":"0","num_feature":"76","num_nodes":"81","size_leaf_vector":"1"}},{"base_weights":[-3.7008327E-2,6.2093514E-1,-6.8712795E-1,-1.4243497E-1,9.0780485E-1,-1.218962E0,-2.7519783E-1,-9.918244E-1,3.4560034E-1,3.1206778E-1,1.0694323E0,-2.4794297E-1,-1.4388236E0,-7.55288E-1,1.947218E-1,6.6833072E-3,-1.2558978E0,1.5285309E-2,1.9304406E-2,1.3461423E0,8.050995E-2,7.36934E-1,1.335892E0,-5.783896E-1,1.6214631E-2,-3.0011565E-3,-1.4969546E0,-1.3484032E0,-4.9421751E-1,4.7623926E-1,-9.415649E-1,-7.640803E-1,-2.067172E-2,2.2800036E-1,-1.6615083E-2,8.852563E-3,2.3114799E-2,3.3703935E-1,-1.492029E-2,-6.6959644E-3,8.56995E-1,6.5745425E-1,1.4849097E0,2.0500876E-1,-1.97253E-2,-7.673957E-3,-1.5452929E0,-7.835274E-3,-1.8799622E-2,-2.5653824E-1,-1.3792452E0,-9.535653E-1,7.3071575E-1,6.0980506E-3,-1.9491097E-2,-1.7938651E-2,-3.4957046E-3,4.2798795E-4,1.7792206E-2,7.009253E-3,-1.12235425E-2,8.769534E-3,2.0027688E-2,1.5597711E-2,-4.6698884E-3,6.085878E-3,1.9333264E-2,1.2238897E-2,-8.311248E-3,-1.4253094E-2,-1.9763079E-2,6.571776E-3,-5.5387598E-3,-7.1119373E-3,-2.1388482E-2,-2.2374748E-3,-1.9233929E-2,-1.1129468E-2,1.0764408E-2],"categories":[],"categories_nodes":[],"categories_segments":[],"categories_sizes":[],"default_left":[1,0,0,0,0,0,0,0,1,0,1,0,0,0,1,0,0,0,0,1,1,0,0,0,0,0,0,1,0,0,0,0,0,1,0,0,0,0,0,0,1,0,0,0,0,0,0,0,0,0,0,0,0,0,0,0,0,0,0,0,0,0,0,0,0,0,0,0,0,0,0,0,0,0,0,0,0,0,0],"id":19,"left_children":[1,3,5,7,9,11,13,15,17,19,21,23,25,27,29,-1,31,-1,33,35,37,39,41,43,-1,-1,45,47,49,51,53,55,-1,57,-1,-1,-1,59,-1,-1,61,63,65,67,-1,-1,69,-1,-1,71,73,75,77,-1,-1,-1,-1,-1,-1,-1,-1,-1,-1,-1,-1,-1,-1,-1,-1,-1,-1,-1,-1,-1,-1,-1,-1,-1,-1],"loss_changes":[4.7346176E2,1.20472565E2,1.2197226E2,6.2290573E1,3.8501617E1,5.1879425E1,7.078215E1,2.2267544E1,2.8120571E1,2.0432823E1,2.7865967E1,2.3313183E1,1.3748413E1,2.4030273E1,5.071799E1,0E0,9.960197E0,0E0,2.0139791E1,5.2718678E0,2.3239857E1,2.1569809E1,1.7651642E1,3.000243E1,0E0,0E0,7.9456787E0,6.293869E0,2.2667257E1,4.6234505E1,2.9491934E1,7.3508673E0,0E0,1.4400086E1,0E0,0E0,0E0,1.7197659E1,0E0,0E0,1.4016541E1,2.0148735E1,1.33532715E1,1.4813142E1,0E0,0E0,4.7154236E0,0E0,0E0,1.3204826E1,6.7006874E0,9.1396885E0,2.6293148E1,0E0,0E0,0E0,0E0,0E0,0E0,0E0,0E0,0E0,0E0,0E0,0E0,0E0,0E0,0E0,0E0,0E0,0E0,0E0,0E0,0E0,0E0,0E0,0E0,0E0,0E0],"parents":[2147483647,0,0,1,1,2,2,3,3,4,4,5,5,6,6,7,7,8,8,9,9,10,10,11,11,12,12,13,13,14,14,16,16,18,18,19,19,20,20,21,21,22,22,23,23,26,26,27,27,28,28,29,29,30,30,31,31,33,33,37,37,40,40,41,41,42,42,43,43,46,46,49,49,50,50,51,51,52,52],"right_children":[2,4,6,8,10,12,14,16,18,20,22,24,26,28,30,-1,32,-1,34,36,38,40,42,44,-1,-1,46,48,50,52,54,56,-1,58,-1,-1,-1,60,-1,-1,62,64,66,68,-1,-1,70,-1,-1,72,74,76,78,-1,-1,-1,-1,-1,-1,-1,-1,-1,-1,-1,-1,-1,-1,-1,-1,-1,-1,-1,-1,-1,-1,-1,-1,-1,-1],"split_conditions":[1.111E-1,0E0,0E0,8.51E2,1.3333E0,6.923E-1,2.8E1,5.49E0,2.95905E-1,7E0,7.2116E-1,2.89E2,4.82507E-1,9.286E-1,1.69E2,6.6833072E-3,1.39E1,1.5285309E-2,4.1E1,7.5E-1,8.577296E1,8.771E-1,4.6E1,1.699E1,1.6214631E-2,-3.0011565E-3,3E0,3.5668334E-1,8.78218E-1,3.4E1,7.6369E-1,7.9E1,-2.067172E-2,9.2385E1,-1.6615083E-2,8.852563E-3,2.3114799E-2,3E0,-1.492029E-2,-6.6959644E-3,1.2E1,1.010009E0,-1.89E-1,8.33E-2,-1.97253E-2,-7.673957E-3,1.1E1,-7.835274E-3,-1.8799622E-2,1.1E1,8.998999E-1,6.33727E-1,8.947E-1,6.0980506E-3,-1.9491097E-2,-1.7938651E-2,-3.4957046E-3,4.2798795E-4,1.7792206E-2,7.009253E-3,-1.12235425E-2,8.769534E-3,2.0027688E-2,1.5597711E-2,-4.6698884E-3,6.085878E-3,1.9333264E-2,1.2238897E-2,-8.311248E-3,-1.4253094E-2,-1.9763079E-2,6.571776E-3,-5.5387598E-3,-7.1119373E-3,-2.1388482E-2,-2.2374748E-3,-1.9233929E-2,-1.1129468E-2,1.0764408E-2],"split_indices":[8,51,51,24,31,38,0,45,63,45,63,30,59,29,17,0,16,0,43,38,5,20,35,45,0,0,3,52,62,