{"learner":{"attributes":{"scikit_learn":"{\"_estimator_type\": \"classifier\"}"},"feature_names":["days_since_last_build_update","build_update_count_last_30d","build_update_count_last_90d","build_update_count_last_180d","mean_days_between_build_updates","std_days_between_build_updates","max_hiatus_ever_days","hiatus_recovery_count","update_frequency_trend","build_gap_vs_allowable_ratio","avg_changelog_word_count","changelog_word_count_trend","ccu_avg_last_30d","ccu_avg_last_90d","ccu_avg_last_180d","ccu_median_all","ccu_at_launch_30d","peak_ccu_alltime","ccu_vs_peak_ratio","ccu_vs_launch_ratio","ccu_trend_slope_30d","ccu_trend_slope_90d","ccu_trend_slope_180d","ccu_floor_established","days_since_ccu_above_100","ccu_low_regime","dev_posts_last_30d","dev_posts_last_90d","dev_posts_last_180d","dev_engagement_trend","days_since_dev_post","build_to_post_ratio","dev_previous_ea_count","dev_has_prior_success","dev_total_games_shipped","review_count_at_T","review_score_at_T","review_score_last_30d","review_score_last_90d","review_score_last_180d","review_score_delta_30d","review_velocity_30d","review_velocity_90d","review_velocity_180d","review_velocity_trend","initial_price_usd","current_price_at_T","discount_count_to_date","max_discount_ever_pct","early_deep_discount_flag","discount_frequency","price_trend_encoded","price_vs_genre_median","ea_age_days","ea_age_lt_180d","owner_estimate_at_T","genre_scope","review_update_divergence","l1_composite_score","l1_update_health_score","l1_player_retention_score","l1_dev_engagement_score","l1_sentiment_score","l1_price_market_score","l1_state_encoded","genre_Action","genre_Adventure","genre_Casual","genre_Massively Multiplayer","genre_RPG","genre_Racing","genre_Simulation","genre_Sports","genre_Strategy","genre_Survival","genre_Visual Novel"],"feature_types":["int","int","int","int","float","float","int","int","float","float","float","float","float","float","float","float","float","float","float","float","float","float","float","float","float","float","int","int","int","float","int","float","float","float","int","int","float","float","float","float","float","float","float","float","float","float","float","int","float","int","float","float","float","int","int","int","float","float","float","float","float","float","float","float","int","float","float","float","float","float","float","float","float","float","float","float"],"gradient_booster":{"model":{"cats":{"enc":[],"feature_segments":[],"sorted_idx":[]},"gbtree_model_param":{"num_parallel_tree":"1","num_trees":"162"},"iteration_indptr":[0,1,2,3,4,5,6,7,8,9,10,11,12,13,14,15,16,17,18,19,20,21,22,23,24,25,26,27,28,29,30,31,32,33,34,35,36,37,38,39,40,41,42,43,44,45,46,47,48,49,50,51,52,53,54,55,56,57,58,59,60,61,62,63,64,65,66,67,68,69,70,71,72,73,74,75,76,77,78,79,80,81,82,83,84,85,86,87,88,89,90,91,92,93,94,95,96,97,98,99,100,101,102,103,104,105,106,107,108,109,110,111,112,113,114,115,116,117,118,119,120,121,122,123,124,125,126,127,128,129,130,131,132,133,134,135,136,137,138,139,140,141,142,143,144,145,146,147,148,149,150,151,152,153,154,155,156,157,158,159,160,161,162],"tree_info":[0,0,0,0,0,0,0,0,0,0,0,0,0,0,0,0,0,0,0,0,0,0,0,0,0,0,0,0,0,0,0,0,0,0,0,0,0,0,0,0,0,0,0,0,0,0,0,0,0,0,0,0,0,0,0,0,0,0,0,0,0,0,0,0,0,0,0,0,0,0,0,0,0,0,0,0,0,0,0,0,0,0,0,0,0,0,0,0,0,0,0,0,0,0,0,0,0,0,0,0,0,0,0,0,0,0,0,0,0,0,0,0,0,0,0,0,0,0,0,0,0,0,0,0,0,0,0,0,0,0,0,0,0,0,0,0,0,0,0,0,0,0,0,0,0,0,0,0,0,0,0,0,0,0,0,0,0,0,0,0,0,0],"trees":[{"base_weights":[2.459166E-2,8.379395E-1,-7.0267653E-1,-0E0,1.1147331E0,-6.6213585E-2,-1.3589466E0,-3.4619713E-1,1.0577326E0,1.202448E0,-9.455678E-3,6.9988245E-1,-4.3182826E-1,-4.586302E-2,-1.6093245E0,-0E0,-1.1235257E0,1.3258641E-2,-0E0,-0E0,1.2667723E0,9.6551335E-1,-1.144315E-2,2.6839632E-1,-7.6829E-1,4.4490513E-1,-7.964293E-1,-1.670186E0,-0E0,-5.077613E-3,4.5124204E-3,-0E0,-1.5845884E-2,-3.03802E-3,4.3250225E-3,-0E0,1.3538307E-2,1.2866787E-2,1.7387833E-4,-9.688633E-3,7.7264565E-3,-9.47527E-3,4.331695E-3,9.084408E-3,-0E0,-1.649508E-2,1.6220717E-3,-0E0,-1.7881764E-2],"categories":[],"categories_nodes":[],"categories_segments":[],"categories_sizes":[],"default_left":[1,0,1,1,1,0,0,1,0,0,0,1,1,0,1,0,1,0,0,0,1,0,0,0,0,0,0,0,0,0,0,0,0,0,0,0,0,0,0,0,0,0,0,0,0,0,0,0,0],"id":0,"left_children":[1,3,5,7,9,11,13,15,17,19,-1,21,23,25,27,29,31,-1,-1,33,35,37,-1,39,41,43,45,47,-1,-1,-1,-1,-1,-1,-1,-1,-1,-1,-1,-1,-1,-1,-1,-1,-1,-1,-1,-1,-1],"loss_changes":[6.059619E2,1.0577304E2,2.1432938E2,5.1108864E1,6.6082794E1,7.590141E1,7.4069275E1,2.974734E1,6.8836174E0,2.782547E1,0E0,3.9302197E1,4.8933258E1,1.9220802E1,2.2774536E1,1.2307426E1,7.9844017E0,0E0,0E0,2.0352404E0,2.0877197E1,1.1513313E1,0E0,3.1155252E1,2.6833298E1,7.715382E0,2.7229973E1,2.1742737E1,0E0,0E0,0E0,0E0,0E0,0E0,0E0,0E0,0E0,0E0,0E0,0E0,0E0,0E0,0E0,0E0,0E0,0E0,0E0,0E0,0E0],"parents":[2147483647,0,0,1,1,2,2,3,3,4,4,5,5,6,6,7,7,8,8,9,9,11,11,12,12,13,13,14,14,15,15,16,16,19,19,20,20,21,21,23,23,24,24,25,25,26,26,27,27],"right_children":[2,4,6,8,10,12,14,16,18,20,-1,22,24,26,28,30,32,-1,-1,34,36,38,-1,40,42,44,46,48,-1,-1,-1,-1,-1,-1,-1,-1,-1,-1,-1,-1,-1,-1,-1,-1,-1,-1,-1,-1,-1],"split_conditions":[5.17991E-1,0E0,1.94E0,4.8E1,1.484E0,7.2E-1,7.06E-1,2.65795E-1,4.36596E-1,2.3E1,-9.455678E-3,1.167E0,1.4E-1,5.44207E-1,6.9E1,5.13E-1,9.73E-2,1.3258641E-2,-0E0,3.6062E2,3.503E-1,2.1256E2,-1.144315E-2,1.0921053E1,7.8E1,2.2077E2,2.0010011E0,1.87E0,-0E0,-5.077613E-3,4.5124204E-3,-0E0,-1.5845884E-2,-3.03802E-3,4.3250225E-3,-0E0,1.3538307E-2,1.2866787E-2,1.7387833E-4,-9.688633E-3,7.7264565E-3,-9.47527E-3,4.331695E-3,9.084408E-3,-0E0,-1.649508E-2,1.6220717E-3,-0E0,-1.7881764E-2],"split_indices":[59,51,15,48,50,36,39,60,58,30,0,50,50,58,4,50,19,0,0,10,36,10,0,4,0,10,52,16,0,0,0,0,0,0,0,0,0,0,0,0,0,0,0,0,0,0,0,0,0],"split_type":[0,0,0,0,0,0,0,0,0,0,0,0,0,0,0,0,0,0,0,0,0,0,0,0,0,0,0,0,0,0,0,0,0,0,0,0,0,0,0,0,0,0,0,0,0,0,0,0,0],"sum_hessian":[1.02268494E3,4.8705997E2,5.3562494E2,1.2677499E2,3.6028497E2,2.7709497E2,2.5852997E2,9.0954994E1,3.5819996E1,3.4850497E2,1.1779999E1,8.363999E1,1.9345499E2,4.5654995E1,2.1287498E2,5.8849995E1,3.2105E1,2.8744997E1,7.0749993E0,1.7164999E1,3.3133997E2,7.613999E1,7.4999995E0,5.6409996E1,1.3704498E2,2.2299997E1,2.3354998E1,2.0579999E2,7.0749993E0,2.2634998E1,3.6214996E1,1.1339999E1,2.0765E1,1.1059999E1,6.1049995E0,6.5449996E0,3.2479498E2,5.3634995E1,2.2504997E1,1.2029999E1,4.4379997E1,1.2714499E2,9.899999E0,1.5754998E1,6.5449996E0,1.6499998E1,6.8549995E0,5.0599995E0,2.0073999E2],"tree_param":{"num_deleted":"0","num_feature":"76","num_nodes":"49","size_leaf_vector":"1"}},{"base_weights":[8.7376125E-3,6.965408E-1,-9.0527457E-1,9.424325E-1,-1.727697E-1,-1.1358232E0,4.574365E-1,1.6243692E-1,1.1639509E0,7.0672315E-1,-5.9644324E-1,-6.5839165E-1,-1.6460099E0,8.1869334E-1,-1.1350073E-2,5.8921343E-1,-8.581006E-1,1.2065862E0,-0E0,9.0659314E-1,-0E0,-0E0,-1.3344074E0,-2.0606126E-1,-1.1182078E0,-1.7344764E0,-0E0,1.0452678E0,-0E0,1.2923127E-2,-2.944339E-3,-1.32879615E-2,-0E0,1.2899553E-2,-0E0,-4.599033E-3,3.0406946E-3,-0E0,1.2550863E-2,-6.35049E-3,6.810595E-3,-0E0,-1.6588647E-2,-0E0,-8.248063E-3,-1.2540564E-2,-0E0,-0E0,-1.85246E-2,-0E0,1.305833E-2],"categories":[],"categories_nodes":[],"categories_segments":[],"categories_sizes":[],"default_left":[0,1,0,0,0,1,0,1,1,0,1,0,1,0,0,0,0,0,0,0,0,0,0,0,1,0,0,0,0,0,0,0,0,0,0,0,0,0,0,0,0,0,0,0,0,0,0,0,0,0,0],"id":1,"left_children":[1,3,5,7,9,11,13,15,17,19,21,23,25,27,-1,29,31,33,35,37,-1,39,41,43,45,47,-1,49,-1,-1,-1,-1,-1,-1,-1,-1,-1,-1,-1,-1,-1,-1,-1,-1,-1,-1,-1,-1,-1,-1,-1],"loss_changes":[6.3620135E2,1.2969662E2,1.4006369E2,7.073041E1,4.502298E1,7.551785E1,3.096442E1,4.55475E1,1.9030243E1,6.680355E0,3.6733734E1,3.273137E1,1.7802399E1,1.4047375E1,0E0,5.286834E1,9.493071E0,1.8523315E1,1.696927E0,3.6010952E0,0E0,1.99842E1,1.5987343E1,1.832682E1,1.1817276E1,1.2631866E1,0E0,9.602505E0,0E0,0E0,0E0,0E0,0E0,0E0,0E0,0E0,0E0,0E0,0E0,0E0,0E0,0E0,0E0,0E0,0E0,0E0,0E0,0E0,0E0,0E0,0E0],"parents":[2147483647,0,0,1,1,2,2,3,3,4,4,5,5,6,6,7,7,8,8,9,9,10,10,11,11,12,12,13,13,15,15,16,16,17,17,18,18,19,19,21,21,22,22,23,23,24,24,25,25,27,27],"right_children":[2,4,6,8,10,12,14,16,18,20,22,24,26,28,-1,30,32,34,36,38,-1,40,42,44,46,48,-1,50,-1,-1,-1,-1,-1,-1,-1,-1,-1,-1,-1,-1,-1,-1,-1,-1,-1,-1,-1,-1,-1,-1,-1],"split_conditions":[5.655E-1,-1.6057E2,2.8584704E0,3.5E1,6.4E-1,4.1E1,1.6E1,2.263E-1,1.286E0,6E0,2.2E1,6.45267E-1,6.1E1,8.46646E-1,-1.1350073E-2,9.37E0,8.1E1,3E0,3.95E2,4.66E2,-0E0,8.69E-1,5.49E0,8.976E-1,3.369E-1,1.3E1,-0E0,3.8E-1,-0E0,1.2923127E-2,-2.944339E-3,-1.32879615E-2,-0E0,1.2899553E-2,-0E0,-4.599033E-3,3.0406946E-3,-0E0,1.2550863E-2,-6.35049E-3,6.810595E-3,-0E0,-1.6588647E-2,-0E0,-8.248063E-3,-1.2540564E-2,-0E0,-0E0,-1.85246E-2,-0E0,1.305833E-2],"split_indices":[58,21,52,35,39,17,3,11,50,3,48,58,4,59,0,46,48,56,30,35,0,50,45,36,40,6,0,21,0,0,0,0,0,0,0,0,0,0,0,0,0,0,0,0,0,0,0,0,0,0,0],"split_type":[0,0,0,0,0,0,0,0,0,0,0,0,0,0,0,0,0,0,0,0,0,0,0,0,0,0,0,0,0,0,0,0,0,0,0,0,0,0,0,0,0,0,0,0,0,0,0,0,0,0,0],"sum_hessian":[1.0139785E3,5.8273254E2,4.3124597E2,4.6017276E2,1.2255979E2,3.7301257E2,5.8233402E1,1.0843157E2,3.517412E2,3.474391E1,8.781588E1,1.9951929E2,1.7349327E2,5.0733704E1,7.4996986E0,8.106228E1,2.7369293E1,3.4038657E2,1.1354618E1,2.9199041E1,5.544872E0,4.9727665E1,3.808821E1,1.07911766E2,9.160753E1,1.6215356E2,1.13397E1,4.3938885E1,6.794816E0,5.0588226E1,3.0474049E1,1.8029537E1,9.339758E0,3.328268E2,7.5597525E0,6.26484E0,5.089778E0,1.0369712E1,1.882933E1,2.689859E1,2.2829075E1,5.3097606E0,3.277845E1,7.173294E1,3.617882E1,8.654769E1,5.059839E0,5.044652E0,1.5710892E2,7.5748134E0,3.636407E1],"tree_param":{"num_deleted":"0","num_feature":"76","num_nodes":"51","size_leaf_vector":"1"}},{"base_weights":[8.340588E-3,6.817047E-1,-9.9133277E-1,-6.225327E-2,1.0015002E0,-4.2926666E-1,-1.5878706E0,4.6774995E-1,-7.299037E-1,1.5146235E-1,1.1898955E0,2.6097682E-1,-7.1224755E-1,1.06920294E-1,-1.7302595E0,-4.3653116E-1,7.364516E-1,4.416533E-1,-1.124317E0,7.2715545E-1,-2.269581E-1,1.3028374E0,2.320601E-1,1.0404136E0,-0E0,-9.996369E-1,-0E0,-0E0,9.333537E-3,-1.7873929E0,-0E0,-0E0,-1.1252942E-2,9.439877E-3,-1.3201132E-3,-0E0,8.4396815E-3,-0E0,-1.501309E-2,-0E0,1.1105923E-2,3.0751734E-3,-1.3581971E-2,1.3927167E-2,-0E0,-1.7621902E-4,1.0409723E-2,-0E0,1.3045124E-2,-6.7773224E-3,7.018278E-3,-0E0,-1.127998E-2,-8.3624115E-3,2.9061683E-3,-0E0,-1.9034034E-2],"categories":[],"categories_nodes":[],"categories_segments":[],"categories_sizes":[],"default_left":[1,0,1,1,0,0,1,0,0,0,1,0,0,1,0,0,1,1,1,0,0,1,1,1,0,0,0,0,0,0,0,0,0,0,0,0,0,0,0,0,0,0,0,0,0,0,0,0,0,0,0,0,0,0,0,0,0],"id":2,"left_children":[1,3,5,7,9,11,13,15,17,19,21,23,25,27,29,31,33,35,37,39,41,43,45,47,49,51,53,-1,-1,55,-1,-1,-1,-1,-1,-1,-1,-1,-1,-1,-1,-1,-1,-1,-1,-1,-1,-1,-1,-1,-1,-1,-1,-1,-1,-1,-1],"loss_changes":[6.919681E2,1.5373026E2,1.2438516E2,6.556129E1,6.1540863E1,4.5484863E1,5.749124E1,2.5110691E1,4.40062E1,2.2127075E1,2.8067963E1,1.773014E1,2.7303925E1,4.9033175E0,7.6832886E0,5.8538485E0,1.6986519E1,4.4187775E0,2.3653938E1,1.5576927E1,3.2327187E1,1.2391724E1,1.4899209E1,1.9184208E0,1.6104446E1,1.2360695E1,1.4752541E1,0E0,0E0,2.9047852E0,0E0,0E0,0E0,0E0,0E0,0E0,0E0,0E0,0E0,0E0,0E0,0E0,0E0,0E0,0E0,0E0,0E0,0E0,0E0,0E0,0E0,0E0,0E0,0E0,0E0,0E0,0E0],"parents":[2147483647,0,0,1,1,2,2,3,3,4,4,5,5,6,6,7,7,8,8,9,9,10,10,11,11,12,12,13,13,14,14,15,15,16,16,17,17,18,18,19,19,20,20,21,21,22,22,23,23,24,24,25,25,26,26,29,29],"right_children":[2,4,6,8,10,12,14,16,18,20,22,24,26,28,30,32,34,36,38,40,42,44,46,48,50,52,54,-1,-1,56,-1,-1,-1,-1,-1,-1,-1,-1,-1,-1,-1,-1,-1,-1,-1,-1,-1,-1,-1,-1,-1,-1,-1,-1,-1,-1,-1],"split_conditions":[6.03728E-1,0E0,2.3E1,6.3603276E-1,1.3E0,7.26E-1,3.333E-1,2.16E2,6.844E-1,7.765E-1,3.43E-2,1.0362E2,4.2976156E-1,3.125E0,2.8584704E0,8.258E-1,8.819E-1,2.6846153E1,-1.313E-1,2.06E2,1.25E1,9.349E-1,7.9499E-1,5E-1,3.3E2,1.71E0,4.1E1,-0E0,9.333537E-3,6.4E1,-0E0,-0E0,-1.1252942E-2,9.439877E-3,-1.3201132E-3,-0E0,8.4396815E-3,-0E0,-1.501309E-2,-0E0,1.1105923E-2,3.0751734E-3,-1.3581971E-2,1.3927167E-2,-0E0,-1.7621902E-4,1.0409723E-2,-0E0,1.3045124E-2,-6.7773224E-3,7.018278E-3,-0E0,-1.127998E-2,-8.3624115E-3,2.9061683E-3,-0E0,-1.9034034E-2],"split_indices":[59,51,17,52,31,36,37,17,36,36,19,10,57,31,52,36,57,4,40,53,45,57,63,44,53,15,35,0,0,10,0,0,0,0,0,0,0,0,0,0,0,0,0,0,0,0,0,0,0,0,0,0,0,0,0,0,0],"split_type":[0,0,0,0,0,0,0,0,0,0,0,0,0,0,0,0,0,0,0,0,0,0,0,0,0,0,0,0,0,0,0,0,0,0,0,0,0,0,0,0,0,0,0,0,0,0,0,0,0,0,0,0,0,0,0,0,0],"sum_hessian":[1.0307942E3,6.198961E2,4.1089804E2,1.8016344E2,4.3973267E2,2.1736835E2,1.935297E2,9.49269E1,8.523654E1,8.618549E1,3.5354718E2,5.640574E1,1.609626E2,1.13991375E1,1.8213057E2,1.6088116E1,7.883879E1,1.7238756E1,6.799778E1,4.1080116E1,4.5105377E1,3.1004126E2,4.3505928E1,1.9828438E1,3.65773E1,1.08986275E2,5.197633E1,5.2794886E0,6.119649E0,1.7307141E2,9.059147E0,8.589034E0,7.4990816E0,7.205931E1,6.7794805E0,5.5447755E0,1.169398E1,1.5649189E1,5.234859E1,8.5593405E0,3.2520775E1,2.6327726E1,1.8777649E1,2.9917282E2,1.0868439E1,2.647271E1,1.7033218E1,5.0596447E0,1.4768793E1,2.311852E1,1.345878E1,6.3245935E0,1.0266168E2,1.857358E1,3.340275E1,7.7937326E0,1.6527768E2],"tree_param":{"num_deleted":"0","num_feature":"76","num_nodes":"57","size_leaf_vector":"1"}},{"base_weights":[-0E0,7.8029996E-1,-7.236256E-1,-0E0,1.0456644E0,-1.328474E0,-2.5578195E-1,5.0679755E-1,-7.774874E-1,1.1626495E0,-1.32499365E-2,4.9126833E-3,-1.4286757E0,4.862761E-2,-1.0866609E0,9.627743E-1,-7.350405E-1,-0E0,-1.146365E0,-0E0,1.1961294E0,6.365513E-2,-6.7694825E-1,-9.5261323E-1,-1.6762183E0,3.6603096E-1,-7.118525E-1,9.917782E-4,-1.5323263E0,-0E0,1.1681865E-2,-0E0,-1.2091069E-2,-1.3773377E-2,-0E0,1.4228411E-2,6.6792867E-3,-0E0,5.9610326E-3,-0E0,-1.0703633E-2,-1.3518282E-2,-0E0,-1.801196E-2,-0E0,-2.2360666E-3,8.732672E-3,-0E0,-1.1481754E-2,6.9804466E-3,-9.710697E-4,-0E0,-1.6942965E-2],"categories":[],"categories_nodes":[],"categories_segments":[],"categories_sizes":[],"default_left":[1,0,0,0,0,0,1,0,0,1,0,0,1,1,0,0,1,0,0,0,1,0,0,0,0,0,0,0,0,0,0,0,0,0,0,0,0,0,0,0,0,0,0,0,0,0,0,0,0,0,0,0,0],"id":3,"left_children":[1,3,5,7,9,11,13,15,17,19,21,-1,23,25,27,29,31,-1,33,-1,35,37,39,41,43,45,47,49,51,-1,-1,-1,-1,-1,-1,-1,-1,-1,-1,-1,-1,-1,-1,-1,-1,-1,-1,-1,-1,-1,-1,-1,-1],"loss_changes":[5.792151E2,9.9155E1,1.3993057E2,4.9805676E1,5.2921997E1,4.714151E1,8.429503E1,4.6946995E1,1.968393E1,1.6000305E1,5.6389837E0,0E0,8.040527E0,5.04305E1,5.274623E1,9.736607E0,6.8939466E0,0E0,1.9968376E0,0E0,1.8213226E1,4.144683E0,1.9888501E0,2.538491E1,1.1775421E1,4.8443344E1,1.8531088E1,5.193369E0,1.6726685E0,0E0,0E0,0E0,0E0,0E0,0E0,0E0,0E0,0E0,0E0,0E0,0E0,0E0,0E0,0E0,0E0,0E0,0E0,0E0,0E0,0E0,0E0,0E0,0E0],"parents":[2147483647,0,0,1,1,2,2,3,3,4,4,5,5,6,6,7,7,8,8,9,9,10,10,12,12,13,13,14,14,15,15,16,16,18,18,20,20,21,21,22,22,23,23,24,24,25,25,26,26,27,27,28,28],"right_children":[2,4,6,8,10,12,14,16,18,20,22,-1,24,26,28,30,32,-1,34,-1,36,38,40,42,44,46,48,50,52,-1,-1,-1,-1,-1,-1,-1,-1,-1,-1,-1,-1,-1,-1,-1,-1,-1,-1,-1,-1,-1,-1,-1,-1],"split_conditions":[5.15466E-1,0E0,0E0,8.676E-1,1.5E1,5.652E-1,5.82E0,5.02514E-1,4.9371E-1,3.056E-1,1.167E0,4.9126833E-3,1E0,6.7E-1,7.027E-1,8E0,1.104E2,-0E0,1E0,-0E0,6.21E-1,1.25E1,1.587E1,2E2,6.9E1,2.061161E1,8.35E0,5.50704E-1,5.51932E-1,-0E0,1.1681865E-2,-0E0,-1.2091069E-2,-1.3773377E-2,-0E0,1.4228411E-2,6.6792867E-3,-0E0,5.9610326E-3,-0E0,-1.0703633E-2,-1.3518282E-2,-0E0,-1.801196E-2,-0E0,-2.2360666E-3,8.732672E-3,-0E0,-1.1481754E-2,6.9804466E-3,-9.710697E-4,-0E0,-1.6942965E-2],"split_indices":[59,51,51,36,47,36,15,58,63,36,50,0,24,50,39,43,10,0,65,0,50,45,14,30,4,5,46,58,59,0,0,0,0,0,0,0,0,0,0,0,0,0,0,0,0,0,0,0,0,0,0,0,0],"split_type":[0,0,0,0,0,0,0,0,0,0,0,0,0,0,0,0,0,0,0,0,0,0,0,0,0,0,0,0,0,0,0,0,0,0,0,0,0,0,0,0,0,0,0,0,0,0,0,0,0,0,0,0,0],"sum_hessian":[1.025513E3,4.9394113E2,5.315719E2,1.2825331E2,3.656878E2,2.2558438E2,3.059875E2,8.000673E1,4.8246593E1,3.3492572E2,3.0762083E1,8.383909E0,2.1720047E2,2.1818607E2,8.780142E1,6.243509E1,1.7571638E1,1.11333065E1,3.7113285E1,7.309447E0,3.2761627E2,1.8718317E1,1.2043765E1,8.3626564E1,1.3357391E2,1.6011594E2,5.807014E1,2.123471E1,6.656671E1,9.0891695E0,5.334592E1,5.55959E0,1.2012048E1,2.8804565E1,8.30872E0,2.39706E2,8.791028E1,6.027884E0,1.26904335E1,5.0444555E0,6.99931E0,5.9654182E1,2.3972376E1,1.285294E2,5.044507E0,6.5780045E1,9.4335884E1,1.8941734E1,3.9128407E1,1.1178909E1,1.0055801E1,7.293322E0,5.927339E1],"tree_param":{"num_deleted":"0","num_feature":"76","num_nodes":"53","size_leaf_vector":"1"}},{"base_weights":[-2.5009336E-2,6.7853016E-1,-8.6137515E-1,-0E0,9.586681E-1,-1.0793288E0,4.226906E-1,9.0469027E-1,-3.8864195E-1,1.1298006E0,-0E0,-6.1375046E-1,-1.5260866E0,9.914953E-1,-1.2866083E-2,1.1545348E0,-0E0,-1.0781624E0,-0E0,-0E0,1.2132623E0,7.897473E-1,-3.7448695E-1,4.9086174E-1,-7.890823E-1,-1.6397334E0,-0E0,-0E0,1.1887248E0,-0E0,1.3495391E-2,-0E0,-1.5414234E-2,-2.0942225E-3,6.2540555E-3,4.437444E-3,-6.5555554E-3,1.3080816E-2,-0E0,-0E0,1.2081292E-2,-0E0,-1.3463186E-2,1.26483785E-2,-0E0,2.2097013E-3,-9.922834E-3,-1.7621726E-2,-0E0,1.4371229E-2,-0E0],"categories":[],"categories_nodes":[],"categories_segments":[],"categories_sizes":[],"default_left":[0,0,0,0,1,1,0,0,0,0,1,0,0,0,0,0,0,0,0,0,1,1,0,0,1,0,0,0,1,0,0,0,0,0,0,0,0,0,0,0,0,0,0,0,0,0,0,0,0,0,0],"id":4,"left_children":[1,3,5,7,9,11,13,15,17,19,21,23,25,27,-1,29,-1,31,33,35,37,39,41,43,45,47,-1,-1,49,-1,-1,-1,-1,-1,-1,-1,-1,-1,-1,-1,-1,-1,-1,-1,-1,-1,-1,-1,-1,-1,-1],"loss_changes":[6.0112177E2,1.09352905E2,1.3595798E2,5.200191E1,6.1302185E1,7.025247E1,5.8892647E1,7.1703644E0,3.5583645E1,3.1460205E1,1.9746668E1,4.1989166E1,3.5316803E1,1.4661858E1,0E0,2.7560387E0,0E0,2.1028229E1,1.0226168E1,6.219695E0,2.4355011E1,9.080951E0,1.8577824E1,1.5371046E1,3.5603775E1,1.8645569E1,0E0,0E0,1.2832504E1,0E0,0E0,0E0,0E0,0E0,0E0,0E0,0E0,0E0,0E0,0E0,0E0,0E0,0E0,0E0,0E0,0E0,0E0,0E0,0E0,0E0,0E0],"parents":[2147483647,0,0,1,1,2,2,3,3,4,4,5,5,6,6,7,7,8,8,9,9,10,10,11,11,12,12,13,13,15,15,17,17,18,18,19,19,20,20,21,21,22,22,23,23,24,24,25,25,28,28],"right_children":[2,4,6,8,10,12,14,16,18,20,22,24,26,28,-1,30,-1,32,34,36,38,40,42,44,46,48,-1,-1,50,-1,-1,-1,-1,-1,-1,-1,-1,-1,-1,-1,-1,-1,-1,-1,-1,-1,-1,-1,-1,-1,-1],"split_conditions":[5.55792E-1,0E0,3.5732665E0,6.991E-1,-4.789E0,3.5E1,6E0,2.1911E2,5.77593E-1,1.5E1,4.54E-1,6.364E-1,9.8E1,7.32E0,-1.2866083E-2,4.79E0,-0E0,4.7262E-1,9.43007E1,5.49E0,1.307E0,-9.43E-2,8.15383E-1,2.7E1,5.133E1,1.657E3,-0E0,-0E0,6.599769E1,-0E0,1.3495391E-2,-0E0,-1.5414234E-2,-2.0942225E-3,6.2540555E-3,4.437444E-3,-6.5555554E-3,1.3080816E-2,-0E0,-0E0,1.2081292E-2,-0E0,-1.3463186E-2,1.26483785E-2,-0E0,2.2097013E-3,-9.922834E-3,-1.7621726E-2,-0E0,1.4371229E-2,-0E0],"split_indices":[58,51,52,36,22,17,2,10,60,35,50,36,0,12,0,46,0,63,5,45,50,40,62,43,10,41,0,0,5,0,0,0,0,0,0,0,0,0,0,0,0,0,0,0,0,0,0,0,0,0,0],"split_type":[0,0,0,0,0,0,0,0,0,0,0,0,0,0,0,0,0,0,0,0,0,0,0,0,0,0,0,0,0,0,0,0,0,0,0,0,0,0,0,0,0,0,0,0,0,0,0,0,0,0,0],"sum_hessian":[1.01932306E3,5.4933624E2,4.699868E2,1.5520953E2,3.9412674E2,4.06209E2,6.3777782E1,4.2634323E1,1.1257522E2,3.3176724E2,6.2359486E1,2.0629276E2,1.9991626E2,5.0516224E1,1.326156E1,3.1516605E1,1.1117717E1,4.514598E1,6.742923E1,2.271721E1,3.0905002E2,2.2586601E1,3.977289E1,2.3061918E1,1.8323083E2,1.8628578E2,1.3630474E1,5.0289445E0,4.5487278E1,5.0586276E0,2.6457977E1,1.1866417E1,3.3279564E1,4.435469E1,2.3074541E1,1.343851E1,9.278701E0,3.0175598E2,7.2940373E0,5.5435133E0,1.7043087E1,2.5513582E1,1.4259304E1,1.4003412E1,9.058506E0,2.0500416E1,1.6273042E2,1.8023305E2,6.0527325E0,4.0194176E1,5.293102E0],"tree_param":{"num_deleted":"0","num_feature":"76","num_nodes":"51","size_leaf_vector":"1"}},{"base_weights":[-0E0,7.090829E-1,-9.6288306E-1,9.285218E-1,-1.5426539E-1,-4.901681E-1,-1.5130292E0,1.1013321E0,1.622411E-1,7.052389E-1,-6.5297264E-1,-9.060178E-1,-0E0,-1.281353E-1,-1.6978363E0,-5.975578E-1,1.1711555E0,9.1348875E-1,-4.5191556E-1,-0E0,1.1683155E0,-0E0,-1.2352407E0,-1.1282007E0,5.5924844E-2,-7.215031E-1,2.8248164E-1,3.4989843E-3,-7.221333E-1,-1.8613154E-2,-4.5525905E-1,-9.600119E-3,-0E0,1.3241721E-2,3.3839068E-3,1.3317533E-2,-0E0,4.497272E-4,-1.1151133E-2,-0E0,1.553977E-2,3.529016E-3,-7.374893E-3,-0E0,-1.487759E-2,-0E0,-1.3195459E-2,-0E0,5.9679444E-3,8.44261E-4,-1.1185278E-2,9.86371E-3,-0E0,-1.3609873E-2,-0E0,-0E0,-1.0753094E-2],"categories":[],"categories_nodes":[],"categories_segments":[],"categories_sizes":[],"default_left":[1,1,1,0,1,0,0,0,0,0,0,0,0,0,0,0,1,1,1,0,1,0,0,0,0,0,0,0,0,0,0,0,0,0,0,0,0,0,0,0,0,0,0,0,0,0,0,0,0,0,0,0,0,0,0,0,0],"id":5,"left_children":[1,3,5,7,9,11,13,15,17,19,21,23,25,27,29,31,33,35,37,-1,39,41,43,45,47,49,51,-1,53,-1,55,-1,-1,-1,-1,-1,-1,-1,-1,-1,-1,-1,-1,-1,-1,-1,-1,-1,-1,-1,-1,-1,-1,-1,-1,-1,-1],"loss_changes":[6.9670435E2,1.16903076E2,9.888757E1,5.471759E1,4.836938E1,4.4568226E1,3.726523E1,4.915503E1,4.6864685E1,1.54693165E1,3.317328E1,3.3641113E1,2.5374744E1,1.0047685E1,4.71344E0,1.3666129E0,2.2106293E1,1.616227E1,2.1444347E1,0E0,8.6898575E0,6.9692874E0,8.853149E0,1.6165878E1,2.668069E0,1.7122175E1,1.7952631E1,0E0,9.174262E0,0E0,8.409905E0,0E0,0E0,0E0,0E0,0E0,0E0,0E0,0E0,0E0,0E0,0E0,0E0,0E0,0E0,0E0,0E0,0E0,0E0,0E0,0E0,0E0,0E0,0E0,0E0,0E0,0E0],"parents":[2147483647,0,0,1,1,2,2,3,3,4,4,5,5,6,6,7,7,8,8,9,9,10,10,11,11,12,12,13,13,14,14,15,15,16,16,17,17,18,18,20,20,21,21,22,22,23,23,24,24,25,25,26,26,28,28,30,30],"right_children":[2,4,6,8,10,12,14,16,18,20,22,24,26,28,30,32,34,36,38,-1,40,42,44,46,48,50,52,-1,54,-1,56,-1,-1,-1,-1,-1,-1,-1,-1,-1,-1,-1,-1,-1,-1,-1,-1,-1,-1,-1,-1,-1,-1,-1,-1,-1,-1],"split_conditions":[5.7293E-1,6.68E-2,3.29E0,9.212E-1,5.59E0,7.2554E-1,6.957E-1,1.667E-1,7E0,4.170465E1,2E0,1.644E-1,4E1,5.44207E-1,5.9421516E1,6E0,3.889E-1,8.717E1,1.9032469E1,-0E0,1.2E2,1.9E1,3.27E0,5.20595E-1,1.7773E0,2.174E-1,6.14286E-1,3.4989843E-3,6.5E-1,-1.8613154E-2,1.25E1,-9.600119E-3,-0E0,1.3241721E-2,3.3839068E-3,1.3317533E-2,-0E0,4.497272E-4,-1.1151133E-2,-0E0,1.553977E-2,3.529016E-3,-7.374893E-3,-0E0,-1.487759E-2,-0E0,-1.3195459E-2,-0E0,5.9679444E-3,8.44261E-4,-1.1185278E-2,9.86371E-3,-0E0,-1.3609873E-2,-0E0,-0E0,-1.0753094E-2],"split_indices":[59,19,15,36,46,63,39,31,45,5,3,9,35,58,5,28,11,10,5,0,10,47,12,58,11,38,58,0,39,0,45,0,0,0,0,0,0,0,0,0,0,0,0,0,0,0,0,0,0,0,0,0,0,0,0,0,0],"split_type":[0,0,0,0,0,0,0,0,0,0,0,0,0,0,0,0,0,0,0,0,0,0,0,0,0,0,0,0,0,0,0,0,0,0,0,0,0,0,0,0,0,0,0,0,0,0,0,0,0,0,0,0,0,0,0,0,0],"sum_hessian":[1.0212447E3,5.898244E2,4.314203E2,4.763955E2,1.1342891E2,2.3861827E2,1.9280203E2,3.8164447E2,9.475104E1,3.6759926E1,7.666898E1,1.2406102E2,1.1455724E2,2.6936735E1,1.658653E2,1.1292566E1,3.703519E2,4.744236E1,4.7308678E1,1.2100171E1,2.4659754E1,3.3580387E1,4.3088596E1,1.0635682E2,1.7704203E1,3.6684376E1,7.787287E1,8.883549E0,1.8053188E1,1.490449E2,1.6820383E1,6.248807E0,5.04376E0,3.225436E2,4.780829E1,3.381261E1,1.3629749E1,2.0480247E1,2.6828428E1,5.8082404E0,1.8851513E1,2.581905E1,7.761338E0,6.8070936E0,3.62815E1,1.2616979E1,9.373984E1,9.572117E0,8.132086E0,5.5875974E0,3.109678E1,2.6662428E1,5.121044E1,1.0737086E1,7.316101E0,5.822832E0,1.0997552E1],"tree_param":{"num_deleted":"0","num_feature":"76","num_nodes":"57","size_leaf_vector":"1"}},{"base_weights":[1.5288831E-3,7.055435E-1,-7.393961E-1,-2.1103706E-2,1.0106059E0,-1.328245E0,-2.8741878E-1,-9.1336423E-1,4.8419887E-1,1.2904761E0,4.002549E-1,-0E0,-1.5075194E0,3.4502782E-3,-9.8768204E-1,6.841157E-4,-1.1746787E0,8.738151E-1,-1.5314906E-2,9.525943E-2,1.4739183E0,7.711386E-1,-0E0,-1.1066792E-1,4.1776183E-3,-0E0,-1.5872961E0,-4.6498668E-1,5.767909E-1,-0E0,-1.2983619E0,-0E0,-1.3621912E-2,1.0563894E-2,-0E0,-6.9078957E-3,2.5729921E-3,8.696846E-3,-9.232204E-5,1.5778912E-2,-0E0,9.92337E-3,-0E0,1.5658117E-3,-6.4370288E-3,-7.2215446E-3,-0E0,-1.6923824E-2,-0E0,-1.0230739E-2,-0E0,-4.4314307E-3,8.355442E-3,-0E0,6.015327E-3,-1.4777306E-2,-0E0],"categories":[],"categories_nodes":[],"categories_segments":[],"categories_sizes":[],"default_left":[1,0,0,0,1,0,1,0,0,0,0,0,0,0,0,0,0,1,0,0,1,1,1,0,0,0,0,0,0,0,1,0,0,0,0,0,0,0,0,0,0,0,0,0,0,0,0,0,0,0,0,0,0,0,0,0,0],"id":6,"left_children":[1,3,5,7,9,11,13,15,17,19,21,23,25,27,29,-1,31,33,35,37,39,41,43,45,-1,-1,47,49,51,53,55,-1,-1,-1,-1,-1,-1,-1,-1,-1,-1,-1,-1,-1,-1,-1,-1,-1,-1,-1,-1,-1,-1,-1,-1,-1,-1],"loss_changes":[5.334997E2,1.2387076E2,1.2073013E2,7.059857E1,5.3525696E1,5.1300934E1,6.475741E1,2.2462551E1,2.34354E1,4.4958527E1,2.3597775E1,1.4156106E0,2.1314728E1,5.326404E1,3.621525E1,0E0,4.7835236E0,9.980873E0,8.366457E0,8.465763E0,1.509552E1,1.1825775E1,7.88031E0,2.3869238E0,0E0,0E0,8.899475E0,3.013252E1,2.4136518E1,3.5325975E0,1.4970367E1,0E0,0E0,0E0,0E0,0E0,0E0,0E0,0E0,0E0,0E0,0E0,0E0,0E0,0E0,0E0,0E0,0E0,0E0,0E0,0E0,0E0,0E0,0E0,0E0,0E0,0E0],"parents":[2147483647,0,0,1,1,2,2,3,3,4,4,5,5,6,6,7,7,8,8,9,9,10,10,11,11,12,12,13,13,14,14,16,16,17,17,18,18,19,19,20,20,21,21,22,22,23,23,26,26,27,27,28,28,29,29,30,30],"right_children":[2,4,6,8,10,12,14,16,18,20,22,24,26,28,30,-1,32,34,36,38,40,42,44,46,-1,-1,48,50,52,54,56,-1,-1,-1,-1,-1,-1,-1,-1,-1,-1,-1,-1,-1,-1,-1,-1,-1,-1,-1,-1,-1,-1,-1,-1,-1,-1],"split_conditions":[2.576E-1,0E0,0E0,2.00001E0,6.06E-1,6.43746E-1,4.79E0,5.49E0,8.676E-1,1.25E0,8.251E-1,3.86E2,5.605E1,2.56E2,6.958E-1,6.841157E-4,2.3153E-1,2.231E2,1.32E2,5.806E-1,7.51303E-1,-9.4314283E-1,2.783E-1,1.0674E0,4.1776183E-3,-0E0,2.34E2,3E1,3.5E1,8.77E-1,6.5466125E1,-0E0,-1.3621912E-2,1.0563894E-2,-0E0,-6.9078957E-3,2.5729921E-3,8.696846E-3,-9.232204E-5,1.5778912E-2,-0E0,9.92337E-3,-0E0,1.5658117E-3,-6.4370288E-3,-7.2215446E-3,-0E0,-1.6923824E-2,-0E0,-1.0230739E-2,-0E0,-4.4314307E-3,8.355442E-3,-0E0,6.015327E-3,-1.4777306E-2,-0E0],"split_indices":[11,51,51,23,50,62,14,45,36,31,38,53,10,53,36,0,60,10,0,38,59,22,20,11,0,0,47,0,35,50,5,0,0,0,0,0,0,0,0,0,0,0,0,0,0,0,0,0,0,0,0,0,0,0,0,0,0],"split_type":[0,0,0,0,0,0,0,0,0,0,0,0,0,0,0,0,0,0,0,0,0,0,0,0,0,0,0,0,0,0,0,0,0,0,0,0,0,0,0,0,0,0,0,0,0,0,0,0,0,0,0,0,0,0,0,0,0],"sum_hessian":[1.0229863E3,5.291418E2,4.9384457E2,1.5007475E2,3.7906702E2,2.0800293E2,2.8584164E2,5.8965183E1,9.1109566E1,2.5237914E2,1.26687874E2,2.3980227E1,1.840227E2,1.9535318E2,9.048847E1,7.1025352E0,5.1862648E1,5.8583668E1,3.25259E1,3.8403103E1,2.1397604E2,7.3735664E1,5.295221E1,1.661263E1,7.3675957E0,9.583543E0,1.7443916E2,1.01170815E2,9.4182365E1,1.6685852E1,7.380262E1,7.5571246E0,4.4305523E1,5.2790672E1,5.792996E0,1.6570631E1,1.5955269E1,1.2446427E1,2.5956675E1,2.076694E2,6.3066363E0,6.0870834E1,1.2864828E1,3.462514E1,1.8327065E1,5.247086E0,1.1365544E1,1.6865671E2,5.782446E0,5.34468E1,4.7724014E1,1.2057298E1,8.212507E1,6.2749004E0,1.0410953E1,6.874699E1,5.0556374E0],"tree_param":{"num_deleted":"0","num_feature":"76","num_nodes":"57","size_leaf_vector":"1"}},{"base_weights":[2.4310282E-2,7.1428037E-1,-7.8408474E-1,9.3704754E-1,-1.5111477E-2,-1.4533427E0,-2.4018267E-1,1.1267172E0,-0E0,4.3723726E-1,-5.076039E-1,-0E0,-1.5352772E0,1.2741981E-1,-9.532073E-1,1.202908E0,-0E0,1.0763249E0,-4.3645567E-1,-2.5839314E-1,7.353744E-1,-8.2388806E-1,5.9186514E-3,-0E0,-1.571805E0,4.2836845E-1,-1.1559285E0,-0E0,-1.268656E0,1.3016828E-2,-0E0,3.9943727E-3,-6.592967E-3,-0E0,1.3696355E-2,-1.1080774E-2,-0E0,-0E0,-7.4314326E-3,-0E0,1.152576E-2,-0E0,-1.3011185E-2,-1.6553823E-2,-0E0,-1.1536684E-3,9.096502E-3,-0E0,-1.4301501E-2,-3.316611E-3,3.7912966E-3,-1.5106835E-2,-0E0],"categories":[],"categories_nodes":[],"categories_segments":[],"categories_sizes":[],"default_left":[0,1,0,0,0,0,1,1,1,1,1,0,0,0,1,0,0,1,0,0,0,0,0,0,0,0,0,1,0,0,0,0,0,0,0,0,0,0,0,0,0,0,0,0,0,0,0,0,0,0,0,0,0],"id":7,"left_children":[1,3,5,7,9,11,13,15,17,19,21,-1,23,25,27,29,31,33,35,37,39,41,-1,-1,43,45,47,49,51,-1,-1,-1,-1,-1,-1,-1,-1,-1,-1,-1,-1,-1,-1,-1,-1,-1,-1,-1,-1,-1,-1,-1,-1],"loss_changes":[5.783971E2,9.779837E1,1.6110626E2,7.583621E1,2.8378157E1,2.7427338E1,7.5404915E1,3.2770172E1,3.6930332E1,1.52691345E1,2.4565016E1,0E0,9.288635E0,6.0896133E1,3.256244E1,1.9936523E1,5.742235E0,4.2890434E0,2.0946484E1,2.0160491E0,1.7354223E1,2.471355E1,0E0,0E0,1.226532E0,3.9389984E1,6.2612762E0,2.7117934E0,2.0472145E1,0E0,0E0,0E0,0E0,0E0,0E0,0E0,0E0,0E0,0E0,0E0,0E0,0E0,0E0,0E0,0E0,0E0,0E0,0E0,0E0,0E0,0E0,0E0,0E0],"parents":[2147483647,0,0,1,1,2,2,3,3,4,4,5,5,6,6,7,7,8,8,9,9,10,10,12,12,13,13,14,14,15,15,16,16,17,17,18,18,19,19,20,20,21,21,24,24,25,25,26,26,27,27,28,28],"right_children":[2,4,6,8,10,12,14,16,18,20,22,-1,24,26,28,30,32,34,36,38,40,42,-1,-1,44,46,48,50,52,-1,-1,-1,-1,-1,-1,-1,-1,-1,-1,-1,-1,-1,-1,-1,-1,-1,-1,-1,-1,-1,-1,-1,-1],"split_conditions":[5.52038E-1,-1.3316E2,0E0,9.286E-1,7.115E-1,6.364E-1,6.39E-1,6.35284E-1,3.067E1,1.298E1,6.9E1,-0E0,2E0,8.65999E-1,6E-1,2.4E1,7.313E-1,9.5E-1,3.5E1,6E1,2.0408E0,4.6E1,5.9186514E-3,-0E0,1.043E3,3.5E1,6.31108E-1,5.484E-1,1.14886185E2,1.3016828E-2,-0E0,3.9943727E-3,-6.592967E-3,-0E0,1.3696355E-2,-1.1080774E-2,-0E0,-0E0,-7.4314326E-3,-0E0,1.152576E-2,-0E0,-1.3011185E-2,-1.6553823E-2,-0E0,-1.1536684E-3,9.096502E-3,-0E0,-1.4301501E-2,-3.316611E-3,3.7912966E-3,-1.5106835E-2,-0E0],"split_indices":[58,22,51,36,38,36,50,59,10,16,4,0,46,59,37,47,36,36,35,6,31,6,0,0,10,48,58,44,5,0,0,0,0,0,0,0,0,0,0,0,0,0,0,0,0,0,0,0,0,0,0,0,0],"split_type":[0,0,0,0,0,0,0,0,0,0,0,0,0,0,0,0,0,0,0,0,0,0,0,0,0,0,0,0,0,0,0,0,0,0,0,0,0,0,0,0,0,0,0,0,0,0,0,0,0,0,0,0,0],"sum_hessian":[1.0375985E3,5.642267E2,4.733719E2,4.3914737E2,1.250793E2,2.066939E2,2.6667798E2,3.6344568E2,7.570169E1,5.8198677E1,6.688062E1,9.847909E0,1.9684598E2,1.6989444E2,9.6783554E1,3.414974E2,2.1948267E1,2.3105312E1,5.2596382E1,1.08047695E1,4.7393906E1,5.6473915E1,1.0406704E1,5.2880387E0,1.9155794E2,1.4185667E2,2.8037767E1,2.1961319E1,7.482223E1,3.268565E2,1.4640913E1,1.2421769E1,9.526497E0,5.3056135E0,1.7799698E1,2.7081068E1,2.5515312E1,5.5575833E0,5.247186E0,1.2595014E1,3.4798893E1,1.641252E1,4.0061398E1,1.865378E2,5.020143E0,5.7692154E1,8.416452E1,5.0385165E0,2.299925E1,7.774605E0,1.4186715E1,6.648721E1,8.335022E0],"tree_param":{"num_deleted":"0","num_feature":"76","num_nodes":"53","size_leaf_vector":"1"}},{"base_weights":[1.8695176E-2,7.8174686E-1,-7.6212525E-1,-2.6095653E-1,9.6210724E-1,9.673326E-2,-1.0324341E0,-9.3861103E-1,2.3960631E-2,1.0941122E0,-0E0,-2.60014E-1,6.6368115E-1,-5.551187E-1,-1.6721791E0,-0E0,-1.2566924E-2,-7.835715E-3,3.0754665E-1,-0E0,1.1489518E0,5.4917157E-1,-5.7132643E-1,5.488169E-1,-6.611284E-1,-0E0,1.0750071E0,2.8769818E-1,-7.771729E-1,-1.8269807E-2,-0E0,7.278227E-3,-1.3334083E-3,8.7367353E-4,1.2641709E-2,-0E0,1.1670206E-2,-0E0,-1.1725304E-2,-0E0,9.33274E-3,-0E0,-9.852757E-3,-5.919255E-3,3.3394495E-4,-0E0,1.2652063E-2,-7.3422384E-3,7.4778553E-3,-0E0,-1.0917631E-2],"categories":[],"categories_nodes":[],"categories_segments":[],"categories_sizes":[],"default_left":[1,0,0,0,1,0,1,0,0,0,0,0,0,0,0,0,0,0,1,0,0,0,0,0,0,1,0,0,1,0,0,0,0,0,0,0,0,0,0,0,0,0,0,0,0,0,0,0,0,0,0],"id":8,"left_children":[1,3,5,7,9,11,13,15,17,19,21,23,25,27,29,-1,-1,-1,31,-1,33,35,37,39,41,43,45,47,49,-1,-1,-1,-1,-1,-1,-1,-1,-1,-1,-1,-1,-1,-1,-1,-1,-1,-1,-1,-1,-1,-1],"loss_changes":[6.055758E2,1.02125244E2,1.2180728E2,1.9781925E1,5.2243774E1,2.5634247E1,1.026087E2,7.4564285E0,6.6235294E0,2.627069E1,1.8099033E1,2.1072266E1,1.931458E1,4.562654E1,3.2136932E1,0E0,0E0,0E0,1.03280525E1,0E0,1.8782959E1,1.1951068E1,1.2176137E1,2.8752708E0,1.2621399E1,2.9744878E0,2.5448914E0,1.7824375E1,3.3463936E1,0E0,0E0,0E0,0E0,0E0,0E0,0E0,0E0,0E0,0E0,0E0,0E0,0E0,0E0,0E0,0E0,0E0,0E0,0E0,0E0,0E0,0E0],"parents":[2147483647,0,0,1,1,2,2,3,3,4,4,5,5,6,6,7,7,8,8,9,9,10,10,11,11,12,12,13,13,14,14,18,18,20,20,21,21,22,22,23,23,24,24,25,25,26,26,27,27,28,28],"right_children":[2,4,6,8,10,12,14,16,18,20,22,24,26,28,30,-1,-1,-1,32,-1,34,36,38,40,42,44,46,48,50,-1,-1,-1,-1,-1,-1,-1,-1,-1,-1,-1,-1,-1,-1,-1,-1,-1,-1,-1,-1,-1,-1],"split_conditions":[1.111E-1,5.1E1,6.981E-1,0E0,8.34E-2,4E1,7.3E1,9.767E1,8E0,4.545E-1,1.25E1,1.71324E-1,5.96998E-1,7.4102E-2,9.9333336E1,-0E0,-1.2566924E-2,-7.835715E-3,7.448E-1,-0E0,4.25E2,1.3162E4,8.7E1,3.52E2,5.10215E-1,3.6E2,8.75E2,8.75E2,3.5668334E-1,-1.8269807E-2,-0E0,7.278227E-3,-1.3334083E-3,8.7367353E-4,1.2641709E-2,-0E0,1.1670206E-2,-0E0,-1.1725304E-2,-0E0,9.33274E-3,-0E0,-9.852757E-3,-5.919255E-3,3.3394495E-4,-0E0,1.2652063E-2,-7.3422384E-3,7.4778553E-3,-0E0,-1.0917631E-2],"split_indices":[8,30,39,51,19,0,17,10,4,31,45,61,63,61,4,0,0,0,57,0,55,55,17,53,63,17,55,55,52,0,0,0,0,0,0,0,0,0,0,0,0,0,0,0,0,0,0,0,0,0,0],"split_type":[0,0,0,0,0,0,0,0,0,0,0,0,0,0,0,0,0,0,0,0,0,0,0,0,0,0,0,0,0,0,0,0,0,0,0,0,0,0,0,0,0,0,0,0,0,0,0,0,0,0,0],"sum_hessian":[1.01596533E3,5.1811566E2,4.978496E2,7.098645E1,4.4712924E2,1.13334595E2,3.84515E2,2.7814468E1,4.3171978E1,3.8936386E2,5.7765396E1,6.243359E1,5.090101E1,2.2625203E2,1.5826299E2,6.054543E0,2.1759926E1,5.2468276E0,3.792515E1,1.6391071E1,3.7297278E2,3.3172527E1,2.4592867E1,1.5214925E1,4.7218662E1,1.4852874E1,3.6048138E1,4.0958206E1,1.8529382E2,1.5319424E2,5.068732E0,2.7872784E1,1.0052366E1,2.8551153E1,3.4442163E2,1.5886421E1,1.7286108E1,8.840617E0,1.5752249E1,6.0572357E0,9.157689E0,1.0362421E1,3.6856243E1,9.020167E0,5.832706E0,6.3221173E0,2.9726019E1,7.7581415E0,3.3200066E1,5.394103E1,1.313528E2],"tree_param":{"num_deleted":"0","num_feature":"76","num_nodes":"51","size_leaf_vector":"1"}},{"base_weights":[3.90691E-3,7.066439E-1,-7.486105E-1,9.317759E-1,-2.1735974E-1,1.89048E-1,-9.9139684E-1,1.0826973E0,2.6441213E-1,4.2752966E-2,-9.181184E-1,-4.0308368E-1,5.910671E-1,-4.8198926E-1,-1.4605987E0,3.4858335E-2,1.1683302E0,9.650458E-1,-0E0,4.182695E-1,-2.6990667E-1,-1.4069273E-2,1.6231216E-4,-0E0,-6.576058E-1,-0E0,9.243423E-1,-9.378123E-1,-0E0,-0E0,-1.5608951E0,5.864849E-3,-1.9940843E-3,1.33930845E-2,3.829179E-3,-0E0,1.3964369E-2,-2.6111007E-3,1.1316105E-2,-5.044973E-3,9.2288265E-3,2.9708628E-4,-8.496858E-3,-0E0,-1.1792738E-2,-0E0,-5.5729924E-3,-0E0,1.1801978E-2,1.0895933E-4,-1.1841583E-2,6.32385E-3,-3.73746E-3,-7.98381E-4,4.918814E-3,-0E0,-1.6597541E-2],"categories":[],"categories_nodes":[],"categories_segments":[],"categories_sizes":[],"default_left":[1,1,0,1,0,0,1,0,0,1,1,0,0,0,1,0,0,0,1,0,0,0,0,0,0,0,0,0,0,0,0,0,0,0,0,0,0,0,0,0,0,0,0,0,0,0,0,0,0,0,0,0,0,0,0,0,0],"id":9,"left_children":[1,3,5,7,9,11,13,15,17,19,21,23,25,27,29,31,33,35,37,39,41,-1,-1,-1,43,45,47,49,51,53,55,-1,-1,-1,-1,-1,-1,-1,-1,-1,-1,-1,-1,-1,-1,-1,-1,-1,-1,-1,-1,-1,-1,-1,-1,-1,-1],"loss_changes":[5.3628735E2,1.1484003E2,1.1583612E2,3.4496582E1,2.3662214E1,2.3722574E1,8.057269E1,2.2868134E1,1.35828285E1,8.589415E0,2.2519817E1,6.214996E0,1.6690113E1,4.40166E1,3.2595734E1,6.3197937E0,1.9385498E1,9.49098E0,2.065443E1,1.9342402E1,9.448612E0,0E0,0E0,0E0,8.830792E0,1.9790488E0,1.334071E1,2.7011635E1,2.0806599E1,1.3694237E0,5.720215E0,0E0,0E0,0E0,0E0,0E0,0E0,0E0,0E0,0E0,0E0,0E0,0E0,0E0,0E0,0E0,0E0,0E0,0E0,0E0,0E0,0E0,0E0,0E0,0E0,0E0,0E0],"parents":[2147483647,0,0,1,1,2,2,3,3,4,4,5,5,6,6,7,7,8,8,9,9,10,10,11,11,12,12,13,13,14,14,15,15,16,16,17,17,18,18,19,19,20,20,24,24,25,25,26,26,27,27,28,28,29,29,30,30],"right_children":[2,4,6,8,10,12,14,16,18,20,22,24,26,28,30,32,34,36,38,40,42,-1,-1,-1,44,46,48,50,52,54,56,-1,-1,-1,-1,-1,-1,-1,-1,-1,-1,-1,-1,-1,-1,-1,-1,-1,-1,-1,-1,-1,-1,-1,-1,-1,-1],"split_conditions":[2.378E-1,9.73E-2,6.71066E-1,4.05144E-1,8.86994E-1,3.6E1,2.8E1,3E0,7E0,2.5E1,5.9166668E1,4.634E-1,3.1E1,2.31E2,1.99E0,5.1E1,8.79387E-1,4E0,4.6181E2,1.09E2,6.1E1,-1.4069273E-2,1.6231216E-4,-0E0,2E0,6.6E1,3.77627E-1,4.2727275E0,9.25E0,2.62E1,2.10186E-1,5.864849E-3,-1.9940843E-3,1.33930845E-2,3.829179E-3,-0E0,1.3964369E-2,-2.6111007E-3,1.1316105E-2,-5.044973E-3,9.2288265E-3,2.9708628E-4,-8.496858E-3,-0E0,-1.1792738E-2,-0E0,-5.5729924E-3,-0E0,1.1801978E-2,1.0895933E-4,-1.1841583E-2,6.32385E-3,-3.73746E-3,-7.98381E-4,4.918814E-3,-0E0,-1.6597541E-2],"split_indices":[11,19,62,61,62,35,17,43,45,48,4,39,48,53,46,48,62,45,10,35,17,0,0,0,56,35,63,4,45,4,60,0,0,0,0,0,0,0,0,0,0,0,0,0,0,0,0,0,0,0,0,0,0,0,0,0,0],"split_type":[0,0,0,0,0,0,0,0,0,0,0,0,0,0,0,0,0,0,0,0,0,0,0,0,0,0,0,0,0,0,0,0,0,0,0,0,0,0,0,0,0,0,0,0,0,0,0,0,0,0,0,0,0,0,0,0,0],"sum_hessian":[1.0144288E3,5.291159E2,4.853129E2,4.3121295E2,9.790293E1,9.421456E1,3.9109836E2,3.4353983E2,8.767315E1,6.458578E1,3.331715E1,3.1441847E1,6.2772713E1,1.9438164E2,1.967167E2,3.1804224E1,3.117356E2,2.1067402E1,6.660574E1,3.894364E1,2.5642138E1,2.748319E1,5.8339586E0,5.32361E0,2.6118237E1,1.7634533E1,4.513818E1,1.01314125E2,9.306752E1,1.1102721E1,1.8561398E2,1.822687E1,1.35773535E1,2.6321616E2,4.8519417E1,5.0362206E0,1.6031181E1,5.2116306E1,1.448944E1,8.520911E0,3.0422731E1,8.861448E0,1.678069E1,1.0598556E1,1.5519681E1,1.0876564E1,6.7579694E0,5.026159E0,4.011202E1,1.2137721E1,8.91764E1,3.596006E1,5.7107464E1,5.2530704E0,5.8496513E0,6.526081E0,1.790879E2],"tree_param":{"num_deleted":"0","num_feature":"76","num_nodes":"57","size_leaf_vector":"1"}},{"base_weights":[1.3773581E-2,7.347368E-1,-6.91972E-1,-0E0,9.993125E-1,2.8993633E-1,-9.644775E-1,2.8702915E-1,-1.2172403E0,1.091658E0,-0E0,9.459395E-1,-0E0,-5.6790215E-1,-1.5591732E0,6.8118805E-1,-3.3404407E-1,-0E0,-1.5127986E-2,1.17034E0,-0E0,-3.3702374E-1,2.9356892E-3,-0E0,1.0805854E0,5.8999306E-1,-4.528218E-1,-7.8835106E-1,1.6765004E-1,-0E0,-1.6247731E0,-0E0,8.904723E-3,2.6210428E-3,-9.114329E-3,1.2522457E-2,-0E0,-4.852757E-3,6.5578436E-3,-0E0,-1.0206465E-2,1.3240777E-2,-0E0,1.0089213E-2,-0E0,-0E0,-9.018564E-3,-0E0,-1.0967342E-2,6.8144808E-3,-8.997545E-3,-0E0,-1.7570453E-2],"categories":[],"categories_nodes":[],"categories_segments":[],"categories_sizes":[],"default_left":[1,0,0,0,0,1,1,1,0,0,0,0,0,0,0,0,0,0,0,1,0,0,0,0,0,1,1,1,1,0,1,0,0,0,0,0,0,0,0,0,0,0,0,0,0,0,0,0,0,0,0,0,0],"id":10,"left_children":[1,3,5,7,9,11,13,15,17,19,21,23,25,27,29,31,33,-1,-1,35,37,39,-1,-1,41,43,45,47,49,-1,51,-1,-1,-1,-1,-1,-1,-1,-1,-1,-1,-1,-1,-1,-1,-1,-1,-1,-1,-1,-1,-1,-1],"loss_changes":[5.153022E2,1.0146735E2,1.4011613E2,4.869776E1,3.8131622E1,2.395628E1,8.064813E1,2.7698885E1,6.181164E0,2.7372467E1,2.934808E0,3.5048218E0,1.772003E1,4.434301E1,1.2943024E1,1.2734745E1,1.49505625E1,0E0,0E0,1.8430267E1,7.772648E0,7.441061E0,0E0,0E0,5.244175E0,6.2795134E0,1.3236248E1,4.7474426E1,2.4140678E1,0E0,7.947937E0,0E0,0E0,0E0,0E0,0E0,0E0,0E0,0E0,0E0,0E0,0E0,0E0,0E0,0E0,0E0,0E0,0E0,0E0,0E0,0E0,0E0,0E0],"parents":[2147483647,0,0,1,1,2,2,3,3,4,4,5,5,6,6,7,7,8,8,9,9,10,10,11,11,12,12,13,13,14,14,15,15,16,16,19,19,20,20,21,21,24,24,25,25,26,26,27,27,28,28,30,30],"right_children":[2,4,6,8,10,12,14,16,18,20,22,24,26,28,30,32,34,-1,-1,36,38,40,-1,-1,42,44,46,48,50,-1,52,-1,-1,-1,-1,-1,-1,-1,-1,-1,-1,-1,-1,-1,-1,-1,-1,-1,-1,-1,-1,-1,-1],"split_conditions":[7.69E-2,0E0,7.143E-1,5.60251E-1,1.6E1,3.333E-1,5.71E0,9E0,9.25E0,6.19857E-1,1E0,3E1,2.9E1,2.86E2,7.06E-1,1.97E-1,4.7262E-1,-0E0,-1.5127986E-2,2.0017166E2,5.1666668E1,2.6476E-1,2.9356892E-3,-0E0,4.6285E-1,7.23E-1,6.39E0,3.49E0,9.286E-1,-0E0,1.99E0,-0E0,8.904723E-3,2.6210428E-3,-9.114329E-3,1.2522457E-2,-0E0,-4.852757E-3,6.5578436E-3,-0E0,-1.0206465E-2,1.3240777E-2,-0E0,1.0089213E-2,-0E0,-0E0,-9.018564E-3,-0E0,-1.0967342E-2,6.8144808E-3,-8.997545E-3,-0E0,-1.7570453E-2],"split_indices":[8,51,36,58,47,37,15,24,45,58,65,35,43,30,39,50,63,0,0,5,4,61,0,0,61,50,46,46,36,0,46,0,0,0,0,0,0,0,0,0,0,0,0,0,0,0,0,0,0,0,0,0,0],"split_type":[0,0,0,0,0,0,0,0,0,0,0,0,0,0,0,0,0,0,0,0,0,0,0,0,0,0,0,0,0,0,0,0,0,0,0,0,0,0,0,0,0,0,0,0,0,0,0,0,0,0,0,0,0],"sum_hessian":[1.0119767E3,5.052278E2,5.0674887E2,1.3055325E2,3.7467456E2,1.0480751E2,4.0194135E2,1.0355744E2,2.6995815E1,3.4594666E2,2.8727924E1,3.6522182E1,6.828533E1,2.4793925E2,1.5400209E2,6.986415E1,3.3693287E1,5.2890043E0,2.1706812E1,3.2096478E2,2.4981869E1,1.8339365E1,1.038856E1,5.558009E0,3.0964172E1,2.5580833E1,4.2704494E1,1.9768243E2,5.025683E1,7.290137E0,1.4671196E2,8.55656E0,6.1307594E1,1.038762E1,2.3305668E1,3.1468652E2,6.2782497E0,1.2545851E1,1.2436018E1,8.583933E0,9.755432E0,2.5410095E1,5.554077E0,1.6002686E1,9.578148E0,1.3651494E1,2.9053001E1,4.51678E1,1.5251463E2,3.8499252E1,1.1757575E1,8.79124E0,1.3792072E2],"tree_param":{"num_deleted":"0","num_feature":"76","num_nodes":"53","size_leaf_vector":"1"}},{"base_weights":[-0E0,6.299648E-1,-8.7062275E-1,-3.7217714E-2,8.921054E-1,-1.0977904E0,5.827313E-1,8.762542E-1,-4.224204E-1,1.034001E0,-0E0,-6.719519E-1,-1.6329983E0,1.0123725E0,-6.940971E-3,1.255596E-2,-0E0,-0E0,-1.0750729E0,-7.7489424E-1,1.1162859E0,-7.770126E-1,3.523665E-1,-1.160027E0,-2.0199019E-1,-1.6811453E0,-0E0,1.1865505E0,-0E0,-4.023904E-3,7.8004887E-3,-0E0,-1.4363654E-2,-0E0,-1.1638676E-2,1.4855107E-2,5.523721E-3,-1.2859915E-2,-0E0,8.562852E-3,-0E0,-0E0,-1.3096742E-2,1.8079581E-3,-9.66709E-3,-1.7806482E-2,-0E0,-0E0,1.3817546E-2],"categories":[],"categories_nodes":[],"categories_segments":[],"categories_sizes":[],"default_left":[0,0,0,0,0,1,0,0,1,0,0,0,0,1,0,0,0,0,0,1,1,0,0,0,0,0,0,0,0,0,0,0,0,0,0,0,0,0,0,0,0,0,0,0,0,0,0,0,0],"id":11,"left_children":[1,3,5,7,9,11,13,15,17,19,21,23,25,27,-1,-1,-1,29,31,33,35,37,39,41,43,45,-1,47,-1,-1,-1,-1,-1,-1,-1,-1,-1,-1,-1,-1,-1,-1,-1,-1,-1,-1,-1,-1,-1],"loss_changes":[5.6386194E2,1.0925151E2,1.4669464E2,5.3354862E1,5.0810913E1,7.103598E1,3.1795107E1,1.4755104E1,2.9131008E1,5.7328125E1,1.5697202E1,4.10119E1,1.1465881E1,9.691315E0,0E0,0E0,0E0,2.0601246E1,1.8421627E1,1.9708443E0,5.2561615E1,5.9522324E0,9.952934E0,1.2638031E1,3.7459938E1,2.0622864E0,0E0,4.9780083E0,0E0,0E0,0E0,0E0,0E0,0E0,0E0,0E0,0E0,0E0,0E0,0E0,0E0,0E0,0E0,0E0,0E0,0E0,0E0,0E0,0E0],"parents":[2147483647,0,0,1,1,2,2,3,3,4,4,5,5,6,6,7,7,8,8,9,9,10,10,11,11,12,12,13,13,17,17,18,18,19,19,20,20,21,21,22,22,23,23,24,24,25,25,27,27],"right_children":[2,4,6,8,10,12,14,16,18,20,22,24,26,28,-1,-1,-1,30,32,34,36,38,40,42,44,46,-1,48,-1,-1,-1,-1,-1,-1,-1,-1,-1,-1,-1,-1,-1,-1,-1,-1,-1,-1,-1,-1,-1],"split_conditions":[5.66631E-1,0E0,4.999E1,7.027E-1,6.35284E-1,7.5E1,8.29497E-1,2.1911E2,6.0600543E-1,1.5E1,2.3522E2,0E0,1.21E2,5E0,-6.940971E-3,1.255596E-2,-0E0,9.0436775E1,-1.29E-1,1.8464285E1,6.21E-1,1.0806E0,8.99E0,5.7668E-1,5.98E-1,1.108E3,-0E0,7.491E1,-0E0,-4.023904E-3,7.8004887E-3,-0E0,-1.4363654E-2,-0E0,-1.1638676E-2,1.4855107E-2,5.523721E-3,-1.2859915E-2,-0E0,8.562852E-3,-0E0,-0E0,-1.3096742E-2,1.8079581E-3,-9.66709E-3,-1.7806482E-2,-0E0,-0E0,1.3817546E-2],"split_indices":[58,51,46,36,59,17,59,10,52,35,14,51,0,31,0,0,0,5,40,4,50,20,45,58,50,41,0,10,0,0,0,0,0,0,0,0,0,0,0,0,0,0,0,0,0,0,0,0,0],"split_type":[0,0,0,0,0,0,0,0,0,0,0,0,0,0,0,0,0,0,0,0,0,0,0,0,0,0,0,0,0,0,0,0,0,0,0,0,0,0,0,0,0,0,0,0,0,0,0,0,0],"sum_hessian":[1.0258733E3,5.921911E2,4.3368222E2,1.5994797E2,4.3224313E2,3.790191E2,5.466313E1,4.2306152E1,1.1764182E2,3.692469E2,6.2996254E1,2.1809663E2,1.6092245E2,4.464467E1,1.0018465E1,3.223021E1,1.0075944E1,7.4365074E1,4.327675E1,1.2527342E1,3.5671954E2,1.6259178E1,4.673708E1,1.0000172E2,1.1809492E2,1.558879E2,5.034553E0,3.9354034E1,5.290633E0,5.1812595E1,2.2552479E1,7.581156E0,3.5695595E1,5.03317E0,7.4941716E0,2.243031E2,1.3241643E2,1.0207495E1,6.0516825E0,2.3062895E1,2.3674183E1,7.559153E0,9.2442566E1,7.197939E1,4.611553E1,1.5039433E2,5.493563E0,5.3027472E0,3.405129E1],"tree_param":{"num_deleted":"0","num_feature":"76","num_nodes":"49","size_leaf_vector":"1"}},{"base_weights":[-3.4747582E-2,6.057556E-1,-8.325645E-1,-0E0,8.7657213E-1,-3.3474332E-1,-1.4478606E0,4.222792E-1,-8.503535E-1,1.1405306E0,6.2975466E-2,-1.0280951E0,-0E0,-3.7223518E-2,-1.6203439E0,9.9614584E-1,-5.80534E-2,-0E0,-1.1678996E0,1.9219351E-1,1.3186905E0,3.7675193E-1,-7.4804455E-1,-0E0,-1.3089484E0,-5.0300163E-1,5.2862674E-1,-5.098196E-1,4.2816033E-3,-1.6819261E0,-0E0,-0E0,1.2151696E-2,-7.00746E-3,5.4030875E-3,-1.5007511E-2,-0E0,1.0141976E-2,-7.2192345E-3,1.4470707E-2,-0E0,-0E0,6.7521827E-3,-1.2723277E-2,-0E0,-1.3641512E-3,5.3767283E-3,-1.54632805E-2,-0E0,-8.929141E-3,-0E0,1.0470449E-2,-0E0,-0E0,-1.0623816E-2,-1.779516E-2,-0E0],"categories":[],"categories_nodes":[],"categories_segments":[],"categories_sizes":[],"default_left":[0,0,1,0,1,0,0,1,1,0,1,1,0,0,0,0,1,0,0,0,1,1,0,0,1,0,1,0,0,0,0,0,0,0,0,0,0,0,0,0,0,0,0,0,0,0,0,0,0,0,0,0,0,0,0,0,0],"id":12,"left_children":[1,3,5,7,9,11,13,15,17,19,21,23,25,27,29,31,33,-1,35,37,39,41,43,45,47,49,51,53,-1,55,-1,-1,-1,-1,-1,-1,-1,-1,-1,-1,-1,-1,-1,-1,-1,-1,-1,-1,-1,-1,-1,-1,-1,-1,-1,-1,-1],"loss_changes":[5.2245764E2,9.511626E1,1.2861914E2,6.2367096E1,7.613501E1,6.675245E1,3.747107E1,3.666001E1,1.8206287E1,3.889633E1,2.3578547E1,3.139389E1,4.5130527E1,6.1890926E0,1.8139832E1,1.3136345E1,2.0322641E1,0E0,8.754456E0,3.8026615E1,1.9281952E1,1.2392434E1,1.3385104E1,2.6715147E0,1.0300568E1,1.7383148E1,2.9010468E1,1.0360443E1,0E0,3.070404E0,0E0,0E0,0E0,0E0,0E0,0E0,0E0,0E0,0E0,0E0,0E0,0E0,0E0,0E0,0E0,0E0,0E0,0E0,0E0,0E0,0E0,0E0,0E0,0E0,0E0,0E0,0E0],"parents":[2147483647,0,0,1,1,2,2,3,3,4,4,5,5,6,6,7,7,8,8,9,9,10,10,11,11,12,12,13,13,14,14,15,15,16,16,18,18,19,19,20,20,21,21,22,22,23,23,24,24,25,25,26,26,27,27,29,29],"right_children":[2,4,6,8,10,12,14,16,18,20,22,24,26,28,30,32,34,-1,36,38,40,42,44,46,48,50,52,54,-1,56,-1,-1,-1,-1,-1,-1,-1,-1,-1,-1,-1,-1,-1,-1,-1,-1,-1,-1,-1,-1,-1,-1,-1,-1,-1,-1,-1],"split_conditions":[2E0,0E0,3.29E0,8.676E-1,6.88E-1,0E0,7.027E-1,6.0600543E-1,9.25E0,9.5E2,8.2907E-1,6.545E-1,2.061161E1,4.9E1,6.16E1,1.56E2,2.3333E0,-0E0,1E0,9.25E0,4.002E-1,1.538E-1,1.79E2,1E0,4.0845E-1,1.975E3,4.81E-1,1.08756E-1,4.2816033E-3,1.432956E6,-0E0,-0E0,1.2151696E-2,-7.00746E-3,5.4030875E-3,-1.5007511E-2,-0E0,1.0141976E-2,-7.2192345E-3,1.4470707E-2,-0E0,-0E0,6.7521827E-3,-1.2723277E-2,-0E0,-1.3641512E-3,5.3767283E-3,-1.54632805E-2,-0E0,-8.929141E-3,-0E0,1.0470449E-2,-0E0,-0E0,-1.0623816E-2,-1.779516E-2,-0E0],"split_indices":[2,51,15,36,50,51,39,52,4,55,62,36,5,0,4,17,31,0,65,45,19,31,0,7,57,55,50,61,0,55,0,0,0,0,0,0,0,0,0,0,0,0,0,0,0,0,0,0,0,0,0,0,0,0,0,0,0],"split_type":[0,0,0,0,0,0,0,0,0,0,0,0,0,0,0,0,0,0,0,0,0,0,0,0,0,0,0,0,0,0,0,0,0,0,0,0,0,0,0,0,0,0,0,0,0,0,0,0,0,0,0,0,0,0,0,0,0],"sum_hessian":[1.0192639E3,5.607851E2,4.584788E2,1.692493E2,3.915358E2,2.594693E2,1.990095E2,1.1034439E2,5.8904907E1,2.894509E2,1.020849E2,9.056545E1,1.6890384E2,2.5876886E1,1.7313261E2,5.650251E1,5.384188E1,1.4379628E1,4.452528E1,5.168778E1,2.3776312E2,7.953199E1,2.2552916E1,1.6412529E1,7.415292E1,8.041797E1,8.848587E1,1.9786062E1,6.090825E0,1.6709123E2,6.04138E0,6.041773E0,5.0460735E1,3.1581177E1,2.2260704E1,3.3200638E1,1.1324642E1,3.1383087E1,2.0304693E1,2.2262474E2,1.5138376E1,2.3644331E1,5.5887657E1,1.7239424E1,5.313491E0,7.0226336E0,9.389895E0,6.185913E1,1.2293789E1,5.0911285E1,2.9506683E1,5.2730038E1,3.575583E1,5.068226E0,1.4717835E1,1.618504E2,5.2408304E0],"tree_param":{"num_deleted":"0","num_feature":"76","num_nodes":"57","size_leaf_vector":"1"}},{"base_weights":[2.4998268E-2,7.0696706E-1,-6.463118E-1,-0E0,9.8402405E-1,3.4799832E-1,-8.765099E-1,4.2102426E-1,-7.255024E-1,1.2184653E0,4.5201662E-1,-0E0,1.0344423E0,-4.1838107E-1,-1.456414E0,7.211892E-1,-1.1775107E-1,-0E0,-1.1152054E0,1.871543E-1,1.392106E0,6.814919E-1,-8.620742E-2,1.8826912E-1,-6.436284E-1,-0E0,1.4384974E-2,-1.0809883E0,-0E0,-1.5258436E0,-0E0,9.540697E-3,-0E0,-0E0,-8.782235E-3,-0E0,6.06608E-3,-1.3735608E-2,-0E0,5.5036927E-3,-8.726379E-3,1.4869816E-2,-0E0,8.4994575E-3,-0E0,-0E0,-8.443544E-3,-0E0,4.8866128E-3,-1.2109414E-2,-0E0,-0E0,-1.29455E-2,3.935841E-3,-6.197099E-3,-1.6473318E-2,-0E0],"categories":[],"categories_nodes":[],"categories_segments":[],"categories_sizes":[],"default_left":[1,0,0,1,1,0,1,0,0,0,1,0,0,0,0,1,1,1,1,0,1,1,0,0,0,0,0,0,1,0,0,0,0,0,0,0,0,0,0,0,0,0,0,0,0,0,0,0,0,0,0,0,0,0,0,0,0],"id":13,"left_children":[1,3,5,7,9,11,13,15,17,19,21,23,25,27,29,31,33,35,37,39,41,43,45,47,49,-1,-1,51,53,55,-1,-1,-1,-1,-1,-1,-1,-1,-1,-1,-1,-1,-1,-1,-1,-1,-1,-1,-1,-1,-1,-1,-1,-1,-1,-1,-1],"loss_changes":[4.717472E2,1.0162152E2,1.2116658E2,4.4405422E1,3.516977E1,2.4594236E1,9.9843475E1,1.8724394E1,2.1254564E1,3.4089935E1,1.9052666E1,8.277724E0,1.8206741E1,6.474645E1,2.378061E1,1.240662E1,6.000567E0,2.7242737E0,8.749336E0,1.2621752E1,9.76535E0,1.2878155E1,3.823619E0,5.328042E0,4.9021606E0,0E0,0E0,2.2162056E1,3.473263E1,1.8097473E1,0E0,0E0,0E0,0E0,0E0,0E0,0E0,0E0,0E0,0E0,0E0,0E0,0E0,0E0,0E0,0E0,0E0,0E0,0E0,0E0,0E0,0E0,0E0,0E0,0E0,0E0,0E0],"parents":[2147483647,0,0,1,1,2,2,3,3,4,4,5,5,6,6,7,7,8,8,9,9,10,10,11,11,12,12,13,13,14,14,15,15,16,16,17,17,18,18,19,19,20,20,21,21,22,22,23,23,24,24,27,27,28,28,29,29],"right_children":[2,4,6,8,10,12,14,16,18,20,22,24,26,28,30,32,34,36,38,40,42,44,46,48,50,-1,-1,52,54,56,-1,-1,-1,-1,-1,-1,-1,-1,-1,-1,-1,-1,-1,-1,-1,-1,-1,-1,-1,-1,-1,-1,-1,-1,-1,-1,-1],"split_conditions":[1E-1,0E0,6.60707E-1,5E0,6.21E-1,3.39E2,7.4E1,8.986E-1,4.9371E-1,1.25E0,1.25E-2,1.4277E0,9E2,0E0,9.9333336E1,4.47267E-1,3E1,3.954E1,5.811111E1,1E0,4.002E-1,8.906E-1,9.061E-1,3.8E1,2.8E1,-0E0,1.4384974E-2,5.605E1,1.299E1,3.3035E4,-0E0,9.540697E-3,-0E0,-0E0,-8.782235E-3,-0E0,6.06608E-3,-1.3735608E-2,-0E0,5.5036927E-3,-8.726379E-3,1.4869816E-2,-0E0,8.4994575E-3,-0E0,-0E0,-8.443544E-3,-0E0,4.8866128E-3,-1.2109414E-2,-0E0,-0E0,-1.29455E-2,3.935841E-3,-6.197099E-3,-1.6473318E-2,-0E0],"split_indices":[8,51,62,24,50,53,17,36,63,31,18,11,55,51,4,61,4,16,4,66,19,57,38,6,31,0,0,10,46,17,0,0,0,0,0,0,0,0,0,0,0,0,0,0,0,0,0,0,0,0,0,0,0,0,0,0,0],"split_type":[0,0,0,0,0,0,0,0,0,0,0,0,0,0,0,0,0,0,0,0,0,0,0,0,0,0,0,0,0,0,0,0,0,0,0,0,0,0,0,0,0,0,0,0,0,0,0,0,0,0,0,0,0,0,0,0,0],"sum_hessian":[1.029347E3,5.155074E2,5.1383966E2,1.4452522E2,3.7098218E2,9.118298E1,4.226567E2,9.092478E1,5.360044E1,2.4877588E2,1.2220631E2,5.797456E1,3.3208424E1,2.425983E2,1.8005841E2,6.625805E1,2.4666733E1,1.388718E1,3.971326E1,4.1374424E1,2.0740144E2,9.427788E1,2.7928423E1,4.167426E1,1.63003E1,5.275885E0,2.7932539E1,9.165775E1,1.5094054E2,1.7424971E2,5.8087053E0,5.5430237E1,1.082781E1,1.5912097E1,8.754637E0,6.018053E0,7.8691278E0,3.316831E1,6.5449514E0,3.5886276E1,5.4881487E0,2.0058885E2,6.8126044E0,8.447011E1,9.807772E0,2.1942469E1,5.9859557E0,1.1061508E1,3.061275E1,8.488228E0,7.812073E0,8.584466E0,8.307329E1,8.993212E1,6.100841E1,1.6823328E2,6.0164332E0],"tree_param":{"num_deleted":"0","num_feature":"76","num_nodes":"57","size_leaf_vector":"1"}},{"base_weights":[5.3059127E-2,7.3894346E-1,-6.3269943E-1,-0E0,1.0252706E0,1.9413698E-1,-9.13065E-1,4.9911988E-1,-8.7342113E-1,3.945554E-2,1.1216232E0,1.0949721E0,-2.4620783E-2,-4.0639007E-1,-1.4326634E0,8.5853994E-1,-4.0899917E-2,2.4844005E-3,-1.254882E0,3.679669E-1,-4.332697E-3,1.1549871E0,-0E0,-0E0,1.4283953E-2,-7.284732E-1,1.5243718E-1,-1.1409346E0,-0E0,-1.5668569E0,-0E0,1.1264302E-2,-0E0,-7.1449513E-3,4.8610845E-4,-1.5009246E-2,-0E0,7.814319E-3,-2.4717993E-3,1.3990004E-2,7.2581326E-3,-0E0,-1.2806048E-2,-0E0,6.4083994E-3,-0E0,-1.3200165E-2,-1.3831974E-2,2.661416E-3,-1.6758425E-2,-0E0,4.387513E-3,-5.60814E-3],"categories":[],"categories_nodes":[],"categories_segments":[],"categories_sizes":[],"default_left":[1,0,0,1,0,0,1,0,0,0,1,0,0,0,0,0,0,0,1,0,0,1,0,0,0,1,0,0,0,0,1,0,0,0,0,0,0,0,0,0,0,0,0,0,0,0,0,0,0,0,0,0,0],"id":14,"left_children":[1,3,5,7,9,11,13,15,17,19,21,23,25,27,29,31,33,-1,35,37,-1,39,-1,-1,-1,41,43,45,47,49,51,-1,-1,-1,-1,-1,-1,-1,-1,-1,-1,-1,-1,-1,-1,-1,-1,-1,-1,-1,-1,-1,-1],"loss_changes":[4.8077875E2,1.11009186E2,1.2197487E2,6.270527E1,2.7758057E1,3.1153923E1,8.8740814E1,2.2692696E1,2.9304497E1,5.6106434E0,1.6651733E1,9.239212E0,1.5346703E1,5.92622E1,3.4715424E1,1.1359245E1,5.8576584E0,0E0,5.9200974E0,1.0758802E1,0E0,1.511908E1,0E0,0E0,0E0,1.5879349E1,8.525796E0,7.7633057E0,4.5056133E1,1.1656708E1,3.6999433E0,0E0,0E0,0E0,0E0,0E0,0E0,0E0,0E0,0E0,0E0,0E0,0E0,0E0,0E0,0E0,0E0,0E0,0E0,0E0,0E0,0E0,0E0],"parents":[2147483647,0,0,1,1,2,2,3,3,4,4,5,5,6,6,7,7,8,8,9,9,10,10,11,11,12,12,13,13,14,14,15,15,16,16,18,18,19,19,21,21,25,25,26,26,27,27,28,28,29,29,30,30],"right_children":[2,4,6,8,10,12,14,16,18,20,22,24,26,28,30,32,34,-1,36,38,-1,40,-1,-1,-1,42,44,46,48,50,52,-1,-1,-1,-1,-1,-1,-1,-1,-1,-1,-1,-1,-1,-1,-1,-1,-1,-1,-1,-1,-1,-1],"split_conditions":[7.69E-2,0E0,7.097E-1,6E0,5.1E1,4.634E-1,3.1E1,8.797E-1,5.49E0,8.96E-1,7.75534E-1,3.1E1,3.0681E2,0E0,5.9166668E1,2.1256E2,1.3E2,2.4844005E-3,1E0,1E0,-4.332697E-3,6.21E-1,-0E0,-0E0,1.4283953E-2,7.49E0,1E0,3E-1,2.9E1,1.3247E4,9.99E0,1.1264302E-2,-0E0,-7.1449513E-3,4.8610845E-4,-1.5009246E-2,-0E0,7.814319E-3,-2.4717993E-3,1.3990004E-2,7.2581326E-3,-0E0,-1.2806048E-2,-0E0,6.4083994E-3,-0E0,-1.3200165E-2,-1.3831974E-2,2.661416E-3,-1.6758425E-2,-0E0,4.387513E-3,-5.60814E-3],"split_indices":[8,51,39,24,30,39,17,36,45,39,59,48,13,51,4,10,0,0,38,73,0,50,0,0,0,46,7,8,35,43,46,0,0,0,0,0,0,0,0,0,0,0,0,0,0,0,0,0,0,0,0,0,0],"split_type":[0,0,0,0,0,0,0,0,0,0,0,0,0,0,0,0,0,0,0,0,0,0,0,0,0,0,0,0,0,0,0,0,0,0,0,0,0,0,0,0,0,0,0,0,0,0,0,0,0,0,0,0,0],"sum_hessian":[1.0204621E3,5.15005E2,5.054571E2,1.419316E2,3.7307343E2,1.2202287E2,3.834342E2,8.891089E1,5.3020706E1,3.9346127E1,3.337273E2,2.9669569E1,9.23533E1,2.0067632E2,1.8275789E2,6.070179E1,2.8209095E1,9.11668E0,4.3904026E1,3.1327066E1,8.019061E0,3.272016E2,6.5257015E0,6.0470676E0,2.3622501E1,2.6008295E1,6.634501E1,7.089252E1,1.2978381E2,1.6691681E2,1.5841081E1,4.759419E1,1.3107602E1,1.2280488E1,1.5928606E1,3.586768E1,8.036348E0,2.5822184E1,5.504883E0,2.1955019E2,1.07651405E2,6.5793977E0,1.9428898E1,4.0035255E1,2.6309755E1,9.055987E0,6.1836525E1,2.1241604E1,1.08542206E2,1.6166127E2,5.2555456E0,8.608527E0,7.232553E0],"tree_param":{"num_deleted":"0","num_feature":"76","num_nodes":"53","size_leaf_vector":"1"}},{"base_weights":[3.4344725E-2,7.0855147E-1,-7.1857554E-1,8.945281E-1,-1.258737E-1,-9.234459E-1,5.262909E-1,1.084989E0,-0E0,4.7253478E-1,-7.6294065E-1,-1.098722E0,-4.683536E-2,9.619581E-1,-1.0427825E-2,1.1563034E0,-0E0,2.9448667E-1,-1.5171981E-2,-0E0,7.688551E-1,-0E0,-1.229808E0,-6.715594E-1,-1.5151044E0,6.405055E-1,-5.2900034E-1,-0E0,1.189681E0,-0E0,1.25313895E-2,4.021809E-3,-3.205808E-3,1.1300982E-2,-0E0,1.1454364E-2,-0E0,3.688807E-3,-1.894537E-3,-0E0,-1.5734179E-2,-1.115892E-2,-6.720224E-4,-1.6172333E-2,-0E0,1.01012355E-2,-0E0,-8.288016E-3,-0E0,1.4177105E-2,-0E0],"categories":[],"categories_nodes":[],"categories_segments":[],"categories_sizes":[],"default_left":[0,1,0,0,0,0,0,0,1,0,1,1,0,0,0,0,0,1,0,0,1,0,0,0,0,0,1,0,1,0,0,0,0,0,0,0,0,0,0,0,0,0,0,0,0,0,0,0,0,0,0],"id":15,"left_children":[1,3,5,7,9,11,13,15,17,19,21,23,25,27,-1,29,31,33,-1,-1,35,37,39,41,43,45,47,-1,49,-1,-1,-1,-1,-1,-1,-1,-1,-1,-1,-1,-1,-1,-1,-1,-1,-1,-1,-1,-1,-1,-1],"loss_changes":[5.164726E2,8.912741E1,1.24099045E2,7.9340485E1,3.7146362E1,5.5933228E1,4.1694786E1,2.4564758E1,3.6026157E1,9.015038E0,2.1494207E1,4.5578003E1,2.4250162E1,1.0990967E1,0E0,1.9030426E1,3.4512844E0,2.0200123E1,0E0,0E0,1.0690538E1,1.6040213E0,1.2982079E1,3.529921E1,7.5744324E0,6.98483E0,1.1922127E1,0E0,6.652748E0,0E0,0E0,0E0,0E0,0E0,0E0,0E0,0E0,0E0,0E0,0E0,0E0,0E0,0E0,0E0,0E0,0E0,0E0,0E0,0E0,0E0,0E0],"parents":[2147483647,0,0,1,1,2,2,3,3,4,4,5,5,6,6,7,7,8,8,9,9,10,10,11,11,12,12,13,13,15,15,16,16,17,17,20,20,21,21,22,22,23,23,24,24,25,25,26,26,28,28],"right_children":[2,4,6,8,10,12,14,16,18,20,22,24,26,28,-1,30,32,34,-1,-1,36,38,40,42,44,46,48,-1,50,-1,-1,-1,-1,-1,-1,-1,-1,-1,-1,-1,-1,-1,-1,-1,-1,-1,-1,-1,-1,-1,-1],"split_conditions":[5.477E-1,6.68E-2,3.5732665E0,9.222E-1,7.206E-1,6.3E1,1.3E1,1E0,1.802E-1,1.529E-1,4.54E-1,3.29E0,6.996997E-1,1.45964155E1,-1.0427825E-2,1.7E1,7.612E-1,4.6E1,-1.5171981E-2,-0E0,2.85E2,1.93E-2,1.0294E0,2.35E2,1.5132085E2,8.899E-1,4.7333E2,-0E0,6.780011E1,-0E0,1.25313895E-2,4.021809E-3,-3.205808E-3,1.1300982E-2,-0E0,1.1454364E-2,-0E0,3.688807E-3,-1.894537E-3,-0E0,-1.5734179E-2,-1.115892E-2,-6.720224E-4,-1.6172333E-2,-0E0,1.01012355E-2,-0E0,-8.288016E-3,-0E0,1.4177105E-2,-0E0],"split_indices":[58,19,52,36,38,0,3,27,11,19,50,15,52,5,0,35,36,10,0,0,10,40,31,53,5,36,10,0,5,0,0,0,0,0,0,0,0,0,0,0,0,0,0,0,0,0,0,0,0,0,0],"split_type":[0,0,0,0,0,0,0,0,0,0,0,0,0,0,0,0,0,0,0,0,0,0,0,0,0,0,0,0,0,0,0,0,0,0,0,0,0,0,0,0,0,0,0,0,0,0,0,0,0,0,0],"sum_hessian":[1.0173482E3,5.413708E2,4.7597745E2,4.4918088E2,9.2189896E1,4.133031E2,6.267436E1,3.7268573E2,7.6495155E1,4.219486E1,4.9995037E1,3.381202E2,7.518291E1,5.2186115E1,1.0488241E1,3.4649268E2,2.6193054E1,6.227289E1,1.4222262E1,1.1072882E1,3.1121979E1,1.660776E1,3.3387276E1,1.7488281E2,1.6323738E2,2.5323212E1,4.985969E1,1.0337724E1,4.1848392E1,1.5620832E1,3.3087183E2,1.6921701E1,9.271352E0,2.1496628E1,4.077626E1,2.3829716E1,7.2922626E0,1.111587E1,5.4918885E0,5.8000016E0,2.7587276E1,9.843433E1,7.644848E1,1.5746483E2,5.772564E0,1.8283268E1,7.039944E0,4.0521458E1,9.338234E0,3.5287964E1,6.5604305E0],"tree_param":{"num_deleted":"0","num_feature":"76","num_nodes":"51","size_leaf_vector":"1"}},{"base_weights":[-2.9103843E-2,7.1207577E-1,-7.133739E-1,-2.6616061E-2,1.0008743E0,-1.3065047E0,-2.4540542E-1,-4.2012924E-1,8.772837E-1,1.091468E0,-0E0,-0E0,-1.3795698E0,1.2703113E-1,-8.946822E-1,4.189218E-1,-7.372219E-1,1.1700665E-2,-0E0,1.1712207E0,5.7916928E-2,3.8753073E-3,-4.6032843E-1,-0E0,-1.4323714E0,5.2455294E-1,-4.990515E-1,-0E0,-1.1905737E0,7.4685253E-3,-0E0,-1.4720017E-3,-1.5787845E-2,1.2674829E-2,-0E0,7.6431255E-3,-5.6852414E-3,-0E0,-1.1484338E-2,-0E0,-1.5229518E-2,8.270425E-3,-9.081177E-3,7.5793025E-5,-8.745924E-3,-1.2738674E-3,3.54921E-3,-1.3416183E-2,-0E0],"categories":[],"categories_nodes":[],"categories_segments":[],"categories_sizes":[],"default_left":[1,0,0,1,0,0,1,0,1,0,0,0,0,1,0,0,0,0,0,1,0,0,0,0,0,0,0,0,1,0,0,0,0,0,0,0,0,0,0,0,0,0,0,0,0,0,0,0,0],"id":16,"left_children":[1,3,5,7,9,11,13,15,17,19,21,-1,23,25,27,29,31,-1,-1,33,35,-1,37,-1,39,41,43,45,47,-1,-1,-1,-1,-1,-1,-1,-1,-1,-1,-1,-1,-1,-1,-1,-1,-1,-1,-1,-1],"loss_changes":[4.9698877E2,1.05811554E2,1.3240842E2,4.13244E1,3.5618347E1,2.8363556E1,7.613068E1,2.6606901E1,9.361595E0,1.7978516E1,4.603544E0,0E0,1.6590057E1,4.5070503E1,3.1892265E1,3.8336666E0,2.2809612E1,0E0,0E0,1.5658905E1,1.3108057E1,0E0,1.016301E1,0E0,9.984039E0,4.4059093E1,1.6594875E1,1.4756026E0,1.2681175E1,0E0,0E0,0E0,0E0,0E0,0E0,0E0,0E0,0E0,0E0,0E0,0E0,0E0,0E0,0E0,0E0,0E0,0E0,0E0,0E0],"parents":[2147483647,0,0,1,1,2,2,3,3,4,4,5,5,6,6,7,7,8,8,9,9,10,10,12,12,13,13,14,14,15,15,16,16,19,19,20,20,22,22,24,24,25,25,26,26,27,27,28,28],"right_children":[2,4,6,8,10,12,14,16,18,20,22,-1,24,26,28,30,32,-1,-1,34,36,-1,38,-1,40,42,44,46,48,-1,-1,-1,-1,-1,-1,-1,-1,-1,-1,-1,-1,-1,-1,-1,-1,-1,-1,-1,-1],"split_conditions":[5.17991E-1,0E0,0E0,4.9E1,1.6E1,5.652E-1,2.23E0,5.1336E-1,3.62908E-1,2.78E2,6.833E-1,-0E0,2E0,5.89E-1,7.06E-1,8.209E-1,4.65925E-1,1.1700665E-2,-0E0,9.455E-1,4.3E1,3.8753073E-3,2.1E1,-0E0,1.87E0,1.6E1,7.26E-1,6.532E-1,2.708E-1,7.4685253E-3,-0E0,-1.4720017E-3,-1.5787845E-2,1.2674829E-2,-0E0,7.6431255E-3,-5.6852414E-3,-0E0,-1.1484338E-2,-0E0,-1.5229518E-2,8.270425E-3,-9.081177E-3,7.5793025E-5,-8.745924E-3,-1.2738674E-3,3.54921E-3,-1.3416183E-2,-0E0],"split_indices":[59,51,51,48,47,36,16,63,61,0,36,0,3,50,39,38,61,0,0,57,48,0,48,0,16,3,36,39,40,0,0,0,0,0,0,0,0,0,0,0,0,0,0,0,0,0,0,0,0],"split_type":[0,0,0,0,0,0,0,0,0,0,0,0,0,0,0,0,0,0,0,0,0,0,0,0,0,0,0,0,0,0,0,0,0,0,0,0,0,0,0,0,0,0,0,0,0,0,0,0,0],"sum_hessian":[9.797003E2,4.6564862E2,5.1405176E2,1.24467E2,3.411816E2,2.2038695E2,2.936648E2,9.185617E1,3.2610832E1,3.1677646E2,2.440516E1,7.8341947E0,2.1255275E2,1.801949E2,1.1346989E2,1.9459549E1,7.239662E1,2.7074774E1,5.5360594E0,2.8812616E2,2.8650303E1,8.35145E0,1.605371E1,7.3035216E0,2.0524922E2,1.16691315E2,6.3503582E1,2.693938E1,8.653051E1,1.3929796E1,5.529753E0,4.601394E1,2.6382683E1,2.7554053E2,1.258561E1,1.865594E1,9.994365E0,5.0617647E0,1.0991946E1,5.0165057E0,2.0023273E2,1.0168446E2,1.500685E1,1.7925999E1,4.5577583E1,1.6575357E1,1.0364022E1,8.098694E1,5.5435705E0],"tree_param":{"num_deleted":"0","num_feature":"76","num_nodes":"49","size_leaf_vector":"1"}},{"base_weights":[4.7125813E-2,6.3221407E-1,-7.1692663E-1,-7.222851E-2,9.167252E-1,-1.2209545E0,-1.7706041E-1,4.6083644E-1,-9.6980023E-1,1.0706946E0,-1.5471947E-1,2.3819036E-3,-1.3163908E0,4.8831397E-1,-5.023043E-1,7.7229446E-1,-0E0,-0E0,-1.2061201E0,1.1099592E0,-0E0,4.4467083E-1,-1.1166058E0,-0E0,-1.4129487E0,-0E0,1.3802956E-2,1.7036338E-3,-8.258689E-1,9.581205E-3,-0E0,1.1557778E-4,-4.9457843E-3,-1.4199098E-2,-0E0,1.2593625E-2,4.3459507E-3,8.923561E-3,-0E0,-1.5749648E-2,-0E0,-0E0,-1.518456E-2,4.9577057E-3,-3.8238147E-3,4.615844E-3,-7.6867063E-3,-1.1684526E-2,-0E0],"categories":[],"categories_nodes":[],"categories_segments":[],"categories_sizes":[],"default_left":[1,0,0,1,0,0,0,0,0,0,0,0,0,0,1,0,1,0,1,1,0,0,1,0,0,0,0,0,0,0,0,0,0,0,0,0,0,0,0,0,0,0,0,0,0,0,0,0,0],"id":17,"left_children":[1,3,5,7,9,11,13,15,17,19,21,-1,23,25,27,29,31,-1,33,35,-1,37,39,-1,41,43,-1,45,47,-1,-1,-1,-1,-1,-1,-1,-1,-1,-1,-1,-1,-1,-1,-1,-1,-1,-1,-1,-1],"loss_changes":[4.5002338E2,1.2098244E2,1.0833313E2,7.9508575E1,7.483734E1,3.7286713E1,4.6679546E1,1.8252235E1,2.1834072E1,2.2396149E1,3.1632751E1,0E0,2.5744263E1,3.0228613E1,3.0119453E1,1.17912445E1,2.9266768E0,0E0,1.3563705E1,1.5032196E1,0E0,9.37591E0,8.5310955E0,0E0,1.5445862E1,6.4527407E0,0E0,1.492775E1,2.830587E1,0E0,0E0,0E0,0E0,0E0,0E0,0E0,0E0,0E0,0E0,0E0,0E0,0E0,0E0,0E0,0E0,0E0,0E0,0E0,0E0],"parents":[2147483647,0,0,1,1,2,2,3,3,4,4,5,5,6,6,7,7,8,8,9,9,10,10,12,12,13,13,14,14,15,15,16,16,18,18,19,19,21,21,22,22,24,24,25,25,27,27,28,28],"right_children":[2,4,6,8,10,12,14,16,18,20,22,-1,24,26,28,30,32,-1,34,36,-1,38,40,-1,42,44,-1,46,48,-1,-1,-1,-1,-1,-1,-1,-1,-1,-1,-1,-1,-1,-1,-1,-1,-1,-1,-1,-1],"split_conditions":[5.7293E-1,0E0,5.75E2,5E0,1.3E1,4.634E-1,7.111E-1,8.785E-1,5.49E0,4E0,6.683E-1,2.3819036E-3,2.17E0,3.52E2,3.5668334E-1,5.66631E-1,2.8E1,-0E0,8.4E1,3.48E-1,-0E0,5.1E1,6.5466125E1,-0E0,3.49E0,9.842E1,1.3802956E-2,7E0,1E0,9.581205E-3,-0E0,1.1557778E-4,-4.9457843E-3,-1.4199098E-2,-0E0,1.2593625E-2,4.3459507E-3,8.923561E-3,-0E0,-1.5749648E-2,-0E0,-0E0,-1.518456E-2,4.9577057E-3,-3.8238147E-3,4.615844E-3,-7.6867063E-3,-1.1684526E-2,-0E0],"split_indices":[59,51,24,24,47,39,36,36,45,27,39,0,13,53,52,58,4,0,4,11,0,48,5,0,45,10,0,2,71,0,0,0,0,0,0,0,0,0,0,0,0,0,0,0,0,0,0,0,0],"split_type":[0,0,0,0,0,0,0,0,0,0,0,0,0,0,0,0,0,0,0,0,0,0,0,0,0,0,0,0,0,0,0,0,0,0,0,0,0,0,0,0,0,0,0,0,0,0,0,0,0],"sum_hessian":[1.0077169E3,5.756113E2,4.321056E2,1.589281E2,4.1668323E2,2.1706076E2,2.1504483E2,9.511711E1,6.3810993E1,3.69729E2,4.695422E1,9.110157E0,2.079506E2,6.3906143E1,1.5113869E2,6.440099E1,3.0716122E1,7.584477E0,5.6226517E1,3.622046E2,7.524412E0,2.472456E1,2.222966E1,1.4569609E1,1.93381E2,3.82886E1,2.561754E1,5.1136917E1,1.0000176E2,5.8884026E1,5.516967E0,1.7942806E1,1.2773315E1,5.093088E1,5.2956343E0,3.0669034E2,5.5514244E1,1.9220823E1,5.5037365E0,1.5693812E1,6.5358477E0,5.7817054E0,1.8759929E2,1.3170877E1,2.5117723E1,3.7634468E1,1.350245E1,7.610817E1,2.3893597E1],"tree_param":{"num_deleted":"0","num_feature":"76","num_nodes":"49","size_leaf_vector":"1"}},{"base_weights":[5.2387718E-2,6.895378E-1,-6.5137947E-1,-0E0,9.160684E-1,-1.6355386E-1,-1.1727378E0,4.5318177E-1,-7.253403E-1,1.1418005E0,2.3139322E-1,-6.97468E-1,3.690615E-1,2.4146622E-3,-1.2623235E0,7.7872753E-1,-3.5023767E-1,2.133363E-3,-1.0523944E0,2.3076957E-1,1.2729406E0,5.3550404E-1,-2.5995493E-1,-8.4277815E-1,5.760958E-3,6.0762167E-1,-5.986695E-1,-0E0,-1.3141096E0,9.682434E-3,-0E0,-8.048133E-3,-0E0,-1.3887808E-2,-0E0,-6.463287E-3,6.576418E-3,1.3663077E-2,-0E0,-3.9987117E-5,7.785395E-3,-0E0,-7.637077E-3,-1.0110997E-2,-0E0,8.094496E-3,-6.774754E-3,-0E0,-1.311179E-2,-7.176117E-5,-1.4564496E-2],"categories":[],"categories_nodes":[],"categories_segments":[],"categories_sizes":[],"default_left":[1,0,1,1,1,0,0,0,0,0,0,0,0,0,0,1,0,0,1,0,1,0,1,0,0,1,1,0,0,0,0,0,0,0,0,0,0,0,0,0,0,0,0,0,0,0,0,0,0,0,0],"id":18,"left_children":[1,3,5,7,9,11,13,15,17,19,21,23,25,-1,27,29,31,-1,33,35,37,39,41,43,-1,45,47,-1,49,-1,-1,-1,-1,-1,-1,-1,-1,-1,-1,-1,-1,-1,-1,-1,-1,-1,-1,-1,-1,-1,-1],"loss_changes":[4.5908014E2,8.224625E1,1.13538925E2,4.4352592E1,5.348987E1,7.480478E1,3.530786E1,2.5519642E1,2.0999117E1,2.5541412E1,1.7952456E1,2.6295807E1,2.8188755E1,0E0,1.8942383E1,1.2138355E1,5.8384905E0,0E0,7.6711044E0,1.5206025E1,1.6306152E1,1.3614855E1,8.672756E0,1.3719543E1,0E0,2.3287746E1,1.0571995E1,0E0,1.5260437E1,0E0,0E0,0E0,0E0,0E0,0E0,0E0,0E0,0E0,0E0,0E0,0E0,0E0,0E0,0E0,0E0,0E0,0E0,0E0,0E0,0E0,0E0],"parents":[2147483647,0,0,1,1,2,2,3,3,4,4,5,5,6,6,7,7,8,8,9,9,10,10,11,11,12,12,14,14,15,15,16,16,18,18,19,19,20,20,21,21,22,22,23,23,25,25,26,26,28,28],"right_children":[2,4,6,8,10,12,14,16,18,20,22,24,26,-1,28,30,32,-1,34,36,38,40,42,44,-1,46,48,-1,50,-1,-1,-1,-1,-1,-1,-1,-1,-1,-1,-1,-1,-1,-1,-1,-1,-1,-1,-1,-1,-1,-1],"split_conditions":[3.48E-1,0E0,2.34E0,6E0,6.88E-1,2.51E2,3E-1,8.986E-1,5.49E0,1.3333E0,8.779E-1,8.5E1,9.382E-1,2.4146622E-3,3.99883E-1,8.2659E-1,1.3663637E2,2.133363E-3,4.895E-1,3.8E1,7.51303E-1,1.783E1,1.1551724E1,4.999E1,5.760958E-3,1.023E0,3.99E0,-0E0,5.49E0,9.682434E-3,-0E0,-8.048133E-3,-0E0,-1.3887808E-2,-0E0,-6.463287E-3,6.576418E-3,1.3663077E-2,-0E0,-3.9987117E-5,7.785395E-3,-0E0,-7.637077E-3,-1.0110997E-2,-0E0,8.094496E-3,-6.774754E-3,-0E0,-1.311179E-2,-7.176117E-5,-1.4564496E-2],"split_indices":[11,51,14,24,50,53,37,36,45,31,36,0,36,0,59,63,4,0,19,35,59,12,4,46,0,50,46,0,45,0,0,0,0,0,0,0,0,0,0,0,0,0,0,0,0,0,0,0,0,0,0],"split_type":[0,0,0,0,0,0,0,0,0,0,0,0,0,0,0,0,0,0,0,0,0,0,0,0,0,0,0,0,0,0,0,0,0,0,0,0,0,0,0,0,0,0,0,0,0,0,0,0,0,0,0],"sum_hessian":[1.02302924E3,5.4186334E2,4.811659E2,1.3689355E2,4.049698E2,2.5520723E2,2.2595866E2,8.651052E1,5.038304E1,2.9723608E2,1.07733696E2,1.3363689E2,1.21570335E2,9.103487E0,2.1685518E2,6.7428894E1,1.9081629E1,7.8485646E0,4.2534477E1,4.37896E1,2.5344649E2,7.485997E1,3.2873722E1,1.24510475E2,9.126416E0,1.0304632E2,1.8524021E1,5.793931E0,2.1106125E2,6.0905582E1,6.523309E0,1.351899E1,5.56264E0,3.0557707E1,1.1976769E1,8.7544985E0,3.5035103E1,2.4640672E2,7.039761E0,1.2557502E1,6.230247E1,1.2844265E1,2.0029457E1,1.0762605E2,1.688442E1,9.5312675E1,7.733638E0,7.821531E0,1.0702491E1,1.8214516E1,1.9284673E2],"tree_param":{"num_deleted":"0","num_feature":"76","num_nodes":"51","size_leaf_vector":"1"}},{"base_weights":[-2.4747439E-2,5.824203E-1,-7.2684336E-1,8.040226E-1,-2.8670538E-2,-1.3080724E0,-2.3972277E-1,9.506574E-1,-0E0,-1.1047903E0,1.7749968E-1,-0E0,-1.4067854E0,-7.199809E-1,1.7908649E-1,1.0435003E0,-0E0,-2.4255146E-1,3.6561474E-1,-1.354611E-2,-0E0,-2.1741533E-1,6.4373296E-1,-0E0,-1.4640465E0,-0E0,-8.959596E-1,8.72702E-1,-1.4552139E-1,-0E0,1.1453063E-2,3.8687552E-3,-2.878112E-3,-0E0,-1.1026114E-2,-0E0,9.584286E-3,9.115219E-3,-6.8788347E-3,-1.1367965E-3,1.0145313E-2,-0E0,-1.557909E-2,-6.1069746E-3,9.440143E-3,-1.0017296E-2,-0E0,-0E0,1.06836725E-2,2.3800123E-3,-5.8976626E-3],"categories":[],"categories_nodes":[],"categories_segments":[],"categories_sizes":[],"default_left":[0,1,0,1,0,0,0,1,0,0,0,0,0,1,1,0,0,0,0,0,0,1,0,0,0,1,1,0,0,0,0,0,0,0,0,0,0,0,0,0,0,0,0,0,0,0,0,0,0,0,0],"id":19,"left_children":[1,3,5,7,9,11,13,15,17,19,21,-1,23,25,27,29,31,33,35,-1,-1,37,39,-1,41,43,45,47,49,-1,-1,-1,-1,-1,-1,-1,-1,-1,-1,-1,-1,-1,-1,-1,-1,-1,-1,-1,-1,-1,-1],"loss_changes":[4.2636874E2,7.691901E1,1.22183914E2,5.1300964E1,3.5716393E1,3.057077E1,5.6060764E1,2.809845E1,4.4252434E0,3.407833E0,2.2489332E1,0E0,1.2614288E1,2.0104713E1,3.4561146E1,2.1942047E1,3.5232134E0,1.397032E1,4.8179226E0,0E0,0E0,2.312102E1,1.9998247E1,0E0,2.4164124E0,1.2498992E1,9.268074E0,8.6208E0,1.5494625E1,0E0,0E0,0E0,0E0,0E0,0E0,0E0,0E0,0E0,0E0,0E0,0E0,0E0,0E0,0E0,0E0,0E0,0E0,0E0,0E0,0E0,0E0],"parents":[2147483647,0,0,1,1,2,2,3,3,4,4,5,5,6,6,7,7,8,8,9,9,10,10,12,12,13,13,14,14,15,15,16,16,17,17,18,18,21,21,22,22,24,24,25,25,26,26,27,27,28,28],"right_children":[2,4,6,8,10,12,14,16,18,20,22,-1,24,26,28,30,32,34,36,-1,-1,38,40,-1,42,44,46,48,50,-1,-1,-1,-1,-1,-1,-1,-1,-1,-1,-1,-1,-1,-1,-1,-1,-1,-1,-1,-1,-1,-1],"split_conditions":[5.477E-1,7.69E-2,0E0,-4.287E0,3.5E1,6.33727E-1,2.8E1,8.819E-1,1.6004002E0,2.688E1,6.6E2,-0E0,3.41996E-1,2.222E-1,7.69E0,7E0,1.48231E-1,3.4E1,2.97E2,-1.354611E-2,-0E0,2.727E-1,8.8E1,-0E0,2.69E0,5.393051E1,2.6677785E0,3.8E1,8.095E-1,-0E0,1.1453063E-2,3.8687552E-3,-2.878112E-3,-0E0,-1.1026114E-2,-0E0,9.584286E-3,9.115219E-3,-6.8788347E-3,-1.1367965E-3,1.0145313E-2,-0E0,-1.557909E-2,-6.1069746E-3,9.440143E-3,-1.0017296E-2,-0E0,-0E0,1.06836725E-2,2.3800123E-3,-5.8976626E-3],"split_indices":[58,8,51,22,35,62,0,57,52,46,24,0,59,8,46,35,61,42,35,0,0,37,6,0,12,5,52,35,37,0,0,0,0,0,0,0,0,0,0,0,0,0,0,0,0,0,0,0,0,0,0],"split_type":[0,0,0,0,0,0,0,0,0,0,0,0,0,0,0,0,0,0,0,0,0,0,0,0,0,0,0,0,0,0,0,0,0,0,0,0,0,0,0,0,0,0,0,0,0,0,0,0,0,0,0],"sum_hessian":[9.977296E2,5.2999005E2,4.677396E2,3.9686823E2,1.3312183E2,2.0699203E2,2.6074756E2,3.4061417E2,5.6254063E1,2.6489912E1,1.0663191E2,1.2596962E1,1.9439508E2,1.2878825E2,1.319593E2,3.0848633E2,3.2127834E1,4.1620995E1,1.4633066E1,2.0953285E1,5.5366254E0,5.007724E1,5.6554672E1,9.031946E0,1.8536313E2,2.0615961E1,1.0817229E2,4.8510445E1,8.344885E1,1.4592369E1,2.9389395E2,1.6600075E1,1.552776E1,2.7172737E1,1.4448257E1,6.778528E0,7.8545384E0,1.01472E1,3.993004E1,1.1296356E1,4.5258316E1,7.936623E0,1.7742651E2,9.729029E0,1.0886932E1,1.0316237E2,5.009919E0,5.5317936E0,4.2978653E1,3.595606E1,4.7492798E1],"tree_param":{"num_deleted":"0","num_feature":"76","num_nodes":"51","size_leaf_vector":"1"}},{"base_weights":[7.94145E-3,6.2979084E-1,-7.43664E-1,8.3265156E-1,-1.4191444E-1,-3.0494744E-1,-1.3998123E0,1.8375468E-1,1.0285863E0,5.2230316E-1,-5.4730225E-1,-5.301747E-1,6.2358826E-1,-0E0,-1.4528016E0,8.304758E-1,-2.3205374E-1,4.0189916E-1,1.1890106E0,-0E0,8.1797177E-1,1.7849162E-1,-8.9222395E-1,-1.2011385E-1,-1.0207926E0,1.1150593E0,-6.570412E-3,-1.5210989E0,-0E0,1.3770598E-2,-0E0,4.126411E-4,-1.57563E-2,8.631552E-3,-0E0,1.4313625E-2,4.4735875E-3,1.0465394E-2,-0E0,-0E0,7.669256E-3,-1.29039055E-2,2.9596422E-4,6.8104494E-4,-9.488261E-3,-1.1511996E-2,-0E0,1.3574673E-2,-0E0,-1.6099775E-2,-0E0],"categories":[],"categories_nodes":[],"categories_segments":[],"categories_sizes":[],"default_left":[0,1,1,0,0,0,1,0,0,0,0,0,0,0,1,1,1,0,1,0,0,1,1,0,1,0,0,0,0,0,0,0,0,0,0,0,0,0,0,0,0,0,0,0,0,0,0,0,0,0,0],"id":20,"left_children":[1,3,5,7,9,11,13,15,17,19,21,23,25,-1,27,29,31,33,35,-1,37,39,41,43,45,47,-1,49,-1,-1,-1,-1,-1,-1,-1,-1,-1,-1,-1,-1,-1,-1,-1,-1,-1,-1,-1,-1,-1,-1,-1],"loss_changes":[4.7001926E2,9.1628296E1,1.18563705E2,4.880002E1,2.9556479E1,5.726277E1,1.5821991E1,3.400583E1,2.3154388E1,7.221409E0,2.3253798E1,3.8386192E1,3.3100143E1,0E0,1.18697815E1,2.1610622E1,3.13961E1,1.6606663E1,2.5219482E1,0E0,3.119423E0,5.2952867E0,2.624625E1,2.507097E1,1.2007179E1,6.840523E0,0E0,1.6356812E0,0E0,0E0,0E0,0E0,0E0,0E0,0E0,0E0,0E0,0E0,0E0,0E0,0E0,0E0,0E0,0E0,0E0,0E0,0E0,0E0,0E0,0E0,0E0],"parents":[2147483647,0,0,1,1,2,2,3,3,4,4,5,5,6,6,7,7,8,8,9,9,10,10,11,11,12,12,14,14,15,15,16,16,17,17,18,18,20,20,21,21,22,22,23,23,24,24,25,25,27,27],"right_children":[2,4,6,8,10,12,14,16,18,20,22,24,26,-1,28,30,32,34,36,-1,38,40,42,44,46,48,-1,50,-1,-1,-1,-1,-1,-1,-1,-1,-1,-1,-1,-1,-1,-1,-1,-1,-1,-1,-1,-1,-1,-1,-1],"split_conditions":[5.60251E-1,4.6E-3,7.5E1,3.7E1,6.981E-1,4.999E1,2.39E0,5.49E0,0E0,6E-1,5.49E0,6.4398E-1,6E0,-0E0,6.1E1,9.25E0,8.514E-1,7.027E-1,6.94E-1,-0E0,4.05E1,3.99E0,6.1E1,9.222E-1,1.262E0,6.780011E1,-6.570412E-3,2.0843E4,-0E0,1.3770598E-2,-0E0,4.126411E-4,-1.57563E-2,8.631552E-3,-0E0,1.4313625E-2,4.4735875E-3,1.0465394E-2,-0E0,-0E0,7.669256E-3,-1.29039055E-2,2.9596422E-4,6.8104494E-4,-9.488261E-3,-1.1511996E-2,-0E0,1.3574673E-2,-0E0,-1.6099775E-2,-0E0],"split_indices":[58,18,17,35,39,46,13,45,51,44,45,58,2,0,4,4,36,39,50,0,4,46,4,36,19,5,0,35,0,0,0,0,0,0,0,0,0,0,0,0,0,0,0,0,0,0,0,0,0,0,0],"split_type":[0,0,0,0,0,0,0,0,0,0,0,0,0,0,0,0,0,0,0,0,0,0,0,0,0,0,0,0,0,0,0,0,0,0,0,0,0,0,0,0,0,0,0,0,0,0,0,0,0,0,0],"sum_hessian":[1.00703375E3,5.5591425E2,4.511195E2,4.4698196E2,1.0893226E2,2.7649255E2,1.7462697E2,1.11546295E2,3.3543567E2,3.508707E1,7.384519E1,2.2829106E2,4.8201492E1,5.0176625E0,1.696093E2,4.983917E1,6.170713E1,7.6850784E1,2.5858487E2,1.0051352E1,2.5035719E1,1.7624275E1,5.6220917E1,1.31775E2,9.6516075E1,3.844421E1,9.75728E0,1.5984108E2,9.768213E0,3.1741007E1,1.8098162E1,4.677731E1,1.4929821E1,4.1881065E1,3.4969723E1,1.9970311E2,5.8881767E1,1.9508734E1,5.526985E0,6.9973044E0,1.062697E1,4.588102E1,1.0339897E1,1.0011952E2,3.165547E1,9.1501045E1,5.015029E0,3.191592E1,6.5282917E0,1.5438947E2,5.4516263E0],"tree_param":{"num_deleted":"0","num_feature":"76","num_nodes":"51","size_leaf_vector":"1"}},{"base_weights":[-0E0,5.3274196E-1,-9.114816E-1,7.7798873E-1,-3.071594E-1,-3.244364E-2,-1.1014808E0,8.973456E-1,-1.400627E-1,4.1122192E-1,-7.5358796E-1,-9.11336E-1,2.2160807E-1,-7.0358837E-1,-1.4738231E0,3.29334E-1,1.068378E0,2.5301498E-1,-5.913018E-1,-0E0,9.255291E-1,-0E0,-9.4883204E-1,-0E0,-1.274722E-2,6.5339595E-1,-1.7646664E-1,-1.4433649E0,-2.912723E-1,-1.5054039E0,-0E0,9.135236E-3,-1.8396006E-3,1.2855365E-2,5.56879E-3,6.6952617E-3,-0E0,-1.0296424E-2,-0E0,4.725281E-3,-4.665415E-3,-0E0,1.3056856E-2,-1.138908E-2,-0E0,9.155249E-3,-0E0,-0E0,-6.5365518E-3,-1.7175186E-2,-0E0,-8.227645E-3,2.0522324E-3,-1.5991962E-2,-0E0],"categories":[],"categories_nodes":[],"categories_segments":[],"categories_sizes":[],"default_left":[1,1,0,1,1,0,1,0,1,1,0,0,1,0,0,0,1,0,0,0,0,0,0,0,0,0,0,1,0,0,0,0,0,0,0,0,0,0,0,0,0,0,0,0,0,0,0,0,0,0,0,0,0,0,0],"id":21,"left_children":[1,3,5,7,9,11,13,15,17,19,21,23,25,27,29,31,33,35,37,39,41,-1,43,-1,-1,45,47,49,51,53,-1,-1,-1,-1,-1,-1,-1,-1,-1,-1,-1,-1,-1,-1,-1,-1,-1,-1,-1,-1,-1,-1,-1,-1,-1],"loss_changes":[4.835569E2,1.3407195E2,5.3435333E1,5.9605896E1,4.643885E1,2.0473583E1,2.9013428E1,3.4156555E1,1.1304657E1,1.3302223E1,1.652407E1,4.9141026E0,1.1666975E1,3.4486893E1,1.6841125E0,3.6085648E1,1.8472687E1,4.6830196E0,8.418823E0,4.586804E0,6.9078083E0,0E0,1.206913E1,0E0,0E0,6.63482E0,4.513787E0,6.242424E0,2.9144672E1,2.5064392E0,0E0,0E0,0E0,0E0,0E0,0E0,0E0,0E0,0E0,0E0,0E0,0E0,0E0,0E0,0E0,0E0,0E0,0E0,0E0,0E0,0E0,0E0,0E0,0E0,0E0],"parents":[2147483647,0,0,1,1,2,2,3,3,4,4,5,5,6,6,7,7,8,8,9,9,10,10,11,11,12,12,13,13,14,14,15,15,16,16,17,17,18,18,19,19,20,20,22,22,25,25,26,26,27,27,28,28,29,29],"right_children":[2,4,6,8,10,12,14,16,18,20,22,24,26,28,30,32,34,36,38,40,42,-1,44,-1,-1,46,48,50,52,54,-1,-1,-1,-1,-1,-1,-1,-1,-1,-1,-1,-1,-1,-1,-1,-1,-1,-1,-1,-1,-1,-1,-1,-1,-1],"split_conditions":[6.3101E-1,8.72E-2,6.957E-1,5.48144E-1,8.99E0,5.882E-1,3.73E0,4E1,9.37E0,6.6476E-1,6.222E-1,5.36015E-1,4.112E-1,1.59E2,6.7E1,9.37E0,7.03E-1,2.7E1,1.5132085E2,2.01E-1,7.08E0,-0E0,1E0,-0E0,-1.274722E-2,8.29497E-1,3.913E-1,3.9003763E-1,7.776E-1,2.0843E4,-0E0,9.135236E-3,-1.8396006E-3,1.2855365E-2,5.56879E-3,6.6952617E-3,-0E0,-1.0296424E-2,-0E0,4.725281E-3,-4.665415E-3,-0E0,1.3056856E-2,-1.138908E-2,-0E0,9.155249E-3,-0E0,-0E0,-6.5365518E-3,-1.7175186E-2,-0E0,-8.227645E-3,2.0522324E-3,-1.5991962E-2,-0E0],"split_indices":[59,19,39,61,46,44,15,35,46,63,38,58,20,53,0,46,50,43,5,19,12,0,65,0,0,59,38,57,63,35,0,0,0,0,0,0,0,0,0,0,0,0,0,0,0,0,0,0,0,0,0,0,0,0,0],"split_type":[0,0,0,0,0,0,0,0,0,0,0,0,0,0,0,0,0,0,0,0,0,0,0,0,0,0,0,0,0,0,0,0,0,0,0,0,0,0,0,0,0,0,0,0,0,0,0,0,0,0,0,0,0,0,0],"sum_hessian":[1.0003182E3,6.355301E2,3.647881E2,4.9800317E2,1.3752692E2,7.104639E1,2.937417E2,4.4708792E2,5.0915245E1,4.7030594E1,9.049632E1,2.1710897E1,4.9335487E1,1.5074028E2,1.4300142E2,1.1249391E2,3.34594E2,1.939808E1,3.1517164E1,2.2302948E1,2.4727646E1,1.5096696E1,7.539963E1,6.5457315E0,1.5165166E1,3.1607563E1,1.7727926E1,4.810766E1,1.0263262E2,1.378032E2,5.1982107E0,6.011566E1,5.2378246E1,2.4395744E2,9.063656E1,1.4148903E1,5.2491775E0,1.9684296E1,1.1832867E1,7.0994434E0,1.5203504E1,7.025869E0,1.7701777E1,6.637649E1,9.023136E0,2.5823732E1,5.7838306E0,5.0530744E0,1.2674851E1,3.885691E1,9.250749E0,5.7322105E1,4.5310513E1,1.3260704E2,5.196165E0],"tree_param":{"num_deleted":"0","num_feature":"76","num_nodes":"55","size_leaf_vector":"1"}},{"base_weights":[-0E0,5.8360255E-1,-6.6107714E-1,7.6322377E-1,-3.3873734E-1,-8.434416E-1,4.598954E-1,9.44316E-1,-0E0,4.1815427E-1,-8.196026E-1,-4.771246E-1,-1.2853415E0,9.476176E-1,-1.2976822E-2,-0E0,1.0203656E0,6.279278E-1,-6.298056E-1,-0E0,9.275549E-3,-1.2732556E0,-0E0,-2.726284E-1,-1.5749622E-2,-0E0,-1.3895587E0,-0E0,1.2509316E0,-2.9611208E-3,3.8682348E-3,-0E0,1.119297E-2,-0E0,9.867551E-3,-0E0,-1.0891266E-2,-0E0,-1.6348684E-2,4.045162E-3,-4.929932E-3,-0E0,-1.5198427E-2,1.51978135E-2,-0E0],"categories":[],"categories_nodes":[],"categories_segments":[],"categories_sizes":[],"default_left":[0,0,0,1,1,1,0,0,0,1,0,0,0,0,0,0,0,0,0,0,0,0,0,0,0,0,0,0,1,0,0,0,0,0,0,0,0,0,0,0,0,0,0,0,0],"id":22,"left_children":[1,3,5,7,9,11,13,15,17,19,21,23,25,27,-1,29,31,33,35,-1,-1,37,-1,39,-1,-1,41,-1,43,-1,-1,-1,-1,-1,-1,-1,-1,-1,-1,-1,-1,-1,-1,-1,-1],"loss_changes":[3.8291315E2,9.0660065E1,9.723938E1,6.56091E1,3.1983662E1,5.356723E1,4.7986427E1,2.8233429E1,3.2669365E1,8.016035E0,2.5690777E1,3.6804913E1,2.6835327E1,1.2992962E1,0E0,2.586061E0,2.1200378E1,8.454698E0,1.7007284E1,0E0,0E0,1.820113E1,0E0,2.6952625E1,0E0,0E0,1.1105255E1,0E0,9.453651E0,0E0,0E0,0E0,0E0,0E0,0E0,0E0,0E0,0E0,0E0,0E0,0E0,0E0,0E0,0E0,0E0],"parents":[2147483647,0,0,1,1,2,2,3,3,4,4,5,5,6,6,7,7,8,8,9,9,10,10,11,11,12,12,13,13,15,15,16,16,17,17,18,18,21,21,23,23,26,26,28,28],"right_children":[2,4,6,8,10,12,14,16,18,20,22,24,26,28,-1,30,32,34,36,-1,-1,38,-1,40,-1,-1,42,-1,44,-1,-1,-1,-1,-1,-1,-1,-1,-1,-1,-1,-1,-1,-1,-1,-1],"split_conditions":[5.52038E-1,9.259E-1,4.999E1,6.12E-2,9E0,3.27E0,1.2E1,7.1E1,7.74209E-1,2.5E1,1E0,9.98E-1,2E0,2.1033333E1,-1.2976822E-2,5.2E1,1.45E2,5.39E0,6E0,-0E0,9.275549E-3,4.6E1,-0E0,7.234E-1,-1.5749622E-2,-0E0,-1.2396E2,-0E0,6.3605427E1,-2.9611208E-3,3.8682348E-3,-0E0,1.119297E-2,-0E0,9.867551E-3,-0E0,-1.0891266E-2,-0E0,-1.6348684E-2,4.045162E-3,-4.929932E-3,-0E0,-1.5198427E-2,1.51978135E-2,-0E0],"split_indices":[58,36,46,19,4,12,3,30,62,48,65,50,3,4,0,43,53,12,47,0,0,10,0,36,0,0,21,0,5,0,0,0,0,0,0,0,0,0,0,0,0,0,0,0,0],"split_type":[0,0,0,0,0,0,0,0,0,0,0,0,0,0,0,0,0,0,0,0,0,0,0,0,0,0,0,0,0,0,0,0,0,0,0,0,0,0,0,0,0,0,0,0,0],"sum_hessian":[9.9294135E2,5.2999646E2,4.6294495E2,4.4962732E2,8.03691E1,4.0326962E2,5.9675327E1,3.672499E2,8.2377426E1,2.5881826E1,5.4487278E1,2.2880118E2,1.7446843E2,4.9481087E1,1.0194243E1,2.560116E1,3.4164874E2,3.834591E1,4.4031517E1,1.0260891E1,1.5620935E1,3.8361626E1,1.6125654E1,1.9664171E2,3.215947E1,1.1306348E1,1.6316208E2,1.28287325E1,3.665235E1,1.7273205E1,8.327954E0,1.7550251E1,3.2409848E2,1.2322526E1,2.6023386E1,1.2791073E1,3.1240444E1,5.994748E0,3.236688E1,3.8338036E1,1.5830367E2,1.1058501E1,1.5210358E2,3.1132576E1,5.5197773E0],"tree_param":{"num_deleted":"0","num_feature":"76","num_nodes":"45","size_leaf_vector":"1"}},{"base_weights":[-9.364496E-3,6.028115E-1,-6.693243E-1,-4.711586E-2,8.706003E-1,-1.16404E0,-2.5649002E-1,1.0100005E0,-4.4460022E-1,1.0753691E0,3.6648852E-1,-0E0,-1.309276E0,7.6861635E-2,-8.3989066E-1,1.278738E-2,-0E0,2.7185705E-1,-9.181516E-1,5.6435134E-2,1.240152E0,6.017E-1,-1.4574042E-1,-6.8124714E-3,2.860213E-1,-0E0,-1.3562977E0,-2.2041391E-1,6.813961E-1,4.8644148E-2,-1.2593952E0,-3.9893263E-3,1.0243588E-2,-1.1837331E-2,-0E0,1.2608808E-2,-5.125511E-3,-0E0,1.3522633E-2,7.5908764E-3,-0E0,1.9969314E-3,-9.635252E-3,6.477376E-3,-0E0,-0E0,-1.4586709E-2,-8.439662E-3,4.3094214E-3,-4.5193224E-3,1.0065411E-2,6.6069947E-3,-0E0,-0E0,-1.47928335E-2],"categories":[],"categories_nodes":[],"categories_segments":[],"categories_sizes":[],"default_left":[1,0,0,0,1,0,1,1,1,0,0,0,0,0,0,0,0,0,0,0,0,0,0,0,0,0,0,0,0,0,0,0,0,0,0,0,0,0,0,0,0,0,0,0,0,0,0,0,0,0,0,0,0,0,0],"id":23,"left_children":[1,3,5,7,9,11,13,15,17,19,21,23,25,27,29,-1,-1,31,33,35,37,39,41,-1,43,-1,45,47,49,51,53,-1,-1,-1,-1,-1,-1,-1,-1,-1,-1,-1,-1,-1,-1,-1,-1,-1,-1,-1,-1,-1,-1,-1,-1],"loss_changes":[4.1318314E2,9.679059E1,9.203549E1,5.7663414E1,2.9525513E1,3.3794098E1,5.9170345E1,8.446045E0,4.1877365E1,3.5073303E1,1.7357113E1,5.8397646E0,1.3561981E1,3.3609478E1,4.8427223E1,0E0,0E0,2.2136003E1,1.0880783E1,3.154336E1,1.3098053E1,1.1615837E1,1.2473317E1,0E0,2.698254E0,0E0,9.147522E0,4.2854538E1,2.3994167E1,4.0791154E0,1.621251E1,0E0,0E0,0E0,0E0,0E0,0E0,0E0,0E0,0E0,0E0,0E0,0E0,0E0,0E0,0E0,0E0,0E0,0E0,0E0,0E0,0E0,0E0,0E0,0E0],"parents":[2147483647,0,0,1,1,2,2,3,3,4,4,5,5,6,6,7,7,8,8,9,9,10,10,11,11,12,12,13,13,14,14,17,17,18,18,19,19,20,20,21,21,22,22,24,24,26,26,27,27,28,28,29,29,30,30],"right_children":[2,4,6,8,10,12,14,16,18,20,22,24,26,28,30,-1,-1,32,34,36,38,40,42,-1,44,-1,46,48,50,52,54,-1,-1,-1,-1,-1,-1,-1,-1,-1,-1,-1,-1,-1,-1,-1,-1,-1,-1,-1,-1,-1,-1,-1,-1],"split_conditions":[2.378E-1,0E0,0E0,6.898E-1,6.29E-1,6.67688E-1,6.39E-1,8.6657774E-1,5.01005E-1,3.5E1,9.061E-1,1.17E2,4.433E1,4.4E1,7.111E-1,1.278738E-2,-0E0,9.2385E1,1.92E2,9.37E0,4.15E-2,1E0,4.2E1,-6.8124714E-3,1.4134E0,-0E0,2.69E0,2.89E2,3.3E1,1.03E2,7.4102E-2,-3.9893263E-3,1.0243588E-2,-1.1837331E-2,-0E0,1.2608808E-2,-5.125511E-3,-0E0,1.3522633E-2,7.5908764E-3,-0E0,1.9969314E-3,-9.635252E-3,6.477376E-3,-0E0,-0E0,-1.4586709E-2,-8.439662E-3,4.3094214E-3,-4.5193224E-3,1.0065411E-2,6.6069947E-3,-0E0,-0E0,-1.47928335E-2],"split_indices":[11,51,51,36,50,62,50,52,63,35,38,30,10,0,36,0,0,5,0,46,18,73,35,0,11,0,12,53,35,10,61,0,0,0,0,0,0,0,0,0,0,0,0,0,0,0,0,0,0,0,0,0,0,0,0],"split_type":[0,0,0,0,0,0,0,0,0,0,0,0,0,0,0,0,0,0,0,0,0,0,0,0,0,0,0,0,0,0,0,0,0,0,0,0,0,0,0,0,0,0,0,0,0,0,0,0,0,0,0,0,0,0,0],"sum_hessian":[1.02139825E3,5.2468445E2,4.967138E2,1.4591678E2,3.7876767E2,2.1856891E2,2.781449E2,3.527854E1,1.1063824E2,2.5993405E2,1.1883365E2,2.6109747E1,1.9245917E2,1.6984525E2,1.08299644E2,2.9240074E1,6.038469E0,3.848412E1,7.215411E1,4.179573E1,2.181383E2,9.02794E1,2.8554245E1,1.0456307E1,1.5653439E1,5.7482877E0,1.8671088E2,1.0656385E2,6.32814E1,2.9703861E1,7.859579E1,1.5267377E1,2.3216743E1,5.509421E1,1.7059902E1,1.729197E1,2.4503761E1,1.2776468E1,2.0536185E2,8.279348E1,7.4859204E0,1.4089908E1,1.4464336E1,1.0132206E1,5.5212326E0,8.180779E0,1.7853009E2,6.05155E1,4.6048355E1,8.2648115E0,5.5016586E1,1.0134411E1,1.956945E1,9.265579E0,6.933021E1],"tree_param":{"num_deleted":"0","num_feature":"76","num_nodes":"55","size_leaf_vector":"1"}},{"base_weights":[3.658359E-3,5.6594676E-1,-7.2839296E-1,7.7701867E-1,-2.2104494E-1,-1.2281005E0,-2.841808E-1,9.3996257E-1,-0E0,4.3385872E-1,-6.0772246E-1,-0E0,-1.2818301E0,1.849697E-2,-1.0440817E0,1.0394123E0,1.2009028E-1,8.236416E-1,-3.3104032E-1,9.9561113E-1,-3.8064155E-3,4.370085E-1,-1.0616363E0,-0E0,-1.3358766E0,2.9225948E-1,-9.1668636E-1,-0E0,-1.2555767E0,1.1326204E-2,-0E0,-2.5442182E-3,7.033643E-3,-0E0,1.1759233E-2,-6.5187225E-3,5.8100966E-4,1.2860877E-2,-0E0,-0E0,9.738198E-3,-1.2410517E-2,-0E0,-0E0,-1.426323E-2,5.9375307E-3,-4.56613E-3,-0E0,-1.1303149E-2,-1.4871637E-2,-0E0],"categories":[],"categories_nodes":[],"categories_segments":[],"categories_sizes":[],"default_left":[0,1,0,0,1,0,1,0,1,0,0,0,1,0,0,1,1,0,1,0,0,0,1,0,0,1,0,0,0,0,0,0,0,0,0,0,0,0,0,0,0,0,0,0,0,0,0,0,0,0,0],"id":24,"left_children":[1,3,5,7,9,11,13,15,17,19,21,-1,23,25,27,29,31,33,35,37,-1,39,41,-1,43,45,47,-1,49,-1,-1,-1,-1,-1,-1,-1,-1,-1,-1,-1,-1,-1,-1,-1,-1,-1,-1,-1,-1,-1,-1],"loss_changes":[4.097141E2,9.830589E1,8.50551E1,5.3287903E1,3.0022554E1,1.4261993E1,6.060092E1,2.2623993E1,2.527588E1,2.0388134E1,4.1179115E1,0E0,7.8447876E0,3.7164062E1,2.1545853E1,2.2657104E1,1.2559518E1,8.704912E0,1.0227009E1,5.72307E0,0E0,7.7794867E0,8.833328E0,0E0,7.1245728E0,2.7582596E1,4.534025E0,0E0,1.3505661E1,0E0,0E0,0E0,0E0,0E0,0E0,0E0,0E0,0E0,0E0,0E0,0E0,0E0,0E0,0E0,0E0,0E0,0E0,0E0,0E0,0E0,0E0],"parents":[2147483647,0,0,1,1,2,2,3,3,4,4,5,5,6,6,7,7,8,8,9,9,10,10,12,12,13,13,14,14,15,15,16,16,17,17,18,18,19,19,21,21,22,22,24,24,25,25,26,26,28,28],"right_children":[2,4,6,8,10,12,14,16,18,20,22,-1,24,26,28,30,32,34,36,38,-1,40,42,-1,44,46,48,-1,50,-1,-1,-1,-1,-1,-1,-1,-1,-1,-1,-1,-1,-1,-1,-1,-1,-1,-1,-1,-1,-1,-1],"split_conditions":[5.62384E-1,4.1E-3,0E0,9.212E-1,4.3E-1,6.364E-1,7.26E-1,6.35284E-1,4.6E1,9.091E-1,6.898E-1,-0E0,4.8E1,8.58117E-1,6.991E-1,1.359E0,2E0,2.5777779E1,1.1E1,2.4984E2,-3.8064155E-3,8.97E-1,6.1E1,-0E0,2.69E0,1.3003004E0,6.902E-1,-0E0,1.1557334E3,1.1326204E-2,-0E0,-2.5442182E-3,7.033643E-3,-0E0,1.1759233E-2,-6.5187225E-3,5.8100966E-4,1.2860877E-2,-0E0,-0E0,9.738198E-3,-1.2410517E-2,-0E0,-0E0,-1.426323E-2,5.9375307E-3,-4.56613E-3,-0E0,-1.1303149E-2,-1.4871637E-2,-0E0],"split_indices":[58,18,51,36,50,36,50,59,10,38,36,0,10,59,36,50,31,4,31,10,0,50,4,0,12,52,11,0,11,0,0,0,0,0,0,0,0,0,0,0,0,0,0,0,0,0,0,0,0,0,0],"split_type":[0,0,0,0,0,0,0,0,0,0,0,0,0,0,0,0,0,0,0,0,0,0,0,0,0,0,0,0,0,0,0,0,0,0,0,0,0,0,0,0,0,0,0,0,0,0,0,0,0,0,0],"sum_hessian":[9.977582E2,5.694378E2,4.283204E2,4.556442E2,1.1379361E2,1.9446924E2,2.3385117E2,3.7164212E2,8.400208E1,3.5886196E1,7.790742E1,7.2899113E0,1.8717934E2,1.6108447E2,7.27667E1,3.2421457E2,4.742753E1,2.8105064E1,5.589702E1,2.5931252E1,9.954945E0,1.9182037E1,5.8725376E1,1.0451915E1,1.7672742E2,1.3013834E2,3.094613E1,8.815498E0,6.39512E1,3.1318097E2,1.1033619E1,2.152114E1,2.5906391E1,6.5191765E0,2.158589E1,4.1264065E1,1.4632954E1,2.043193E1,5.49932E0,6.2662687E0,1.2915768E1,5.245237E1,6.273008E0,5.947624E0,1.707798E2,1.0071452E2,2.9423811E1,5.226061E0,2.572007E1,5.566364E1,8.28756E0],"tree_param":{"num_deleted":"0","num_feature":"76","num_nodes":"51","size_leaf_vector":"1"}},{"base_weights":[-1.1796739E-2,4.9523437E-1,-8.677899E-1,-1.1657501E-1,7.869772E-1,3.1711543E-1,-1.0631407E0,2.6624393E-1,-9.9757826E-1,1.0888673E0,2.4095856E-1,-1.1420145E-1,1.0851759E0,-1.2203351E0,-1.1540494E-1,6.914989E-1,-3.8169548E-1,-0E0,-1.2638631E0,1.6768326E-1,1.2463793E0,4.5463723E-1,-8.088552E-1,1.3140804E-4,-7.2638315E-1,1.3535237E-2,-0E0,-1.3045578E0,-0E0,8.987898E-2,-1.0556102E-2,9.143889E-3,-2.890821E-4,-8.5478E-3,-0E0,-1.53103145E-2,-0E0,1.2713557E-2,-5.3965403E-3,-0E0,1.3476341E-2,7.803983E-3,-3.3225243E-3,-0E0,-1.1567584E-2,-1.1187518E-2,-0E0,-0E0,-1.4020042E-2,5.0696135E-3,-3.5759432E-3,-1.0139767E-2,6.369641E-3],"categories":[],"categories_nodes":[],"categories_segments":[],"categories_sizes":[],"default_left":[1,0,0,1,1,0,0,0,0,0,0,1,0,0,0,0,0,0,0,0,0,1,0,0,0,0,0,0,0,0,0,0,0,0,0,0,0,0,0,0,0,0,0,0,0,0,0,0,0,0,0,0,0],"id":25,"left_children":[1,3,5,7,9,11,13,15,17,19,21,23,25,27,29,31,33,-1,35,37,39,41,43,-1,45,-1,-1,47,49,51,-1,-1,-1,-1,-1,-1,-1,-1,-1,-1,-1,-1,-1,-1,-1,-1,-1,-1,-1,-1,-1,-1,-1],"loss_changes":[4.327539E2,1.1471178E2,9.146289E1,6.9702385E1,6.133194E1,2.2397156E1,3.965042E1,3.7582737E1,2.2972343E1,2.9252563E1,3.3471416E1,6.6991067E0,2.9683857E0,2.630951E1,1.5849219E1,1.7096783E1,1.0959309E1,0E0,9.506607E0,3.7545547E1,1.4522675E1,3.4620102E1,5.629979E0,0E0,2.631968E0,0E0,0E0,1.9768463E1,2.984347E0,1.8236568E1,0E0,0E0,0E0,0E0,0E0,0E0,0E0,0E0,0E0,0E0,0E0,0E0,0E0,0E0,0E0,0E0,0E0,0E0,0E0,0E0,0E0,0E0,0E0],"parents":[2147483647,0,0,1,1,2,2,3,3,4,4,5,5,6,6,7,7,8,8,9,9,10,10,11,11,12,12,13,13,14,14,15,15,16,16,18,18,19,19,20,20,21,21,22,22,24,24,27,27,28,28,29,29],"right_children":[2,4,6,8,10,12,14,16,18,20,22,24,26,28,30,32,34,-1,36,38,40,42,44,-1,46,-1,-1,48,50,52,-1,-1,-1,-1,-1,-1,-1,-1,-1,-1,-1,-1,-1,-1,-1,-1,-1,-1,-1,-1,-1,-1,-1],"split_conditions":[6.27664E-1,0E0,6.545E-1,2.65795E-1,5.92E-1,2.62E2,8.99933E-1,8.676E-1,6.833E-1,3.7E1,8.96346E-1,7.687E-1,6.10055E-1,6.1E1,1.3E1,5.5853E-1,1.39E2,-0E0,1E0,9.37E0,5.2E0,7.69E-2,6.996997E-1,1.3140804E-4,6.522E-1,1.3535237E-2,-0E0,1.54E0,1.7E1,1.8311E0,-1.0556102E-2,9.143889E-3,-2.890821E-4,-8.5478E-3,-0E0,-1.53103145E-2,-0E0,1.2713557E-2,-5.3965403E-3,-0E0,1.3476341E-2,7.803983E-3,-3.3225243E-3,-0E0,-1.1567584E-2,-1.1187518E-2,-0E0,-0E0,-1.4020042E-2,5.0696135E-3,-3.5759432E-3,-1.0139767E-2,6.369641E-3],"split_indices":[59,51,36,60,50,53,63,36,36,35,62,11,58,0,3,58,0,0,65,46,16,8,52,0,44,0,0,16,6,20,0,0,0,0,0,0,0,0,0,0,0,0,0,0,0,0,0,0,0,0,0,0,0],"split_type":[0,0,0,0,0,0,0,0,0,0,0,0,0,0,0,0,0,0,0,0,0,0,0,0,0,0,0,0,0,0,0,0,0,0,0,0,0,0,0,0,0,0,0,0,0,0,0,0,0,0,0,0,0],"sum_hessian":[9.9120044E2,6.1765686E2,3.7354355E2,1.9212799E2,4.255289E2,4.8064278E1,3.2547925E2,1.2874681E2,6.338119E1,2.6614975E2,1.5937915E2,2.531991E1,2.2744368E1,2.7315863E2,5.2320633E1,8.389299E1,4.4853817E1,9.552919E0,5.3828274E1,4.5030754E1,2.2111899E2,1.3771355E2,2.1665611E1,1.2105425E1,1.3214485E1,1.746311E1,5.281258E0,2.5447255E2,1.8686079E1,3.671679E1,1.560384E1,7.36667E1,1.0226289E1,2.5710934E1,1.9142883E1,4.38585E1,9.96977E0,2.1506231E1,2.352452E1,8.746598E0,2.1237239E2,1.0570502E2,3.2008522E1,5.770957E0,1.5894653E1,8.208719E0,5.0057654E0,6.279172E0,2.4819337E2,6.075365E0,1.2610715E1,7.900112E0,2.8816679E1],"tree_param":{"num_deleted":"0","num_feature":"76","num_nodes":"53","size_leaf_vector":"1"}},{"base_weights":[-1.4529331E-2,6.1277044E-1,-6.429578E-1,-1.833747E-2,8.659014E-1,1.937788E-1,-8.7568516E-1,3.6611626E-1,-8.614284E-1,9.756092E-1,-0E0,-5.166441E-1,5.407513E-1,-0E0,-1.0059774E0,7.772245E-1,-1.6447115E-1,-0E0,-1.24823E-2,1.0658481E0,-0E0,-8.927144E-3,3.1444186E-1,-0E0,-8.581766E-1,-0E0,8.988967E-1,-4.3361026E-1,5.747081E-1,-0E0,-1.1094303E0,-0E0,9.804813E-3,-8.441932E-3,1.3940976E-3,1.1776298E-2,-0E0,6.1015342E-3,-5.618769E-3,7.949317E-3,-0E0,-0E0,-1.27061205E-2,7.8120157E-3,-4.87999E-3,1.3859384E-2,-0E0,-9.358759E-3,-0E0,-0E0,9.670416E-3,-9.658677E-3,6.6781715E-3,-1.2056029E-2,-0E0],"categories":[],"categories_nodes":[],"categories_segments":[],"categories_sizes":[],"default_left":[1,0,0,1,0,0,1,0,0,1,0,1,0,0,0,1,0,0,0,0,1,0,1,0,0,0,0,1,0,0,1,0,0,0,0,0,0,0,0,0,0,0,0,0,0,0,0,0,0,0,0,0,0,0,0],"id":26,"left_children":[1,3,5,7,9,11,13,15,17,19,21,23,25,27,29,31,33,-1,-1,35,37,-1,39,-1,41,43,45,47,49,51,53,-1,-1,-1,-1,-1,-1,-1,-1,-1,-1,-1,-1,-1,-1,-1,-1,-1,-1,-1,-1,-1,-1,-1,-1],"loss_changes":[3.8937262E2,8.369524E1,1.0159152E2,4.6273026E1,3.1773682E1,2.5421797E1,5.039148E1,2.2766048E1,1.7774345E1,2.9421356E1,1.0323157E1,8.958986E0,1.825279E1,1.2290083E1,4.24769E1,1.0595837E1,1.0414712E1,0E0,0E0,2.4653198E1,7.957385E0,0E0,7.3897476E0,0E0,9.309097E0,7.870207E0,1.7697174E1,6.7860723E0,8.90711E0,1.5157147E1,1.9615326E1,0E0,0E0,0E0,0E0,0E0,0E0,0E0,0E0,0E0,0E0,0E0,0E0,0E0,0E0,0E0,0E0,0E0,0E0,0E0,0E0,0E0,0E0,0E0,0E0],"parents":[2147483647,0,0,1,1,2,2,3,3,4,4,5,5,6,6,7,7,8,8,9,9,10,10,11,11,12,12,13,13,14,14,15,15,16,16,19,19,20,20,22,22,24,24,25,25,26,26,27,27,28,28,29,29,30,30],"right_children":[2,4,6,8,10,12,14,16,18,20,22,24,26,28,30,32,34,-1,-1,36,38,-1,40,-1,42,44,46,48,50,52,54,-1,-1,-1,-1,-1,-1,-1,-1,-1,-1,-1,-1,-1,-1,-1,-1,-1,-1,-1,-1,-1,-1,-1,-1],"split_conditions":[7.69E-2,0E0,7.143E-1,6E0,5.90919E-1,2.6538E2,8.0982715E-2,8.641E-1,5.19496E-1,9.208E-1,2.7E0,7.99E0,2.02E2,1.6666666E1,1.1667E-2,2E1,9.995599E1,-0E0,-1.24823E-2,1.9E1,6.99E0,-8.927144E-3,6.667E-1,-0E0,5.105E-1,4.785714E0,6.618E-1,9.175E-1,3E1,2.4166E2,1.4203E4,-0E0,9.804813E-3,-8.441932E-3,1.3940976E-3,1.1776298E-2,-0E0,6.1015342E-3,-5.618769E-3,7.949317E-3,-0E0,-0E0,-1.27061205E-2,7.8120157E-3,-4.87999E-3,1.3859384E-2,-0E0,-9.358759E-3,-0E0,-0E0,9.670416E-3,-9.658677E-3,6.6781715E-3,-1.2056029E-2,-0E0],"split_indices":[8,51,36,24,59,14,52,36,63,57,21,46,53,4,61,48,5,0,0,47,46,0,39,0,36,4,36,36,35,16,17,0,0,0,0,0,0,0,0,0,0,0,0,0,0,0,0,0,0,0,0,0,0,0,0],"split_type":[0,0,0,0,0,0,0,0,0,0,0,0,0,0,0,0,0,0,0,0,0,0,0,0,0,0,0,0,0,0,0,0,0,0,0,0,0,0,0,0,0,0,0,0,0,0,0,0,0,0,0,0,0,0,0],"sum_hessian":[9.87001E2,4.8867517E2,4.9832584E2,1.3243698E2,3.562382E2,1.02257034E2,3.960688E2,8.5609406E1,4.6827568E1,3.139841E2,4.2254086E1,2.7278582E1,7.497845E1,4.618355E1,3.4988525E2,5.523539E1,3.037402E1,1.0562547E1,3.6265022E1,2.8894943E2,2.5034664E1,9.449382E0,3.2804703E1,5.2951827E0,2.1983398E1,2.5323084E1,4.9655365E1,2.122162E1,2.4961931E1,2.771872E1,3.2216653E2,6.003493E0,4.9231895E1,1.65023E1,1.3871719E1,2.7414127E2,1.4808195E1,1.05271635E1,1.45075E1,1.8039433E1,1.4765272E1,5.0220804E0,1.6961319E1,6.335512E0,1.898757E1,3.23707E1,1.7284664E1,1.3172713E1,8.048906E0,5.268997E0,1.9692934E1,7.845118E0,1.9873602E1,3.0844403E2,1.3722477E1],"tree_param":{"num_deleted":"0","num_feature":"76","num_nodes":"55","size_leaf_vector":"1"}},{"base_weights":[6.9749122E-3,6.194614E-1,-6.270705E-1,8.120765E-1,-2.0727912E-1,1.2691855E-1,-8.6509037E-1,1.017427E0,2.1809907E-1,9.007592E-2,-8.446453E-1,5.841703E-1,-4.0894428E-1,-0E0,-1.027164E0,1.1771568E0,3.0733824E-1,1.0964966E0,-1.1160618E-1,-7.5721494E-3,3.7300065E-1,-0E0,-1.3652813E-2,9.5793873E-1,-2.4376063E-1,-8.3053535E-1,2.022311E-1,3.441655E-1,-6.9014937E-1,-1.1729228E0,-0E0,5.237168E-4,1.2786361E-2,1.0248197E-2,-0E0,-0E0,1.2885266E-2,-4.2591696E-3,1.00190975E-2,1.1998301E-2,-0E0,-0E0,1.172818E-2,-0E0,-5.48083E-3,-1.2850919E-2,-0E0,6.2375437E-3,-0E0,7.4366294E-3,-3.4076497E-3,-1.129076E-2,-0E0,-1.2743397E-2,-0E0,2.8589393E-3,-1.093463E-2],"categories":[],"categories_nodes":[],"categories_segments":[],"categories_sizes":[],"default_left":[1,1,0,1,1,0,0,0,0,0,0,0,0,0,0,0,1,0,1,0,0,0,0,0,0,0,0,0,1,1,0,0,0,0,0,0,0,0,0,0,0,0,0,0,0,0,0,0,0,0,0,0,0,0,0,0,0],"id":27,"left_children":[1,3,5,7,9,11,13,15,17,19,21,23,25,27,29,31,33,35,37,-1,39,-1,-1,41,43,45,47,49,51,53,55,-1,-1,-1,-1,-1,-1,-1,-1,-1,-1,-1,-1,-1,-1,-1,-1,-1,-1,-1,-1,-1,-1,-1,-1,-1,-1],"loss_changes":[3.9220374E2,8.667976E1,9.301236E1,4.3944214E1,2.2376753E1,2.8438934E1,5.5563293E1,2.5226532E1,4.0775944E1,1.0545914E1,1.8606575E1,2.5399586E1,1.5670851E1,1.2993757E1,4.2692627E1,6.6104736E0,1.8332857E1,3.588295E0,2.2297194E1,0E0,1.5722663E1,0E0,0E0,9.875446E0,1.754561E0,8.626307E0,1.8272587E0,1.2821051E1,3.5821705E0,1.7772095E1,1.6515125E1,0E0,0E0,0E0,0E0,0E0,0E0,0E0,0E0,0E0,0E0,0E0,0E0,0E0,0E0,0E0,0E0,0E0,0E0,0E0,0E0,0E0,0E0,0E0,0E0,0E0,0E0],"parents":[2147483647,0,0,1,1,2,2,3,3,4,4,5,5,6,6,7,7,8,8,9,9,10,10,11,11,12,12,13,13,14,14,15,15,16,16,17,17,18,18,20,20,23,23,24,24,25,25,26,26,27,27,28,28,29,29,30,30],"right_children":[2,4,6,8,10,12,14,16,18,20,22,24,26,28,30,32,34,36,38,-1,40,-1,-1,42,44,46,48,50,52,54,56,-1,-1,-1,-1,-1,-1,-1,-1,-1,-1,-1,-1,-1,-1,-1,-1,-1,-1,-1,-1,-1,-1,-1,-1,-1,-1],"split_conditions":[2.576E-1,8.34E-2,7.162E-1,3.36354E-1,2.2E1,2.2077E2,5.49E0,9.07E-1,7E0,1.15E2,7.56532E-1,6.1535E-1,1.7998666E0,6E0,9.29077E-1,3E0,4.6E1,3.99396E-1,4.7333E2,-7.5721494E-3,8.4E1,-0E0,-1.3652813E-2,1.818E-1,1.039E1,4.3071E2,4.6E1,1.17E2,2.5E1,1.4203E4,6E0,5.237168E-4,1.2786361E-2,1.0248197E-2,-0E0,-0E0,1.2885266E-2,-4.2591696E-3,1.00190975E-2,1.1998301E-2,-0E0,-0E0,1.172818E-2,-0E0,-5.48083E-3,-1.2850919E-2,-0E0,6.2375437E-3,-0E0,7.4366294E-3,-3.4076497E-3,-1.129076E-2,-0E0,-1.2743397E-2,-0E0,2.8589393E-3,-1.093463E-2],"split_indices":[11,19,36,61,48,10,45,36,45,35,62,58,52,2,63,43,10,61,10,0,43,0,0,29,46,10,43,35,48,17,2,0,0,0,0,0,0,0,0,0,0,0,0,0,0,0,0,0,0,0,0,0,0,0,0,0,0],"split_type":[0,0,0,0,0,0,0,0,0,0,0,0,0,0,0,0,0,0,0,0,0,0,0,0,0,0,0,0,0,0,0,0,0,0,0,0,0,0,0,0,0,0,0,0,0,0,0,0,0,0,0,0,0,0,0,0,0],"sum_hessian":[1.0098544E3,5.1897034E2,4.9088403E2,4.2740076E2,9.156956E1,1.1112203E2,3.7976202E2,3.0926376E2,1.1813699E2,5.542167E1,3.614789E1,6.66177E1,4.450433E1,5.775619E1,3.2200583E2,2.44806E2,6.445776E1,3.7651157E1,8.048583E1,8.17612E0,4.7245552E1,1.0551493E1,2.5596395E1,5.1393024E1,1.5224674E1,3.2722324E1,1.1782007E1,4.0740986E1,1.7015207E1,2.7795477E2,4.405105E1,1.6952826E1,2.2785318E2,2.495441E1,3.9503353E1,5.972829E0,3.1678328E1,6.786969E1,1.2616148E1,1.6589605E1,3.0655945E1,6.7508664E0,4.464216E1,5.771847E0,9.452827E0,2.0293121E1,1.2429203E1,6.299173E0,5.482835E0,3.255269E1,8.188297E0,9.812401E0,7.2028055E0,2.6546387E2,1.24908905E1,3.1433298E1,1.261775E1],"tree_param":{"num_deleted":"0","num_feature":"76","num_nodes":"57","size_leaf_vector":"1"}},{"base_weights":[-4.195975E-3,4.468882E-1,-7.8471005E-1,-3.219793E-1,7.691866E-1,3.2672295E-1,-9.509592E-1,1.386054E-1,-1.0734776E0,1.0481646E0,1.870667E-1,9.1692126E-1,-4.972582E-1,-4.9246654E-1,-1.3385087E0,7.5179297E-1,-1.592965E-1,-0E0,-1.4491976E-2,1.2783106E-1,1.1900518E0,4.401703E-1,-4.5822796E-1,-0E0,1.2906848E-2,-1.1048128E-2,-0E0,-1.0246329E0,-0E0,-0E0,-1.3806578E0,-0E0,1.0791681E-2,5.6016278E-3,-5.362945E-3,9.042029E-3,-1.4132295E-3,1.2763847E-2,-0E0,-1.1670544E-3,7.7218376E-3,1.5735519E-4,-9.761188E-3,-1.3403775E-2,-8.0144004E-4,6.739178E-3,-3.6438715E-3,-0E0,-1.4911356E-2],"categories":[],"categories_nodes":[],"categories_segments":[],"categories_sizes":[],"default_left":[1,0,0,1,1,0,1,0,0,0,1,1,0,1,0,1,1,0,0,0,1,1,0,0,0,0,0,0,1,0,1,0,0,0,0,0,0,0,0,0,0,0,0,0,0,0,0,0,0],"id":28,"left_children":[1,3,5,7,9,11,13,15,17,19,21,23,25,27,29,31,33,-1,-1,35,37,39,41,-1,-1,-1,-1,43,45,-1,47,-1,-1,-1,-1,-1,-1,-1,-1,-1,-1,-1,-1,-1,-1,-1,-1,-1,-1],"loss_changes":[3.567889E2,1.5980292E2,7.330855E1,6.882721E1,6.5208954E1,2.4024837E1,4.6578033E1,2.3445057E1,2.744329E1,3.015689E1,2.5095999E1,1.2337143E1,6.3139353E0,4.2470024E1,9.786316E0,5.583618E0,1.6043056E1,0E0,0E0,1.3929979E1,1.5482391E1,2.4034046E1,1.43755665E1,0E0,0E0,0E0,0E0,1.046566E1,1.897947E1,0E0,9.805664E0,0E0,0E0,0E0,0E0,0E0,0E0,0E0,0E0,0E0,0E0,0E0,0E0,0E0,0E0,0E0,0E0,0E0,0E0],"parents":[2147483647,0,0,1,1,2,2,3,3,4,4,5,5,6,6,7,7,8,8,9,9,10,10,11,11,12,12,13,13,14,14,15,15,16,16,19,19,20,20,21,21,22,22,27,27,28,28,30,30],"right_children":[2,4,6,8,10,12,14,16,18,20,22,24,26,28,30,32,34,-1,-1,36,38,40,42,-1,-1,-1,-1,44,46,-1,48,-1,-1,-1,-1,-1,-1,-1,-1,-1,-1,-1,-1,-1,-1,-1,-1,-1,-1],"split_conditions":[6.3101E-1,0E0,6.587E-1,5E0,6.25E-1,6.12807E-1,1.54E0,7.612E-1,5.05647E-1,1.2609E0,7.69E-2,4.367E-1,7E0,1.7472519E1,3.771E-1,2E-1,3.69073E-1,-0E0,-1.4491976E-2,1.099E1,3.1E-1,1.538E-1,4.76723E-1,-0E0,1.2906848E-2,-1.1048128E-2,-0E0,3.4E1,3.5668334E-1,-0E0,-1.539346E3,-0E0,1.0791681E-2,5.6016278E-3,-5.362945E-3,9.042029E-3,-1.4132295E-3,1.2763847E-2,-0E0,-1.1670544E-3,7.7218376E-3,1.5735519E-4,-9.761188E-3,-1.3403775E-2,-8.0144004E-4,6.739178E-3,-3.6438715E-3,-0E0,-1.4911356E-2],"split_indices":[59,51,36,24,50,58,16,36,63,31,8,44,47,5,20,31,63,0,0,45,21,31,58,0,0,0,0,0,52,0,22,0,0,0,0,0,0,0,0,0,0,0,0,0,0,0,0,0,0],"split_type":[0,0,0,0,0,0,0,0,0,0,0,0,0,0,0,0,0,0,0,0,0,0,0,0,0,0,0,0,0,0,0,0,0,0,0,0,0,0,0,0,0,0,0,0,0,0,0,0,0],"sum_hessian":[1.0068182E3,6.327172E2,3.7410098E2,1.8082106E2,4.5189615E2,4.348407E1,3.306169E2,1.0670407E2,7.411698E1,2.9774774E2,1.541484E2,3.000901E1,1.3475059E1,1.593803E2,1.7123662E2,4.2099987E1,6.460409E1,1.627058E1,5.78464E1,4.602941E1,2.5171832E2,1.1811139E2,3.603702E1,5.7628326E0,2.4246178E1,8.430057E0,5.0450025E0,7.7187645E1,8.219264E1,5.168058E0,1.6606857E2,1.4974295E1,2.7125692E1,1.5573583E1,4.9030502E1,1.8568707E1,2.7460703E1,2.4597086E2,5.7474694E0,3.419315E1,8.3918236E1,1.1311456E1,2.4725567E1,5.4749115E1,2.2438532E1,2.946936E1,5.272328E1,7.9437046E0,1.5812486E2],"tree_param":{"num_deleted":"0","num_feature":"76","num_nodes":"49","size_leaf_vector":"1"}},{"base_weights":[5.8641285E-3,5.410485E-1,-7.3655146E-1,-7.507391E-2,8.086131E-1,3.9807695E-1,-9.17912E-1,3.656058E-1,-8.53337E-1,2.4823171E-1,9.7983855E-1,8.2859135E-1,-8.590602E-3,-5.1573986E-1,-1.3506411E0,6.078003E-1,-8.641306E-3,1.953512E-4,-1.0675235E0,3.998788E-1,-8.991001E-3,1.1040254E0,1.9762263E-2,-0E0,1.1723739E0,-2.3517229E-1,-1.3431439E0,-0E0,-1.4481435E0,8.754633E-3,-0E0,-1.2683114E-2,-0E0,-5.444869E-4,6.923126E-3,-0E0,1.1903161E-2,3.3036075E-3,-5.8606965E-3,-0E0,1.3686616E-2,-1.01926215E-2,3.9904015E-5,-1.4982125E-2,-0E0,-0E0,-7.623012E-3,-1.5562785E-2,-0E0],"categories":[],"categories_nodes":[],"categories_segments":[],"categories_sizes":[],"default_left":[1,0,0,1,0,0,1,0,0,0,0,1,0,1,0,0,0,0,1,0,0,1,0,0,0,0,1,0,1,0,0,0,0,0,0,0,0,0,0,0,0,0,0,0,0,0,0,0,0],"id":29,"left_children":[1,3,5,7,9,11,13,15,17,19,21,23,-1,25,27,29,-1,-1,31,33,-1,35,37,-1,39,41,43,45,47,-1,-1,-1,-1,-1,-1,-1,-1,-1,-1,-1,-1,-1,-1,-1,-1,-1,-1,-1,-1],"loss_changes":[3.9448834E2,1.01137985E2,8.827739E1,6.1372746E1,3.1636444E1,2.743343E1,5.0287476E1,2.840577E1,1.9405682E1,1.4906156E1,2.9348633E1,1.6438526E1,0E0,3.4759262E1,1.3676544E1,1.4009708E1,0E0,0E0,6.258301E0,1.601091E1,0E0,1.5232269E1,5.6379466E0,0E0,3.3709335E0,3.3540176E1,1.3326569E0,3.71937E0,5.3283997E0,0E0,0E0,0E0,0E0,0E0,0E0,0E0,0E0,0E0,0E0,0E0,0E0,0E0,0E0,0E0,0E0,0E0,0E0,0E0,0E0],"parents":[2147483647,0,0,1,1,2,2,3,3,4,4,5,5,6,6,7,7,8,8,9,9,10,10,11,11,13,13,14,14,15,15,18,18,19,19,21,21,22,22,24,24,25,25,26,26,27,27,28,28],"right_children":[2,4,6,8,10,12,14,16,18,20,22,24,-1,26,28,30,-1,-1,32,34,-1,36,38,-1,40,42,44,46,48,-1,-1,-1,-1,-1,-1,-1,-1,-1,-1,-1,-1,-1,-1,-1,-1,-1,-1,-1,-1],"split_conditions":[5.82593E-1,0E0,6.587E-1,5E0,1.7333E0,6.4185E-1,3.73E0,5.52038E-1,5.49E0,5.48E2,1.1E1,4.314E-1,-8.590602E-3,8.22E-1,6.207E-1,8.986E-1,-8.641306E-3,1.953512E-4,6.1E1,2.56E2,-8.991001E-3,3.503E-1,8.986E-1,-0E0,5.212E1,3.5E1,9.89E-1,1E1,1.338E-1,8.754633E-3,-0E0,-1.2683114E-2,-0E0,-5.444869E-4,6.923126E-3,-0E0,1.1903161E-2,3.3036075E-3,-5.8606965E-3,-0E0,1.3686616E-2,-1.01926215E-2,3.9904015E-5,-1.4982125E-2,-0E0,-0E0,-7.623012E-3,-1.5562785E-2,-0E0],"split_indices":[59,51,36,24,31,58,15,58,45,6,47,44,0,50,37,36,0,0,4,53,0,36,36,0,13,35,20,47,40,0,0,0,0,0,0,0,0,0,0,0,0,0,0,0,0,0,0,0,0],"split_type":[0,0,0,0,0,0,0,0,0,0,0,0,0,0,0,0,0,0,0,0,0,0,0,0,0,0,0,0,0,0,0,0,0,0,0,0,0,0,0,0,0,0,0,0,0,0,0,0,0],"sum_hessian":[9.9589233E2,5.839117E2,4.1198068E2,1.6933218E2,4.1457947E2,5.1729843E1,3.6025085E2,1.0272104E2,6.6611145E1,1.061354E2,3.084441E2,4.230491E1,9.424933E0,1.9476598E2,1.6548488E2,9.0086945E1,1.2634098E1,7.0604496E0,5.9550694E1,9.871047E1,7.424929E0,2.6699835E2,4.1445717E1,9.266462E0,3.303845E1,1.5152165E2,4.3244324E1,