{"learner":{"attributes":{"scikit_learn":"{\"_estimator_type\": \"classifier\"}"},"feature_names":["days_since_last_build_update","build_update_count_last_30d","build_update_count_last_90d","build_update_count_last_180d","mean_days_between_build_updates","std_days_between_build_updates","max_hiatus_ever_days","hiatus_recovery_count","update_frequency_trend","build_gap_vs_allowable_ratio","avg_changelog_word_count","changelog_word_count_trend","ccu_avg_last_30d","ccu_avg_last_90d","ccu_avg_last_180d","ccu_median_all","ccu_at_launch_30d","peak_ccu_alltime","ccu_vs_peak_ratio","ccu_vs_launch_ratio","ccu_trend_slope_30d","ccu_trend_slope_90d","ccu_trend_slope_180d","ccu_floor_established","days_since_ccu_above_100","ccu_low_regime","dev_posts_last_30d","dev_posts_last_90d","dev_posts_last_180d","dev_engagement_trend","days_since_dev_post","build_to_post_ratio","dev_previous_ea_count","dev_has_prior_success","dev_total_games_shipped","review_count_at_T","review_score_at_T","review_score_last_30d","review_score_last_90d","review_score_last_180d","review_score_delta_30d","review_velocity_30d","review_velocity_90d","review_velocity_180d","review_velocity_trend","initial_price_usd","current_price_at_T","discount_count_to_date","max_discount_ever_pct","early_deep_discount_flag","discount_frequency","price_trend_encoded","price_vs_genre_median","ea_age_days","ea_age_lt_180d","owner_estimate_at_T","genre_scope","review_update_divergence","l1_composite_score","l1_update_health_score","l1_player_retention_score","l1_dev_engagement_score","l1_sentiment_score","l1_price_market_score","l1_state_encoded","genre_Action","genre_Adventure","genre_Casual","genre_Massively Multiplayer","genre_RPG","genre_Racing","genre_Simulation","genre_Sports","genre_Strategy","genre_Survival","genre_Visual Novel"],"feature_types":["int","int","int","int","float","float","int","int","float","float","float","float","float","float","float","float","float","float","float","float","float","float","float","float","float","float","int","int","int","float","int","float","float","float","int","int","float","float","float","float","float","float","float","float","float","float","float","int","float","int","float","float","float","int","int","int","float","float","float","float","float","float","float","float","int","float","float","float","float","float","float","float","float","float","float","float"],"gradient_booster":{"model":{"cats":{"enc":[],"feature_segments":[],"sorted_idx":[]},"gbtree_model_param":{"num_parallel_tree":"1","num_trees":"207"},"iteration_indptr":[0,1,2,3,4,5,6,7,8,9,10,11,12,13,14,15,16,17,18,19,20,21,22,23,24,25,26,27,28,29,30,31,32,33,34,35,36,37,38,39,40,41,42,43,44,45,46,47,48,49,50,51,52,53,54,55,56,57,58,59,60,61,62,63,64,65,66,67,68,69,70,71,72,73,74,75,76,77,78,79,80,81,82,83,84,85,86,87,88,89,90,91,92,93,94,95,96,97,98,99,100,101,102,103,104,105,106,107,108,109,110,111,112,113,114,115,116,117,118,119,120,121,122,123,124,125,126,127,128,129,130,131,132,133,134,135,136,137,138,139,140,141,142,143,144,145,146,147,148,149,150,151,152,153,154,155,156,157,158,159,160,161,162,163,164,165,166,167,168,169,170,171,172,173,174,175,176,177,178,179,180,181,182,183,184,185,186,187,188,189,190,191,192,193,194,195,196,197,198,199,200,201,202,203,204,205,206,207],"tree_info":[0,0,0,0,0,0,0,0,0,0,0,0,0,0,0,0,0,0,0,0,0,0,0,0,0,0,0,0,0,0,0,0,0,0,0,0,0,0,0,0,0,0,0,0,0,0,0,0,0,0,0,0,0,0,0,0,0,0,0,0,0,0,0,0,0,0,0,0,0,0,0,0,0,0,0,0,0,0,0,0,0,0,0,0,0,0,0,0,0,0,0,0,0,0,0,0,0,0,0,0,0,0,0,0,0,0,0,0,0,0,0,0,0,0,0,0,0,0,0,0,0,0,0,0,0,0,0,0,0,0,0,0,0,0,0,0,0,0,0,0,0,0,0,0,0,0,0,0,0,0,0,0,0,0,0,0,0,0,0,0,0,0,0,0,0,0,0,0,0,0,0,0,0,0,0,0,0,0,0,0,0,0,0,0,0,0,0,0,0,0,0,0,0,0,0,0,0,0,0,0,0,0,0,0,0,0,0],"trees":[{"base_weights":[-2.6381303E-2,7.29647E-1,-7.8154063E-1,1.0034859E0,-4.4391843E-4,-1.0447564E0,2.4628763E-1,1.3591734E0,2.866038E-1,-1.0980682E0,3.8598216E-1,-1.2272128E0,2.448229E-1,-6.813423E-1,6.4426327E-1,9.070229E-3,1.4679905E0,8.231155E-1,-6.9574594E-2,-1.2921265E0,-0E0,1.1433578E0,-0E0,-0E0,-1.3712324E0,8.2428986E-1,-1.4623438E-2,-0E0,-1.107584E0,-2.4033587E-3,8.92301E-1,2.7361676E-1,-0E0,-0E0,1.4975481E0,1.0882537E0,-0E0,-7.6843125E-1,3.7287656E-2,-0E0,-1.5005323E0,1.8788436E-2,-0E0,-5.2629584E-1,4.982105E-1,2.3915629E-1,-3.7536368E-1,-1.4272487E0,-0E0,-0E0,1.0314482E0,-2.015695E-2,-0E0,1.1190684E0,-0E0,-0E0,8.622141E-3,1.5191641E0,-0E0,1.1858442E0,-0E0,-1.8872697E-2,-0E0,-0E0,6.393517E-1,-0E0,-2.520016E-2,-0E0,-8.8432616E-1,-0E0,1.0110413E0,8.027676E-3,-0E0,-0E0,-1.5480934E-2,-2.4042295E-1,-1.5341151E0,1.1659123E0,-0E0,-0E0,1.2655339E0,2.3341546E-2,-0E0,-0E0,1.8906157E-2,1.643716E-3,-1.2362931E-2,-0E0,1.2837871E-2,-0E0,-1.6049953E-2,1.8421317E-2,-0E0,-9.374285E-3,-0E0,-2.3523431E-2,-0E0,1.9600945E-2,-0E0,-0E0,2.0527815E-2],"categories":[],"categories_nodes":[],"categories_segments":[],"categories_sizes":[],"default_left":[1,0,0,0,0,0,0,0,0,1,1,0,0,0,0,0,0,0,0,0,0,0,0,0,1,0,0,0,0,0,0,0,0,0,1,1,0,1,0,0,0,0,0,0,1,0,0,0,0,0,0,0,0,0,0,0,0,1,0,0,0,0,0,0,0,0,0,0,1,0,0,0,0,0,0,0,0,0,0,0,0,0,0,0,0,0,0,0,0,0,0,0,0,0,0,0,0,0,0,0,0],"id":0,"left_children":[1,3,5,7,9,11,13,15,17,19,21,23,25,27,29,31,33,35,37,39,-1,41,43,45,47,49,-1,-1,51,-1,53,55,-1,-1,57,59,-1,61,63,-1,65,-1,-1,67,69,71,73,75,-1,-1,77,-1,-1,79,-1,-1,-1,81,-1,83,-1,-1,-1,85,87,-1,-1,-1,89,-1,91,-1,-1,-1,-1,93,95,97,-1,-1,99,-1,-1,-1,-1,-1,-1,-1,-1,-1,-1,-1,-1,-1,-1,-1,-1,-1,-1,-1,-1],"loss_changes":[5.31681E2,1.0055759E2,1.3446713E2,7.300653E1,5.5654167E1,9.8442535E1,3.265391E1,1.956186E1,2.9842682E1,1.2226513E1,2.420534E1,5.0464844E1,2.7923126E1,1.0842385E1,2.0171093E1,1.2866879E0,7.877777E0,1.3316147E1,1.1114675E1,1.0501118E1,0E0,2.7436028E0,1.3826765E1,4.640984E0,2.1543457E1,1.0260286E1,0E0,0E0,3.5761604E0,0E0,1.6298508E1,2.5645993E0,0E0,0E0,4.024933E0,5.341255E0,0E0,1.3449261E1,6.4620333E0,0E0,9.425758E0,0E0,0E0,9.345029E0,1.4843733E1,2.2854664E0,5.6704836E0,2.0932495E1,0E0,0E0,6.005665E0,0E0,0E0,8.518837E0,0E0,0E0,0E0,4.966797E0,0E0,2.8900414E0,0E0,0E0,0E0,8.635249E0,3.4711695E0,0E0,0E0,0E0,5.0308723E0,0E0,5.1536846E0,0E0,0E0,0E0,0E0,7.4627047E0,1.7387512E1,4.570366E0,0E0,0E0,7.8372803E0,0E0,0E0,0E0,0E0,0E0,0E0,0E0,0E0,0E0,0E0,0E0,0E0,0E0,0E0,0E0,0E0,0E0,0E0,0E0,0E0],"parents":[2147483647,0,0,1,1,2,2,3,3,4,4,5,5,6,6,7,7,8,8,9,9,10,10,11,11,12,12,13,13,14,14,15,15,16,16,17,17,18,18,19,19,21,21,22,22,23,23,24,24,25,25,28,28,30,30,31,31,34,34,35,35,37,37,38,38,40,40,43,43,44,44,45,45,46,46,47,47,50,50,53,53,57,57,59,59,63,63,64,64,68,68,70,70,75,75,76,76,77,77,80,80],"right_children":[2,4,6,8,10,12,14,16,18,20,22,24,26,28,30,32,34,36,38,40,-1,42,44,46,48,50,-1,-1,52,-1,54,56,-1,-1,58,60,-1,62,64,-1,66,-1,-1,68,70,72,74,76,-1,-1,78,-1,-1,80,-1,-1,-1,82,-1,84,-1,-1,-1,86,88,-1,-1,-1,90,-1,92,-1,-1,-1,-1,94,96,98,-1,-1,100,-1,-1,-1,-1,-1,-1,-1,-1,-1,-1,-1,-1,-1,-1,-1,-1,-1,-1,-1,-1],"split_conditions":[1E-1,8.983E-1,2.75E2,3.35823E-1,0E0,4.999E1,1E0,9.72E-2,1.199E1,1.5E1,9.360294E0,5.79929E-1,1.3E1,7.579E-1,3.4E1,8.432E-1,2.42E0,4.1111E0,1.397E-1,1.818E-1,-0E0,1.022E0,4.9E1,6.383E-1,3.571E-1,6.93E0,-1.4623438E-2,-0E0,6.8E1,-2.4033587E-3,2.2231E2,5.95377E-1,-0E0,-0E0,1.25E0,1E0,-0E0,6.9327E2,3.25E0,-0E0,3.89827E-1,1.8788436E-2,-0E0,6.66E0,6.88728E-1,7.881E-1,5.3333E0,5.49E0,-0E0,-0E0,9.796E-1,-2.015695E-2,-0E0,2.1E1,-0E0,-0E0,8.622141E-3,1.6312776E2,-0E0,2.8E1,-0E0,-1.8872697E-2,-0E0,7.43E-1,1.3285107E1,-0E0,-2.520016E-2,-0E0,2.28571E-1,-0E0,7.253217E1,8.027676E-3,-0E0,-0E0,-1.5480934E-2,1E0,6.1769E4,5E0,-0E0,-0E0,1.8519E0,2.3341546E-2,-0E0,-0E0,1.8906157E-2,1.643716E-3,-1.2362931E-2,-0E0,1.2837871E-2,-0E0,-1.6049953E-2,1.8421317E-2,-0E0,-9.374285E-3,-0E0,-2.3523431E-2,-0E0,1.9600945E-2,-0E0,-0E0,2.0527815E-2],"split_indices":[8,36,30,61,51,46,25,18,45,31,4,62,3,36,35,37,13,31,18,44,0,50,48,11,40,12,0,0,0,0,10,63,0,0,50,51,0,10,31,0,63,0,0,45,62,36,31,45,0,0,36,0,0,48,0,0,0,5,0,35,0,0,0,36,5,0,0,0,59,0,5,0,0,0,0,34,35,2,0,0,31,0,0,0,0,0,0,0,0,0,0,0,0,0,0,0,0,0,0,0,0],"split_type":[0,0,0,0,0,0,0,0,0,0,0,0,0,0,0,0,0,0,0,0,0,0,0,0,0,0,0,0,0,0,0,0,0,0,0,0,0,0,0,0,0,0,0,0,0,0,0,0,0,0,0,0,0,0,0,0,0,0,0,0,0,0,0,0,0,0,0,0,0,0,0,0,0,0,0,0,0,0,0,0,0,0,0,0,0,0,0,0,0,0,0,0,0,0,0,0,0,0,0,0,0],"sum_hessian":[9.304723E2,4.591949E2,4.7127737E2,3.4263242E2,1.1656247E2,3.8195242E2,8.932498E1,2.2087245E2,1.2175997E2,3.6229992E1,8.033248E1,3.405374E2,4.141499E1,2.0234995E1,6.908998E1,2.2454994E1,1.9841745E2,5.835499E1,6.3404984E1,3.348749E1,2.7424994E0,2.7669994E1,5.2662487E1,4.093749E1,2.995999E2,3.2914993E1,8.499998E0,3.739999E0,1.6494995E1,7.994998E0,6.1094986E1,1.7209995E1,5.244999E0,4.242499E0,1.9417496E2,4.462749E1,1.3727497E1,1.9237495E1,4.416749E1,3.992499E0,2.9494993E1,2.4924994E1,2.7449994E0,2.6224995E1,2.6437494E1,1.3467497E1,2.7469994E1,2.8711993E2,1.2479997E1,2.2499995E0,3.0664993E1,1.3249997E1,3.2449992E0,5.1857487E1,9.237497E0,5.492499E0,1.1717497E1,1.9043245E2,3.742499E0,4.1382492E1,3.2449992E0,1.5747497E1,3.4899993E0,2.8209993E1,1.5957497E1,2.4949994E0,2.6999994E1,4.9874988E0,2.1237495E1,5.4974985E0,2.0939995E1,1.0719997E1,2.7474995E0,1.8469995E1,8.999998E0,3.0462492E1,2.5665744E2,2.8417494E1,2.2474995E0,5.989999E0,4.586749E1,1.8444496E2,5.9874988E0,2.7449994E0,3.863749E1,1.5714996E1,1.2494997E1,2.2474995E0,1.3709997E1,2.2449994E0,1.8992495E1,1.7694996E1,3.2449992E0,2.3729994E1,6.732498E0,2.5391493E2,2.7424994E0,2.5422495E1,2.9949994E0,2.2474995E0,4.361999E1],"tree_param":{"num_deleted":"0","num_feature":"76","num_nodes":"101","size_leaf_vector":"1"}},{"base_weights":[-0E0,6.1165977E-1,-9.3372756E-1,-2.1727021E-1,9.804902E-1,5.615494E-1,-1.1487627E0,3.3090648E-1,-1.1804262E0,1.0502132E-1,1.1750166E0,-0E0,1.1143168E0,-6.163818E-1,-1.7536675E0,5.821244E-1,-7.834062E-1,-0E0,-1.4507675E0,8.1538576E-1,-1.7858294E-1,1.3713986E0,3.6090773E-1,2.0891504E-2,-0E0,-1.1867098E0,-1.6746803E-1,-0E0,-1.7897143E0,8.672828E-1,-0E0,-0E0,-1.6658572E-2,6.442525E-3,-6.7397347E-4,-1.626981E0,-0E0,1.0281507E0,-0E0,1.0190168E-1,-1.0684254E0,-0E0,1.4745278E0,6.340565E-1,-0E0,-0E0,-1.2943859E0,-7.205636E-1,1.7579259E-1,-1.8082854E0,-0E0,1.0704939E0,-0E0,-0E0,-3.5030133E-1,-1.6731948E0,-0E0,1.1445179E0,-0E0,-0E0,5.890716E-1,-2.1099815E-2,-0E0,6.2905927E-3,-9.343928E-3,1.5244063E0,-0E0,-0E0,7.752325E-1,-0E0,-1.3884863E0,-9.447227E-1,-0E0,5.1294136E-1,-1.0320233E-2,-0E0,-2.7473567E-2,-0E0,1.731647E-2,-1.2640415E-2,-0E0,-2.5918843E-2,-0E0,1.902706E-2,-0E0,-8.033295E-3,-0E0,-0E0,1.3149185E-2,-0E0,2.4156839E-2,-0E0,1.4909503E-2,-2.2058148E-2,-0E0,-0E0,-1.6614877E-2,1.3949806E-2,-5.3628758E-3],"categories":[],"categories_nodes":[],"categories_segments":[],"categories_sizes":[],"default_left":[1,0,0,1,0,0,1,0,0,0,1,0,0,0,0,0,0,0,1,0,1,0,0,0,0,0,0,0,0,1,1,0,0,0,0,1,0,0,0,1,0,1,0,0,0,0,1,0,1,0,0,1,0,0,0,1,0,0,0,0,0,0,0,0,0,0,0,0,0,0,1,0,0,0,0,0,0,0,0,0,0,0,0,0,0,0,0,0,0,0,0,0,0,0,0,0,0,0,0],"id":1,"left_children":[1,3,5,7,9,11,13,15,17,19,21,-1,23,25,27,29,31,33,35,37,39,41,43,-1,-1,45,47,-1,49,51,53,-1,-1,-1,-1,55,-1,57,-1,59,61,63,65,67,-1,-1,69,71,73,75,-1,77,-1,-1,79,81,-1,83,-1,85,87,-1,-1,-1,-1,89,-1,-1,91,-1,93,95,-1,97,-1,-1,-1,-1,-1,-1,-1,-1,-1,-1,-1,-1,-1,-1,-1,-1,-1,-1,-1,-1,-1,-1,-1,-1,-1],"loss_changes":[5.3196045E2,1.8068364E2,1.2277408E2,9.6109085E1,5.7157867E1,1.9291985E1,8.39812E1,2.6598206E1,2.4867477E1,2.1894207E1,3.6063385E1,0E0,8.699451E0,3.4406113E1,6.456726E0,2.0654785E1,4.758783E0,1.1528816E0,1.4504799E1,1.0140835E1,2.0707975E1,3.842804E1,1.1727224E1,0E0,0E0,8.501808E0,2.555814E1,0E0,2.054535E0,1.2595776E1,1.7777413E0,0E0,0E0,0E0,0E0,1.3326874E0,0E0,3.5777493E0,0E0,6.5250683E0,7.5704403E0,4.5905175E0,2.3289978E1,8.118599E0,0E0,0E0,7.1948013E0,1.3957327E1,1.5312546E1,1.145752E0,0E0,4.3522987E0,0E0,0E0,5.464105E0,1.5174408E0,0E0,1.7770691E0,0E0,2.2828894E0,5.9368157E0,0E0,0E0,0E0,0E0,1.7501343E1,0E0,0E0,9.164522E0,0E0,8.071671E0,8.617897E0,0E0,2.2616714E1,0E0,0E0,0E0,0E0,0E0,0E0,0E0,0E0,0E0,0E0,0E0,0E0,0E0,0E0,0E0,0E0,0E0,0E0,0E0,0E0,0E0,0E0,0E0,0E0,0E0],"parents":[2147483647,0,0,1,1,2,2,3,3,4,4,5,5,6,6,7,7,8,8,9,9,10,10,12,12,13,13,14,14,15,15,16,16,17,17,18,18,19,19,20,20,21,21,22,22,25,25,26,26,28,28,29,29,30,30,35,35,37,37,39,39,40,40,41,41,42,42,43,43,46,46,47,47,48,48,49,49,51,51,54,54,55,55,57,57,59,59,60,60,65,65,68,68,70,70,71,71,73,73],"right_children":[2,4,6,8,10,12,14,16,18,20,22,-1,24,26,28,30,32,34,36,38,40,42,44,-1,-1,46,48,-1,50,52,54,-1,-1,-1,-1,56,-1,58,-1,60,62,64,66,68,-1,-1,70,72,74,76,-1,78,-1,-1,80,82,-1,84,-1,86,88,-1,-1,-1,-1,90,-1,-1,92,-1,94,96,-1,98,-1,-1,-1,-1,-1,-1,-1,-1,-1,-1,-1,-1,-1,-1,-1,-1,-1,-1,-1,-1,-1,-1,-1,-1,-1],"split_conditions":[5.77977E-1,0E0,6.585E-1,5E0,1.3333E0,2.06E2,5.1E1,5.60337E-1,3.8836E-1,6.829E-1,7.17E-1,-0E0,2E0,0E0,3.49E0,8.983E-1,6.49E0,7.872E-1,6.836364E1,4.87E2,1.0714797E0,2.1E1,8.07598E-1,2.0891504E-2,-0E0,5.425E1,5.7E1,-0E0,9.96164E-1,2.1911E2,4.45E0,-0E0,-1.6658572E-2,6.442525E-3,-6.7397347E-4,1.4203E4,-0E0,1.0417E0,-0E0,8.238E-1,7.12E2,3.067E1,1.3E1,5.9E1,-0E0,-0E0,5E-1,2.8E2,8.04E-1,3.648E-1,-0E0,2E1,-0E0,-0E0,1E0,1.982E-1,-0E0,4.89216E-1,-0E0,5.7E2,1.27E2,-2.1099815E-2,-0E0,6.2905927E-3,-9.343928E-3,7.11E0,-0E0,-0E0,4.361E1,-0E0,5.758125E-1,1.1E1,-0E0,9.438E-1,-1.0320233E-2,-0E0,-2.7473567E-2,-0E0,1.731647E-2,-1.2640415E-2,-0E0,-2.5918843E-2,-0E0,1.902706E-2,-0E0,-8.033295E-3,-0E0,-0E0,1.3149185E-2,-0E0,2.4156839E-2,-0E0,1.4909503E-2,-2.2058148E-2,-0E0,-0E0,-1.6614877E-2,1.3949806E-2,-5.3628758E-3],"split_indices":[59,51,36,24,31,53,17,58,58,39,50,0,27,51,45,36,46,39,4,6,52,35,62,0,0,10,6,0,61,10,4,0,0,0,0,17,0,31,0,39,4,10,3,30,0,0,38,30,50,20,0,48,0,0,65,18,0,59,0,35,10,0,0,0,0,12,0,0,16,0,57,30,0,36,0,0,0,0,0,0,0,0,0,0,0,0,0,0,0,0,0,0,0,0,0,0,0,0,0],"split_type":[0,0,0,0,0,0,0,0,0,0,0,0,0,0,0,0,0,0,0,0,0,0,0,0,0,0,0,0,0,0,0,0,0,0,0,0,0,0,0,0,0,0,0,0,0,0,0,0,0,0,0,0,0,0,0,0,0,0,0,0,0,0,0,0,0,0,0,0,0,0,0,0,0,0,0,0,0,0,0,0,0,0,0,0,0,0,0,0,0,0,0,0,0,0,0,0,0,0,0],"sum_hessian":[9.3509546E2,5.6919867E2,3.6589676E2,1.6799084E2,4.0120782E2,4.090192E1,3.2499484E2,1.01286064E2,6.670478E1,8.109484E1,3.2011298E2,1.4978796E1,2.5923126E1,1.80533E2,1.4446184E2,8.904245E1,1.2243618E1,1.0729112E1,5.597567E1,3.1915907E1,4.9178932E1,2.4926598E2,7.0847015E1,2.1180956E1,4.742169E0,7.095242E1,1.0958058E2,3.7449007E0,1.4071693E2,6.75743E1,2.1468142E1,2.2448952E0,9.998723E0,6.229667E0,4.4994445E0,4.99865E1,5.989171E0,2.9666033E1,2.2498734E0,2.9937988E1,1.9240944E1,1.5974129E1,2.3329184E2,5.2123367E1,1.872365E1,6.2394457E0,6.4712975E1,5.1697586E1,5.7882996E1,1.3846977E2,2.2471664E0,5.534527E1,1.2229039E1,6.9821177E0,1.4486024E1,4.7739338E1,2.2471611E0,2.6671242E1,2.994791E0,1.0239328E1,1.969866E1,1.4998736E1,4.242208E0,7.477012E0,8.497117E0,2.2829724E2,4.994604E0,3.7471611E0,4.8376205E1,4.7424316E0,5.9970543E1,4.5712986E1,5.9845986E0,4.8886337E1,8.996655E0,2.4971411E0,1.3597263E2,4.242008E0,5.110326E1,1.02464E1,4.239624E0,4.5492085E1,2.247253E0,2.292889E1,3.7423525E0,7.9970117E0,2.2423172E0,2.9973092E0,1.6701351E1,1.5966606E1,2.1233063E2,9.484417E0,3.889179E1,5.7475883E1,2.4946604E0,5.2393737E0,4.0473614E1,3.989195E1,8.9943905E0],"tree_param":{"num_deleted":"0","num_feature":"76","num_nodes":"99","size_leaf_vector":"1"}},{"base_weights":[-0E0,7.668464E-1,-7.876284E-1,4.2664977E-3,1.0383929E0,-2.439337E-1,-1.3659697E0,5.910793E-1,-1.0330697E0,-0E0,1.1082422E0,-6.0376924E-1,5.21224E-1,2.3339958E-1,-1.5128175E0,8.8156444E-1,-2.813976E-1,-0E0,-1.3305604E0,2.4527E-3,-9.952221E-3,1.1901658E0,-0E0,-0E0,-9.593883E-1,-5.7199453E-3,7.566075E-1,1.0313634E-2,-0E0,-0E0,-1.561451E0,1.0696945E0,-0E0,-1.1519049E-2,-0E0,-1.5280964E0,-0E0,-0E0,1.2672083E0,1.4193778E-1,-7.3121035E-1,-1.1694721E0,-0E0,9.353116E-1,-0E0,-1.6011709E0,-0E0,-0E0,1.2041517E0,-0E0,-2.5326869E-2,1.3108006E0,-0E0,-0E0,6.477715E-1,-1.593582E-2,-0E0,-1.3703586E0,-0E0,-0E0,4.355253E-1,-0E0,1.0917578E0,-0E0,-1.6397353E0,-0E0,2.003075E-2,2.0171743E-2,-0E0,3.0825988E-3,-9.307995E-3,-0E0,1.2669128E-2,-0E0,-2.1902833E-2,-0E0,1.267886E-2,1.8718723E-2,-0E0,-2.505967E-2,-0E0],"categories":[],"categories_nodes":[],"categories_segments":[],"categories_sizes":[],"default_left":[1,0,1,1,0,0,0,1,0,0,0,0,0,0,0,0,0,0,1,0,0,0,0,0,0,0,0,0,0,0,0,0,0,0,0,0,0,0,1,0,0,0,0,0,0,0,0,0,0,0,0,0,0,0,0,0,0,0,0,0,0,0,1,0,0,0,0,0,0,0,0,0,0,0,0,0,0,0,0,0,0],"id":2,"left_children":[1,3,5,7,9,11,13,15,17,19,21,23,25,27,29,31,33,-1,35,-1,-1,37,-1,39,41,-1,43,-1,-1,-1,45,47,-1,-1,-1,49,-1,-1,51,53,55,57,59,61,-1,63,-1,-1,65,-1,-1,67,-1,69,71,-1,-1,73,-1,-1,75,-1,77,-1,79,-1,-1,-1,-1,-1,-1,-1,-1,-1,-1,-1,-1,-1,-1,-1,-1],"loss_changes":[5.794472E2,9.246594E1,1.3346622E2,7.967756E1,3.027951E1,6.943907E1,6.2726807E1,2.881184E1,1.8279186E1,4.0909815E0,2.8395996E1,3.2065536E1,1.857936E1,3.4877481E0,1.9868164E1,1.2952034E1,4.473631E0,0E0,1.2724861E1,0E0,0E0,2.509317E1,0E0,1.1225932E1,2.8942177E1,0E0,1.4357666E1,0E0,0E0,0E0,1.8934662E1,6.1244736E0,0E0,0E0,0E0,9.731201E0,0E0,0E0,1.3656158E1,9.386627E0,7.812771E0,2.2064522E1,1.8915095E0,1.5083324E1,0E0,1.5494598E1,0E0,0E0,9.304077E0,0E0,0E0,1.3244232E1,0E0,7.1607637E0,5.287813E0,0E0,0E0,1.0725052E1,0E0,0E0,3.423246E0,0E0,4.5144043E0,0E0,1.0438782E1,0E0,0E0,0E0,0E0,0E0,0E0,0E0,0E0,0E0,0E0,0E0,0E0,0E0,0E0,0E0,0E0],"parents":[2147483647,0,0,1,1,2,2,3,3,4,4,5,5,6,6,7,7,8,8,9,9,10,10,11,11,12,12,13,13,14,14,15,15,16,16,18,18,21,21,23,23,24,24,26,26,30,30,31,31,35,35,38,38,39,39,40,40,41,41,42,42,43,43,45,45,48,48,51,51,53,53,54,54,57,57,60,60,62,62,64,64],"right_children":[2,4,6,8,10,12,14,16,18,20,22,24,26,28,30,32,34,-1,36,-1,-1,38,-1,40,42,-1,44,-1,-1,-1,46,48,-1,-1,-1,50,-1,-1,52,54,56,58,60,62,-1,64,-1,-1,66,-1,-1,68,-1,70,72,-1,-1,74,-1,-1,76,-1,78,-1,80,-1,-1,-1,-1,-1,-1,-1,-1,-1,-1,-1,-1,-1,-1,-1,-1],"split_conditions":[1E-1,0E0,2.3E1,5E0,1.7E1,3.63E2,3.919E-1,9E-1,7.32E-1,5.49E0,1.6E1,1.1333E2,3.4E1,4.25324E-1,3.65812E-1,4.84758E-1,1.165E2,-0E0,9.9E1,2.4527E-3,-9.952221E-3,1.46E2,-0E0,9.474E-1,1E0,-5.7199453E-3,9.438E-1,1.0313634E-2,-0E0,-0E0,6.1769E4,2.38E-1,-0E0,-1.1519049E-2,-0E0,2.04E0,-0E0,-0E0,9.455E-1,1.57E2,1.02E2,3.5732665E0,1.38E2,9.375E-1,-0E0,5.455E-1,-0E0,-0E0,1.0444445E1,-0E0,-2.5326869E-2,6.12E2,-0E0,7.183E-1,5.51E-1,-1.593582E-2,-0E0,1.25E-1,-0E0,-0E0,3.3E1,-0E0,7.23E-1,-0E0,1E0,-0E0,2.003075E-2,2.0171743E-2,-0E0,3.0825988E-3,-9.307995E-3,-0E0,1.2669128E-2,-0E0,-2.1902833E-2,-0E0,1.267886E-2,1.8718723E-2,-0E0,-2.505967E-2,-0E0],"split_indices":[8,51,17,24,35,53,37,36,36,45,47,10,35,61,59,58,4,0,4,0,0,53,0,39,34,0,36,0,0,0,35,50,0,0,0,14,0,0,57,30,10,52,53,31,0,36,0,0,4,0,0,6,0,36,38,0,0,37,0,0,43,0,50,0,72,0,0,0,0,0,0,0,0,0,0,0,0,0,0,0,0],"split_type":[0,0,0,0,0,0,0,0,0,0,0,0,0,0,0,0,0,0,0,0,0,0,0,0,0,0,0,0,0,0,0,0,0,0,0,0,0,0,0,0,0,0,0,0,0,0,0,0,0,0,0,0,0,0,0,0,0,0,0,0,0,0,0,0,0,0,0,0,0,0,0,0,0,0,0,0,0,0,0,0,0],"sum_hessian":[9.595907E2,4.9046323E2,4.6912744E2,1.3722607E2,3.5323718E2,2.4958374E2,2.195437E2,9.3018135E1,4.4207935E1,1.847045E1,3.3476672E2,1.7750891E2,7.207484E1,1.3465801E1,2.0607791E2,7.728659E1,1.5731545E1,7.233897E0,3.6974037E1,9.723679E0,8.746772E0,3.1031293E2,2.44538E1,7.2368996E1,1.05139915E2,7.2469344E0,6.48279E1,8.971543E0,4.4942584E0,4.488353E0,2.0158955E2,6.3810837E1,1.3475749E1,9.744529E0,5.987017E0,3.3481827E1,3.492209E0,2.0958961E1,2.8935397E2,5.338575E1,1.8983242E1,9.191954E1,1.3220378E1,5.883389E1,5.9940147E0,1.990975E2,2.4920487E0,9.231221E0,5.4579617E1,2.4943101E0,3.0987518E1,2.7837625E2,1.0977709E1,2.8453722E1,2.493203E1,1.5991772E1,2.9914706E0,7.869451E1,1.3225024E1,3.2495847E0,9.970793E0,2.9992187E0,5.583467E1,3.4921904E0,1.9560532E2,4.74113E0,4.9838486E1,2.7313403E2,5.242219E0,1.0971248E1,1.7482475E1,2.7470639E0,2.2184965E1,3.9921336E0,7.470238E1,2.4968698E0,7.473923E0,4.585643E1,9.97824E0,1.9311154E2,2.4937785E0],"tree_param":{"num_deleted":"0","num_feature":"76","num_nodes":"81","size_leaf_vector":"1"}},{"base_weights":[4.4648675E-3,6.4268464E-1,-9.860247E-1,-1.4075398E-1,9.728476E-1,-4.7690362E-1,-1.5637661E0,5.346411E-1,-6.873151E-1,1.0590231E0,-6.8855524E-1,-8.8787156E-1,-0E0,-0E0,-1.690767E0,7.921302E-1,-0E0,5.3215932E-2,-1.0276628E0,1.2387762E0,3.3191445E-1,-1.777128E-2,-0E0,-1.089642E0,-0E0,2.2140516E-1,-1.729022E-2,-1.7411876E0,-0E0,9.4798106E-1,-0E0,-0E0,-1.0766042E-2,1.1224676E-2,-0E0,-0E0,-1.2234185E0,-0E0,1.2808996E0,6.062514E-1,-1.5634598E-1,-1.2775958E0,-0E0,-2.0789245E-1,7.437936E-1,-1.7771661E0,-0E0,-0E0,1.7213585E-2,-0E0,-1.3215821E0,1.3125324E0,-0E0,-0E0,8.723786E-1,-0E0,-7.8570557E-1,-1.380124E0,-0E0,-7.96429E-1,1.4619958E-1,9.719394E-1,-0E0,-2.727233E-2,-0E0,-2.130151E-2,-0E0,2.0446097E-2,-0E0,1.5583269E-2,-0E0,-0E0,-1.666144E-2,-0E0,-2.1751838E-2,-0E0,-1.7853813E-2,6.511286E-3,-0E0,-0E0,1.7442072E-2],"categories":[],"categories_nodes":[],"categories_segments":[],"categories_sizes":[],"default_left":[1,0,1,1,1,0,0,1,0,1,0,0,1,0,0,1,0,1,0,1,1,0,0,0,0,0,0,0,0,1,0,0,0,0,0,0,0,0,0,0,1,0,0,0,0,0,0,0,0,0,1,0,0,0,0,0,0,0,0,1,1,0,0,0,0,0,0,0,0,0,0,0,0,0,0,0,0,0,0,0,0],"id":3,"left_children":[1,3,5,7,9,11,13,15,17,19,21,23,25,-1,27,29,31,33,35,37,39,-1,-1,41,-1,43,-1,45,-1,47,-1,-1,-1,-1,-1,-1,49,-1,51,53,55,57,-1,59,61,63,-1,-1,-1,-1,65,67,-1,-1,69,-1,71,73,-1,75,77,79,-1,-1,-1,-1,-1,-1,-1,-1,-1,-1,-1,-1,-1,-1,-1,-1,-1,-1,-1],"loss_changes":[6.084435E2,1.6079633E2,9.210257E1,6.3404522E1,6.414264E1,3.802479E1,4.5505554E1,1.5892891E1,3.3726406E1,3.980899E1,7.781211E0,2.8231522E1,2.7744995E1,0E0,1.3863495E1,1.2583374E1,3.5872843E0,6.0442023E0,2.2580292E1,2.5624908E1,1.6085453E1,0E0,0E0,1.4745155E1,0E0,2.2799149E1,0E0,1.2444183E1,0E0,7.580662E0,0E0,0E0,0E0,0E0,0E0,0E0,1.1616753E1,0E0,2.056488E1,1.768372E1,7.1915054E0,9.010376E0,0E0,1.3007332E1,1.266946E1,1.0943085E1,0E0,0E0,0E0,0E0,7.14711E0,1.4760315E1,0E0,0E0,1.1355347E1,0E0,4.8693066E0,8.820084E0,0E0,1.2160162E1,1.5978148E0,7.694771E0,0E0,0E0,0E0,0E0,0E0,0E0,0E0,0E0,0E0,0E0,0E0,0E0,0E0,0E0,0E0,0E0,0E0,0E0,0E0],"parents":[2147483647,0,0,1,1,2,2,3,3,4,4,5,5,6,6,7,7,8,8,9,9,10,10,11,11,12,12,14,14,15,15,16,16,17,17,18,18,19,19,20,20,23,23,25,25,27,27,29,29,36,36,38,38,39,39,40,40,41,41,43,43,44,44,45,45,50,50,51,51,54,54,56,56,57,57,59,59,60,60,61,61],"right_children":[2,4,6,8,10,12,14,16,18,20,22,24,26,-1,28,30,32,34,36,38,40,-1,-1,42,-1,44,-1,46,-1,48,-1,-1,-1,-1,-1,-1,50,-1,52,54,56,58,-1,60,62,64,-1,-1,-1,-1,66,68,-1,-1,70,-1,72,74,-1,76,78,80,-1,-1,-1,-1,-1,-1,-1,-1,-1,-1,-1,-1,-1,-1,-1,-1,-1,-1,-1],"split_conditions":[5.77977E-1,0E0,3.1E1,6.72682E-1,1.34E0,2.14E2,5.455E-1,3.648E-1,4.7992E-1,1.111E-1,3.2624E0,6.3E1,9.369E-1,-0E0,2.6632E4,1.3875E0,5.49E0,1.1375705E1,1.1667E-2,3.056E-1,9.2E-3,-1.777128E-2,-0E0,2.85E1,-0E0,7.25967E-1,-1.729022E-2,7.24E2,-0E0,2E1,-0E0,-0E0,-1.0766042E-2,1.1224676E-2,-0E0,-0E0,-2.383E-1,-0E0,6E0,3.6E1,2E1,4.0123E0,-0E0,3.2E1,1E0,6.325E1,-0E0,-0E0,1.7213585E-2,-0E0,4.6E1,1.6E1,-0E0,-0E0,5.8E1,-0E0,3.5E1,2.211E1,-0E0,2.857E-1,5E-1,0E0,-0E0,-2.727233E-2,-0E0,-2.130151E-2,-0E0,2.0446097E-2,-0E0,1.5583269E-2,-0E0,-0E0,-1.666144E-2,-0E0,-2.1751838E-2,-0E0,-1.7853813E-2,6.511286E-3,-0E0,-0E0,1.7442072E-2],"split_indices":[59,51,17,62,50,53,36,20,63,8,11,0,36,0,35,11,45,5,61,36,18,0,0,4,0,63,0,30,0,48,0,0,0,0,0,0,40,0,27,35,48,11,0,0,73,4,0,0,0,0,48,47,0,0,4,0,17,10,0,8,29,51,0,0,0,0,0,0,0,0,0,0,0,0,0,0,0,0,0,0,0],"split_type":[0,0,0,0,0,0,0,0,0,0,0,0,0,0,0,0,0,0,0,0,0,0,0,0,0,0,0,0,0,0,0,0,0,0,0,0,0,0,0,0,0,0,0,0,0,0,0,0,0,0,0,0,0,0,0,0,0,0,0,0,0,0,0,0,0,0,0,0,0,0,0,0,0,0,0,0,0,0,0,0,0],"sum_hessian":[9.672351E2,5.9357544E2,3.7365964E2,1.6814958E2,4.2542587E2,2.0665459E2,1.6700505E2,6.807023E1,1.0007936E2,4.0944067E2,1.5985192E1,1.0785655E2,9.8798035E1,8.228584E0,1.5877647E2,5.633694E1,1.1733288E1,2.3441029E1,7.663833E1,3.1866162E2,9.077905E1,1.099552E1,4.9896736E0,9.538802E1,1.2468533E1,8.0811745E1,1.7986286E1,1.542868E2,4.4896746E0,5.3337605E1,2.9993367E0,4.7368884E0,6.9964E0,1.0964361E1,1.2476667E1,7.4774213E0,6.9160904E1,4.9960785E0,3.1366556E2,6.956342E1,2.1215631E1,7.841975E1,1.6968275E1,3.5190483E1,4.562126E1,1.5204306E2,2.2437313E0,1.0978473E1,4.235913E1,3.2416306E0,6.591927E1,3.1066592E2,2.9996374E0,1.2732779E1,5.6830643E1,8.727412E0,1.2488219E1,7.193139E1,6.4883595E0,2.2474756E1,1.2715729E1,4.0128452E1,5.4928093E0,1.4929977E2,2.7432902E0,6.0929844E1,4.9894323E0,2.974427E2,1.322323E1,5.0841156E1,5.9894867E0,2.2439532E0,1.0244266E1,2.2443419E0,6.968704E1,3.7384877E0,1.8736269E1,9.969317E0,2.7464116E0,6.2373524E0,3.38911E1],"tree_param":{"num_deleted":"0","num_feature":"76","num_nodes":"81","size_leaf_vector":"1"}},{"base_weights":[1.6988814E-2,7.265187E-1,-7.2862786E-1,-5.533839E-2,1.0376861E0,-3.015602E-1,-1.3567158E0,3.835689E-1,-9.130353E-1,1.3415927E0,4.0192628E-1,-8.7798166E-1,6.323391E-3,-0E0,-1.6666286E0,7.676564E-1,-4.1742796E-1,-0E0,-1.1657846E0,1.404766E0,-0E0,6.560419E-1,-1.335763E-1,-0E0,-1.0922916E0,-4.9689436E-1,5.0805485E-1,-3.491526E-1,3.4889272E-1,-1.7421945E0,-0E0,-0E0,9.173719E-1,-7.2685343E-1,-0E0,-0E0,-1.3013021E0,1.4476889E0,-0E0,7.914657E-1,-0E0,-0E0,-5.6691086E-1,3.3231825E-1,-2.1614508E-4,-0E0,-1.2481734E0,-0E0,-6.769459E-1,8.3216286E-1,-1.0908361E-1,-8.402668E-1,-0E0,1.3465941E-2,-0E0,-0E0,-1.761193E0,1.0587529E0,-0E0,-1.4611633E-2,-0E0,-0E0,-1.4097655E0,1.4696366E0,-0E0,5.69515E-2,1.1284568E0,-1.6007192E-2,-0E0,-0E0,8.983205E-3,-1.3289809E0,-0E0,-0E0,-8.5346043E-1,-1.3201098E-1,1.183392E0,-5.9741414E-1,-0E0,-0E0,-1.8617189E-2,-2.6760247E-2,-0E0,-0E0,1.6983557E-2,-0E0,-2.3155136E-2,-0E0,2.2449633E-2,7.841557E-3,-9.030582E-4,1.9965354E-2,-0E0,-0E0,-2.0810181E-2,-1.604459E-2,-0E0,-0E0,-8.305017E-3,-0E0,1.854093E-2,-1.4945754E-2,-0E0],"categories":[],"categories_nodes":[],"categories_segments":[],"categories_sizes":[],"default_left":[1,0,1,1,1,0,0,0,0,0,0,0,0,0,0,1,0,0,0,0,0,0,0,0,0,0,1,0,0,0,0,0,0,1,0,0,0,0,0,0,0,0,0,0,0,0,0,0,1,0,0,0,0,0,0,0,0,0,0,0,0,0,0,0,0,0,0,0,0,0,0,0,0,0,0,0,0,1,0,0,0,0,0,0,0,0,0,0,0,0,0,0,0,0,0,0,0,0,0,0,0,0,0],"id":4,"left_children":[1,3,5,7,9,11,13,15,17,19,21,23,25,27,29,31,33,-1,35,37,-1,39,41,43,45,47,49,51,53,55,-1,-1,57,59,-1,-1,61,63,-1,65,-1,-1,67,69,-1,-1,71,-1,73,75,77,79,-1,-1,-1,-1,81,83,-1,-1,-1,-1,85,87,-1,89,91,-1,-1,-1,-1,93,-1,-1,95,97,99,101,-1,-1,-1,-1,-1,-1,-1,-1,-1,-1,-1,-1,-1,-1,-1,-1,-1,-1,-1,-1,-1,-1,-1,-1,-1],"loss_changes":[5.0931387E2,1.300477E2,1.0984271E2,5.5126297E1,5.5337463E1,5.8031525E1,7.1749176E1,2.829011E1,1.4515591E1,1.7136108E1,2.1892937E1,2.5106209E1,4.4368942E1,4.222259E0,2.5158386E1,1.226907E1,4.30175E0,0E0,5.822422E0,1.4539459E1,0E0,1.2849224E1,4.763201E0,1.4327497E0,1.8945892E1,7.9795876E0,2.5608057E1,8.956453E0,7.460062E0,2.4094238E0,0E0,0E0,5.734417E0,3.6699286E0,0E0,0E0,4.139889E0,9.189331E0,0E0,1.1305252E1,0E0,0E0,8.862637E0,2.3047829E0,0E0,0E0,1.0493492E1,0E0,9.642199E0,3.3736233E1,5.1506433E0,8.060968E0,0E0,0E0,0E0,0E0,1.1578674E0,3.776451E0,0E0,0E0,0E0,0E0,4.2538147E0,6.1332397E0,0E0,5.964044E0,1.5251717E1,0E0,0E0,0E0,0E0,5.9616394E0,0E0,0E0,8.110882E0,2.9027104E0,3.0053482E0,6.655772E0,0E0,0E0,0E0,0E0,0E0,0E0,0E0,0E0,0E0,0E0,0E0,0E0,0E0,0E0,0E0,0E0,0E0,0E0,0E0,0E0,0E0,0E0,0E0,0E0,0E0],"parents":[2147483647,0,0,1,1,2,2,3,3,4,4,5,5,6,6,7,7,8,8,9,9,10,10,11,11,12,12,13,13,14,14,15,15,16,16,18,18,19,19,21,21,22,22,23,23,24,24,25,25,26,26,27,27,28,28,29,29,32,32,33,33,36,36,37,37,39,39,42,42,43,43,46,46,48,48,49,49,50,50,51,51,56,56,57,57,62,62,63,63,65,65,66,66,71,71,74,74,75,75,76,76,77,77],"right_children":[2,4,6,8,10,12,14,16,18,20,22,24,26,28,30,32,34,-1,36,38,-1,40,42,44,46,48,50,52,54,56,-1,-1,58,60,-1,-1,62,64,-1,66,-1,-1,68,70,-1,-1,72,-1,74,76,78,80,-1,-1,-1,-1,82,84,-1,-1,-1,-1,86,88,-1,90,92,-1,-1,-1,-1,94,-1,-1,96,98,100,102,-1,-1,-1,-1,-1,-1,-1,-1,-1,-1,-1,-1,-1,-1,-1,-1,-1,-1,-1,-1,-1,-1,-1,-1,-1],"split_conditions":[2.378E-1,0E0,7.2E1,5E0,5.93E-1,0E0,7.078E-1,8.983E-1,4.7225E-1,9.928E-1,8.886E-1,6.471E-1,2.8E1,4.1E1,9.16E1,2E1,1.165E2,-0E0,1.83086E-1,6.12E2,-0E0,1E0,6.996997E-1,1.899E1,5.425E1,5.49E0,6.83E-1,2.58E2,9.8E1,3.4771984E0,-0E0,-0E0,3.7E1,9.835E-1,-0E0,-0E0,-1.4E-1,7.10605E-1,-0E0,1.6525E2,-0E0,-0E0,1E0,9.628311E0,-2.1614508E-4,-0E0,6.775E1,-0E0,6.038E-1,3.4E1,2.149E-1,5.10215E-1,-0E0,1.3465941E-2,-0E0,-0E0,3.3035E4,5.789E-1,-0E0,-1.4611633E-2,-0E0,-0E0,2.38E0,3.82E0,-0E0,9.733E1,8.684E-1,-1.6007192E-2,-0E0,-0E0,8.983205E-3,1.64E0,-0E0,-0E0,6.9E1,5.105E-1,2.17E0,1.7411E0,-0E0,-0E0,-1.8617189E-2,-2.6760247E-2,-0E0,-0E0,1.6983557E-2,-0E0,-2.3155136E-2,-0E0,2.2449633E-2,7.841557E-3,-9.030582E-4,1.9965354E-2,-0E0,-0E0,-2.0810181E-2,-1.604459E-2,-0E0,-0E0,-8.305017E-3,-0E0,1.854093E-2,-1.4945754E-2,-0E0],"split_indices":[11,51,17,24,50,51,39,36,63,36,39,38,0,0,4,48,4,0,60,6,0,73,52,45,10,45,50,30,6,5,0,0,43,57,0,0,40,58,0,10,0,0,26,5,0,0,4,0,36,35,40,63,0,0,0,0,17,31,0,0,0,0,14,12,0,10,36,0,0,0,0,16,0,0,43,36,15,44,0,0,0,0,0,0,0,0,0,0,0,0,0,0,0,0,0,0,0,0,0,0,0,0,0],"split_type":[0,0,0,0,0,0,0,0,0,0,0,0,0,0,0,0,0,0,0,0,0,0,0,0,0,0,0,0,0,0,0,0,0,0,0,0,0,0,0,0,0,0,0,0,0,0,0,0,0,0,0,0,0,0,0,0,0,0,0,0,0,0,0,0,0,0,0,0,0,0,0,0,0,0,0,0,0,0,0,0,0,0,0,0,0,0,0,0,0,0,0,0,0,0,0,0,0,0,0,0,0,0,0],"sum_hessian":[9.627506E2,4.9930927E2,4.6344138E2,1.3416338E2,3.6514587E2,2.841365E2,1.7930484E2,8.201953E1,5.214384E1,2.3776419E2,1.2738169E2,1.08792206E2,1.7534431E2,3.4653675E1,1.4465117E2,6.279944E1,1.9220093E1,9.478998E0,4.266484E1,2.255438E2,1.2220392E1,9.7437325E1,2.9944368E1,1.746015E1,9.1332054E1,7.886026E1,9.6484055E1,2.0451363E1,1.4202314E1,1.4066377E2,3.9874032E0,4.2467666E0,5.8552673E1,1.448064E1,4.7394514E0,4.985429E0,3.7679413E1,2.1930498E2,6.2388244E0,8.745781E1,9.979518E0,1.3462341E1,1.6482027E1,1.2964035E1,4.4961143E0,9.227422E0,8.210464E1,1.8958672E1,5.990159E1,7.253038E1,2.3953669E1,1.6215504E1,4.235859E0,1.145631E1,2.7460036E0,2.241635E0,1.3842213E2,4.90744E1,9.478272E0,1.1987701E1,2.4929385E0,3.4920075E0,3.4187405E1,2.1705829E2,2.2466846E0,3.5649082E1,5.1808723E1,1.24937E1,3.9883268E0,2.496122E0,1.0467913E1,7.836475E1,3.7398815E0,8.9784775E0,5.092311E1,1.2733623E1,5.979676E1,1.5228931E1,8.724737E0,3.4892669E0,1.2726236E1,1.3592647E2,2.4956617E0,2.994014E0,4.6080387E1,3.7414186E0,3.0445988E1,3.990492E0,2.130678E2,2.2174894E1,1.3474186E1,4.6071415E1,5.737312E0,2.9917111E0,7.537304E1,3.970092E1,1.122219E1,2.4921274E0,1.0241495E1,2.7436168E0,5.7053146E1,1.2237592E1,2.9913397E0],"tree_param":{"num_deleted":"0","num_feature":"76","num_nodes":"103","size_leaf_vector":"1"}},{"base_weights":[-0E0,5.668384E-1,-8.654533E-1,8.5597175E-1,-4.2781156E-1,-3.2448214E-1,-1.5291353E0,1.0311283E0,-0E0,-9.698799E-1,-0E0,-8.025682E-1,7.249656E-2,-0E0,-1.5952994E0,3.6510625E-1,1.2217741E0,9.055439E-1,-4.9054664E-1,-0E0,-1.3136199E0,3.7250295E-1,-5.6103605E-1,-0E0,-9.7181815E-1,9.7237736E-1,-8.109657E-2,-0E0,-1.6601987E0,-1.4444742E-1,7.779501E-1,1.2737432E0,-0E0,-0E0,1.1770895E0,6.5353915E-2,-1.1129987E0,-0E0,-2.1318866E-2,-0E0,7.0097136E-1,-1.0269499E0,-0E0,-1.1365014E0,-0E0,-0E0,1.885761E-2,9.058998E-2,-1.7379042E-2,-0E0,-1.6932867E0,-0E0,-1.4566162E-2,1.2013618E0,-0E0,1.3082979E0,-0E0,-0E0,1.960713E-2,-7.54321E-4,7.166303E-1,-1.3274537E0,-0E0,8.738783E-1,-0E0,-0E0,-1.8607814E-2,-1.2259859E0,-0E0,4.0369147E-1,-4.3943954E-1,-1.7103109E0,-0E0,1.9030772E-2,-0E0,-0E0,2.0297935E-2,-0E0,1.3771395E-2,-2.2676067E-2,-0E0,-0E0,1.5111372E-2,-0E0,-1.970371E-2,-3.4982217E-3,1.0482503E-2,-1.1930899E-2,-0E0,-2.5977235E-2,-0E0],"categories":[],"categories_nodes":[],"categories_segments":[],"categories_sizes":[],"default_left":[1,1,1,0,0,0,0,0,0,0,0,0,0,0,0,0,1,0,1,0,0,0,0,0,0,0,0,0,0,0,1,1,0,0,0,0,0,0,0,0,0,0,0,1,0,0,0,1,0,0,0,0,0,0,0,0,0,0,0,0,0,1,0,0,0,0,0,0,0,0,0,0,0,0,0,0,0,0,0,0,0,0,0,0,0,0,0,0,0,0,0],"id":5,"left_children":[1,3,5,7,9,11,13,15,17,19,21,23,25,-1,27,29,31,33,35,-1,37,39,41,-1,43,45,47,-1,49,51,53,55,-1,-1,57,59,61,-1,-1,-1,63,65,-1,67,-1,-1,-1,69,-1,-1,71,-1,-1,73,-1,75,-1,-1,-1,-1,77,79,-1,81,-1,-1,-1,83,-1,85,87,89,-1,-1,-1,-1,-1,-1,-1,-1,-1,-1,-1,-1,-1,-1,-1,-1,-1,-1,-1],"loss_changes":[4.674793E2,1.6998949E2,1.1887308E2,5.9899567E1,2.7366686E1,4.7074814E1,2.5177826E1,3.309305E1,4.1097107E1,1.844854E1,1.4935584E1,1.8317719E1,2.2594206E1,0E0,1.7671143E1,2.4977158E1,2.5824188E1,6.6656017E0,2.6234756E1,0E0,4.267479E0,1.0362552E1,1.1261826E1,0E0,1.4088051E1,1.0289082E1,2.4662842E1,0E0,5.5102844E0,7.535606E0,1.3665379E1,1.4781464E1,0E0,0E0,3.4906578E0,7.2213817E0,9.924183E0,0E0,0E0,0E0,6.5971794E0,5.4615383E0,0E0,1.249691E1,0E0,0E0,0E0,1.04456005E1,0E0,0E0,2.0560913E0,0E0,0E0,1.5331802E0,0E0,8.91748E0,0E0,0E0,0E0,0E0,1.2732525E0,8.836002E0,0E0,5.0315914E0,0E0,0E0,0E0,9.8129425E0,0E0,1.3594629E1,3.7929916E0,2.0138855E0,0E0,0E0,0E0,0E0,0E0,0E0,0E0,0E0,0E0,0E0,0E0,0E0,0E0,0E0,0E0,0E0,0E0,0E0,0E0],"parents":[2147483647,0,0,1,1,2,2,3,3,4,4,5,5,6,6,7,7,8,8,9,9,10,10,11,11,12,12,14,14,15,15,16,16,17,17,18,18,20,20,21,21,22,22,24,24,25,25,26,26,28,28,29,29,30,30,31,31,34,34,35,35,36,36,40,40,41,41,43,43,47,47,50,50,53,53,55,55,60,60,61,61,63,63,67,67,69,69,70,70,71,71],"right_children":[2,4,6,8,10,12,14,16,18,20,22,24,26,-1,28,30,32,34,36,-1,38,40,42,-1,44,46,48,-1,50,52,54,56,-1,-1,58,60,62,-1,-1,-1,64,66,-1,68,-1,-1,-1,70,-1,-1,72,-1,-1,74,-1,76,-1,-1,-1,-1,78,80,-1,82,-1,-1,-1,84,-1,86,88,90,-1,-1,-1,-1,-1,-1,-1,-1,-1,-1,-1,-1,-1,-1,-1,-1,-1,-1,-1],"split_conditions":[5.79657E-1,1.3E-3,3.44E0,9.245E-1,0E0,2.31E2,2.727E-1,0E0,7E0,7.188E-1,4.07828E-1,5.133E1,6.875E-1,-0E0,4E0,5.22E-1,1.34E0,0E0,1.2276596E1,-0E0,1.010363E1,5.96998E-1,1.5833E0,-0E0,4.999E1,2.97E2,2.5185E2,-0E0,3.55E-1,2.12E2,1.0618E2,2.0017166E2,-0E0,-0E0,9.426E-1,3.4E1,4.1E1,-0E0,-2.1318866E-2,-0E0,9.05147E-1,4.37834E-1,-0E0,3.52E0,-0E0,-0E0,1.885761E-2,7.29E-1,-1.7379042E-2,-0E0,9.96164E-1,-0E0,-1.4566162E-2,8.782E-1,-0E0,1.5E1,-0E0,-0E0,1.960713E-2,-7.54321E-4,6.4E-1,1.45E1,-0E0,6.754E-1,-0E0,-0E0,-1.8607814E-2,3.684E-1,-0E0,3E1,9.86E-2,1.657E3,-0E0,1.9030772E-2,-0E0,-0E0,2.0297935E-2,-0E0,1.3771395E-2,-2.2676067E-2,-0E0,-0E0,1.5111372E-2,-0E0,-1.970371E-2,-3.4982217E-3,1.0482503E-2,-1.1930899E-2,-0E0,-2.5977235E-2,-0E0],"split_indices":[59,18,15,36,51,53,37,51,45,38,59,10,36,0,45,50,50,51,4,0,5,63,8,0,46,53,10,0,20,10,10,5,0,0,36,35,42,0,0,0,62,58,0,14,0,0,0,50,0,0,61,0,0,36,0,35,0,0,0,0,50,31,0,20,0,0,0,38,0,35,9,41,0,0,0,0,0,0,0,0,0,0,0,0,0,0,0,0,0,0,0],"split_type":[0,0,0,0,0,0,0,0,0,0,0,0,0,0,0,0,0,0,0,0,0,0,0,0,0,0,0,0,0,0,0,0,0,0,0,0,0,0,0,0,0,0,0,0,0,0,0,0,0,0,0,0,0,0,0,0,0,0,0,0,0,0,0,0,0,0,0,0,0,0,0,0,0,0,0,0,0,0,0,0,0,0,0,0,0,0,0,0,0,0,0],"sum_hessian":[9.542367E2,5.7809717E2,3.7613956E2,4.5469485E2,1.234023E2,2.1447124E2,1.6166833E2,3.696755E2,8.501935E1,5.31019E1,7.03004E1,1.0726661E2,1.0720462E2,3.2390778E0,1.5842926E2,9.245467E1,2.7722083E2,3.56197E1,4.939965E1,1.3464132E1,3.9637764E1,4.0867565E1,2.9432835E1,1.4714034E1,9.2552574E1,2.391148E1,8.3293144E1,5.733127E0,1.5269614E2,3.192166E1,6.0533016E1,2.709779E2,6.242906E0,9.728392E0,2.5891308E1,1.8690819E1,3.070883E1,3.4886248E0,3.614914E1,8.238078E0,3.2629486E1,1.9462124E1,9.970711E0,7.85803E1,1.3972274E1,2.995457E0,2.0916023E1,6.4820145E1,1.8473E1,3.9874618E0,1.4870868E2,2.318293E1,8.73873E0,3.4850956E1,2.568206E1,2.6548862E2,5.489306E0,2.740655E0,2.3150652E1,4.4971557E0,1.4193663E1,2.721963E1,3.489201E0,2.963309E1,2.9963956E0,2.4934537E0,1.696867E1,7.5842064E1,2.7382383E0,5.1097572E1,1.3722573E1,1.464658E2,2.242862E0,3.2358112E1,2.4928427E0,1.1221317E1,2.5426729E2,3.9861002E0,1.0207562E1,2.4975153E1,2.2444768E0,2.245401E0,2.738769E1,3.740858E0,7.2101204E1,6.742597E0,4.4354973E1,1.0232845E1,3.489728E0,1.4422224E2,2.2435658E0],"tree_param":{"num_deleted":"0","num_feature":"76","num_nodes":"91","size_leaf_vector":"1"}},{"base_weights":[-1.07486565E-2,5.6290495E-1,-9.2772156E-1,-1.2148191E-1,8.8475835E-1,2.96131E-1,-1.087782E0,7.315171E-1,-5.504105E-1,-0E0,1.080915E0,-4.9359996E-2,9.008579E-1,-6.5791225E-1,-1.5402602E0,-0E0,1.1523333E0,2.640926E-1,-8.478044E-1,5.205527E-1,-3.923418E-1,1.2077847E0,-0E0,-0E0,-7.934449E-3,1.1180115E0,-0E0,-1.3170621E0,-2.7985138E-1,-0E0,-1.6375434E0,-0E0,-7.291981E-3,-0E0,1.9066898E-2,8.651339E-1,-4.5247595E-3,-1.0414647E0,-0E0,9.6149063E-1,-0E0,-1.9411555E-2,-0E0,-0E0,1.3033419E0,5.972918E-1,-1.8318018E-1,-0E0,1.8698437E-2,-0E0,-1.4233117E0,-9.7064483E-1,3.6721095E-2,-0E0,-8.774192E-3,-0E0,-1.6737404E0,-0E0,1.725322E-2,-0E0,-1.174229E0,1.1185817E0,-0E0,1.0491397E-2,-9.85955E-3,1.3363975E0,-0E0,8.23713E-1,-0E0,-0E0,-6.550105E-1,-2.26266E-2,-0E0,-1.1341662E0,-0E0,4.1658106E-1,-6.013818E-1,-1.7103761E0,-0E0,-2.0104403E-2,-0E0,1.8857636E-2,-0E0,-0E0,2.0541664E-2,-0E0,1.617294E-2,-1.6204745E-2,-0E0,-0E0,-1.9487072E-2,1.319673E-2,-0E0,-0E0,-1.2516549E-2,-2.6021477E-2,-0E0],"categories":[],"categories_nodes":[],"categories_segments":[],"categories_sizes":[],"default_left":[1,0,0,0,0,0,1,0,1,1,1,0,0,0,0,0,1,1,0,1,0,0,0,0,0,0,0,0,0,0,0,0,0,0,0,1,0,0,0,0,0,0,0,1,1,0,0,0,0,0,0,0,0,0,0,0,0,0,0,0,0,0,0,0,0,0,0,0,0,0,0,0,0,0,0,0,0,1,0,0,0,0,0,0,0,0,0,0,0,0,0,0,0,0,0,0,0],"id":6,"left_children":[1,3,5,7,9,11,13,15,17,19,21,23,25,27,29,31,33,35,37,39,41,43,45,-1,-1,47,-1,49,51,53,55,-1,-1,-1,-1,57,-1,59,-1,61,-1,-1,-1,63,65,67,69,-1,-1,-1,71,73,75,-1,-1,-1,77,-1,-1,-1,79,81,-1,-1,-1,83,-1,85,-1,-1,87,-1,-1,89,-1,91,93,95,-1,-1,-1,-1,-1,-1,-1,-1,-1,-1,-1,-1,-1,-1,-1,-1,-1,-1,-1],"loss_changes":[4.996672E2,1.3326347E2,7.9207275E1,6.251113E1,6.090564E1,1.50310545E1,4.5531616E1,2.5499796E1,3.497611E1,1.7287989E1,3.544568E1,2.2604294E0,4.2146053E0,3.1047272E1,1.5032166E1,1.8788985E0,6.008152E0,1.3464023E1,1.9719315E1,1.6692354E1,1.5540401E1,3.3842438E1,7.193419E0,0E0,0E0,1.4591446E0,0E0,6.1044006E0,3.507418E1,2.288573E0,4.966461E0,0E0,0E0,0E0,0E0,7.5589848E0,0E0,1.797255E1,0E0,6.8804455E0,0E0,0E0,0E0,8.965487E0,1.6511475E1,4.1539497E0,5.8193316E0,0E0,0E0,0E0,3.4090118E0,9.566601E0,1.6753967E1,0E0,0E0,0E0,4.460907E0,0E0,0E0,0E0,1.6532158E1,4.334133E0,0E0,0E0,0E0,1.3214996E1,0E0,4.902527E0,0E0,0E0,8.259857E0,0E0,0E0,1.0710419E1,0E0,1.7514778E1,3.9385471E0,2.4487E0,0E0,0E0,0E0,0E0,0E0,0E0,0E0,0E0,0E0,0E0,0E0,0E0,0E0,0E0,0E0,0E0,0E0,0E0,0E0],"parents":[2147483647,0,0,1,1,2,2,3,3,4,4,5,5,6,6,7,7,8,8,9,9,10,10,11,11,12,12,13,13,14,14,15,15,16,16,17,17,18,18,19,19,20,20,21,21,22,22,25,25,27,27,28,28,29,29,30,30,35,35,37,37,39,39,43,43,44,44,45,45,46,46,50,50,51,51,52,52,56,56,60,60,61,61,65,65,67,67,70,70,73,73,75,75,76,76,77,77],"right_children":[2,4,6,8,10,12,14,16,18,20,22,24,26,28,30,32,34,36,38,40,42,44,46,-1,-1,48,-1,50,52,54,56,-1,-1,-1,-1,58,-1,60,-1,62,-1,-1,-1,64,66,68,70,-1,-1,-1,72,74,76,-1,-1,-1,78,-1,-1,-1,80,82,-1,-1,-1,84,-1,86,-1,-1,88,-1,-1,90,-1,92,94,96,-1,-1,-1,-1,-1,-1,-1,-1,-1,-1,-1,-1,-1,-1,-1,-1,-1,-1,-1],"split_conditions":[5.77977E-1,0E0,6.541E-1,6.739E-1,1.2727E0,2.06E2,3.84E0,1.44E2,5.133E1,9.090082E-1,4.6E-3,8.339E1,5.29192E-1,4.3E1,7.133E1,7.1408147E-1,2E1,3.5E1,1.92E2,3.5674225E1,2.98E2,2E1,6.21E-1,-0E0,-7.934449E-3,3.3E1,-0E0,-1.892E-1,0E0,8.031E-1,1.08E-2,-0E0,-7.291981E-3,-0E0,1.9066898E-2,2E1,-4.5247595E-3,6.909E-1,-0E0,4E0,-0E0,-1.9411555E-2,-0E0,7.5E0,1.34E0,9.091E-1,2.4706E0,-0E0,1.8698437E-2,-0E0,7.48541E-1,1E0,2.584E2,-0E0,-8.774192E-3,-0E0,2.6632E4,-0E0,1.725322E-2,-0E0,4.9825E2,5.45415E-1,-0E0,1.0491397E-2,-9.85955E-3,1.81E0,-0E0,2.57E-2,-0E0,-0E0,1E0,-2.26266E-2,-0E0,3.478E-1,-0E0,7.61E-1,6.585E-1,2.6677785E0,-0E0,-2.0104403E-2,-0E0,1.8857636E-2,-0E0,-0E0,2.0541664E-2,-0E0,1.617294E-2,-1.6204745E-2,-0E0,-0E0,-1.9487072E-2,1.319673E-2,-0E0,-0E0,-1.2516549E-2,-2.6021477E-2,-0E0],"split_indices":[59,51,36,39,31,53,13,30,10,52,18,10,61,35,10,52,48,17,0,5,53,35,50,0,0,35,0,40,51,36,18,0,0,0,0,48,0,36,0,27,0,0,0,4,50,38,31,0,0,0,58,34,10,0,0,0,35,0,0,0,10,59,0,0,0,13,0,18,0,0,32,0,0,8,0,50,39,52,0,0,0,0,0,0,0,0,0,0,0,0,0,0,0,0,0,0,0],"split_type":[0,0,0,0,0,0,0,0,0,0,0,0,0,0,0,0,0,0,0,0,0,0,0,0,0,0,0,0,0,0,0,0,0,0,0,0,0,0,0,0,0,0,0,0,0,0,0,0,0,0,0,0,0,0,0,0,0,0,0,0,0,0,0,0,0,0,0,0,0,0,0,0,0,0,0,0,0,0,0,0,0,0,0,0,0,0,0,0,0,0,0,0,0,0,0,0,0],"sum_hessian":[9.4383923E2,5.747585E2,3.6908075E2,1.751699E2,3.995886E2,3.6382233E1,3.3269852E2,5.1804657E1,1.2336525E2,7.974149E1,3.198471E2,1.3972346E1,2.2409887E1,1.8050177E2,1.5219676E2,1.1725177E1,4.007948E1,2.5148827E1,9.821642E1,4.2827892E1,3.6913605E1,2.804793E2,3.936777E1,5.7332044E0,8.239142E0,1.7921293E1,4.4885936E0,5.7379204E1,1.2312257E2,1.1940621E1,1.4025613E2,3.7370942E0,7.9880824E0,3.2442074E0,3.6835274E1,1.966825E1,5.480578E0,8.326576E1,1.4950663E1,3.0608936E1,1.2218955E1,1.2733153E1,2.418045E1,1.9697813E1,2.607815E2,1.8168074E1,2.11997E1,2.492003E0,1.542929E1,5.2337775E0,5.2145428E1,4.735284E1,7.576972E1,5.220634E0,6.7199874E0,4.228084E0,1.3602806E2,2.746188E0,1.6922062E1,4.729902E0,7.853586E1,2.8113985E1,2.4949522E0,8.708931E0,1.0988882E1,2.5728534E2,3.4961739E0,1.5674449E1,2.493624E0,5.979131E0,1.5220569E1,4.8157677E1,3.98775E0,4.2119514E1,5.233329E0,5.6067223E1,1.9702501E1,1.3178795E2,4.2401E0,6.982163E1,8.71423E0,2.5120895E1,2.9930892E0,3.9917939E0,2.5329353E2,2.244088E0,1.3430361E1,1.2733723E1,2.4868455E0,3.4848053E0,3.863471E1,3.5369812E1,2.069741E1,3.7353008E0,1.59672E1,1.2955075E2,2.2372072E0],"tree_param":{"num_deleted":"0","num_feature":"76","num_nodes":"97","size_leaf_vector":"1"}},{"base_weights":[-0E0,6.879609E-1,-6.557824E-1,-0E0,9.4408005E-1,-2.2535706E-1,-1.3283716E0,-6.763412E-1,4.7321355E-1,1.1956718E0,2.6821604E-1,-7.7190703E-1,2.0938385E-1,7.859431E-3,-1.4806439E0,-0E0,-1.0708392E0,8.6882687E-1,-0E0,-0E0,1.3769698E0,5.911767E-1,-2.9855213E-1,-1.0831133E0,-0E0,4.630369E-1,-6.3512284E-1,-1.5234169E0,-0E0,-0E0,-1.2900867E0,1.0270327E0,-0E0,-0E0,-4.2638898E-1,9.2400545E-1,-7.83315E-1,1.4625006E0,-0E0,-0E0,8.7720615E-1,-0E0,-6.83125E-1,-0E0,-1.2450286E0,9.414918E-3,-2.9464316E-1,-0E0,7.494849E-1,5.357749E-2,-2.20463E-2,-1.5661589E0,-0E0,-0E0,-1.4124755E0,-0E0,1.1393442E0,-1.4940124E-2,-0E0,1.7941691E-2,-0E0,-0E0,-1.6983116E-2,1.481914E0,-0E0,1.8737358E-1,-1.2578733E-2,9.8987097E-1,-0E0,-0E0,-8.760272E-1,-0E0,-1.407801E0,-5.2218646E-1,-0E0,-4.9250805E-1,3.6044404E-1,-0E0,9.747916E-1,1.0353767E-2,-0E0,-0E0,-1.5972699E0,-2.2293549E-2,-0E0,-0E0,1.8216172E-2,-0E0,2.2525227E-2,-0E0,7.285997E-3,-0E0,1.60543E-2,-0E0,-1.699751E-2,-0E0,-2.2894429E-2,-1.0428825E-2,-0E0,-0E0,-1.2338163E-2,1.0828789E-2,-0E0,-0E0,1.7559532E-2,-2.4961539E-2,-0E0],"categories":[],"categories_nodes":[],"categories_segments":[],"categories_sizes":[],"default_left":[1,0,1,0,1,0,0,0,0,0,0,0,1,0,0,0,1,0,1,0,0,1,0,0,0,0,1,0,0,0,0,1,0,0,0,1,0,1,0,1,0,0,0,0,0,0,1,0,0,1,0,0,0,0,1,0,0,0,0,0,0,0,0,0,0,0,0,0,0,0,1,0,0,1,0,0,0,0,0,0,0,0,0,0,0,0,0,0,0,0,0,0,0,0,0,0,0,0,0,0,0,0,0,0,0,0,0],"id":7,"left_children":[1,3,5,7,9,11,13,15,17,19,21,23,25,-1,27,-1,29,31,33,35,37,39,41,43,45,47,49,51,-1,-1,53,55,-1,-1,57,59,61,63,-1,65,67,-1,69,-1,71,-1,73,75,77,79,-1,81,-1,-1,83,-1,85,-1,-1,-1,-1,-1,-1,87,-1,89,-1,91,-1,-1,93,-1,95,97,-1,99,101,-1,103,-1,-1,-1,105,-1,-1,-1,-1,-1,-1,-1,-1,-1,-1,-1,-1,-1,-1,-1,-1,-1,-1,-1,-1,-1,-1,-1,-1],"loss_changes":[4.337084E2,8.1595276E1,1.27221954E2,4.1491173E1,4.5640015E1,7.724434E1,5.9616516E1,2.0743515E1,2.1586073E1,4.720941E1,2.1333132E1,3.2126495E1,3.2916374E1,0E0,1.347229E1,0E0,1.1816532E1,9.551899E0,2.8106863E0,2.5389118E1,2.1414673E1,1.5855461E1,4.776793E0,1.4656464E1,7.262655E0,2.383885E1,2.9019081E1,1.1265167E1,0E0,0E0,3.7569542E0,5.4284134E0,0E0,0E0,6.30363E0,4.172743E0,6.457636E0,5.017914E0,0E0,5.529243E0,7.6068993E0,0E0,2.7439528E0,0E0,1.1698395E1,0E0,4.5721536E0,8.028325E0,1.5623486E1,3.6288836E0,0E0,9.796112E0,0E0,0E0,1.2051582E0,0E0,3.0629616E0,0E0,0E0,0E0,0E0,0E0,0E0,3.571991E0,0E0,1.9878458E0,0E0,5.5647354E0,0E0,0E0,2.8043795E0,0E0,4.8010864E0,3.9322925E0,0E0,7.8616023E0,3.4130726E0,0E0,1.4473244E1,0E0,0E0,0E0,1.1145966E1,0E0,0E0,0E0,0E0,0E0,0E0,0E0,0E0,0E0,0E0,0E0,0E0,0E0,0E0,0E0,0E0,0E0,0E0,0E0,0E0,0E0,0E0,0E0,0E0],"parents":[2147483647,0,0,1,1,2,2,3,3,4,4,5,5,6,6,7,7,8,8,9,9,10,10,11,11,12,12,14,14,16,16,17,17,18,18,19,19,20,20,21,21,22,22,23,23,24,24,25,25,26,26,27,27,30,30,31,31,34,34,35,35,36,36,37,37,39,39,40,40,42,42,44,44,46,46,47,47,48,48,49,49,51,51,54,54,56,56,63,63,65,65,67,67,70,70,72,72,73,73,75,75,76,76,78,78,82,82],"right_children":[2,4,6,8,10,12,14,16,18,20,22,24,26,-1,28,-1,30,32,34,36,38,40,42,44,46,48,50,52,-1,-1,54,56,-1,-1,58,60,62,64,-1,66,68,-1,70,-1,72,-1,74,76,78,80,-1,82,-1,-1,84,-1,86,-1,-1,-1,-1,-1,-1,88,-1,90,-1,92,-1,-1,94,-1,96,98,-1,100,102,-1,104,-1,-1,-1,106,-1,-1,-1,-1,-1,-1,-1,-1,-1,-1,-1,-1,-1,-1,-1,-1,-1,-1,-1,-1,-1,-1,-1,-1],"split_conditions":[7.69E-2,0E0,7.2E1,1.44E2,6.21E-1,2.35E2,4.528E-1,5.19496E-1,8.636E-1,3.5E1,8.791E-1,1.205E-1,9.286E-1,7.859431E-3,2.6632E4,-0E0,6.481E-1,1.8E1,3.0891182E1,1.079E1,7.31527E-1,1.667E-1,2.590909E1,5.76494E-1,1.07E2,6.00927E-1,3.49E0,9.9E1,-0E0,-0E0,2.47E-2,2E1,-0E0,-0E0,1.85E1,7.5E0,5.49E0,1.932E-1,-0E0,6E0,1E0,-0E0,4.25587E-1,-0E0,5.95567E-1,9.414918E-3,3.714E-1,1.534E-1,0E0,4.5E0,-2.20463E-2,2.5E-1,-0E0,-0E0,1.1E-1,-0E0,2.9E1,-1.4940124E-2,-0E0,1.7941691E-2,-0E0,-0E0,-1.6983116E-2,2.94056E-1,-0E0,1.282E-1,-1.2578733E-2,2.25E0,-0E0,-0E0,9.002E-1,-0E0,5.871E1,1E0,-0E0,6.585E-1,1.7467E2,-0E0,3.7E1,1.0353767E-2,-0E0,-0E0,1.78E2,-2.2293549E-2,-0E0,-0E0,1.8216172E-2,-0E0,2.2525227E-2,-0E0,7.285997E-3,-0E0,1.60543E-2,-0E0,-1.699751E-2,-0E0,-2.2894429E-2,-1.0428825E-2,-0E0,-0E0,-1.2338163E-2,1.0828789E-2,-0E0,-0E0,1.7559532E-2,-2.4961539E-2,-0E0],"split_indices":[8,51,17,30,50,53,39,63,36,35,38,9,36,0,35,0,36,42,5,46,59,31,4,62,53,63,46,4,0,0,9,48,0,0,31,4,45,18,0,4,73,0,63,0,59,0,40,9,51,31,0,37,0,0,18,0,6,0,0,0,0,0,0,62,0,31,0,14,0,0,38,0,10,44,0,36,10,0,35,0,0,0,47,0,0,0,0,0,0,0,0,0,0,0,0,0,0,0,0,0,0,0,0,0,0,0,0],"split_type":[0,0,0,0,0,0,0,0,0,0,0,0,0,0,0,0,0,0,0,0,0,0,0,0,0,0,0,0,0,0,0,0,0,0,0,0,0,0,0,0,0,0,0,0,0,0,0,0,0,0,0,0,0,0,0,0,0,0,0,0,0,0,0,0,0,0,0,0,0,0,0,0,0,0,0,0,0,0,0,0,0,0,0,0,0,0,0,0,0,0,0,0,0,0,0,0,0,0,0,0,0,0,0,0,0,0,0],"sum_hessian":[9.607932E2,4.745106E2,4.862826E2,1.3098946E2,3.4352115E2,3.044336E2,1.8184898E2,5.2066044E1,7.892341E1,2.4092552E2,1.0259563E2,1.4376424E2,1.6066936E2,9.4666815E0,1.7238231E2,1.3206903E1,3.8859142E1,5.20081E1,2.691531E1,3.4367527E1,2.06558E2,7.516123E1,2.7434393E1,1.0040311E2,4.336113E1,1.3150365E2,2.916571E1,1.6864317E2,3.7391338E0,4.9861913E0,3.387295E1,4.6274704E1,5.733396E0,1.1456826E1,1.5458483E1,1.7901705E1,1.6465822E1,1.9311621E2,1.3441783E1,2.041976E1,5.474147E1,1.1959176E1,1.5475217E1,1.4961719E1,8.544139E1,1.1459156E1,3.1901976E1,3.887293E1,9.2630714E1,1.0208305E1,1.8957405E1,1.6415654E2,4.486636E0,3.7328484E0,3.01401E1,4.4918737E0,4.178283E1,9.231126E0,6.227357E0,1.366559E1,4.2361135E0,3.4844563E0,1.2981367E1,1.9037454E2,2.741675E0,1.3181218E1,7.2385426E0,5.0752636E1,3.988836E0,2.4898791E0,1.2985337E1,1.2713216E1,7.272817E1,2.6923588E1,4.9783864E0,2.6432886E1,1.2440042E1,2.1429995E1,7.1200714E1,7.7143173E0,2.493988E0,2.492819E0,1.6166373E2,2.7903557E1,2.2365441E0,2.7396512E0,3.904318E1,2.483278E0,1.8789127E2,2.7447982E0,1.04364195E1,2.2469878E0,4.850565E1,2.992651E0,9.992686E0,8.481657E0,6.424652E1,2.3436052E1,3.4875362E0,5.234532E0,2.1198355E1,9.696195E0,2.7438474E0,1.0977224E1,6.022349E1,1.5370996E2,7.953763E0],"tree_param":{"num_deleted":"0","num_feature":"76","num_nodes":"107","size_leaf_vector":"1"}},{"base_weights":[-0E0,6.398272E-1,-7.297479E-1,-4.15981E-2,9.148048E-1,2.2725882E-1,-1.0003742E0,4.2017785E-1,-8.2883507E-1,1.0583099E0,-0E0,8.544332E-1,-0E0,-5.7580096E-1,-1.5478624E0,-1.9964918E-1,7.560999E-1,-0E0,-1.0993205E0,1.1217965E0,-0E0,-1.4334255E-1,5.5513483E-1,1.0688862E0,-0E0,-8.144889E-1,1.9879356E-1,-1.1796322E0,-8.21911E-2,-1.6204277E0,-0E0,-0E0,-6.07216E-1,-0E0,1.1711621E0,-0E0,-1.9472944E-2,1.160801E0,-0E0,-6.3583267E-1,-0E0,-0E0,1.0156184E0,1.9863544E-2,-0E0,-0E0,-1.7821139E-2,-0E0,6.247097E-1,-0E0,-1.2939843E0,-8.597075E-1,2.9756784E-1,-1.6562696E0,-0E0,-1.3156381E-2,-0E0,1.9380724E-2,-0E0,-0E0,1.2323242E0,-0E0,-9.3121547E-1,-0E0,5.5266353E-3,1.7873438E-2,-0E0,1.2631776E-2,-0E0,-1.3779624E0,-0E0,-0E0,-1.0007439E0,6.319933E-1,-5.895822E-1,-1.6939734E0,-0E0,1.1936589E-2,-7.889806E-3,-0E0,1.9002683E-2,-0E0,-1.710018E-2,-2.1720158E-2,-0E0,-1.715785E-2,-0E0,-0E0,1.2703687E-2,-0E0,-1.2702426E-2,-2.578376E-2,-0E0],"categories":[],"categories_nodes":[],"categories_segments":[],"categories_sizes":[],"default_left":[1,0,0,0,1,0,1,0,0,0,0,0,0,0,0,0,1,0,0,0,0,0,0,0,0,0,0,1,0,0,0,0,0,0,1,0,0,0,0,0,0,0,1,0,0,0,0,0,1,0,0,0,0,0,0,0,0,0,0,0,0,0,0,0,0,0,0,0,0,1,0,0,0,0,0,0,0,0,0,0,0,0,0,0,0,0,0,0,0,0,0,0,0],"id":8,"left_children":[1,3,5,7,9,11,13,15,17,19,21,23,25,27,29,31,33,-1,35,37,-1,39,41,43,-1,45,47,49,51,53,-1,-1,55,-1,57,-1,-1,59,-1,61,63,-1,65,-1,-1,-1,-1,-1,67,-1,69,71,73,75,-1,-1,-1,-1,-1,77,79,-1,81,-1,-1,-1,-1,-1,-1,83,-1,-1,85,87,89,91,-1,-1,-1,-1,-1,-1,-1,-1,-1,-1,-1,-1,-1,-1,-1,-1,-1],"loss_changes":[4.4001355E2,1.0261061E2,1.1980838E2,5.323627E1,4.042383E1,1.9565271E1,6.2227325E1,2.133208E1,1.4343971E1,2.2277588E1,7.765519E0,6.5309772E0,1.4015951E1,4.99888E1,2.1049408E1,4.2155523E0,1.0781937E1,0E0,4.986717E0,2.1321411E1,0E0,7.9613576E0,9.868551E0,4.8951797E0,0E0,5.267335E0,8.349103E0,9.604309E0,4.0501526E1,6.661682E0,0E0,0E0,3.6242905E0,0E0,4.612938E0,0E0,0E0,1.4104492E1,0E0,7.9919167E0,1.3440759E0,0E0,2.382576E0,0E0,0E0,0E0,0E0,0E0,5.822467E0,0E0,7.986931E0,6.8728256E0,2.2164154E1,3.475647E0,0E0,0E0,0E0,0E0,0E0,1.2078242E1,1.4345154E1,0E0,5.2933407E0,0E0,0E0,0E0,0E0,0E0,0E0,7.603485E0,0E0,0E0,7.646534E0,1.4208393E1,3.1473498E0,2.651062E0,0E0,0E0,0E0,0E0,0E0,0E0,0E0,0E0,0E0,0E0,0E0,0E0,0E0,0E0,0E0,0E0,0E0],"parents":[2147483647,0,0,1,1,2,2,3,3,4,4,5,5,6,6,7,7,8,8,9,9,10,10,11,11,12,12,13,13,14,14,15,15,16,16,18,18,19,19,21,21,22,22,23,23,25,25,26,26,27,27,28,28,29,29,32,32,34,34,37,37,39,39,40,40,42,42,48,48,50,50,51,51,52,52,53,53,59,59,60,60,62,62,69,69,72,72,73,73,74,74,75,75],"right_children":[2,4,6,8,10,12,14,16,18,20,22,24,26,28,30,32,34,-1,36,38,-1,40,42,44,-1,46,48,50,52,54,-1,-1,56,-1,58,-1,-1,60,-1,62,64,-1,66,-1,-1,-1,-1,-1,68,-1,70,72,74,76,-1,-1,-1,-1,-1,78,80,-1,82,-1,-1,-1,-1,-1,-1,84,-1,-1,86,88,90,92,-1,-1,-1,-1,-1,-1,-1,-1,-1,-1,-1,-1,-1,-1,-1,-1,-1],"split_conditions":[3.452E-1,0E0,7.143E-1,8.314E-1,4.88082E-1,5.14255E-1,7.2E1,6.4E1,-1.046E-1,1.6E1,3.604E2,2.1911E2,0E0,0E0,8.4E1,6.66E0,3.4E1,-0E0,5.49E0,6E0,-0E0,2.0010011E0,5.92773E-1,5.1E1,-0E0,1.55E3,1.8E1,1.034E-1,1.7814163E1,1.83095E6,-0E0,-0E0,5.7858E2,-0E0,7.6138616E-1,-0E0,-1.9472944E-2,5.25E2,-0E0,3.75E-1,1.7467E2,-0E0,3.139055E1,1.9863544E-2,-0E0,-0E0,-1.7821139E-2,-0E0,5E0,-0E0,8.700427E1,4.28E0,9.438E-1,2.17E2,-0E0,-1.3156381E-2,-0E0,1.9380724E-2,-0E0,9.25E0,2E0,-0E0,4.2816296E-1,-0E0,5.5266353E-3,1.7873438E-2,-0E0,1.2631776E-2,-0E0,1.9223E0,-0E0,-0E0,4.1858E0,1.0769E0,5.871E1,7.67E2,-0E0,1.1936589E-2,-7.889806E-3,-0E0,1.9002683E-2,-0E0,-1.710018E-2,-2.1720158E-2,-0E0,-1.715785E-2,-0E0,-0E0,1.2703687E-2,-0E0,-1.2702426E-2,-2.578376E-2,-0E0],"split_indices":[11,51,36,39,61,58,17,30,40,47,10,10,51,51,4,45,48,0,45,2,0,52,63,48,0,55,0,44,5,55,0,0,10,0,57,0,0,55,0,39,10,0,5,0,0,0,0,0,31,0,5,13,36,47,0,0,0,0,0,45,4,0,52,0,0,0,0,0,0,20,0,0,11,31,10,53,0,0,0,0,0,0,0,0,0,0,0,0,0,0,0,0,0],"split_type":[0,0,0,0,0,0,0,0,0,0,0,0,0,0,0,0,0,0,0,0,0,0,0,0,0,0,0,0,0,0,0,0,0,0,0,0,0,0,0,0,0,0,0,0,0,0,0,0,0,0,0,0,0,0,0,0,0,0,0,0,0,0,0,0,0,0,0,0,0,0,0,0,0,0,0,0,0,0,0,0,0,0,0,0,0,0,0,0,0,0,0,0,0],"sum_hessian":[9.435028E2,5.0695447E2,4.3654834E2,1.3663301E2,3.7032147E2,8.912788E1,3.4742047E2,7.913271E1,5.7500286E1,3.127923E2,5.752918E1,3.310377E1,5.60241E1,2.0465286E2,1.4276761E2,1.8684172E1,6.0448544E1,1.2945938E1,4.4554348E1,2.9609262E2,1.6699675E1,3.4641705E1,2.2887476E1,2.6868813E1,6.234959E0,1.8915863E1,3.7108242E1,8.409804E1,1.20554825E2,1.3828354E2,4.4840727E0,5.232167E0,1.3452005E1,2.7393763E1,3.3054783E1,9.47647E0,3.507788E1,2.9235202E2,3.7406132E0,2.1452007E1,1.3189696E1,6.48288E0,1.6404594E1,2.0395805E1,6.473007E0,6.2331476E0,1.2682714E1,1.1958073E1,2.5150167E1,8.471281E0,7.562676E1,4.709891E1,7.345592E1,1.3479172E2,3.4918134E0,1.1212384E1,2.2396214E0,3.0067781E1,2.9870005E0,2.3663452E1,2.6868857E2,2.2352467E0,1.921676E1,3.241479E0,9.948217E0,1.36617775E1,2.7428174E0,2.2157808E1,2.9923584E0,7.089591E1,4.730851E0,5.4776773E0,4.1621235E1,6.048904E1,1.2966875E1,1.3006935E2,4.722365E0,1.5674142E1,7.98931E0,4.2221813E0,2.6446637E2,2.2396214E0,1.6977139E1,6.815959E1,2.7363167E0,3.788566E1,3.7355769E0,6.7353845E0,5.375366E1,2.2411435E0,1.0725732E1,1.2783938E2,2.229979E0],"tree_param":{"num_deleted":"0","num_feature":"76","num_nodes":"93","size_leaf_vector":"1"}},{"base_weights":[2.5450757E-3,-7.929202E-1,5.660218E-1,-3.4735307E-1,-1.45276E0,8.058229E-1,-3.743463E-1,-9.7805023E-1,6.401139E-2,-0E0,-1.5714266E0,9.72626E-1,3.2177716E-2,-1.1573122E0,1.5001019E-3,-0E0,-1.0642128E0,-6.4879996E-1,5.4018635E-1,-1.6248429E0,-0E0,-0E0,1.0940274E0,8.063593E-1,-4.4977808E-1,-1.368049E0,-0E0,5.688492E-1,-7.366765E-1,-0E0,-1.247447E0,-8.585802E-1,-0E0,-6.771138E-1,8.326777E-1,-1.6432302E0,-0E0,4.730773E-1,-7.483318E-1,-0E0,1.1650196E0,1.1511519E0,-0E0,1.9560608E-1,-1.155133E0,-2.245037E-2,-0E0,7.72743E-1,-0E0,-0E0,-1.0893182E0,-1.2966546E-2,-0E0,-0E0,-1.3589745E0,-0E0,-1.7281812E-2,-1.4254588E-2,-0E0,-0E0,1.0783957E0,-1.6620626E0,-0E0,-0E0,1.3424369E-2,-0E0,-1.6700404E-2,3.5433975E-1,-1.9990554E-2,-0E0,1.1964905E0,1.3062264E0,-0E0,-0E0,6.4440227E-1,-2.3022728E-2,-0E0,9.580441E-1,-0E0,-0E0,-2.0140957E-2,-0E0,-2.267047E-2,1.8641489E-2,-0E0,-2.528122E-2,-0E0,1.0208381E-2,-0E0,-0E0,-7.705116E-3,-0E0,1.85554E-2,2.1567049E-2,-0E0,-0E0,1.349447E-2,1.678218E-2,-0E0],"categories":[],"categories_nodes":[],"categories_segments":[],"categories_sizes":[],"default_left":[0,1,1,1,0,0,0,0,0,0,0,0,0,1,1,0,0,1,0,0,0,0,0,1,1,0,0,1,0,0,0,1,0,1,0,0,0,1,0,1,0,0,0,0,1,0,0,0,0,0,0,0,0,0,0,0,0,0,0,0,0,0,0,0,0,0,0,0,0,0,0,0,0,0,0,0,0,0,0,0,0,0,0,0,0,0,0,0,0,0,0,0,0,0,0,0,0,0,0],"id":9,"left_children":[1,3,5,7,9,11,13,15,17,-1,19,21,23,25,27,-1,29,31,33,35,-1,37,39,41,43,45,-1,47,49,51,53,55,-1,57,59,61,-1,63,65,67,69,71,-1,73,75,-1,-1,77,-1,-1,79,-1,-1,-1,81,-1,-1,-1,-1,-1,83,85,-1,-1,-1,-1,-1,87,89,-1,91,93,-1,-1,95,-1,-1,97,-1,-1,-1,-1,-1,-1,-1,-1,-1,-1,-1,-1,-1,-1,-1,-1,-1,-1,-1,-1,-1],"loss_changes":[4.236501E2,9.816618E1,1.3055708E2,7.000728E1,3.4733276E1,5.0002228E1,4.1529724E1,1.4417175E1,4.53287E1,0E0,1.417453E1,4.6075256E1,3.6712536E1,1.2199249E1,2.5620344E1,0E0,9.98838E0,7.431019E0,3.307306E1,2.2181396E0,0E0,1.4224231E1,2.1080719E1,1.2191818E1,3.0476408E1,5.9250717E0,0E0,9.3011265E0,8.476364E0,6.116534E0,1.2812439E1,4.8552246E0,0E0,2.5902162E0,2.3391682E1,2.2226562E0,0E0,7.359336E0,7.7352123E0,1.4087194E0,9.456116E0,7.4452477E0,0E0,5.776202E0,1.0675938E1,0E0,0E0,1.0226557E1,0E0,0E0,5.8298607E0,0E0,0E0,0E0,1.0880173E1,0E0,0E0,0E0,0E0,0E0,1.1444107E1,2.2107544E0,0E0,0E0,0E0,0E0,0E0,2.602202E0,2.0895514E0,0E0,6.8743286E0,3.9689903E0,0E0,0E0,4.1046104E0,0E0,0E0,7.3192177E0,0E0,0E0,0E0,0E0,0E0,0E0,0E0,0E0,0E0,0E0,0E0,0E0,0E0,0E0,0E0,0E0,0E0,0E0,0E0,0E0,0E0],"parents":[2147483647,0,0,1,1,2,2,3,3,4,4,5,5,6,6,7,7,8,8,10,10,11,11,12,12,13,13,14,14,16,16,17,17,18,18,19,19,21,21,22,22,23,23,24,24,25,25,27,27,28,28,29,29,30,30,31,31,33,33,34,34,35,35,37,37,38,38,39,39,40,40,41,41,43,43,44,44,47,47,50,50,54,54,60,60,61,61,67,67,68,68,70,70,71,71,74,74,77,77],"right_children":[2,4,6,8,10,12,14,16,18,-1,20,22,24,26,28,-1,30,32,34,36,-1,38,40,42,44,46,-1,48,50,52,54,56,-1,58,60,62,-1,64,66,68,70,72,-1,74,76,-1,-1,78,-1,-1,80,-1,-1,-1,82,-1,-1,-1,-1,-1,84,86,-1,-1,-1,-1,-1,88,90,-1,92,94,-1,-1,96,-1,-1,98,-1,-1,-1,-1,-1,-1,-1,-1,-1,-1,-1,-1,-1,-1,-1,-1,-1,-1,-1,-1,-1],"split_conditions":[1.233E-1,7.6E1,9.94E-2,1.9866726E1,5.455E-1,9.202E-1,0E0,2.211E1,0E0,-0E0,2.5178146E2,7.778E-1,7E0,7.1E1,2.7E1,-0E0,6.72282E-1,1.6E0,3E1,7.58321E-1,-0E0,6.829E-1,5.5E1,8.664E1,1.2276596E1,4.86E2,-0E0,6.5E0,3.1E1,3.1E1,2.09E0,3.9959973E-1,-0E0,2E0,2.02E2,5.91E2,-0E0,1.4557E2,9.25E0,3.46E-1,2.7740293E0,4E0,-0E0,3.4E1,1E0,-2.245037E-2,-0E0,4E0,-0E0,-0E0,7.26E1,-1.2966546E-2,-0E0,-0E0,5.53277E-1,-0E0,-1.7281812E-2,-1.4254588E-2,-0E0,-0E0,1E0,9.96164E-1,-0E0,-0E0,1.3424369E-2,-0E0,-1.6700404E-2,8.433E-1,1.5E1,-0E0,1.1E1,4E0,-0E0,-0E0,2.1E1,-2.3022728E-2,-0E0,9.369E-1,-0E0,-0E0,-2.0140957E-2,-0E0,-2.267047E-2,1.8641489E-2,-0E0,-2.528122E-2,-0E0,1.0208381E-2,-0E0,-0E0,-7.705116E-3,-0E0,1.85554E-2,2.1567049E-2,-0E0,-0E0,1.349447E-2,1.678218E-2,-0E0],"split_indices":[9,17,19,5,36,36,51,10,51,0,5,31,45,4,48,0,59,44,35,58,0,39,30,10,4,30,0,31,17,43,13,52,0,44,53,30,0,10,45,50,5,41,0,35,63,0,0,27,0,0,10,0,0,0,62,0,0,0,0,0,73,61,0,0,0,0,0,38,30,0,48,3,0,0,48,0,0,36,0,0,0,0,0,0,0,0,0,0,0,0,0,0,0,0,0,0,0,0,0],"split_type":[0,0,0,0,0,0,0,0,0,0,0,0,0,0,0,0,0,0,0,0,0,0,0,0,0,0,0,0,0,0,0,0,0,0,0,0,0,0,0,0,0,0,0,0,0,0,0,0,0,0,0,0,0,0,0,0,0,0,0,0,0,0,0,0,0,0,0,0,0,0,0,0,0,0,0,0,0,0,0,0,0,0,0,0,0,0,0,0,0,0,0,0,0,0,0,0,0,0,0],"sum_hessian":[9.495848E2,3.8731857E2,5.6226624E2,2.390926E2,1.4822597E2,4.5541147E2,1.0685475E2,1.02756615E2,1.3633598E2,7.475981E0,1.4074998E2,3.6535922E2,9.0052246E1,4.2185646E1,6.4669106E1,3.2358556E0,9.952076E1,4.726242E1,8.907357E1,1.3701671E2,3.7332802E0,3.8091652E1,3.2726758E2,4.149707E1,4.8555176E1,3.670784E1,5.4778023E0,4.3248962E1,2.1420147E1,2.067101E1,7.884975E1,3.7068413E1,1.0194008E1,1.1476808E1,7.759676E1,1.3478894E2,2.2277648E0,2.1142422E1,1.694923E1,2.313832E1,3.0412924E2,2.9561195E1,1.1935875E1,1.8896347E1,2.9658829E1,3.347615E1,3.231692E0,3.9012672E1,4.236288E0,4.481074E0,1.6939074E1,8.224111E0,1.2446898E1,5.4735045E0,7.337624E1,1.2707074E1,2.4361338E1,8.736646E0,2.7401617E0,1.1219141E1,6.637762E1,1.325563E2,2.2326295E0,5.9737673E0,1.5168654E1,2.9847305E0,1.3964499E1,1.1180532E1,1.19577875E1,9.183096E0,2.9494617E2,2.7322168E1,2.239026E0,3.2462788E0,1.5650069E1,2.1434488E1,8.22434E0,3.6522236E1,2.4904394E0,2.4871573E0,1.4451916E1,8.975504E0,6.440074E1,5.7669678E1,8.707943E0,1.3031915E2,2.2371569E0,8.690567E0,2.489966E0,3.9830391E0,7.9747486E0,1.3153795E1,2.8179236E2,2.4589384E1,2.732784E0,2.4854488E0,1.316462E1,3.278625E1,3.735982E0],"tree_param":{"num_deleted":"0","num_feature":"76","num_nodes":"99","size_leaf_vector":"1"}},{"base_weights":[4.0189892E-2,5.8114976E-1,-8.5096365E-1,7.805059E-1,-5.2713364E-1,2.1444397E-1,-1.0167879E0,1.5636517E-1,1.0068318E0,-1.2808031E0,-0E0,-2.679641E-1,6.7573744E-1,-0E0,-1.1414839E0,5.6741184E-1,-6.869398E-1,1.0661439E0,-0E0,-1.4063114E0,-0E0,-7.886445E-1,2.984127E-1,-0E0,-8.117936E-3,1.0881766E0,-0E0,1.4452367E-1,-5.7043076E-1,-1.2922732E0,-3.782511E-2,8.7132996E-1,-4.2946506E-1,-1.2701081E0,-0E0,-0E0,1.1220009E0,-0E0,-1.4764607E0,-1.6162103E-2,-0E0,-0E0,8.154179E-1,1.9316714E-2,-0E0,8.981082E-3,-0E0,-8.327277E-1,-0E0,-1.4209553E0,-8.72035E-2,1.1764471E-2,-1.3316688E-2,-0E0,9.874548E-1,-8.657644E-1,-0E0,-2.1433204E-2,-0E0,6.948189E-3,-0E0,3.9033428E-1,-8.409849E-3,1.2018672E0,5.7527423E-3,-2.3339475E-2,-0E0,1.0343808E-3,-6.5547223E-3,-0E0,1.5964633E-2,-1.741856E-2,-0E0,-1.4754887E0,-0E0,-0E0,-7.848079E-1,5.138459E-1,-5.2362853E-3,1.618983E-2,-0E0,-1.6938256E-2,-0E0,1.13917645E-2,-0E0,2.042054E-2,7.5393193E-3,-0E0,5.9880153E-3,-0E0,-2.2586077E-2,-0E0,6.4407694E-3,-0E0,-1.6350836E-2,1.2932064E-2,-0E0],"categories":[],"categories_nodes":[],"categories_segments":[],"categories_sizes":[],"default_left":[1,1,0,0,1,1,0,1,0,0,0,0,0,0,0,0,0,0,0,0,0,0,0,0,0,0,0,1,0,0,0,0,0,1,0,0,0,0,1,0,0,0,0,0,0,0,0,0,0,0,0,1,0,0,0,0,0,0,0,0,0,1,0,1,0,0,0,0,0,0,0,0,0,0,0,0,0,0,0,0,0,0,0,0,0,0,0,0,0,0,0,0,0,0,0,0,0],"id":10,"left_children":[1,3,5,7,9,11,13,15,17,19,21,23,25,27,29,31,33,35,-1,37,-1,39,41,-1,-1,43,-1,45,47,49,51,53,55,57,59,61,63,-1,65,-1,-1,67,69,-1,-1,-1,-1,71,-1,73,75,77,-1,-1,79,81,-1,-1,-1,-1,-1,83,-1,85,87,-1,-1,-1,-1,-1,-1,-1,-1,89,-1,91,93,95,-1,-1,-1,-1,-1,-1,-1,-1,-1,-1,-1,-1,-1,-1,-1,-1,-1,-1,-1],"loss_changes":[4.5465204E2,1.3389206E2,6.9188416E1,6.2147766E1,3.2868217E1,1.2531042E1,3.0097565E1,4.972683E1,2.4812408E1,4.6922836E0,1.1964408E1,1.6456883E0,1.2290462E1,6.9177537E0,3.339444E1,3.5795864E1,2.7154022E1,1.9282837E1,0E0,1.3683853E0,0E0,4.663802E0,7.7090025E0,0E0,0E0,6.5006256E0,0E0,4.5224166E0,5.078443E0,2.2653137E1,9.283563E0,1.0625771E1,7.3281317E0,5.5149345E0,1.808706E0,3.811359E0,1.8813263E1,0E0,1.1631889E0,0E0,0E0,1.5670065E0,5.0513334E0,0E0,0E0,0E0,0E0,4.785162E0,0E0,1.1392578E1,8.043229E0,6.426194E0,0E0,0E0,6.184967E0,3.893961E0,0E0,0E0,0E0,0E0,0E0,2.9929538E0,0E0,1.659134E1,2.7887323E0,0E0,0E0,0E0,0E0,0E0,0E0,0E0,0E0,1.0214081E1,0E0,2.2363856E0,4.9529305E0,8.264036E0,0E0,0E0,0E0,0E0,0E0,0E0,0E0,0E0,0E0,0E0,0E0,0E0,0E0,0E0,0E0,0E0,0E0,0E0,0E0],"parents":[2147483647,0,0,1,1,2,2,3,3,4,4,5,5,6,6,7,7,8,8,9,9,10,10,11,11,12,12,13,13,14,14,15,15,16,16,17,17,19,19,21,21,22,22,25,25,27,27,28,28,29,29,30,30,31,31,32,32,33,33,34,34,35,35,36,36,38,38,41,41,42,42,47,47,49,49,50,50,51,51,54,54,55,55,61,61,63,63,64,64,73,73,75,75,76,76,77,77],"right_children":[2,4,6,8,10,12,14,16,18,20,22,24,26,28,30,32,34,36,-1,38,-1,40,42,-1,-1,44,-1,46,48,50,52,54,56,58,60,62,64,-1,66,-1,-1,68,70,-1,-1,-1,-1,72,-1,74,76,78,-1,-1,80,82,-1,-1,-1,-1,-1,84,-1,86,88,-1,-1,-1,-1,-1,-1,-1,-1,90,-1,92,94,96,-1,-1,-1,-1,-1,-1,-1,-1,-1,-1,-1,-1,-1,-1,-1,-1,-1,-1,-1],"split_conditions":[5.79657E-1,2.142E-1,6.585E-1,0E0,5.96998E-1,4.839E-1,5.49E0,8.684E-1,1.8E1,1E0,0E0,4.762E-1,4.7E1,8.505E-1,1E0,5.10615E-1,9.02E1,1.5E1,-0E0,2.70277E-1,-0E0,1.37E2,6.043028E1,-0E0,-8.117936E-3,6.50958E-1,-0E0,7.72E-1,5E0,9.21505E-1,7.71934E-1,4.09E0,1E0,1.1003E0,5.63464E-1,9.25E0,2.61E2,-0E0,2.999E1,-1.6162103E-2,-0E0,5.49843E-1,1.74E2,1.9316714E-2,-0E0,8.981082E-3,-0E0,3.0190475E1,-0E0,6.4E1,1E1,3.62E0,-1.3316688E-2,-0E0,2E0,1E0,-0E0,-2.1433204E-2,-0E0,6.948189E-3,-0E0,3.090909E1,-8.409849E-3,1.111E-1,4.98E2,-2.3339475E-2,-0E0,1.0343808E-3,-6.5547223E-3,-0E0,1.5964633E-2,-1.741856E-2,-0E0,1.54E0,-0E0,3.87E2,6.63857E-1,9.286E-1,-5.2362853E-3,1.618983E-2,-0E0,-1.6938256E-2,-0E0,1.13917645E-2,-0E0,2.042054E-2,7.5393193E-3,-0E0,5.9880153E-3,-0E0,-2.2586077E-2,-0E0,6.4407694E-3,-0E0,-1.6350836E-2,1.2932064E-2,-0E0],"split_indices":[59,19,36,51,63,44,45,36,47,65,51,8,43,38,71,58,4,35,0,60,0,0,5,0,0,58,0,50,1,63,59,15,65,20,63,45,0,0,46,0,0,58,53,0,0,0,0,4,0,0,3,14,0,0,28,71,0,0,0,0,0,4,0,8,53,0,0,0,0,0,0,0,0,16,0,24,59,36,0,0,0,0,0,0,0,0,0,0,0,0,0,0,0,0,0,0,0],"split_type":[0,0,0,0,0,0,0,0,0,0,0,0,0,0,0,0,0,0,0,0,0,0,0,0,0,0,0,0,0,0,0,0,0,0,0,0,0,0,0,0,0,0,0,0,0,0,0,0,0,0,0,0,0,0,0,0,0,0,0,0,0,0,0,0,0,0,0,0,0,0,0,0,0,0,0,0,0,0,0,0,0,0,0,0,0,0,0,0,0,0,0,0,0,0,0,0,0],"sum_hessian":[9.4798926E2,5.95993E2,3.5199625E2,5.1180368E2,8.418931E1,4.0320797E1,3.1167545E2,1.4646086E2,3.653428E2,3.4295486E1,4.989382E1,1.0463843E1,2.9856953E1,4.1276962E1,2.703985E2,1.05422356E2,4.10385E1,3.4765274E2,1.7690073E1,3.0819529E1,3.47596E0,1.4112148E1,3.5781673E1,2.2408109E0,8.223033E0,2.1891973E1,7.9649787E0,2.1391571E1,1.9885391E1,2.3094E2,3.9458485E1,8.749915E1,1.7923199E1,2.883641E1,1.2202092E1,1.8435791E1,3.2921695E2,2.231404E0,2.8588125E1,1.1633499E1,2.4786487E0,1.939639E1,1.6385283E1,1.9646338E1,2.2456365E0,1.3928084E1,7.4634857E0,1.665409E1,3.2313015E0,2.0211658E2,2.8823433E1,2.7556221E1,1.1902264E1,8.472519E0,7.9026634E1,1.4186172E1,3.737028E0,2.560923E1,3.2271805E0,8.469518E0,3.7325752E0,1.2191398E1,6.244393E0,2.9993994E2,2.927701E1,2.634947E1,2.2386537E0,1.1436144E1,7.9602475E0,2.2399113E0,1.41453705E1,1.2171236E1,4.482854E0,1.926853E2,9.431275E0,1.5409935E1,1.3413498E1,2.1628204E1,5.9280186E0,7.180388E1,7.2227535E0,1.1447758E1,2.7384136E0,8.449863E0,3.7415338E0,2.3506598E2,6.487396E1,1.1687344E1,1.7589666E1,2.2349434E0,1.9045035E2,3.2221758E0,1.2187758E1,2.2384925E0,1.1175006E1,1.8892277E1,2.7359262E0],"tree_param":{"num_deleted":"0","num_feature":"76","num_nodes":"97","size_leaf_vector":"1"}},{"base_weights":[-6.822924E-3,5.927421E-1,-7.6850784E-1,9.0129685E-1,-0E0,-9.3505114E-1,3.2888645E-1,-0E0,1.0214093E0,4.4957078E-1,-7.505954E-1,-5.241518E-1,-1.3750986E0,8.781106E-1,-3.4737298E-1,6.794321E-1,-3.7255672E-1,1.0792013E0,-0E0,1.0439378E0,-0E0,-1.1007198E0,-0E0,3.3697808E-1,-6.871909E-1,-1.4373509E0,-0E0,-0E0,1.0816864E0,-1.4076664E-2,-0E0,1.0096262E0,-0E0,-1.684689E-2,4.0662806E-3,1.1203048E0,-0E0,-0E0,-7.0520444E-3,1.1418103E0,-0E0,5.5997956E-1,-3.8349915E-1,-0E0,-1.4533668E0,-3.050854E-1,3.9431053E-1,-0E0,1.078743E-2,-1.0886014E0,-1.5139483E-1,-1.4685007E0,-0E0,-0E0,1.9207912E-2,-0E0,1.9076206E-2,-0E0,1.1589419E0,-0E0,1.2658494E0,-0E0,1.6220167E-2,-0E0,-9.0165854E-1,-0E0,-2.3924844E-2,-9.203495E-3,-0E0,-0E0,1.0003997E-2,-1.1598622E0,-0E0,1.5249091E-1,-9.6817887E-1,-0E0,-1.5127578E0,1.8094528E-2,-0E0,2.0444911E-2,-0E0,-0E0,6.3571706E-3,-0E0,-1.9694498E-2,-0E0,-1.8130407E-2,-0E0,8.385765E-3,-2.0571042E-2,-0E0,-2.322669E-2,-0E0],"categories":[],"categories_nodes":[],"categories_segments":[],"categories_sizes":[],"default_left":[0,1,0,0,0,1,0,0,1,0,0,1,0,0,0,0,0,1,0,1,1,1,0,0,0,0,0,0,0,0,0,0,0,0,0,0,0,0,0,0,0,1,0,0,0,1,0,0,0,1,0,0,0,0,0,0,0,0,1,0,1,0,0,1,0,0,0,0,0,0,0,0,0,0,0,0,0,0,0,0,0,0,0,0,0,0,0,0,0,0,0,0,0],"id":11,"left_children":[1,3,5,7,9,11,13,15,17,19,21,23,25,27,29,31,33,35,37,39,41,43,45,47,49,51,-1,-1,53,-1,-1,55,-1,-1,-1,57,-1,-1,-1,59,-1,61,63,-1,65,67,69,-1,-1,71,73,75,-1,-1,-1,-1,-1,-1,77,-1,79,-1,-1,81,83,-1,-1,-1,-1,-1,-1,85,-1,87,89,-1,91,-1,-1,-1,-1,-1,-1,-1,-1,-1,-1,-1,-1,-1,-1,-1,-1],"loss_changes":[4.3623938E2,9.625482E1,8.3086044E1,2.903244E1,6.0789627E1,5.150174E1,2.2899763E1,1.488233E1,2.2202087E1,2.9928461E1,1.9393955E1,3.1829819E1,1.3638916E1,9.886122E0,6.2682834E0,1.0197288E1,1.8792725E1,1.5174194E1,1.2071167E0,7.0964622E0,1.3836116E1,1.3898102E1,2.5525413E0,5.0570054E0,2.8074463E1,9.48645E0,0E0,0E0,7.0222588E0,0E0,0E0,4.210396E0,0E0,0E0,0E0,1.1355652E1,0E0,0E0,0E0,8.12001E0,0E0,1.2850457E1,1.3766495E1,0E0,5.3651276E0,1.7472651E0,2.146522E0,0E0,0E0,1.1406548E1,2.865324E1,9.926025E0,0E0,0E0,0E0,0E0,0E0,0E0,9.316589E0,0E0,3.5569916E0,0E0,0E0,1.9547502E0,7.048895E0,0E0,0E0,0E0,0E0,0E0,0E0,6.302101E0,0E0,7.989027E0,1.3436962E1,0E0,6.4184265E0,0E0,0E0,0E0,0E0,0E0,0E0,0E0,0E0,0E0,0E0,0E0,0E0,0E0,0E0,0E0,0E0],"parents":[2147483647,0,0,1,1,2,2,3,3,4,4,5,5,6,6,7,7,8,8,9,9,10,10,11,11,12,12,13,13,14,14,15,15,16,16,17,17,18,18,19,19,20,20,21,21,22,22,23,23,24,24,25,25,28,28,31,31,35,35,39,39,41,41,42,42,44,44,45,45,46,46,49,49,50,50,51,51,58,58,60,60,63,63,64,64,71,71,73,73,74,74,76,76],"right_children":[2,4,6,8,10,12,14,16,18,20,22,24,26,28,30,32,34,36,38,40,42,44,46,48,50,52,-1,-1,54,-1,-1,56,-1,-1,-1,58,-1,-1,-1,60,-1,62,64,-1,66,68,70,-1,-1,72,74,76,-1,-1,-1,-1,-1,-1,78,-1,80,-1,-1,82,84,-1,-1,-1,-1,-1,-1,86,-1,88,90,-1,92,-1,-1,-1,-1,-1,-1,-1,-1,-1,-1,-1,-1,-1,-1,-1,-1],"split_conditions":[5.38047E-1,2E0,4.999E1,2.2E1,8.314E-1,4.3E1,5E0,5.49E0,1.3379213E2,6.2E1,1.3603604E0,4.886E1,1.22E2,7.36E0,1.6661236E1,1E0,2.099E1,1.415E0,8.6657774E-1,1.022E0,5.711222E-1,1.1615363E1,3.74545E-1,2.1E1,2.35E2,1E0,-0E0,-0E0,4.286E-1,-1.4076664E-2,-0E0,1.99E0,-0E0,-1.684689E-2,4.0662806E-3,1.45E2,-0E0,-0E0,-7.0520444E-3,2.9E1,-0E0,3.954E1,6.045E-1,-0E0,5.098E-1,9.995599E1,5.4575E-1,-0E0,1.078743E-2,4.27E0,8.906E-1,3.55E-1,-0E0,-0E0,1.9207912E-2,-0E0,1.9076206E-2,-0E0,6.32771E-1,-0E0,5.51137E-1,-0E0,1.6220167E-2,5.96E0,6.5E1,-0E0,-2.3924844E-2,-9.203495E-3,-0E0,-0E0,1.0003997E-2,8.7E-2,-0E0,9.6E1,1.529E1,-0E0,2E0,1.8094528E-2,-0E0,2.0444911E-2,-0E0,-0E0,6.3571706E-3,-0E0,-1.9694498E-2,-0E0,-1.8130407E-2,-0E0,8.385765E-3,-2.0571042E-2,-0E0,-2.322669E-2,-0E0],"split_indices":[58,24,46,35,39,17,2,45,5,17,52,10,0,12,5,73,45,50,52,50,52,5,60,48,53,72,0,0,31,0,0,45,0,0,0,53,0,0,0,6,0,16,39,0,37,5,57,0,0,15,36,20,0,0,0,0,0,0,59,0,60,0,0,12,6,0,0,0,0,0,0,44,0,6,46,0,32,0,0,0,0,0,0,0,0,0,0,0,0,0,0,0,0],"split_type":[0,0,0,0,0,0,0,0,0,0,0,0,0,0,0,0,0,0,0,0,0,0,0,0,0,0,0,0,0,0,0,0,0,0,0,0,0,0,0,0,0,0,0,0,0,0,0,0,0,0,0,0,0,0,0,0,0,0,0,0,0,0,0,0,0,0,0,0,0,0,0,0,0,0,0,0,0,0,0,0,0,0,0,0,0,0,0,0,0,0,0,0,0],"sum_hessian":[9.5188116E2,5.262138E2,4.2566736E2,3.4608328E2,1.8013054E2,3.7648242E2,4.9184914E1,4.8781487E1,2.973018E2,1.1264311E2,6.7487434E1,2.0494405E2,1.7153839E2,3.4261353E1,1.4923559E1,2.5124142E1,2.3657343E1,2.8537564E2,1.1926146E1,4.835185E1,6.429126E1,4.73885E1,2.0098932E1,2.410586E1,1.808382E2,1.636029E2,7.935479E0,3.2336457E0,3.1027708E1,9.206001E0,5.7175584E0,2.138101E1,3.7431302E0,1.7209879E1,6.4474654E0,2.7690927E2,8.466379E0,6.4393363E0,5.4868093E0,4.586096E1,2.4908895E0,2.6306318E1,3.7984943E1,1.3627659E1,3.376084E1,9.178205E0,1.0920727E1,8.962884E0,1.5142977E1,9.407374E1,8.676446E1,1.6113478E2,2.468116E0,4.476828E0,2.6550879E1,5.224158E0,1.6156853E1,9.701126E0,2.6720816E2,3.4801083E0,4.238085E1,8.174716E0,1.8131603E1,1.4181144E1,2.3803799E1,3.47351E0,3.0287333E1,6.943285E0,2.2349195E0,2.2361717E0,8.684555E0,9.1348045E1,2.7256925E0,5.5452026E1,3.1312428E1,4.9529443E0,1.5618184E2,2.5427489E2,1.2933254E1,3.865703E1,3.7238228E0,3.246332E0,1.0934812E1,8.414822E0,1.5388976E1,2.4870112E0,8.886103E1,2.5620844E1,2.9831182E1,2.2861063E1,8.451364E0,1.5248239E2,3.6994462E0],"tree_param":{"num_deleted":"0","num_feature":"76","num_nodes":"93","size_leaf_vector":"1"}},{"base_weights":[9.826473E-3,5.8585805E-1,-9.1995114E-1,-4.8975006E-2,8.8037854E-1,1.2916079E-1,-1.069614E0,6.282931E-1,-5.483537E-1,9.564905E-1,-3.8733754E-1,6.154403E-1,-7.903153E-3,-6.525239E-1,-1.4689362E0,1.0045624E0,-1.5343337E-2,-0E0,-1.0599749E0,1.0820713E0,2.4107559E-1,-1.3405673E-2,-0E0,8.2648504E-1,-0E0,-1.0725951E0,-0E0,-0E0,-1.5336456E0,1.1020092E0,-0E0,-0E0,-4.1573492E-1,-3.509527E-1,3.842257E-1,-1.3205302E0,-0E0,1.1986449E0,7.2357394E-2,8.2934195E-1,-1.5564364E-1,1.0188242E0,-0E0,-1.2649012E0,-0E0,1.580461E-1,-6.35279E-1,-0E0,-1.5681369E0,-0E0,1.1854228E0,-0E0,-1.0384457E-2,-1.3931911E-2,-0E0,6.6557974E-1,-0E0,-0E0,-1.5470643E0,1.2317991E0,-0E0,-4.2708975E-1,5.951948E-1,1.088874E0,-0E0,1.2894586E-1,-7.3835987E-1,-0E0,1.7763339E-2,-1.3999656E0,-0E0,-0E0,-3.0071706E-1,5.147036E-1,-2.3100519E-1,-0E0,-8.239261E-1,-2.3829585E-2,-0E0,-0E0,1.862758E-2,1.22587895E-2,-0E0,-2.4103863E-2,-0E0,1.8903561E-2,-0E0,-0E0,-1.5336604E-2,1.3846834E-2,-0E0,-0E0,1.7819313E-2,-0E0,1.008371E-2,-0E0,-1.3461671E-2,-2.25027E-2,-0E0,-0E0,-1.0215783E-2,-0E0,1.5109615E-2,-9.531062E-3,-0E0,-0E0,-1.7394628E-2],"categories":[],"categories_nodes":[],"categories_segments":[],"categories_sizes":[],"default_left":[1,0,0,1,1,0,1,0,0,0,1,1,0,0,1,1,1,1,0,1,0,0,0,0,0,0,0,0,0,0,0,0,0,1,0,1,0,1,0,1,1,0,0,0,0,1,0,0,0,0,0,0,0,0,0,0,0,0,0,0,0,0,1,0,0,0,0,0,0,0,0,0,0,1,0,0,0,0,0,0,0,0,0,0,0,0,0,0,0,0,0,0,0,0,0,0,0,0,0,0,0,0,0,0,0,0,0],"id":12,"left_children":[1,3,5,7,9,11,13,15,17,19,21,23,-1,25,27,29,31,33,35,37,39,-1,-1,41,-1,43,45,-1,47,49,-1,-1,51,53,55,57,-1,59,61,63,65,67,-1,69,71,73,75,-1,77,-1,79,-1,-1,-1,-1,81,-1,-1,83,85,-1,87,89,91,-1,93,95,-1,-1,97,-1,-1,99,101,103,-1,105,-1,-1,-1,-1,-1,-1,-1,-1,-1,-1,-1,-1,-1,-1,-1,-1,-1,-1,-1,-1,-1,-1,-1,-1,-1,-1,-1,-1,-1,-1],"loss_changes":[5.1079504E2,1.1907056E2,6.490701E1,6.0227608E1,4.5289337E1,1.2822079E1,3.5338226E1,2.5350536E1,3.8655674E1,2.4457275E1,6.525568E0,7.3958015E0,0E0,4.205332E1,1.8329315E1,7.388214E0,1.7141566E0,6.5679765E0,1.8127563E1,2.781366E1,2.226477E1,0E0,0E0,5.737356E0,0E0,1.1911278E1,8.886994E0,0E0,9.897522E0,3.8334084E0,0E0,0E0,1.8346801E0,5.64697E0,6.3815947E0,1.2767471E1,0E0,1.04216E1,1.2423329E1,1.1416988E1,1.0802754E1,1.4068661E0,0E0,1.3187195E1,1.3259631E0,9.541853E0,3.6743937E0,0E0,1.5291443E0,0E0,2.0702477E0,0E0,0E0,0E0,0E0,3.9068737E0,0E0,0E0,1.8437119E0,1.024707E1,0E0,7.234604E0,8.225505E0,2.9770126E0,0E0,4.1462345E0,3.5758047E0,0E0,0E0,9.245407E0,0E0,0E0,4.1829815E0,1.4699686E1,3.2099884E0,0E0,5.314439E0,0E0,0E0,0E0,0E0,0E0,0E0,0E0,0E0,0E0,0E0,0E0,0E0,0E0,0E0,0E0,0E0,0E0,0E0,0E0,0E0,0E0,0E0,0E0,0E0,0E0,0E0,0E0,0E0,0E0,0E0],"parents":[2147483647,0,0,1,1,2,2,3,3,4,4,5,5,6,6,7,7,8,8,9,9,10,10,11,11,13,13,14,14,15,15,16,16,17,17,18,18,19,19,20,20,23,23,25,25,26,26,28,28,29,29,32,32,33,33,34,34,35,35,37,37,38,38,39,39,40,40,41,41,43,43,44,44,45,45,46,46,48,48,50,50,55,55,58,58,59,59,61,61,62,62,63,63,65,65,66,66,69,69,72,72,73,73,74,74,76,76],"right_children":[2,4,6,8,10,12,14,16,18,20,22,24,-1,26,28,30,32,34,36,38,40,-1,-1,42,-1,44,46,-1,48,50,-1,-1,52,54,56,58,-1,60,62,64,66,68,-1,70,72,74,76,-1,78,-1,80,-1,-1,-1,-1,82,-1,-1,84,86,-1,88,90,92,-1,94,96,-1,-1,98,-1,-1,100,102,104,-1,106,-1,-1,-1,-1,-1,-1,-1,-1,-1,-1,-1,-1,-1,-1,-1,-1,-1,-1,-1,-1,-1,-1,-1,-1,-1,-1,-1,-1,-1,-1],"split_conditions":[5.81085E-1,0E0,6.585E-1,5.19496E-1,1.529E0,6.28021E-1,3.1E1,8.81E-1,4.76807E-1,9.259E-1,4.116E2,2.9769E0,-7.903153E-3,7E1,2.5E-1,2.34E-1,9.5E0,2E1,1E0,2.05E2,7E0,-1.3405673E-2,-0E0,5.58082E-1,-0E0,1.34E2,8.45412E-1,-0E0,9E0,5.105E-1,-0E0,-0E0,2E0,5E0,7.26182E-1,4.55E-2,-0E0,3.45E-1,6.77E2,4.69658E-1,4.9497476E0,7.558372E-1,-0E0,2.20775E2,2E0,7.69E-1,4.167E-1,-0E0,4.34E2,-0E0,1.5E1,-0E0,-1.0384457E-2,-1.3931911E-2,-0E0,9.346E-1,-0E0,-0E0,1.97E2,1.3E1,-0E0,5.2362375E0,1.1334223E0,5.185E1,-0E0,2.8E1,1.132E1,-0E0,1.7763339E-2,6.5E1,-0E0,-0E0,1.42E2,2.009221E1,3.7428E0,-0E0,8.871E-1,-2.3829585E-2,-0E0,-0E0,1.862758E-2,1.22587895E-2,-0E0,-2.4103863E-2,-0E0,1.8903561E-2,-0E0,-0E0,-1.5336604E-2,1.3846834E-2,-0E0,-0E0,1.7819313E-2,-0E0,1.008371E-2,-0E0,-1.3461671E-2,-2.25027E-2,-0E0,-0E0,-1.0215783E-2,-0E0,1.5109615E-2,-9.531062E-3,-0E0,-0E0,-1.7394628E-2],"split_indices":[59,51,36,63,50,58,17,36,58,36,10,11,0,35,37,19,4,48,65,17,45,0,0,61,0,6,62,0,6,36,0,0,42,31,62,31,0,21,35,59,5,52,0,50,56,50,8,0,6,0,6,0,0,0,0,39,0,0,0,3,0,5,52,12,0,35,12,0,0,0,0,0,6,5,11,0,36,0,0,0,0,0,0,0,0,0,0,0,0,0,0,0,0,0,0,0,0,0,0,0,0,0,0,0,0,0,0],"split_type":[0,0,0,0,0,0,0,0,0,0,0,0,0,0,0,0,0,0,0,0,0,0,0,0,0,0,0,0,0,0,0,0,0,0,0,0,0,0,0,0,0,0,0,0,0,0,0,0,0,0,0,0,0,0,0,0,0,0,0,0,0,0,0,0,0,0,0,0,0,0,0,0,0,0,0,0,0,0,0,0,0,0,0,0,0,0,0,0,0,0,0,0,0,0,0,0,0,0,0,0,0,0,0,0,0,0,0],"sum_hessian":[9.5916125E2,5.9803876E2,3.611225E2,1.8013568E2,4.1790308E2,3.78065E1,3.2331598E2,6.903564E1,1.1110005E2,4.0072687E2,1.7176208E1,2.9341154E1,8.465346E0,1.6882852E2,1.5448746E2,5.2121117E1,1.6914516E1,4.696247E1,6.413758E1,3.305134E2,7.021347E1,1.1450987E1,5.725223E0,2.7096325E1,2.2448292E0,9.903647E1,6.979206E1,4.968866E0,1.495186E2,4.939441E1,2.7267084E0,6.974822E0,9.939694E0,1.4937215E1,3.2025257E1,5.1719456E1,1.2418119E1,2.8855734E2,4.1956028E1,3.7137318E1,3.3076153E1,2.3358149E1,3.7381773E0,7.865639E1,2.0380081E1,5.092476E1,1.88673E1,2.4801278E0,1.4703847E2,3.97902E0,4.541539E1,2.4918432E0,7.4478517E0,8.719998E0,6.217217E0,2.5077204E1,6.9480534E0,8.703359E0,4.3016098E1,2.8010147E2,8.455888E0,1.2923105E1,2.9032925E1,3.1172651E1,5.9646664E0,1.2163356E1,2.0912798E1,4.9770393E0,1.838111E1,7.093971E1,7.7166753E0,5.7185307E0,1.46615505E1,3.8268826E1,1.2655932E1,2.2385163E0,1.6628784E1,1.4457526E2,2.463203E0,2.481965E0,4.2933426E1,2.2591557E1,2.485647E0,4.0782833E1,2.2332678E0,2.7539108E2,4.7103906E0,3.703913E0,9.219192E0,2.1827364E1,7.2055616E0,2.73569E0,2.8436962E1,2.495286E0,9.66807E0,2.2269986E0,1.8685799E1,6.620775E1,4.731966E0,2.727802E0,1.1933748E1,1.3671555E1,2.4597271E1,9.6693325E0,2.9865994E0,4.222842E0,1.2405941E1],"tree_param":{"num_deleted":"0","num_feature":"76","num_nodes":"107","size_leaf_vector":"1"}},{"base_weights":[-5.6923963E-2,5.492403E-1,-7.358531E-1,-6.31538E-2,8.3196515E-1,5.2642014E-2,-9.4213E-1,-4.9924967E-1,9.4977444E-1,9.7078025E-1,-0E0,5.7997864E-1,-4.844127E-1,-0E0,-1.1011235E0,4.6197537E-1,-7.112522E-1,1.1122844E0,-0E0,-0E0,1.0536222E0,-1.4112504E-1,7.6288213E-3,8.774826E-1,-3.89096E-3,-8.5990053E-1,-0E0,2.2137526E-1,-1.2849247E-2,-1.2815882E0,-1.3332534E-2,-0E0,9.938123E-3,-0E0,-8.9090836E-1,1.2352908E0,-0E0,1.198185E0,8.9744344E-2,3.4079778E-3,-5.7273227E-1,1.0083789E0,-0E0,-1.0273516E0,-0E0,-0E0,7.040993E-1,-1.3113822E0,-0E0,1.4097835E-1,-8.007526E-1,-6.8975255E-2,-1.2795246E0,1.982798E-2,-0E0,1.2365236E0,-0E0,8.2499975E-1,-4.3311462E-1,-9.6329075E-1,-0E0,1.1301991E0,-0E0,-1.7677424E-2,-0E0,-0E0,9.5589507E-1,-0E0,-1.3452374E0,-2.9163256E-1,6.706946E-1,-0E0,-1.8064387E-2,-0E0,-6.982425E-3,-2.0667274E-2,-0E0,-0E0,1.9137848E-2,1.5719255E-2,-0E0,-0E0,-1.4345043E-2,-1.8566139E-2,-0E0,-0E0,1.9043451E-2,-0E0,1.7936358E-2,-0E0,-2.0636255E-2,-9.427483E-3,-0E0,1.5529037E-2,-0E0],"categories":[],"categories_nodes":[],"categories_segments":[],"categories_sizes":[],"default_left":[1,0,0,1,1,0,1,0,1,0,1,0,0,0,0,0,0,0,0,0,0,0,0,0,0,0,0,1,0,0,1,0,0,0,1,1,0,0,0,0,0,0,0,0,0,0,0,0,0,0,0,0,1,0,0,0,0,1,1,0,0,0,0,0,0,0,0,0,0,1,0,0,0,0,0,0,0,0,0,0,0,0,0,0,0,0,0,0,0,0,0,0,0,0,0],"id":13,"left_children":[1,3,5,7,9,11,13,15,17,19,21,23,25,27,29,31,33,35,-1,-1,37,39,-1,41,-1,43,-1,45,-1,47,49,-1,-1,-1,51,53,-1,55,57,-1,59,61,-1,63,-1,-1,65,67,-1,69,71,73,75,-1,-1,77,-1,79,81,83,-1,85,-1,-1,-1,-1,87,-1,89,91,93,-1,-1,-1,-1,-1,-1,-1,-1,-1,-1,-1,-1,-1,-1,-1,-1,-1,-1,-1,-1,-1,-1,-1,-1],"loss_changes":[3.824774E2,9.018182E1,7.9862915E1,5.9030785E1,4.0526398E1,2.4383827E1,4.9847992E1,2.3706577E1,8.671978E0,2.671698E1,2.8844087E0,1.7913635E1,9.148279E0,1.2834695E1,4.8529114E1,1.3044407E0,1.5811691E1,6.3681145E0,0E0,0E0,2.6706177E1,9.207971E0,0E0,6.9846725E0,0E0,4.857933E0,0E0,9.475064E0,0E0,1.58142395E1,1.1862171E1,0E0,0E0,0E0,1.3734341E1,2.4290543E0,0E0,1.4549622E1,2.0099325E1,0E0,1.1548689E1,7.4269753E0,0E0,1.5642262E0,0E0,0E0,6.9381065E0,1.3731781E1,0E0,1.0812519E1,1.01082735E1,3.7064798E0,6.693535E0,0E0,0E0,9.586914E0,0E0,7.2986584E0,9.25259E0,8.197334E0,0E0,6.910927E0,0E0,0E0,0E0,0E0,6.714117E0,0E0,1.0318176E1,1.8808081E0,1.1493543E1,0E0,0E0,0E0,0E0,0E0,0E0,0E0,0E0,0E0,0E0,0E0,0E0,0E0,0E0,0E0,0E0,0E0,0E0,0E0,0E0,0E0,0E0,0E0,0E0],"parents":[2147483647,0,0,1,1,2,2,3,3,4,4,5,5,6,6,7,7,8,8,9,9,10,10,11,11,12,12,13,13,14,14,15,15,16,16,17,17,20,20,21,21,23,23,25,25,27,27,29,29,30,30,34,34,35,35,37,37,38,38,40,40,41,41,43,43,46,46,47,47,49,49,50,50,51,51,52,52,55,55,57,57,58,58,59,59,61,61,66,66,68,68,69,69,70,70],"right_children":[2,4,6,8,10,12,14,16,18,20,22,24,26,28,30,32,34,36,-1,-1,38,40,-1,42,-1,44,-1,46,-1,48,50,-1,-1,-1,52,54,-1,56,58,-1,60,62,-1,64,-1,-1,66,68,-1,70,72,74,76,-1,-1,78,-1,80,82,84,-1,86,-1,-1,-1,-1,88,-1,90,92,94,-1,-1,-1,-1,-1,-1,-1,-1,-1,-1,-1,-1,-1,-1,-1,-1,-1,-1,-1,-1,-1,-1,-1,-1],"split_conditions":[3.452E-1,0E0,7.04E-1,4.9E1,8.91E-1,2.1911E2,2.6617745E-1,6.585E-1,4.39416E-1,4.2E-2,4.9475E2,8.49849E-1,3.45E2,1.5E1,2.83E2,6E0,4.93467E-1,8.983E-1,-0E0,-0E0,9.369E-1,5.425E1,7.6288213E-3,1.6E1,-3.89096E-3,2.5358E0,-0E0,8.92E-1,-1.2849247E-2,4.246618E6,1.9E1,-0E0,9.938123E-3,-0E0,-1.025E-1,7.328E-1,-0E0,1.3E1,7E0,3.4079778E-3,1.7147963E0,4.316E1,-0E0,3.92025E-1,-0E0,-0E0,3.84253E-1,1.333E-1,-0E0,1.075E3,7.579E-1,1.2E2,1.26667E1,1.982798E-2,-0E0,2.25E0,-0E0,5.31E0,3.5E0,1E0,-0E0,1.425E-1,-0E0,-1.7677424E-2,-0E0,-0E0,6.21E0,-0E0,1.54E0,2.5E0,9.286E-1,-0E0,-1.8064387E-2,-0E0,-6.982425E-3,-2.0667274E-2,-0E0,-0E0,1.9137848E-2,1.5719255E-2,-0E0,-0E0,-1.4345043E-2,-1.8566139E-2,-0E0,-0E0,1.9043451E-2,-0E0,1.7936358E-2,-0E0,-2.0636255E-2,-9.427483E-3,-0E0,1.5529037E-2,-0E0],"split_indices":[11,51,36,48,50,10,52,36,61,18,10,59,53,3,30,47,63,36,0,0,36,10,0,3,0,11,0,37,0,55,17,0,0,0,40,40,0,3,45,0,52,4,0,57,0,0,63,8,0,55,36,6,31,0,0,14,0,12,4,32,0,19,0,0,0,0,12,0,16,44,36,0,0,0,0,0,0,0,0,0,0,0,0,0,0,0,0,0,0,0,0,0,0,0,0],"split_type":[0,0,0,0,0,0,0,0,0,0,0,0,0,0,0,0,0,0,0,0,0,0,0,0,0,0,0,0,0,0,0,0,0,0,0,0,0,0,0,0,0,0,0,0,0,0,0,0,0,0,0,0,0,0,0,0,0,0,0,0,0,0,0,0,0,0,0,0,0,0,0,0,0,0,0,0,0,0,0,0,0,0,0,0,0,0,0,0,0,0,0,0,0,0,0],"sum_hessian":[9.254163E2,4.821183E2,4.43298E2,1.4253065E2,3.3958765E2,8.3151855E1,3.6014615E2,1.0565673E2,3.6873928E1,2.9241608E2,4.717156E1,5.015284E1,3.2999012E1,5.5383415E1,3.0476273E2,1.1655019E1,9.400171E1,3.3895313E1,2.9786146E0,2.0108627E1,2.7230746E2,3.8983456E1,8.188104E0,4.4700245E1,5.452596E0,2.2843414E1,1.01556E1,4.05284E1,1.4855014E1,2.5451706E2,5.0245674E1,2.9752285E0,8.6797905E0,1.4168661E1,7.9833046E1,3.1654036E1,2.2412796E0,2.2892128E2,4.3386177E1,1.01335945E1,2.8849861E1,4.071729E1,3.9829578E0,2.0606007E1,2.2374067E0,1.7410759E1,2.3117641E1,2.5227919E2,2.2378776E0,3.2748226E1,1.7497446E1,3.2836475E1,4.6996574E1,2.9175089E1,2.4789462E0,2.2446162E2,4.459648E0,2.4965693E1,1.8420485E1,2.2643291E1,6.20657E0,3.8226906E1,2.4903805E0,1.6867302E1,3.7387059E0,2.982367E0,2.0135275E1,4.9503155E0,2.4732887E2,8.959892E0,2.3788336E1,2.7208753E0,1.4776571E1,1.4924417E1,1.7912058E1,4.427088E1,2.7256918E0,6.68008E0,2.1778156E2,2.2226267E1,2.7394257E0,4.4586926E0,1.3961792E1,1.9158155E1,3.4851356E0,3.475822E0,3.4751083E1,2.486894E0,1.764838E1,4.218065E0,2.4311081E2,6.7222476E0,2.2376442E0,2.0808119E1,2.980217E0],"tree_param":{"num_deleted":"0","num_feature":"76","num_nodes":"95","size_leaf_vector":"1"}},{"base_weights":[3.953367E-2,5.4907215E-1,-7.4463654E-1,-6.506986E-2,8.264323E-1,-1.2706498E0,-2.7191687E-1,3.421754E-1,-7.446492E-1,1.0360882E0,1.619131E-1,-0E0,-1.3150986E0,-8.650354E-1,4.187942E-2,6.5905154E-1,-1.3413015E-1,-0E0,-1.1316916E0,1.1152426E0,-0E0,-7.06271E-1,4.1896227E-1,-0E0,-1.3579034E0,-1.1303873E-2,-1.2975748E0,4.8064676E-1,-4.6062836E-1,8.978234E-1,-0E0,-5.6709945E-1,6.192726E-5,3.233203E-1,-3.6808324E-1,-1.2664648E0,-0E0,-0E0,1.1401862E0,-1.39593E-2,-0E0,8.330455E-1,-0E0,-1.4247835E0,-0E0,-4.7633448E-1,8.913251E-5,-1.4051542E0,-0E0,-0E0,8.494634E-1,-8.0331695E-1,1.3946653E-3,9.981012E-1,-0E0,-6.7024212E-3,1.9541258E-1,-0E0,-9.3430233E-1,-0E0,9.966084E-3,-0E0,-1.029217E-2,-0E0,-1.369253E0,1.1675972E0,-0E0,9.70895E-1,-0E0,3.1894132E-2,-5.8533174E-1,-1.4575604E0,-0E0,-7.9748863E-1,-0E0,-1.5027705E0,-0E0,-0E0,1.0231375E0,-9.4067657E-1,-0E0,1.7178377E-2,-0E0,7.851979E-3,-0E0,-1.6368832E-2,-0E0,-0E0,-2.139896E-2,-0E0,1.8004194E-2,1.6122365E-2,-0E0,4.792523E-3,-0E0,-1.4254741E-2,-0E0,-0E0,-2.2401497E-2,-0E0,-1.5058836E-2,-0E0,-2.352544E-2,1.6933328E-2,-0E0,-1.5637536E-2,-0E0],"categories":[],"categories_nodes":[],"categories_segments":[],"categories_sizes":[],"default_left":[0,0,0,1,1,0,0,0,0,0,0,0,1,0,0,0,0,0,1,0,0,1,1,0,0,1,0,0,0,1,0,0,0,1,0,0,0,0,0,0,0,0,1,0,0,0,0,0,0,0,0,1,0,0,0,0,0,0,1,0,0,0,0,0,0,1,0,0,0,0,0,0,0,0,0,0,0,0,0,0,0,0,0,0,0,0,0,0,0,0,0,0,0,0,0,0,0,0,0,0,0,0,0,0,0,0,0],"id":14,"left_children":[1,3,5,7,9,11,13,15,17,19,21,-1,23,25,27,29,31,33,35,37,-1,39,41,-1,43,45,47,49,51,53,55,57,-1,59,61,63,-1,-1,65,-1,-1,67,69,71,-1,73,-1,75,-1,-1,77,79,-1,81,-1,-1,83,-1,85,-1,-1,-1,-1,-1,87,89,-1,91,-1,93,95,97,-1,99,-1,101,-1,-1,103,105,-1,-1,-1,-1,-1,-1,-1,-1,-1,-1,-1,-1,-1,-1,-1,-1,-1,-1,-1,-1,-1,-1,-1,-1,-1,-1,-1],"loss_changes":[3.7564804E2,1.05301865E2,7.735516E1,5.067379E1,4.649893E1,1.4989899E1,4.460929E1,1.9450966E1,2.168755E1,2.7702057E1,2.1600422E1,0E0,1.1209076E1,1.7826027E1,2.7050644E1,1.1074026E1,6.609843E0,2.7975063E0,9.175026E0,1.0691376E1,0E0,4.2187147E0,2.2995747E1,0E0,9.270752E0,4.372179E0,8.453285E0,1.3594343E1,1.5217346E1,7.073288E0,1.6311375E0,8.951277E0,0E0,2.913573E0,2.2478836E0,6.863823E0,0E0,0E0,1.083786E1,0E0,0E0,1.1405945E1,5.429455E0,7.682373E0,0E0,4.7325544E0,0E0,4.999649E0,0E0,0E0,8.135159E0,6.304001E0,0E0,6.011387E0,0E0,0E0,2.2765002E0,0E0,1.3225842E0,0E0,0E0,0E0,0E0,0E0,1.7599869E0,9.258484E0,0E0,7.919224E0,0E0,1.6718258E0,6.3287487E0,3.960907E0,0E0,1.7706366E0,0E0,2.1765213E0,0E0,0E0,5.4002037E0,4.047659E0,0E0,0E0,0E0,0E0,0E0,0E0,0E0,0E0,0E0,0E0,0E0,0E0,0E0,0E0,0E0,0E0,0E0,0E0,0E0,0E0,0E0,0E0,0E0,0E0,0E0,0E0,0E0],"parents":[2147483647,0,0,1,1,2,2,3,3,4,4,5,5,6,6,7,7,8,8,9,9,10,10,12,12,13,13,14,14,15,15,16,16,17,17,18,18,19,19,21,21,22,22,24,24,25,25,26,26,27,27,28,28,29,29,30,30,31,31,33,33,34,34,35,35,38,38,41,41,42,42,43,43,45,45,47,47,50,50,51,51,53,53,56,56,58,58,64,64,65,65,67,67,69,69,70,70,71,71,73,73,75,75,78,78,79,79],"right_children":[2,4,6,8,10,12,14,16,18,20,22,-1,24,26,28,30,32,34,36,38,-1,40,42,-1,44,46,48,50,52,54,56,58,-1,60,62,64,-1,-1,66,-1,-1,68,70,72,-1,74,-1,76,-1,-1,78,80,-1,82,-1,-1,84,-1,86,-1,-1,-1,-1,-1,88,90,-1,92,-1,94,96,98,-1,100,-1,102,-1,-1,104,106,-1,-1,-1,-1,-1,-1,-1,-1,-1,-1,-1,-1,-1,-1,-1,-1,-1,-1,-1,-1,-1,-1,-1,-1,-1,-1,-1],"split_conditions":[5.57127E-1,0E0,0E0,2E0,7.69E-2,-3.333E-1,7.028E-1,8.983E-1,7.43E-1,1.8E1,3.4E1,-0E0,1.034E-1,8.1801635E-1,7.26205E-1,2.12E2,1E0,4.56788E-1,6.1E1,1.18982E-1,-0E0,9.2E-1,6.16E-1,-0E0,2.8689178E2,3.95E-2,1.0383E4,3.6E1,2.8E2,1.010009E0,4.225E2,1.3478E0,6.192726E-5,2.25E0,-1.831E-1,8.789724E0,-0E0,-0E0,3E0,-1.39593E-2,-0E0,3.7421E2,7.215E-1,1.657E3,-0E0,4.3E1,8.913251E-5,8.4E1,-0E0,-0E0,7.36E0,3.5E1,1.3946653E-3,5E0,-0E0,-6.7024212E-3,7.292E-1,-0E0,5E1,-0E0,9.966084E-3,-0E0,-1.029217E-2,-0E0,1.1E1,3.056E-1,-0E0,9.286E-1,-0E0,4.707E-1,1E0,2.65E0,-0E0,8.086E-1,-0E0,1.08E-2,-0E0,-0E0,1.3E1,5.5E1,-0E0,1.7178377E-2,-0E0,7.851979E-3,-0E0,-1.6368832E-2,-0E0,-0E0,-2.139896E-2,-0E0,1.8004194E-2,1.6122365E-2,-0E0,4.792523E-3,-0E0,-1.4254741E-2,-0E0,-0E0,-2.2401497E-2,-0E0,-1.5058836E-2,-0E0,-2.352544E-2,1.6933328E-2,-0E0,-1.5637536E-2,-0E0],"split_indices":[58,51,51,24,8,40,63,36,39,47,35,0,44,52,59,10,65,58,4,59,0,50,50,0,5,40,35,48,30,52,10,31,0,31,40,5,0,0,56,0,0,10,37,41,0,0,0,4,0,0,12,48,0,3,0,0,63,0,48,0,0,0,0,0,30,36,0,36,0,57,34,12,0,36,0,18,0,0,3,0,0,0,0,0,0,0,0,0,0,0,0,0,0,0,0,0,0,0,0,0,0,0,0,0,0,0,0],"split_type":[0,0,0,0,0,0,0,0,0,0,0,0,0,0,0,0,0,0,0,0,0,0,0,0,0,0,0,0,0,0,0,0,0,0,0,0,0,0,0,0,0,0,0,0,0,0,0,0,0,0,0,0,0,0,0,0,0,0,0,0,0,0,0,0,0,0,0,0,0,0,0,0,0,0,0,0,0,0,0,0,0,0,0,0,0,0,0,0,0,0,0,0,0,0,0,0,0,0,0,0,0,0,0,0,0,0,0],"sum_hessian":[9.44411E2,5.7919104E2,3.6521994E2,1.7040854E2,4.087825E2,1.6412846E2,2.0109149E2,9.8526764E1,7.188177E1,3.0076144E2,1.08021065E2,2.2400262E0,1.6188843E2,7.919851E1,1.2189298E2,7.01653E1,2.8361465E1,2.3826757E1,4.8055008E1,2.8185596E2,1.8905478E1,1.6921808E1,9.109926E1,3.9665275E0,1.579219E2,3.341614E1,4.578237E1,7.43432E1,4.754978E1,5.1545074E1,1.8620226E1,2.2138006E1,6.2234597E0,1.3924571E1,9.902185E0,4.409157E1,3.9634383E0,3.973341E0,2.7788263E2,1.4688387E1,2.2334216E0,5.6178246E1,3.4921013E1,1.4801077E2,9.911141E0,1.9285091E1,1.413105E1,4.3321617E1,2.4607544E0,3.1703053E1,4.264015E1,3.9101925E1,8.447857E0,4.880805E1,2.7370257E0,5.73096E0,1.2889267E1,3.7282746E0,1.840973E1,3.9795094E0,9.945062E0,2.2415433E0,7.6606426E0,2.7105157E0,4.1381054E1,2.7293814E2,4.9444833E0,5.3457867E1,2.7203772E0,1.913183E1,1.5789181E1,1.4504489E2,2.965882E0,1.4320625E1,4.9644656E0,4.0090008E1,3.231608E0,5.476398E0,3.716375E1,3.5640045E1,3.4618793E0,4.18594E1,6.9486465E0,1.01523695E1,2.736897E0,1.4676437E1,3.7332945E0,2.205083E0,3.9175972E1,6.9439483E0,2.659942E2,5.0720478E1,2.7373908E0,1.6647665E1,2.484166E0,1.3060453E1,2.7287269E0,4.426095E0,1.4061879E2,3.4748826E0,1.0845742E1,2.2146E0,3.787541E1,3.493389E1,2.2298565E0,3.2901623E1,2.7384214E0],"tree_param":{"num_deleted":"0","num_feature":"76","num_nodes":"107","size_leaf_vector":"1"}},{"base_weights":[-3.5794475E-3,6.270457E-1,-7.102754E-1,8.1493646E-1,-1.3970236E-2,-0E0,-9.337407E-1,1.0648447E0,1.9976828E-1,1.5396707E-1,-5.4972416E-1,5.3040075E-1,-7.507054E-1,2.286555E-2,-1.0970433E0,-0E0,1.1654439E0,4.4026E-1,-3.068805E-1,-1.7609759E-1,3.942536E-1,-9.0279037E-1,-0E0,8.9061177E-1,-1.9918893E-2,-9.272754E-1,-0E0,-2.0992063E-1,7.7030665E-1,-1.1947603E0,-0E0,3.4689218E-1,-3.8004018E-4,-0E0,1.226385E0,-0E0,6.670499E-1,-0E0,-1.627132E-2,-0E0,-7.5013475E-3,5.840879E-1,-0E0,-1.1956197E0,-0E0,-0E0,1.0601871E0,-1.0145465E-2,-0E0,-0E0,-1.1755651E0,-6.2288076E-1,-0E0,1.7204065E-2,-0E0,-0E0,-1.2450762E0,2.6289868E-1,-3.6763546E-1,9.36513E-3,-0E0,1.2861015E0,-0E0,1.8441154E-2,1.05310574E-1,7.838069E-1,-0E0,-2.1727966E-2,-0E0,1.1693571E0,-0E0,-0E0,-1.3108289E0,-0E0,-1.2979568E-2,-0E0,-1.2898233E0,-0E0,8.688573E-3,-0E0,-1.1893743E-2,2.026209E-2,3.8438015E-5,-1.4421508E-3,6.597092E-3,-0E0,1.4102425E-2,-0E0,1.8654143E-2,-0E0,-2.1131333E-2,-0E0,-1.9660315E-2],"categories":[],"categories_nodes":[],"categories_segments":[],"categories_sizes":[],"default_left":[1,0,0,0,0,0,1,0,0,1,0,0,0,1,0,1,0,1,1,0,0,1,0,0,0,0,0,1,0,0,0,1,0,0,1,0,1,0,0,0,0,0,0,0,0,0,1,0,0,0,0,0,0,0,0,0,0,0,0,0,0,1,0,0,0,0,0,0,0,0,0,0,0,0,0,0,0,0,0,0,0,0,0,0,0,0,0,0,0,0,0,0,0],"id":15,"left_children":[1,3,5,7,9,11,13,15,17,19,21,23,25,27,29,31,33,35,37,39,41,43,-1,45,47,49,-1,51,53,55,57,59,-1,-1,61,-1,63,-1,-1,-1,-1,65,-1,67,-1,-1,69,-1,-1,-1,71,73,-1,-1,-1,-1,75,77,79,-1,-1,81,-1,-1,83,85,-1,-1,-1,87,-1,-1,89,-1,-1,-1,91,-1,-1,-1,-1,-1,-1,-1,-1,-1,-1,-1,-1,-1,-1,-1,-1],"loss_changes":[4.1545084E2,6.543083E1,7.8502106E1,4.8272614E1,1.2402314E1,3.702618E1,6.3693726E1,2.3295044E1,1.5971909E1,6.9261723E0,1.2882419E1,2.023174E1,7.909231E0,1.2356724E1,3.1663666E1,1.6152294E0,1.7531769E1,1.3379242E1,9.611597E0,1.6801927E0,7.8739147E0,1.2291687E1,0E0,1.17330475E1,3.274479E0,9.865498E0,0E0,6.073679E0,8.136946E0,1.8912262E1,2.5671144E0,2.6103172E0,0E0,0E0,1.479245E1,0E0,1.0707613E1,0E0,0E0,0E0,0E0,8.0401125E0,0E0,7.816944E0,0E0,0E0,7.39904E0,0E0,0E0,0E0,2.5518036E0,3.6024632E0,0E0,0E0,0E0,0E0,9.936371E0,2.6164901E0,4.041772E0,0E0,0E0,5.1524963E0,0E0,0E0,5.8921685E0,7.528923E0,0E0,0E0,0E0,2.969574E0,0E0,0E0,1.5257759E0,0E0,0E0,0E0,7.5546265E0,0E0,0E0,0E0,0E0,0E0,0E0,0E0,0E0,0E0,0E0,0E0,0E0,0E0,0E0,0E0,0E0],"parents":[2147483647,0,0,1,1,2,2,3,3,4,4,5,5,6,6,7,7,8,8,9,9,10,10,11,11,12,12,13,13,14,14,15,15,16,16,17,17,18,18,19,19,20,20,21,21,23,23,24,24,25,25,27,27,28,28,29,29,30,30,31,31,34,34,36,36,41,41,43,43,46,46,50,50,51,51,56,56,57,57,58,58,61,61,64,64,65,65,69,69,72,72,76,76],"right_children":[2,4,6,8,10,12,14,16,18,20,22,24,26,28,30,32,34,36,38,40,42,44,-1,46,48,50,-1,52,54,56,58,60,-1,-1,62,-1,64,-1,-1,-1,-1,66,-1,68,-1,-1,70,-1,-1,-1,72,74,-1,-1,-1,-1,76,78,80,-1,-1,82,-1,-1,84,86,-1,-1,-1,88,-1,-1,90,-1,-1,-1,92,-1,-1,-1,-1,-1,-1,-1,-1,-1,-1,-1,-1,-1,-1,-1,-1],"split_conditions":[2.378E-1,1E0,7.183E-1,8.718E-1,1.69E1,2.3924E2,8.0982715E-2,8.871E-1,1.38E2,7.658E1,1E0,5.83013E-1,3.499E1,8.69E-1,1E0,2.1E1,1.44E2,8.387E-1,5.49E-1,6.366E-1,9.353E-1,6.9327E2,-0E0,1.818E-1,6.472E-1,-3.529E-1,-0E0,8.577101E1,9.438E-1,2.17E0,8.871E-1,6.1429E0,-3.8004018E-4,-0E0,1E0,-0E0,4.433E1,-0E0,-1.627132E-2,-0E0,-7.5013475E-3,1.4E1,-0E0,2.0010011E0,-0E0,-0E0,4.92323E-1,-1.0145465E-2,-0E0,-0E0,5.357E-1,1.6667E0,-0E0,1.7204065E-2,-0E0,-0E0,4.51151E-1,7.845E-1,5.49E0,9.36513E-3,-0E0,1.3379213E2,-0E0,1.8441154E-2,3.4E1,1.1E1,-0E0,-2.1727966E-2,-0E0,2.1E1,-0E0,-0E0,-1.2345E1,-0E0,-1.2979568E-2,-0E0,1.54E0,-0E0,8.688573E-3,-0E0,-1.1893743E-2,2.026209E-2,3.8438015E-5,-1.4421508E-3,6.597092E-3,-0E0,1.4102425E-2,-0E0,1.8654143E-2,-0E0,-2.1131333E-2,-0E0,-1.9660315E-2],"split_indices":[11,27,36,36,45,10,52,20,35,10,71,58,46,36,34,48,53,39,50,38,36,10,0,29,39,40,0,5,36,14,36,31,0,0,39,0,10,0,0,0,0,47,0,52,0,0,60,0,0,0,36,31,0,0,0,0,58,36,45,0,0,5,0,0,35,0,0,0,0,35,0,0,21,0,0,0,16,0,0,0,0,0,0,0,0,0,0,0,0,0,0,0,0],"split_type":[0,0,0,0,0,0,0,0,0,0,0,0,0,0,0,0,0,0,0,0,0,0,0,0,0,0,0,0,0,0,0,0,0,0,0,0,0,0,0,0,0,0,0,0,0,0,0,0,0,0,0,0,0,0,0,0,0,0,0,0,0,0,0,0,0,0,0,0,0,0,0,0,0,0,0,0,0,0,0,0,0,0,0,0,0,0,0,0,0,0,0,0,0],"sum_hessian":[9.305826E2,4.8523413E2,4.4534845E2,3.8577054E2,9.946358E1,9.761838E1,3.4773007E2,2.6424023E2,1.215303E2,6.3327854E1,3.6135727E1,6.373621E1,3.3882164E1,4.291436E1,3.048157E2,2.6498264E1,2.3774197E2,9.409002E1,2.7440277E1,1.1381939E1,5.1945915E1,2.9203691E1,6.9320364E0,4.8103912E1,1.5632299E1,3.1405228E1,2.476935E0,2.382243E1,1.9091932E1,2.791759E2,2.5639803E1,1.3351874E1,1.314639E1,1.1384034E1,2.2635794E2,2.3035048E1,7.105497E1,1.7026356E1,1.041392E1,3.2136583E0,8.168281E0,4.6746433E1,5.1994796E0,2.5248472E1,3.9552195E0,3.7192986E0,4.4384613E1,7.2051544E0,8.427145E0,4.7268047E0,2.6678423E1,1.8359283E1,5.463145E0,1.48689785E1,4.222954E0,9.908436E0,2.6926746E2,1.3605343E1,1.2034459E1,1.087023E1,2.4816446E0,2.147684E2,1.1589536E1,2.7819115E1,4.3235855E1,3.9045513E1,7.70092E0,2.1028622E1,4.2198515E0,4.18949E1,2.4897134E0,3.7369313E0,2.2941492E1,3.9654913E0,1.4393793E1,1.2386405E1,2.5688107E2,2.9535367E0,1.0651806E1,2.9757571E0,9.058702E0,1.9847285E2,1.6295546E1,1.0644553E1,3.25913E1,3.2157888E0,3.5829723E1,2.7435308E0,3.9151367E1,2.2093313E0,2.073216E1,2.481191E0,2.5439987E2],"tree_param":{"num_deleted":"0","num_feature":"76","num_nodes":"93","size_leaf_vector":"1"}},{"base_weights":[-0E0,4.8613372E-1,-7.841388E-1,6.997949E-1,-1.9621514E-1,-3.113769E-1,-1.3182529E0,8.752367E-1,-0E0,4.2294285E-1,-7.08579E-1,-8.268198E-1,7.868158E-2,-0E0,-1.4078932E0,1.0120083E0,-0E0,6.017507E-1,-6.982597E-1,-0E0,8.102024E-1,-9.322646E-1,-0E0,-1.0161483E0,-0E0,3.6660784E-1,-8.1905544E-1,-1.4568312E0,-0E0,1.056287E0,-0E0,5.080175E-1,-4.29859E-1,9.882735E-1,-0E0,-9.6878207E-1,-0E0,-1.1024399E-2,5.123283E-2,1.7565614E-2,-0E0,-1.2602447E0,-0E0,8.666641E-3,-0E0,-1.2131451E0,-0E0,-0E0,7.3798084E-1,-0E0,-1.5376527E-2,-1.4917402E0,-0E0,1.0818477E0,-0E0,-0E0,6.330781E-1,-7.739004E-1,-0E0,1.872974E-2,-0E0,-0E0,-1.0733864E0,-0E0,7.3522558E-3,-1.4414233E0,-0E0,-1.4608012E0,-0E0,-4.2871436E-1,1.2948305E-3,-0E0,1.0011566E0,-1.5273846E0,-0E0,-0E0,1.693576E-2,-0E0,1.1961503E-2,-1.4575801E-2,-0E0,-0E0,-1.7978601E-2,-0E0,-2.3303792E-2,-2.2608558E-2,-0E0,-6.6877496E-3,-0E0,-0E0,-1.3553567E-2,1.882677E-2,-0E0,-0E0,-2.3519885E-2],"categories":[],"categories_nodes":[],"categories_segments":[],"categories_sizes":[],"default_left":[1,1,1,0,1,0,0,0,0,1,1,0,0,0,0,0,0,1,0,0,0,0,0,0,0,0,0,1,0,1,0,0,0,0,0,0,0,0,0,0,0,0,0,0,0,1,0,0,0,0,0,0,0,0,0,0,0,1,0,0,0,0,0,0,0,0,0,1,0,0,0,0,0,0,0,0,0,0,0,0,0,0,0,0,0,0,0,0,0,0,0,0,0,0,0],"id":16,"left_children":[1,3,5,7,9,11,13,15,17,19,21,23,25,-1,27,29,31,33,35,37,39,41,43,45,-1,47,49,51,-1,53,-1,55,57,59,-1,61,-1,-1,63,-1,-1,65,-1,-1,-1,67,-1,69,71,-1,-1,73,-1,75,-1,-1,77,79,-1,-1,-1,-1,81,-1,-1,83,-1,85,87,89,-1,-1,91,93,-1,-1,-1,-1,-1,-1,-1,-1,-1,-1,-1,-1,-1,-1,-1,-1,-1,-1,-1,-1,-1],"loss_changes":[3.500032E2,8.680539E1,7.465556E1,5.9775726E1,4.21647E1,4.5808273E1,2.644101E1,4.0099243E1,3.4567245E1,1.2177238E1,1.957513E1,2.3231735E1,2.2309036E1,0E0,1.2201935E1,1.7471863E1,1.14600725E1,9.958314E0,1.0536619E1,4.145887E0,7.410307E0,1.83144E1,2.3077822E0,1.6653595E1,0E0,1.7159496E1,3.6323652E0,1.0106598E1,0E0,1.2222687E1,0E0,2.9128566E0,7.2955604E0,9.80463E0,0E0,4.5432625E0,0E0,0E0,1.5640393E0,0E0,0E0,8.579239E0,0E0,0E0,0E0,9.920845E0,0E0,3.819966E0,1.4997993E1,0E0,0E0,1.0322723E1,0E0,9.768921E0,0E0,0E0,3.4731627E0,4.66399E0,0E0,0E0,0E0,0E0,4.347969E0,0E0,0E0,3.1184464E0,0E0,1.7421265E0,1.7046126E0,8.731742E0,0E0,0E0,1.6343685E1,8.333221E0,0E0,0E0,0E0,0E0,0E0,0E0,0E0,0E0,0E0,0E0,0E0,0E0,0E0,0E0,0E0,0E0,0E0,0E0,0E0,0E0,0E0],"parents":[2147483647,0,0,1,1,2,2,3,3,4,4,5,5,6,6,7,7,8,8,9,9,10,10,11,11,12,12,14,14,15,15,16,16,17,17,18,18,19,19,20,20,21,21,22,22,23,23,25,25,26,26,27,27,29,29,31,31,32,32,33,33,35,35,38,38,41,41,45,45,47,47,48,48,51,51,53,53,56,56,57,57,62,62,65,65,67,67,68,68,69,69,72,72,73,73],"right_children":[2,4,6,8,10,12,14,16,18,20,22,24,26,-1,28,30,32,34,36,38,40,42,44,46,-1,48,50,52,-1,54,-1,56,58,60,-1,62,-1,-1,64,-1,-1,66,-1,-1,-1,68,-1,70,72,-1,-1,74,-1,76,-1,-1,78,80,-1,-1,-1,-1,82,-1,-1,84,-1,86,88,90,-1,-1,92,94,-1,-1,-1,-1,-1,-1,-1,-1,-1,-1,-1,-1,-1,-1,-1,-1,-1,-1,-1,-1,-1],"split_conditions":[5.81085E-1,6.3E1,3.1E1,9.221E-1,5.711222E-1,2.14E2,5.455E-1,5.53654E-1,7E0,3.002E1,6.82E2,6.3E1,9.381E-1,-0E0,1.3247E4,2.78E2,6.829E-1,6.5E1,1.5E1,8.39E0,3E0,1.33E2,7.101E-1,4.999E1,-0E0,6.7988E-1,3.2E0,5.294E-1,-0E0,1.837E0,-0E0,1.405E-1,1E0,4E0,-0E0,9.268E-1,-0E0,-1.1024399E-2,8.049E-1,1.7565614E-2,-0E0,5.12E2,-0E0,8.666641E-3,-0E0,3.92025E-1,-0E0,3.2E1,0E0,-0E0,-1.5376527E-2,7.05E2,-0E0,4.25E2,-0E0,-0E0,3.3E1,1.159E-1,-0E0,1.872974E-2,-0E0,-0E0,5.095095E-1,-0E0,7.3522558E-3,4.28E0,-0E0,6.3406097E1,5.5E1,3.3433434E-1,1.2948305E-3,-0E0,1E0,1.3E1,-0E0,-0E0,1.693576E-2,-0E0,1.1961503E-2,-1.4575801E-2,-0E0,-0E0,-1.7978601E-2,-0E0,-2.3303792E-2,-2.2608558E-2,-0E0,-6.6877496E-3,-0E0,-0E0,-1.3553567E-2,1.882677E-2,-0E0,-0E0,-2.3519885E-2],"split_indices":[59,17,17,36,52,53,36,61,45,16,10,0,36,0,43,0,39,10,42,46,3,0,38,46,0,63,46,40,0,50,0,38,65,41,0,36,0,0,36,0,0,24,0,0,0,57,0,0,51,0,0,30,0,55,0,0,48,18,0,0,0,0,52,0,0,13,0,5,43,52,0,0,73,6,0,0,0,0,0,0,0,0,0,0,0,0,0,0,0,0,0,0,0,0,0],"split_type":[0,0,0,0,0,0,0,0,0,0,0,0,0,0,0,0,0,0,0,0,0,0,0,0,0,0,0,0,0,0,0,0,0,0,0,0,0,0,0,0,0,0,0,0,0,0,0,0,0,0,0,0,0,0,0,0,0,0,0,0,0,0,0,0,0,0,0,0,0,0,0,0,0,0,0,0,0,0,0,0,0,0,0,0,0,0,0,0,0,0,0,0,0,0,0],"sum_hessian":[9.1723395E2,5.652677E2,3.5196625E2,4.4021268E2,1.2505503E2,1.9537297E2,1.5659326E2,3.594505E2,8.076216E1,4.891517E1,7.613986E1,9.3795074E1,1.01577896E2,5.966377E0,1.5062688E2,3.080104E2,5.1440105E1,3.8343666E1,4.2418495E1,1.7035595E1,3.1879574E1,6.6508064E1,9.6318E0,8.4598236E1,9.196838E0,8.4270195E1,1.7307701E1,1.4642625E2,4.2006288E0,2.9838776E2,9.622641E0,2.6663364E1,2.4776741E1,2.4411123E1,1.3932544E1,3.326226E1,9.156235E0,7.665683E0,9.369911E0,2.0763895E1,1.1115678E1,4.7925983E1,1.858208E1,6.945662E0,2.686138E0,7.066937E1,1.3928866E1,3.196721E1,5.230299E1,2.7315104E0,1.457619E1,1.441949E2,2.2313602E0,2.9489767E2,3.4900987E0,2.2264626E0,2.4436901E1,1.9824429E1,4.952312E0,2.1685226E1,2.7258968E0,2.2240531E0,3.1038208E1,2.726358E0,6.6435537E0,4.076405E1,7.1619334E0,5.3387463E1,1.7281912E1,2.031226E1,1.165495E1,8.920917E0,4.3382072E1,1.419681E2,2.2268016E0,1.5121591E1,2.7977606E2,3.471982E0,2.0964918E1,1.759882E1,2.2256088E0,2.9825385E0,2.805567E1,4.204268E0,3.6559784E1,5.116363E1,2.22383E0,8.615901E0,8.666011E0,4.971178E0,1.5341082E1,3.8161896E1,5.2201767E0,3.1953127E0,1.3877278E2],"tree_param":{"num_deleted":"0","num_feature":"76","num_nodes":"95","size_leaf_vector":"1"}},{"base_weights":[-0E0,5.529892E-1,-7.0138717E-1,8.292792E-1,-0E0,-1.2926404E0,-2.2136453E-1,9.676858E-1,-0E0,5.699985E-1,-5.7142836E-1,-0E0,-1.4018968E0,1.855258E-2,-8.866743E-1,1.093752E0,1.8156002E-1,6.927439E-1,-2.347064E-1,-0E0,7.0277435E-1,-8.7286156E-1,1.1107033E-1,-0E0,-1.4436637E0,-5.8306175E-1,4.95321E-1,-1.2682899E0,-0E0,1.1328152E0,-0E0,8.0673593E-1,-8.78509E-3,-0E0,1.4349795E-2,-7.4401844E-1,3.5438955E-2,8.3745617E-1,-0E0,-0E0,-1.1393827E0,7.289632E-1,-0E0,-1.458152E0,-0E0,-0E0,-1.8236509E-2,7.4431926E-1,-0E0,-1.3555766E0,-0E0,3.799297E-1,1.2820334E0,1.54223535E-2,-0E0,-5.5035156E-1,5.1655166E-2,-9.5187104E-1,-0E0,6.6445167E-3,-0E0,-0E0,1.0549284E0,-1.274155E0,-0E0,1.5930707E-2,-0E0,-0E0,-1.4729193E0,-9.32643E-3,-0E0,-0E0,9.2867863E-1,-0E0,-3.8349295E-1,-2.174797E-2,-0E0,9.566647E-3,-0E0,1.9779861E-2,-0E0,-0E0,-1.5360645E-2,-0E0,7.743163E-3,-1.845073E-2,-0E0,1.656915E-2,-0E0,-0E0,-2.1625094E-2,-0E0,-2.2367695E-2,-0E0,6.1628856E-3,1.5492354E-2,-0E0,-0E0,-1.1010366E-2],"categories":[],"categories_nodes":[],"categories_segments":[],"categories_sizes":[],"default_left":[0,1,0,0,0,0,1,1,1,0,0,0,0,0,0,0,0,0,1,0,1,1,0,0,0,1,1,0,0,0,0,0,0,0,0,1,0,0,0,0,0,0,0,0,0,0,0,0,0,0,0,0,0,0,0,0,0,1,0,0,0,0,1,0,0,0,0,0,1,0,0,0,1,0,0,0,0,0,0,0,0,0,0,0,0,0,0,0,0,0,0,0,0,0,0,0,0,0,0],"id":17,"left_children":[1,3,5,7,9,11,13,15,17,19,21,-1,23,25,27,29,31,33,35,-1,37,39,41,-1,43,45,47,49,-1,51,-1,53,55,-1,-1,57,59,61,-1,-1,63,65,-1,67,-1,69,-1,71,73,75,-1,77,79,-1,-1,81,83,85,-1,-1,-1,-1,87,89,-1,-1,-1,-1,91,-1,93,-1,95,-1,97,-1,-1,-1,-1,-1,-1,-1,-1,-1,-1,-1,-1,-1,-1,-1,-1,-1,-1,-1,-1,-1,-1,-1,-1],"loss_changes":[3.54656E2,8.445909E1,1.00354675E2,3.9147476E1,5.335438E1,3.2317627E1,4.4125454E1,1.86557E1,9.025766E0,1.0401213E1,2.4692389E1,0E0,8.424042E0,4.4743538E1,2.564626E1,1.4366425E1,1.3043109E1,4.234757E0,1.1304966E1,0E0,1.0929222E1,1.624377E1,6.9959264E0,0E0,1.8923035E0,1.4790985E1,1.7584135E1,5.6282425E0,0E0,1.2878632E1,0E0,5.4249363E0,5.283321E0,0E0,0E0,5.3581753E0,1.872057E0,8.634113E0,0E0,0E0,1.2961983E1,5.254153E0,0E0,1.8930054E0,0E0,3.7093897E0,0E0,1.528315E1,2.5188923E0,2.279396E0,0E0,7.99062E0,1.2099091E1,0E0,0E0,9.504569E0,2.0655296E0,6.7795067E0,0E0,0E0,0E0,0E0,1.6767578E0,8.786255E0,0E0,0E0,0E0,0E0,1.6806335E0,0E0,2.9541225E0,0E0,8.856586E0,0E0,4.1423764E0,0E0,0E0,0E0,0E0,0E0,0E0,0E0,0E0,0E0,0E0,0E0,0E0,0E0,0E0,0E0,0E0,0E0,0E0,0E0,0E0,0E0,0E0,0E0,0E0],"parents":[2147483647,0,0,1,1,2,2,3,3,4,4,5,5,6,6,7,7,8,8,9,9,10,10,12,12,13,13,14,14,15,15,16,16,17,17,18,18,20,20,21,21,22,22,24,24,25,25,26,26,27,27,29,29,31,31,32,32,35,35,36,36,37,37,40,40,41,41,43,43,45,45,47,47,48,48,49,49,51,51,52,52,55,55,56,56,57,57,62,62,63,63,68,68,70,70,72,72,74,74],"right_children":[2,4,6,8,10,12,14,16,18,20,22,-1,24,26,28,30,32,34,36,-1,38,40,42,-1,44,46,48,50,-1,52,-1,54,56,-1,-1,58,60,62,-1,-1,64,66,-1,68,-1,70,-1,72,74,76,-1,78,80,-1,-1,82,84,86,-1,-1,-1,-1,88,90,-1,-1,-1,-1,92,-1,94,-1,96,-1,98,-1,-1,-1,-1,-1,-1,-1,-1,-1,-1,-1,-1,-1,-1,-1,-1,-1,-1,-1,-1,-1,-1,-1,-1],"split_conditions":[5.40708E-1,5E0,0E0,9.31E-1,7.399E-1,5.88354E-1,7.6E1,8.33E-1,3.882E1,3.7E1,2.0010011E0,-0E0,1E0,1.8233862E1,5.6E1,6.12E2,1.0056E2,2E2,1.1E1,-0E0,5.1E1,1.1615363E1,5.264E1,-0E0,2.1436741E0,8.1801635E-1,6.79E-1,1.17548E3,-0E0,0E0,-0E0,8.99E0,1.999E1,-0E0,1.4349795E-2,1E0,2.725E1,8.8E1,-0E0,-0E0,1E0,1.6E0,-0E0,5.079E-1,-0E0,4.3E1,-1.8236509E-2,3E1,7E-1,1E0,-0E0,2.12E2,1.6E1,1.54223535E-2,-0E0,5.714E-1,2.1571428E1,1.6667E0,-0E0,6.6445167E-3,-0E0,-0E0,1.50167E3,-1.22E-1,-0E0,1.5930707E-2,-0E0,-0E0,1E-1,-9.32643E-3,7.58864E-1,-0E0,9.1216774E1,-0E0,5E0,-2.174797E-2,-0E0,9.566647E-3,-0E0,1.9779861E-2,-0E0,-0E0,-1.5360645E-2,-0E0,7.743163E-3,-1.845073E-2,-0E0,1.656915E-2,-0E0,-0E0,-2.1625094E-2,-0E0,-2.2367695E-2,