{"learner":{"attributes":{"scikit_learn":"{\"_estimator_type\": \"classifier\"}"},"feature_names":["days_since_last_build_update","build_update_count_last_30d","build_update_count_last_90d","build_update_count_last_180d","mean_days_between_build_updates","std_days_between_build_updates","max_hiatus_ever_days","hiatus_recovery_count","update_frequency_trend","build_gap_vs_allowable_ratio","ccu_avg_last_30d","ccu_avg_last_90d","ccu_avg_last_180d","ccu_median_all","ccu_at_launch_30d","peak_ccu_alltime","ccu_vs_peak_ratio","ccu_vs_launch_ratio","ccu_trend_slope_90d","ccu_trend_slope_180d","ccu_floor_established","days_since_ccu_above_100","ccu_low_regime","ccu_unavailable","dev_posts_last_30d","dev_posts_last_90d","dev_posts_last_180d","dev_engagement_trend","days_since_dev_post","build_to_post_ratio","dev_previous_ea_count","dev_has_prior_success","dev_total_games_shipped","review_score_at_T","review_score_last_90d","review_score_delta_90d","review_velocity_30d","review_velocity_90d","negative_review_rate_30d","initial_price_usd","current_price_at_T","discount_count_to_date","max_discount_ever_pct","early_deep_discount_flag","discount_frequency","price_trend_encoded","price_vs_genre_median","ea_age_days","ea_age_lt_180d","owner_estimate_at_T","genre_scope","ccu_vs_genre_weighted_median","update_freq_vs_genre_median","review_score_vs_genre_median","review_update_divergence","genre_Unknown"],"feature_types":["int","int","int","int","float","float","int","int","float","float","float","float","float","float","float","float","float","float","float","float","float","float","float","int","int","int","int","float","int","float","float","float","int","float","float","float","float","float","float","float","float","int","float","int","float","float","float","int","int","int","int","float","float","float","float","float"],"gradient_booster":{"model":{"cats":{"enc":[],"feature_segments":[],"sorted_idx":[]},"gbtree_model_param":{"num_parallel_tree":"1","num_trees":"90"},"iteration_indptr":[0,1,2,3,4,5,6,7,8,9,10,11,12,13,14,15,16,17,18,19,20,21,22,23,24,25,26,27,28,29,30,31,32,33,34,35,36,37,38,39,40,41,42,43,44,45,46,47,48,49,50,51,52,53,54,55,56,57,58,59,60,61,62,63,64,65,66,67,68,69,70,71,72,73,74,75,76,77,78,79,80,81,82,83,84,85,86,87,88,89,90],"tree_info":[0,0,0,0,0,0,0,0,0,0,0,0,0,0,0,0,0,0,0,0,0,0,0,0,0,0,0,0,0,0,0,0,0,0,0,0,0,0,0,0,0,0,0,0,0,0,0,0,0,0,0,0,0,0,0,0,0,0,0,0,0,0,0,0,0,0,0,0,0,0,0,0,0,0,0,0,0,0,0,0,0,0,0,0,0,0,0,0,0,0],"trees":[{"base_weights":[-2.5313882E-2,7.7751285E-1,-8.284491E-1,2.7810322E-2,1.0682602E0,-1.4221997E0,-3.7605524E-1,6.026112E-1,-9.92306E-1,1.5384015E-1,1.1870538E0,1.1256684E-2,-1.5877179E0,-2.3601085E-2,-1.219095E0,-9.4363314E-1,9.015501E-1,3.0755827E-2,-1.2240703E0,-5.7413675E-2,4.264205E-1,1.2937258E0,3.620469E-1,6.585491E-1,-7.5809187E-1,-1.2679307E0,-1.8307343E0,2.4206129E-1,-9.6024257E-1,5.108965E-1,-1.4148724E0,2.0608494E-2,-8.038051E-2,1.0882713E0,-4.3149333E-2,1.6949302E-2,-1.4706367E0,6.7041E-1,-5.922839E-2,-1.2487949E-1,1.354428E0,8.47746E-1,-6.019705E-1,5.5039436E-2,-1.1298281E-2,-8.760997E-2,3.5105463E-2,-1.4546624E0,2.2077255E-1,-1.9104232E0,-9.168527E-1,-7.648743E-1,4.9553686E-1,-1.5153234E0,-4.2374555E-2,-1.1298281E-2,5.9137166E-2,-1.6025578E0,3.4608282E-2,1.2811053E-2,6.952792E-2,-8.012759E-2,-2.3539865E-2,4.6031233E-2,-2.6089687E-2,5.7865497E-2,-5.6263205E-2,-1.8153513E-3,6.999456E-2,8.0304645E-2,6.642395E-3,-7.57181E-2,4.2054657E-2,-8.4773324E-2,-4.5664895E-2,-2.3539865E-2,4.73261E-2,-9.78241E-2,-3.7762728E-2,1.1093012E-2,-8.641499E-2,-5.6922626E-2,1.4998245E-2,7.5585577E-3,5.783098E-2,-4.879653E-2,-8.864746E-2,-5.2405514E-2,2.622496E-2,-4.939604E-2,-9.1241054E-2],"categories":[],"categories_nodes":[],"categories_segments":[],"categories_sizes":[],"default_left":[1,0,0,1,0,0,1,1,0,1,0,0,1,0,0,0,1,0,0,0,1,0,0,0,1,1,0,0,0,0,1,0,0,0,0,0,1,0,0,0,0,0,1,0,0,0,0,0,0,0,0,0,0,0,0,0,0,0,0,0,0,0,0,0,0,0,0,0,0,0,0,0,0,0,0,0,0,0,0,0,0,0,0,0,0,0,0,0,0,0,0],"id":0,"left_children":[1,3,5,7,9,11,13,15,17,19,21,23,25,27,29,31,33,-1,35,-1,37,39,41,43,45,47,49,51,53,55,57,-1,-1,59,-1,-1,61,63,-1,65,67,69,71,-1,-1,-1,-1,73,75,77,79,81,83,85,87,-1,-1,89,-1,-1,-1,-1,-1,-1,-1,-1,-1,-1,-1,-1,-1,-1,-1,-1,-1,-1,-1,-1,-1,-1,-1,-1,-1,-1,-1,-1,-1,-1,-1,-1,-1],"loss_changes":[8.159165E2,1.3779074E2,1.6921616E2,1.0490241E2,4.919922E1,6.497687E1,1.0696703E2,5.37733E1,2.4823315E1,1.9461256E1,3.4847656E1,1.5031939E1,1.6402222E1,6.38381E1,3.677655E1,1.7872862E1,3.2761917E1,0E0,2.2469482E1,0E0,1.8493505E1,3.099292E1,2.2849201E1,6.776792E0,2.127655E1,3.0796661E1,7.923401E0,5.130372E1,2.866943E1,6.0449696E0,3.904779E1,0E0,0E0,2.1556015E1,0E0,0E0,5.531311E0,1.2426432E1,0E0,2.1151789E1,2.1813477E1,1.705611E1,2.304254E1,0E0,0E0,0E0,0E0,1.08628845E1,7.006681E0,4.8881836E0,1.2536911E1,1.6520359E1,3.615718E1,2.8914871E0,1.3409954E1,0E0,0E0,9.96814E0,0E0,0E0,0E0,0E0,0E0,0E0,0E0,0E0,0E0,0E0,0E0,0E0,0E0,0E0,0E0,0E0,0E0,0E0,0E0,0E0,0E0,0E0,0E0,0E0,0E0,0E0,0E0,0E0,0E0,0E0,0E0,0E0,0E0],"parents":[2147483647,0,0,1,1,2,2,3,3,4,4,5,5,6,6,7,7,8,8,9,9,10,10,11,11,12,12,13,13,14,14,15,15,16,16,18,18,20,20,21,21,22,22,23,23,24,24,25,25,26,26,27,27,28,28,29,29,30,30,33,33,36,36,37,37,39,39,40,40,41,41,42,42,47,47,48,48,49,49,50,50,51,51,52,52,53,53,54,54,57,57],"right_children":[2,4,6,8,10,12,14,16,18,20,22,24,26,28,30,32,34,-1,36,-1,38,40,42,44,46,48,50,52,54,56,58,-1,-1,60,-1,-1,62,64,-1,66,68,70,72,-1,-1,-1,-1,74,76,78,80,82,84,86,88,-1,-1,90,-1,-1,-1,-1,-1,-1,-1,-1,-1,-1,-1,-1,-1,-1,-1,-1,-1,-1,-1,-1,-1,-1,-1,-1,-1,-1,-1,-1,-1,-1,-1,-1,-1],"split_conditions":[1E-1,0E0,0E0,6E0,5.3E1,6.087E-1,5.85E0,2E1,-1.159E-1,-2.61E-2,2.61E2,1.69E1,3.13E0,6E0,5.455E-1,2.3321575E1,8.819E-1,3.0755827E-2,5.49E0,-5.7413675E-2,8.689E-1,-2.405E0,5E1,1.51E2,3.23E2,7.253217E1,1.4203E4,8.75E2,2.5E2,1.6642E2,7.707464E1,2.0608494E-2,-8.038051E-2,1.44E2,-4.3149333E-2,1.6949302E-2,5.8E1,3E0,-5.922839E-2,7.555531E-1,3.5E2,5E0,2.5E0,5.5039436E-2,-1.1298281E-2,-8.760997E-2,3.5105463E-2,1.69E2,1.96E2,6.325E1,1.3034E3,2.688E1,2.61E2,2.3E1,7.2E1,-1.1298281E-2,5.9137166E-2,7.667E-1,3.4608282E-2,1.2811053E-2,6.952792E-2,-8.012759E-2,-2.3539865E-2,4.6031233E-2,-2.6089687E-2,5.7865497E-2,-5.6263205E-2,-1.8153513E-3,6.999456E-2,8.0304645E-2,6.642395E-3,-7.57181E-2,4.2054657E-2,-8.4773324E-2,-4.5664895E-2,-2.3539865E-2,4.73261E-2,-9.78241E-2,-3.7762728E-2,1.1093012E-2,-8.641499E-2,-5.6922626E-2,1.4998245E-2,7.5585577E-3,5.783098E-2,-4.879653E-2,-8.864746E-2,-5.2405514E-2,2.622496E-2,-4.939604E-2,-9.1241054E-2],"split_indices":[8,45,45,21,28,34,13,42,35,35,0,39,13,2,34,5,54,0,39,0,54,18,42,28,21,5,15,49,47,12,5,0,0,28,0,0,4,2,0,54,49,41,29,0,0,0,0,28,28,4,13,40,28,6,6,0,0,34,0,0,0,0,0,0,0,0,0,0,0,0,0,0,0,0,0,0,0,0,0,0,0,0,0,0,0,0,0,0,0,0,0],"split_type":[0,0,0,0,0,0,0,0,0,0,0,0,0,0,0,0,0,0,0,0,0,0,0,0,0,0,0,0,0,0,0,0,0,0,0,0,0,0,0,0,0,0,0,0,0,0,0,0,0,0,0,0,0,0,0,0,0,0,0,0,0,0,0,0,0,0,0,0,0,0,0,0,0,0,0,0,0,0,0,0,0,0,0,0,0,0,0,0,0,0,0],"sum_hessian":[1.2634147E3,6.3178235E2,6.316323E2,1.7694995E2,4.548324E2,2.7211993E2,3.5951242E2,1.1350247E2,6.3447483E1,5.2654987E1,4.021774E2,2.8202494E1,2.4391743E2,2.5432994E2,1.0518247E2,1.7984995E1,9.551748E1,7.732498E0,5.5714985E1,8.494998E0,4.415999E1,3.5551993E2,4.665749E1,1.5464996E1,1.2737497E1,1.08184975E2,1.3573247E2,1.9862746E2,5.5702488E1,1.0477497E1,9.470498E1,5.9874988E0,1.1997498E1,8.677498E1,8.742498E0,7.484998E0,4.822999E1,3.891249E1,5.2474985E0,1.4477496E1,3.4104242E2,3.1174994E1,1.5482496E1,1.0222498E1,5.242499E0,7.499998E0,5.2374988E0,9.620747E1,1.1977497E1,1.2374247E2,1.1989997E1,3.945999E1,1.5916747E2,3.423749E1,2.1464994E1,5.242499E0,5.2349987E0,8.722248E1,7.482498E0,2.3704994E1,6.3069984E1,4.198749E1,6.2424984E0,3.241999E1,6.4924984E0,6.2324986E0,8.244998E0,1.0732497E1,3.3030994E2,1.4454996E1,1.6719995E1,9.497498E0,5.9849987E0,6.4984985E1,3.1222492E1,6.2424984E0,5.7349987E0,1.18247475E2,5.494999E0,5.239999E0,6.7499986E0,2.9229994E1,1.0229998E1,1.05559975E2,5.3607487E1,1.2739997E1,2.1497496E1,7.494998E0,1.3969996E1,2.4729994E1,6.2492485E1],"tree_param":{"num_deleted":"0","num_feature":"56","num_nodes":"91","size_leaf_vector":"1"}},{"base_weights":[2.031583E-2,7.65956E-1,-7.0993966E-1,-4.826866E-3,1.0553031E0,-2.7311802E-1,-1.4064426E0,5.9711605E-1,-1.0661695E0,3.8579333E-1,1.2342882E0,-9.1864467E-1,1.0746895E-1,-1.5588514E0,9.034257E-1,-7.810179E-1,8.855366E-1,3.5382405E-2,-1.2404851E0,-1.3418195E0,6.3050187E-1,1.4747546E0,6.8992704E-1,3.6623627E-1,-1.218769E0,-3.715651E-1,7.3101455E-1,-1.6521579E0,-2.6577824E-1,-2.1317758E-2,8.778122E-2,-7.700431E-2,2.267626E-2,1.117265E0,-2.4473807E-1,-1.3785506E0,-7.6878862E-3,-3.497994E-2,-8.480275E-2,9.2951334E-1,-2.4005364E-1,1.5160049E0,-5.270454E-3,8.9103377E-1,-4.1675627E-1,-2.5414422E-1,1.1455041E0,-1.3094934E0,2.1124218E-2,-8.776243E-1,2.4605027E-1,-8.7670475E-1,9.3866587E-1,-1.8364884E0,-1.315422E0,-9.933493E-1,5.2413326E-2,7.026799E-2,2.2283532E-2,1.7289497E-2,-6.101954E-2,-8.774318E-2,-4.5018997E-2,5.5041153E-2,-3.848771E-2,2.4721492E-2,-7.232115E-2,5.1206835E-2,8.2348235E-2,1.3808133E-2,5.39548E-2,-8.709352E-2,2.8896008E-2,1.6793132E-2,-5.9601344E-2,7.904494E-2,2.4672277E-2,-4.6813544E-2,-7.868825E-2,-6.086663E-2,-1.1607869E-2,3.2702778E-2,-3.8490567E-2,1.2882071E-2,-8.4490314E-2,1.706596E-2,7.389985E-2,-3.6900956E-2,-9.378898E-2,-1.30166905E-2,-7.8769065E-2,-9.8981615E-3,-8.0651216E-2],"categories":[],"categories_nodes":[],"categories_segments":[],"categories_sizes":[],"default_left":[1,0,1,1,0,0,1,1,0,0,1,0,0,0,0,0,0,0,1,0,1,0,1,0,0,0,0,1,0,0,0,0,0,1,1,0,0,0,0,1,1,0,0,0,1,0,0,1,0,1,1,0,0,0,0,0,0,0,0,0,0,0,0,0,0,0,0,0,0,0,0,0,0,0,0,0,0,0,0,0,0,0,0,0,0,0,0,0,0,0,0,0,0],"id":1,"left_children":[1,3,5,7,9,11,13,15,17,19,21,23,25,27,29,31,33,-1,35,37,39,41,43,45,47,49,51,53,55,-1,-1,-1,-1,57,59,61,-1,-1,-1,63,65,67,-1,69,71,73,75,77,-1,79,81,83,85,87,89,91,-1,-1,-1,-1,-1,-1,-1,-1,-1,-1,-1,-1,-1,-1,-1,-1,-1,-1,-1,-1,-1,-1,-1,-1,-1,-1,-1,-1,-1,-1,-1,-1,-1,-1,-1,-1,-1],"loss_changes":[6.9503613E2,1.4097668E2,1.9563242E2,1.1139477E2,5.4404083E1,9.786499E1,8.885324E1,4.4885834E1,2.045234E1,4.240215E1,4.6134216E1,5.7479538E1,7.52619E1,2.751117E1,1.8963142E1,1.927647E1,2.4574928E1,0E0,8.321999E0,1.4143353E0,2.2933357E1,1.6595337E1,2.5541313E1,1.4240019E1,1.8511414E1,4.4812683E1,3.736873E1,1.0756165E1,1.7252584E1,0E0,0E0,0E0,0E0,1.4081703E1,1.0002204E1,7.3612213E0,0E0,0E0,0E0,1.981165E1,2.1142214E1,1.3747437E1,0E0,1.0657631E1,2.4799314E1,9.73183E0,2.6919231E0,9.521927E0,0E0,1.6812172E1,2.7375557E1,1.2551933E1,3.071505E1,4.297699E0,2.1508682E1,5.1577196E0,0E0,0E0,0E0,0E0,0E0,0E0,0E0,0E0,0E0,0E0,0E0,0E0,0E0,0E0,0E0,0E0,0E0,0E0,0E0,0E0,0E0,0E0,0E0,0E0,0E0,0E0,0E0,0E0,0E0,0E0,0E0,0E0,0E0,0E0,0E0,0E0,0E0],"parents":[2147483647,0,0,1,1,2,2,3,3,4,4,5,5,6,6,7,7,8,8,9,9,10,10,11,11,12,12,13,13,14,14,15,15,16,16,18,18,19,19,20,20,21,21,22,22,23,23,24,24,25,25,26,26,27,27,28,28,33,33,34,34,35,35,39,39,40,40,41,41,43,43,44,44,45,45,46,46,47,47,49,49,50,50,51,51,52,52,53,53,54,54,55,55],"right_children":[2,4,6,8,10,12,14,16,18,20,22,24,26,28,30,32,34,-1,36,38,40,42,44,46,48,50,52,54,56,-1,-1,-1,-1,58,60,62,-1,-1,-1,64,66,68,-1,70,72,74,76,78,-1,80,82,84,86,88,90,92,-1,-1,-1,-1,-1,-1,-1,-1,-1,-1,-1,-1,-1,-1,-1,-1,-1,-1,-1,-1,-1,-1,-1,-1,-1,-1,-1,-1,-1,-1,-1,-1,-1,-1,-1,-1,-1],"split_conditions":[7.69E-2,0E0,7.2E1,5E0,1.25E0,0E0,6.25E-1,2E1,6.844E-1,7.5E2,6.21E-1,6.471E-1,2.85E2,2.8584704E0,2.25E0,2.5010722E0,1E0,3.5382405E-2,4.9E1,4.25E1,7.5E-1,3E0,2.8E0,9E1,9.595847E1,3.3E1,7.5E2,1.928E-1,2.5727272E1,-2.1317758E-2,8.778122E-2,-7.700431E-2,2.267626E-2,3.553723E1,3.4875E1,1.25E2,-7.6878862E-3,-3.497994E-2,-8.480275E-2,2.19E0,1.0714797E0,1.025E3,-5.270454E-3,2.6E1,2.78E-2,7.558372E-1,7.27E-2,-2.7E-2,2.1124218E-2,2.1529408E1,7.06E-1,4.7143E0,1.21E2,3.25E0,6.0640424E-1,8.168E-1,5.2413326E-2,7.026799E-2,2.2283532E-2,1.7289497E-2,-6.101954E-2,-8.774318E-2,-4.5018997E-2,5.5041153E-2,-3.848771E-2,2.4721492E-2,-7.232115E-2,5.1206835E-2,8.2348235E-2,1.3808133E-2,5.39548E-2,-8.709352E-2,2.8896008E-2,1.6793132E-2,-5.9601344E-2,7.904494E-2,2.4672277E-2,-4.6813544E-2,-7.868825E-2,-6.086663E-2,-1.1607869E-2,3.2702778E-2,-3.8490567E-2,1.2882071E-2,-8.4490314E-2,1.706596E-2,7.389985E-2,-3.6900956E-2,-9.378898E-2,-1.30166905E-2,-7.8769065E-2,-9.8981615E-3,-8.0651216E-2],"split_indices":[8,45,15,21,29,45,38,42,54,49,44,34,47,46,29,46,25,0,42,4,54,50,11,6,5,0,49,38,4,0,0,0,0,5,4,0,0,0,0,44,46,49,0,42,35,46,35,35,0,5,44,29,6,13,46,34,0,0,0,0,0,0,0,0,0,0,0,0,0,0,0,0,0,0,0,0,0,0,0,0,0,0,0,0,0,0,0,0,0,0,0,0,0],"split_type":[0,0,0,0,0,0,0,0,0,0,0,0,0,0,0,0,0,0,0,0,0,0,0,0,0,0,0,0,0,0,0,0,0,0,0,0,0,0,0,0,0,0,0,0,0,0,0,0,0,0,0,0,0,0,0,0,0,0,0,0,0,0,0,0,0,0,0,0,0,0,0,0,0,0,0,0,0,0,0,0,0,0,0,0,0,0,0,0,0,0,0,0,0],"sum_hessian":[1.2744395E3,6.30621E2,6.4381854E2,1.7229291E2,4.5832803E2,3.9661288E2,2.4720564E2,1.101591E2,6.2133812E1,9.746511E1,3.6086295E2,1.4667737E2,2.4993553E2,2.3224986E2,1.4955786E1,1.870899E1,9.145011E1,5.2345285E0,5.6899284E1,1.148567E1,8.597944E1,2.4898383E2,1.1187911E2,2.7668884E1,1.19008484E2,1.4148473E2,1.084508E2,2.1628778E2,1.5962077E1,5.990499E0,8.965287E0,1.1482433E1,7.226557E0,7.5973946E1,1.5476162E1,5.0165363E1,6.73392E0,5.241039E0,6.244631E0,6.403303E1,2.1946411E1,2.4275069E2,6.233151E0,9.4916145E1,1.6962963E1,1.5708656E1,1.1960227E1,1.13023865E2,5.9846153E0,7.762313E1,6.38616E1,1.1981519E1,9.6469284E1,1.3670448E2,7.9583305E1,1.0479728E1,5.482349E0,5.2298096E1,2.3675854E1,9.979195E0,5.4969673E0,2.6461498E1,2.3703865E1,5.854219E1,5.490835E0,1.3956451E1,7.98996E0,5.305744E1,1.8969324E2,2.2933863E1,7.1982285E1,6.9943666E0,9.968596E0,9.971203E0,5.7374535E0,6.2254896E0,5.734738E0,4.8893833E1,6.4130035E1,5.017513E1,2.7447998E1,4.5886562E1,1.7975039E1,5.2364182E0,6.7451005E0,4.6635498E1,4.9833782E1,5.492031E0,1.3121245E2,1.6203754E1,6.337955E1,5.237698E0,5.2420297E0],"tree_param":{"num_deleted":"0","num_feature":"56","num_nodes":"93","size_leaf_vector":"1"}},{"base_weights":[3.0727185E-2,6.4048856E-1,-7.443683E-1,-4.7240525E-2,9.155112E-1,-2.4994221E-1,-1.3755445E0,4.9308732E-1,-9.5520097E-1,1.1675078E0,4.2581898E-1,-7.399151E-1,4.570262E-1,7.032995E-1,-1.4813526E0,8.7188977E-1,-5.165669E-1,4.1989494E-2,-1.2411456E0,4.9364156E-1,1.339913E0,6.209875E-1,-4.9608198E-1,-8.3105713E-1,5.6048788E-2,-7.773293E-2,1.1029842E0,-1.6837057E-2,8.110582E-2,-4.3623042E-1,-1.5783426E0,4.788927E-2,1.2068338E0,-7.713466E-2,5.1452603E-2,-1.414669E0,1.9274384E-2,1.4110712E0,-6.5348095E-1,6.358486E-1,1.4694132E0,7.197139E-1,-4.3674204E-2,-3.799957E-2,-8.353757E-2,-5.411447E-1,-1.3243737E0,7.2331905E-2,-4.1802502E-1,-2.8663848E-2,1.3288218E0,2.811462E-2,-1.2302014E0,-1.7737252E0,-1.1561184E0,4.9440775E-2,-3.153707E-2,2.1998113E-2,6.808489E-2,-2.8148055E-2,4.432097E-2,-1.8725222E-2,-7.5938456E-2,8.620643E-2,2.3907576E-2,3.7851498E-2,-6.283989E-2,6.769683E-2,-7.760893E-3,7.5901225E-2,-0E0,4.0230803E-2,-4.558662E-2,5.4490965E-2,-2.54139E-2,-3.62863E-2,2.861326E-2,-7.652279E-2,-3.8162805E-2,3.106953E-3,-9.0994045E-2,1.5388501E-2,7.778606E-2,-3.0635497E-2,-7.889172E-2,-9.064057E-2,-2.9280905E-2,-6.96418E-2,8.9789677E-4],"categories":[],"categories_nodes":[],"categories_segments":[],"categories_sizes":[],"default_left":[0,0,1,1,1,0,0,0,0,0,1,0,0,1,0,0,0,0,1,0,0,0,0,0,0,0,0,0,0,0,0,0,0,0,0,0,0,1,0,0,1,0,0,0,0,0,0,0,1,0,0,0,0,0,0,0,0,0,0,0,0,0,0,0,0,0,0,0,0,0,0,0,0,0,0,0,0,0,0,0,0,0,0,0,0,0,0,0,0],"id":2,"left_children":[1,3,5,7,9,11,13,15,17,19,21,23,25,27,29,31,33,-1,35,37,39,41,43,45,-1,47,49,-1,-1,51,53,55,57,-1,59,61,-1,63,65,67,69,71,-1,73,-1,75,77,-1,79,-1,81,-1,83,85,87,-1,-1,-1,-1,-1,-1,-1,-1,-1,-1,-1,-1,-1,-1,-1,-1,-1,-1,-1,-1,-1,-1,-1,-1,-1,-1,-1,-1,-1,-1,-1,-1,-1,-1],"loss_changes":[6.09329E2,1.366221E2,1.7663089E2,1.0206741E2,6.2974945E1,1.11074844E2,5.589337E1,5.0342857E1,4.0929832E1,3.8625763E1,3.215053E1,3.299816E1,4.556585E1,1.280418E1,2.3166992E1,2.6101852E1,2.1281834E1,0E0,1.9677696E1,7.5628975E1,2.3457123E1,2.223309E1,1.6648085E1,2.4986908E1,0E0,3.822285E1,2.341745E1,0E0,0E0,1.7901686E1,1.5533264E1,1.8955065E1,7.247284E0,0E0,1.2923424E1,5.8675385E0,0E0,1.0569687E1,2.8358568E1,2.5212214E1,1.6358582E1,1.9846336E1,0E0,1.3042978E1,0E0,2.423706E1,6.256279E0,0E0,4.0862267E1,0E0,1.1594925E1,0E0,1.4792156E0,5.483917E0,2.0058739E1,0E0,0E0,0E0,0E0,0E0,0E0,0E0,0E0,0E0,0E0,0E0,0E0,0E0,0E0,0E0,0E0,0E0,0E0,0E0,0E0,0E0,0E0,0E0,0E0,0E0,0E0,0E0,0E0,0E0,0E0,0E0,0E0,0E0,0E0],"parents":[2147483647,0,0,1,1,2,2,3,3,4,4,5,5,6,6,7,7,8,8,9,9,10,10,11,11,12,12,13,13,14,14,15,15,16,16,18,18,19,19,20,20,21,21,22,22,23,23,25,25,26,26,29,29,30,30,31,31,32,32,34,34,35,35,37,37,38,38,39,39,40,40,41,41,43,43,45,45,46,46,48,48,50,50,52,52,53,53,54,54],"right_children":[2,4,6,8,10,12,14,16,18,20,22,24,26,28,30,32,34,-1,36,38,40,42,44,46,-1,48,50,-1,-1,52,54,56,58,-1,60,62,-1,64,66,68,70,72,-1,74,-1,76,78,-1,80,-1,82,-1,84,86,88,-1,-1,-1,-1,-1,-1,-1,-1,-1,-1,-1,-1,-1,-1,-1,-1,-1,-1,-1,-1,-1,-1,-1,-1,-1,-1,-1,-1,-1,-1,-1,-1,-1,-1],"split_conditions":[2E0,0E0,3.44E0,6E0,6.21E-1,2.88E2,5.882E-1,8.945E-1,5.49E0,9.5E2,2.142E-1,2.164E-1,4.35911E1,3.0714E0,5.49E0,1.44E2,1E0,4.1989494E-2,9.9E1,1.079E1,1.2727E0,9.512E-1,8.791E-1,6E0,5.6048788E-2,6.5E-1,8.25E2,-1.6837057E-2,8.110582E-2,8.505E-1,2.162E-1,1.15E3,4E0,-7.713466E-2,5.73E-1,2.5E0,1.9274384E-2,1.2E1,6.5E-1,1.25E1,3.6E-1,8.603E-1,-4.3674204E-2,6.3E1,-8.353757E-2,4.999E1,5.21E-2,7.2331905E-2,6.79E-1,-2.8663848E-2,2.25E0,2.811462E-2,5.124E-1,1.432956E6,5.762834E1,4.9440775E-2,-3.153707E-2,2.1998113E-2,6.808489E-2,-2.8148055E-2,4.432097E-2,-1.8725222E-2,-7.5938456E-2,8.620643E-2,2.3907576E-2,3.7851498E-2,-6.283989E-2,6.769683E-2,-7.760893E-3,7.5901225E-2,-0E0,4.0230803E-2,-4.558662E-2,5.4490965E-2,-2.54139E-2,-3.62863E-2,2.861326E-2,-7.652279E-2,-3.8162805E-2,3.106953E-3,-9.0994045E-2,1.5388501E-2,7.778606E-2,-3.0635497E-2,-7.889172E-2,-9.064057E-2,-2.9280905E-2,-6.96418E-2,8.9789677E-4],"split_indices":[2,45,13,21,44,47,33,33,39,49,17,9,5,29,39,28,54,0,4,40,29,33,34,2,0,33,49,0,0,34,38,49,41,0,44,14,0,4,33,39,18,9,0,15,0,40,9,0,44,0,29,0,17,49,5,0,0,0,0,0,0,0,0,0,0,0,0,0,0,0,0,0,0,0,0,0,0,0,0,0,0,0,0,0,0,0,0,0,0],"split_type":[0,0,0,0,0,0,0,0,0,0,0,0,0,0,0,0,0,0,0,0,0,0,0,0,0,0,0,0,0,0,0,0,0,0,0,0,0,0,0,0,0,0,0,0,0,0,0,0,0,0,0,0,0,0,0,0,0,0,0,0,0,0,0,0,0,0,0,0,0,0,0,0,0,0,0,0,0,0,0,0,0,0,0,0,0,0,0,0,0],"sum_hessian":[1.2872618E3,7.206416E2,5.6662024E2,2.0599341E2,5.146482E2,3.1860132E2,2.4801895E2,1.2935873E2,7.6634674E1,3.3874228E2,1.7590588E2,1.8823657E2,1.3036475E2,1.1692887E1,2.3632607E2,9.423798E1,3.5120754E1,1.0216283E1,6.641839E1,6.991487E1,2.6882742E2,1.4553142E2,3.0374454E1,1.8002644E2,8.210126E0,7.171774E1,5.864699E1,5.730737E0,5.96215E0,2.0623613E1,2.1570244E2,2.7652128E1,6.658585E1,1.1965404E1,2.315535E1,6.0189384E1,6.229006E0,3.8767235E1,3.114764E1,4.28024E1,2.2602501E2,1.3706227E2,8.469157E0,2.2656605E1,7.71785E0,1.1483805E2,6.518839E1,1.2441194E1,5.927655E1,6.7279634E0,5.191903E1,9.208528E0,1.1415086E1,1.4511385E2,7.05886E1,1.1457084E1,1.6195045E1,1.1941133E1,5.464472E1,1.3458132E1,9.697218E0,5.981409E0,5.4207977E1,2.8311525E1,1.04557085E1,9.205446E0,2.1942194E1,2.2129393E1,2.0673006E1,2.1881677E2,7.208247E0,1.3082225E2,6.240018E0,6.217E0,1.6439604E1,9.8883194E1,1.5954859E1,4.628394E1,1.890445E1,4.4811905E1,1.4464647E1,9.94836E0,4.197067E1,5.2103157E0,6.20477E0,1.3990141E2,5.21243E0,5.866033E1,1.1928268E1],"tree_param":{"num_deleted":"0","num_feature":"56","num_nodes":"89","size_leaf_vector":"1"}},{"base_weights":[4.879153E-3,-6.051926E-1,7.2987056E-1,-1.9860895E-1,-1.2969017E0,7.0416115E-2,9.787704E-1,-8.8382834E-1,2.4215198E-1,6.151537E-2,-1.398848E0,-3.3427125E-1,1.0636679E0,1.0841572E0,-4.14893E-1,-1.0282712E0,-0E0,4.6552005E-1,-1.024229E0,-1.5301927E0,-0E0,-1.0664904E0,1.2679423E-1,-1.5580518E-3,1.3347876E0,-6.124224E-2,1.1201922E0,7.3449725E-1,-1.1274575E0,-1.303792E0,-5.970981E-1,7.905169E-1,-8.290856E-2,-2.3604043E-1,7.845648E-1,2.525852E-2,-1.4781438E0,-1.5628692E0,-5.457576E-3,-5.52437E-2,7.6898843E-1,-1.02481164E-1,-1.3535151E0,1.3071893E0,-1.23557985E-1,7.513207E-2,1.8133292E-2,5.7765126E-1,1.2387252E0,-4.2609885E-4,7.046493E-2,-1.121777E-2,-7.942824E-2,-4.8304733E-2,-7.806961E-2,-5.8148224E-2,9.60208E-3,6.2463492E-2,-1.6030188E-3,4.6572253E-2,-2.6751427E-2,5.0610136E-2,-1.3828923E-2,-8.11749E-2,-3.2599997E-2,-5.0775617E-2,-8.322585E-2,-1.2359749E-2,7.709735E-2,-2.851038E-2,1.828618E-2,-7.78041E-2,-2.1928558E-2,3.990687E-2,7.973459E-2,3.6976475E-3,-8.202591E-2,4.0925693E-2,-2.1299936E-2,6.96071E-2,3.900312E-2],"categories":[],"categories_nodes":[],"categories_segments":[],"categories_sizes":[],"default_left":[0,1,0,0,0,1,0,0,1,0,0,0,0,1,0,0,0,0,0,0,0,0,0,0,0,0,0,1,0,0,1,0,0,1,1,0,0,0,0,0,0,1,1,0,1,0,0,0,1,0,0,0,0,0,0,0,0,0,0,0,0,0,0,0,0,0,0,0,0,0,0,0,0,0,0,0,0,0,0,0,0],"id":3,"left_children":[1,3,5,7,9,11,13,15,17,-1,19,21,23,25,27,29,31,33,35,37,39,41,43,-1,45,-1,47,49,51,53,55,57,-1,59,61,-1,63,65,-1,-1,67,69,71,73,75,-1,-1,77,79,-1,-1,-1,-1,-1,-1,-1,-1,-1,-1,-1,-1,-1,-1,-1,-1,-1,-1,-1,-1,-1,-1,-1,-1,-1,-1,-1,-1,-1,-1,-1,-1],"loss_changes":[5.633389E2,1.9408702E2,9.536682E1,1.3220638E2,6.762735E1,6.501609E1,6.2555115E1,2.1823181E1,7.581288E1,0E0,4.5366608E1,3.9004868E1,1.4071476E1,3.4064514E1,2.5725891E1,1.651735E1,3.4256474E1,5.1120564E1,2.875666E1,1.0120911E1,1.9601292E1,1.2047611E1,2.134646E1,0E0,5.408478E0,0E0,2.4026703E1,6.252664E0,7.4511986E0,5.9652557E0,2.6833044E1,6.8257437E0,0E0,2.5497547E1,3.8178185E1,0E0,2.4737854E0,1.0283386E1,0E0,0E0,1.1237535E1,2.722701E0,5.453182E0,3.3640862E-1,1.8152367E1,0E0,0E0,1.767658E1,2.100653E1,0E0,0E0,0E0,0E0,0E0,0E0,0E0,0E0,0E0,0E0,0E0,0E0,0E0,0E0,0E0,0E0,0E0,0E0,0E0,0E0,0E0,0E0,0E0,0E0,0E0,0E0,0E0,0E0,0E0,0E0,0E0,0E0],"parents":[2147483647,0,0,1,1,2,2,3,3,4,4,5,5,6,6,7,7,8,8,10,10,11,11,12,12,13,13,14,14,15,15,16,16,17,17,18,18,19,19,20,20,21,21,22,22,24,24,26,26,27,27,28,28,29,29,30,30,31,31,33,33,34,34,36,36,37,37,40,40,41,41,42,42,43,43,44,44,47,47,48,48],"right_children":[2,4,6,8,10,12,14,16,18,-1,20,22,24,26,28,30,32,34,36,38,40,42,44,-1,46,-1,48,50,52,54,56,58,-1,60,62,-1,64,66,-1,-1,68,70,72,74,76,-1,-1,78,80,-1,-1,-1,-1,-1,-1,-1,-1,-1,-1,-1,-1,-1,-1,-1,-1,-1,-1,-1,-1,-1,-1,-1,-1,-1,-1,-1,-1,-1,-1,-1,-1],"split_conditions":[7.2E1,7.2E1,0E0,2.08E2,3.684E-1,4.8E1,1.6E1,4.999E1,9.381E-1,6.151537E-2,2.8584704E0,6.61E2,1.9565E0,3.056E-1,6.826E-1,3.871E-1,1.5E1,0E0,7E0,1.83095E6,1.6012E4,-3.58E0,6.541E-1,-1.5580518E-3,8.602E-1,-6.124224E-2,1.25E0,2.5E0,2.6E1,8.252E-1,4.14E-2,1E1,-8.290856E-2,6.541E-1,8.04E-1,2.525852E-2,2E0,7.188E-1,-5.457576E-3,-5.52437E-2,-5.11E0,3.45E-2,1.2371428E-1,5.238E-1,1.2002002E0,7.513207E-2,1.8133292E-2,3E0,6.21E-1,-4.2609885E-4,7.046493E-2,-1.121777E-2,-7.942824E-2,-4.8304733E-2,-7.806961E-2,-5.8148224E-2,9.60208E-3,6.2463492E-2,-1.6030188E-3,4.6572253E-2,-2.6751427E-2,5.0610136E-2,-1.3828923E-2,-8.11749E-2,-3.2599997E-2,-5.0775617E-2,-8.322585E-2,-1.2359749E-2,7.709735E-2,-2.851038E-2,1.828618E-2,-7.78041E-2,-2.1928558E-2,3.990687E-2,7.973459E-2,3.6976475E-3,-8.202591E-2,4.0925693E-2,-2.1299936E-2,6.96071E-2,3.900312E-2],"split_indices":[0,15,45,47,34,42,41,40,33,0,46,21,29,33,33,54,3,45,39,49,49,18,33,0,33,0,29,29,42,33,35,3,0,33,44,0,26,34,0,0,18,16,19,33,46,0,0,3,44,0,0,0,0,0,0,0,0,0,0,0,0,0,0,0,0,0,0,0,0,0,0,0,0,0,0,0,0,0,0,0,0],"split_type":[0,0,0,0,0,0,0,0,0,0,0,0,0,0,0,0,0,0,0,0,0,0,0,0,0,0,0,0,0,0,0,0,0,0,0,0,0,0,0,0,0,0,0,0,0,0,0,0,0,0,0,0,0,0,0,0,0,0,0,0,0,0,0,0,0,0,0,0,0,0,0,0,0,0,0,0,0,0,0,0,0],"sum_hessian":[1.2716404E3,6.905651E2,5.810752E2,4.3582233E2,2.547428E2,1.596831E2,4.213921E2,1.7029639E2,2.6552594E2,9.410522E0,2.4533228E2,1.1385654E2,4.582657E1,3.9204037E2,2.9351696E1,1.4619157E2,2.4104816E1,2.2631857E2,3.9207382E1,2.2423424E2,2.1098051E1,4.3568726E1,7.028781E1,9.198332E0,3.662824E1,5.474704E0,3.8656567E2,1.1167319E1,1.8184378E1,8.781916E1,5.837242E1,1.665946E1,7.4453564E0,7.0731316E1,1.5558725E2,8.897004E0,3.0310377E1,2.1902757E2,5.206654E0,8.441346E0,1.2656705E1,1.0387255E1,3.3181473E1,1.1630196E1,5.865761E1,3.0681875E1,5.946362E0,7.0517006E1,3.1604868E2,5.714405E0,5.452914E0,6.722143E0,1.1462234E1,4.022514E1,4.7594017E1,3.379333E1,2.4579088E1,1.0439932E1,6.2195277E0,1.39214E1,5.6809917E1,1.2822137E2,2.7365875E1,2.48517E1,5.458676E0,3.6179768E1,1.8284781E2,5.7060156E0,6.95069E0,5.194142E0,5.193113E0,2.6503592E1,6.677881E0,5.6861773E0,5.944018E0,5.268346E1,5.974153E0,5.7098286E1,1.3418722E1,2.3514305E2,8.090561E1],"tree_param":{"num_deleted":"0","num_feature":"56","num_nodes":"81","size_leaf_vector":"1"}},{"base_weights":[5.322569E-2,7.010252E-1,-6.148731E-1,8.980829E-1,-3.7089385E-2,-2.40107E-1,-1.2167172E0,1.0674651E0,2.1219958E-1,-2.5698128E-1,1.0456905E0,-5.159146E-1,5.9918207E-1,1.1875412E0,-1.3598543E0,-6.403074E-1,1.127674E0,-7.2261296E-2,1.3025498E0,-4.681398E-1,8.698274E-1,1.5077467E0,7.137989E-3,-3.4481287E-1,-1.4201716E0,8.409555E-1,-7.146644E-2,1.914177E-2,8.358166E-2,-5.813659E-1,-1.5007017E0,1.1954995E-2,-8.293147E-2,1.208571E0,5.881174E-1,4.6779066E-1,-9.471226E-1,7.97702E-2,1.985485E-2,2.4495377E-1,-9.050352E-1,7.77726E-2,-2.4561988E-2,4.4964317E-2,8.687791E-2,-6.6857316E-2,-1.0374374E0,-1.9161653E-2,-8.1068195E-2,4.2122164E-1,1.3370796E0,9.4684637E-1,-1.284543E0,-1.5495921E0,1.1019752E-2,6.247128E-2,-1.6249062E-2,-1.8423202E-2,5.6108337E-2,-3.054798E-2,3.50304E-2,-0E0,-6.9302335E-2,5.3211804E-2,-4.0813882E-2,-7.10521E-2,-6.7185424E-4,-3.770187E-2,1.2892968E-2,-7.822805E-2,-2.793598E-2,-3.1637963E-2,4.2005487E-2,7.4168846E-2,1.918619E-2,7.720854E-2,1.0705427E-2,5.5730774E-4,-8.515573E-2,-7.950872E-2,-7.0211166E-3],"categories":[],"categories_nodes":[],"categories_segments":[],"categories_sizes":[],"default_left":[1,1,1,0,0,0,0,0,1,0,1,1,0,0,0,1,0,1,0,0,0,1,0,0,0,0,0,0,0,1,0,0,0,1,1,0,0,0,0,1,0,0,0,0,0,0,0,0,0,0,0,0,1,0,0,0,0,0,0,0,0,0,0,0,0,0,0,0,0,0,0,0,0,0,0,0,0,0,0,0,0],"id":4,"left_children":[1,3,5,7,9,11,13,15,17,19,21,23,25,27,29,31,33,35,37,39,41,43,-1,45,47,49,-1,-1,-1,51,53,-1,-1,55,57,59,61,-1,-1,63,65,-1,-1,-1,-1,67,69,-1,-1,71,73,75,77,79,-1,-1,-1,-1,-1,-1,-1,-1,-1,-1,-1,-1,-1,-1,-1,-1,-1,-1,-1,-1,-1,-1,-1,-1,-1,-1,-1],"loss_changes":[5.555612E2,9.491861E1,1.4208467E2,5.942621E1,3.3092358E1,9.075333E1,8.495941E1,4.3164276E1,3.2248634E1,2.7906532E1,9.401997E0,4.4934677E1,4.872655E1,4.647238E0,2.403238E1,1.3632858E1,1.6510986E1,3.9602055E1,4.866558E0,3.0882217E1,1.8173439E1,3.1769562E-1,0E0,4.7805573E1,8.875336E0,1.745346E1,0E0,0E0,0E0,4.0828003E1,1.6731537E1,0E0,0E0,2.2150238E1,2.812111E1,1.34423275E1,1.3273367E1,0E0,0E0,3.3939632E1,2.799086E1,0E0,0E0,0E0,0E0,4.01952E1,1.6882545E1,0E0,0E0,2.213906E1,4.7489624E0,4.8057756E0,1.4122547E1,1.0357513E1,0E0,0E0,0E0,0E0,0E0,0E0,0E0,0E0,0E0,0E0,0E0,0E0,0E0,0E0,0E0,0E0,0E0,0E0,0E0,0E0,0E0,0E0,0E0,0E0,0E0,0E0,0E0],"parents":[2147483647,0,0,1,1,2,2,3,3,4,4,5,5,6,6,7,7,8,8,9,9,10,10,11,11,12,12,13,13,14,14,15,15,16,16,17,17,18,18,19,19,20,20,21,21,23,23,24,24,25,25,29,29,30,30,33,33,34,34,35,35,36,36,39,39,40,40,45,45,46,46,49,49,50,50,51,51,52,52,53,53],"right_children":[2,4,6,8,10,12,14,16,18,20,22,24,26,28,30,32,34,36,38,40,42,44,-1,46,48,50,-1,-1,-1,52,54,-1,-1,56,58,60,62,-1,-1,64,66,-1,-1,-1,-1,68,70,-1,-1,72,74,76,78,80,-1,-1,-1,-1,-1,-1,-1,-1,-1,-1,-1,-1,-1,-1,-1,-1,-1,-1,-1,-1,-1,-1,-1,-1,-1,-1,-1],"split_conditions":[7.69E-2,2.5E-3,7.2E1,9.202E-1,1E0,3.79E2,5.455E-1,1.667E-1,1.1E1,1.7892E1,1.5E0,9.74E-1,9.462E-1,2.1E1,7E-1,1.667E-1,2.61E2,2.1310986E1,5.47E2,7.926E-1,2.6E0,8.96E-1,7.137989E-3,6E0,6.541E-1,1.8E2,-7.146644E-2,1.914177E-2,8.358166E-2,-1.054E1,7.57E2,1.1954995E-2,-8.293147E-2,1.34E0,8E-1,8.921636E0,5.24E0,7.97702E-2,1.985485E-2,4.839E-1,1.43E2,7.77726E-2,-2.4561988E-2,4.4964317E-2,8.687791E-2,9.5E2,3E0,-1.9161653E-2,-8.1068195E-2,1.79E-2,3.2E2,8E0,8.49E0,3.3035E4,1.1019752E-2,6.247128E-2,-1.6249062E-2,-1.8423202E-2,5.6108337E-2,-3.054798E-2,3.50304E-2,-0E0,-6.9302335E-2,5.3211804E-2,-4.0813882E-2,-7.10521E-2,-6.7185424E-4,-3.770187E-2,1.2892968E-2,-7.822805E-2,-2.793598E-2,-3.1637963E-2,4.2005487E-2,7.4168846E-2,1.918619E-2,7.720854E-2,1.0705427E-2,5.5730774E-4,-8.515573E-2,-7.950872E-2,-7.0211166E-3],"split_indices":[8,16,15,33,30,47,33,29,29,44,29,44,33,41,34,38,0,5,47,33,29,44,0,2,33,6,0,0,0,18,6,0,0,44,29,5,40,0,0,29,0,0,0,0,0,49,41,0,0,38,6,41,40,15,0,0,0,0,0,0,0,0,0,0,0,0,0,0,0,0,0,0,0,0,0,0,0,0,0,0,0],"split_type":[0,0,0,0,0,0,0,0,0,0,0,0,0,0,0,0,0,0,0,0,0,0,0,0,0,0,0,0,0,0,0,0,0,0,0,0,0,0,0,0,0,0,0,0,0,0,0,0,0,0,0,0,0,0,0,0,0,0,0,0,0,0,0,0,0,0,0,0,0,0,0,0,0,0,0,0,0,0,0,0,0],"sum_hessian":[1.281646E3,6.507594E2,6.3088654E2,5.135685E2,1.3719092E2,3.8975354E2,2.41133E2,4.1129507E2,1.0227341E2,1.1474369E2,2.244723E1,2.9373172E2,9.602182E1,1.3099917E1,2.2803308E2,1.3622041E1,3.9767303E2,8.177991E1,2.0493502E1,9.720183E1,1.7541862E1,1.43323555E1,8.114874E0,2.4825021E2,4.5481503E1,8.636313E1,9.658689E0,5.670783E0,7.429135E0,3.5830288E1,1.9220279E2,7.667503E0,5.954538E0,3.4458353E2,5.308951E1,5.078272E1,3.0997185E1,1.4825873E1,5.667628E0,3.700816E1,6.019367E1,1.16193695E1,5.922493E0,5.3954306E0,8.936925E0,1.7804164E2,7.020858E1,7.9433846E0,3.7538116E1,4.7894085E1,3.8469048E1,1.1137172E1,2.4693115E1,1.8704716E2,5.15562E0,3.3588583E2,8.6977005E0,1.9064415E1,3.4025097E1,8.64992E0,4.21328E1,1.01474085E1,2.0849777E1,2.0936415E1,1.6071745E1,3.7680405E1,2.2513264E1,5.6807938E1,1.21233696E2,3.2235947E1,3.797263E1,1.340811E1,3.4485977E1,3.277822E1,5.6908264E0,5.4502673E0,5.686905E0,6.20866E0,1.8484455E1,1.8161742E2,5.429753E0],"tree_param":{"num_deleted":"0","num_feature":"56","num_nodes":"81","size_leaf_vector":"1"}},{"base_weights":[-1.3767512E-2,6.217988E-1,-6.398723E-1,8.229453E-1,-1.5880942E-1,-2.5337183E-1,-1.2439424E0,9.928641E-1,1.7492478E-1,-8.2921195E-1,2.2510733E-1,-8.2177806E-1,8.30295E-2,-1.3699718E0,8.5433394E-1,-2.0422417E-1,1.040677E0,9.3962353E-1,-4.6467176E-1,-2.864511E-1,-8.217212E-2,6.511716E-1,-7.4618673E-1,3.383673E-1,-1.0295073E0,-3.5058376E-1,6.1366075E-1,-1.4747213E0,-4.8631746E-2,7.4678384E-2,-1.1597285E-2,-6.3539304E-2,3.2601282E-2,6.407705E-1,1.1620573E0,1.204007E0,-4.2707935E-2,-8.4717745E-1,8.172505E-2,-6.6549736E-1,5.8167335E-2,8.6512685E-1,-6.2339604E-2,4.075115E-1,-7.864895E-2,-4.5349795E-1,1.0941858E0,-1.1432259E0,-4.9319215E-2,-7.5675696E-1,1.326209E-1,8.366805E-1,-1.0894039E0,-1.5222255E0,1.156823E-2,-5.4178484E-2,5.5654466E-1,-3.5367724E-2,4.0882327E-2,6.1223954E-2,5.876871E-3,6.993031E-2,4.234292E-3,6.7804973E-3,-6.335249E-2,-5.4232147E-2,3.525022E-2,5.7957467E-2,-3.4789905E-2,3.3630286E-3,3.318902E-2,-5.3350653E-2,9.521245E-3,7.970131E-2,2.2702022E-2,9.966709E-3,-6.095189E-2,-4.551435E-2,5.317035E-2,-1.7272523E-2,-5.923161E-2,5.5699654E-2,-1.1244541E-2,5.156491E-2,-6.2633394E-3,-1.0285507E-2,-8.145623E-2,-7.729323E-2,-2.3232283E-2,1.9180507E-3,5.161159E-2],"categories":[],"categories_nodes":[],"categories_segments":[],"categories_sizes":[],"default_left":[1,1,1,0,0,0,1,0,0,0,1,1,0,0,0,0,0,1,1,1,0,1,0,0,0,0,0,0,0,0,0,0,0,0,1,1,0,1,0,1,0,0,0,0,0,1,0,0,0,1,0,0,0,0,0,0,0,0,0,0,0,0,0,0,0,0,0,0,0,0,0,0,0,0,0,0,0,0,0,0,0,0,0,0,0,0,0,0,0,0,0],"id":5,"left_children":[1,3,5,7,9,11,13,15,17,19,21,23,25,27,29,31,33,35,37,39,-1,41,43,45,47,49,51,53,55,-1,-1,-1,-1,57,59,61,-1,63,-1,65,-1,67,-1,69,-1,71,73,75,77,79,81,83,85,87,-1,-1,89,-1,-1,-1,-1,-1,-1,-1,-1,-1,-1,-1,-1,-1,-1,-1,-1,-1,-1,-1,-1,-1,-1,-1,-1,-1,-1,-1,-1,-1,-1,-1,-1,-1,-1],"loss_changes":[4.9973584E2,9.8040146E1,1.4725195E2,5.42948E1,3.3296516E1,7.4176865E1,6.6409424E1,2.2756287E1,5.1506474E1,2.0136414E1,3.455205E1,3.5158302E1,5.639006E1,3.202112E1,1.0567624E1,1.534431E1,1.7403381E1,2.3786919E1,4.739837E1,1.6950077E1,0E0,2.4528294E1,2.5082067E1,1.406937E1,1.3488266E1,2.662407E1,4.274425E1,1.7967163E1,1.2065011E1,0E0,0E0,0E0,0E0,2.2131191E1,1.8515564E1,8.930344E0,0E0,2.060991E1,0E0,1.4644986E1,0E0,2.5001968E1,0E0,8.7537134E-1,0E0,4.899252E0,2.8810587E0,1.1510864E1,1.4249917E1,1.237508E1,2.22017E1,1.8578293E1,5.7499695E0,4.3331604E0,0E0,0E0,2.8345537E0,0E0,0E0,0E0,0E0,0E0,0E0,0E0,0E0,0E0,0E0,0E0,0E0,0E0,0E0,0E0,0E0,0E0,0E0,0E0,0E0,0E0,0E0,0E0,0E0,0E0,0E0,0E0,0E0,0E0,0E0,0E0,0E0,0E0,0E0],"parents":[2147483647,0,0,1,1,2,2,3,3,4,4,5,5,6,6,7,7,8,8,9,9,10,10,11,11,12,12,13,13,14,14,15,15,16,16,17,17,18,18,19,19,21,21,22,22,23,23,24,24,25,25,26,26,27,27,28,28,33,33,34,34,35,35,37,37,39,39,41,41,43,43,45,45,46,46,47,47,48,48,49,49,50,50,51,51,52,52,53,53,56,56],"right_children":[2,4,6,8,10,12,14,16,18,20,22,24,26,28,30,32,34,36,38,40,-1,42,44,46,48,50,52,54,56,-1,-1,-1,-1,58,60,62,-1,64,-1,66,-1,68,-1,70,-1,72,74,76,78,80,82,84,86,88,-1,-1,90,-1,-1,-1,-1,-1,-1,-1,-1,-1,-1,-1,-1,-1,-1,-1,-1,-1,-1,-1,-1,-1,-1,-1,-1,-1,-1,-1,-1,-1,-1,-1,-1,-1,-1],"split_conditions":[7.69E-2,1.3E-3,6.3E1,9.202E-1,0E0,0E0,6.25E-1,1.918E-1,7E0,8.906E-1,3E1,6.541E-1,2.8E2,2.8584704E0,1.65E1,4.8E1,0E0,4E1,1.5E1,8.333E-1,-8.217212E-2,7.3333E0,7.704E-1,2.59E2,7.214599E1,9.04E-2,9.6E-1,1.657E3,4.38E-2,7.4678384E-2,-1.1597285E-2,-6.3539304E-2,3.2601282E-2,7E1,1.3379213E2,5.9E-3,-4.2707935E-2,9E0,8.172505E-2,5E-1,5.8167335E-2,2E0,-6.2339604E-2,1.46E2,-7.864895E-2,6.133E-1,7.143E-1,1.64E0,4.7143E0,7E-4,1.11E2,1.1E1,1E0,2.78E2,1.156823E-2,-5.4178484E-2,4.235686E1,-3.5367724E-2,4.0882327E-2,6.1223954E-2,5.876871E-3,6.993031E-2,4.234292E-3,6.7804973E-3,-6.335249E-2,-5.4232147E-2,3.525022E-2,5.7957467E-2,-3.4789905E-2,3.3630286E-3,3.318902E-2,-5.3350653E-2,9.521245E-3,7.970131E-2,2.2702022E-2,9.966709E-3,-6.095189E-2,-4.551435E-2,5.317035E-2,-1.7272523E-2,-5.923161E-2,5.5699654E-2,-1.1244541E-2,5.156491E-2,-6.2633394E-3,-1.0285507E-2,-8.145623E-2,-7.729323E-2,-2.3232283E-2,1.9180507E-3,5.161159E-2],"split_indices":[8,16,15,33,45,45,38,29,39,33,42,33,47,46,4,42,45,4,29,54,0,29,33,47,5,9,33,36,9,0,0,0,0,28,5,35,0,4,0,38,0,2,0,15,0,33,8,14,29,35,47,41,41,41,0,0,5,0,0,0,0,0,0,0,0,0,0,0,0,0,0,0,0,0,0,0,0,0,0,0,0,0,0,0,0,0,0,0,0,0,0],"split_type":[0,0,0,0,0,0,0,0,0,0,0,0,0,0,0,0,0,0,0,0,0,0,0,0,0,0,0,0,0,0,0,0,0,0,0,0,0,0,0,0,0,0,0,0,0,0,0,0,0,0,0,0,0,0,0,0,0,0,0,0,0,0,0,0,0,0,0,0,0,0,0,0,0,0,0,0,0,0,0,0,0,0,0,0,0,0,0,0,0,0,0],"sum_hessian":[1.2538306E3,6.221381E2,6.316925E2,4.947303E2,1.2740782E2,3.8618552E2,2.4550702E2,3.9141113E2,1.0331915E2,4.6066406E1,8.1341415E1,1.4315524E2,2.4303026E2,2.3196895E2,1.3538064E1,1.482694E1,3.765842E2,4.691502E1,5.6404133E1,2.8525867E1,1.7540539E1,5.6840504E1,2.4500908E1,2.157134E1,1.215839E2,1.3382446E2,1.092058E2,2.1475262E2,1.7216333E1,8.344668E0,5.1933966E0,6.4390225E0,8.3879175E0,8.934058E1,2.872436E2,4.122365E1,5.691368E0,4.825525E1,8.148882E0,2.3097126E1,5.4287424E0,5.1618484E1,5.222021E0,1.0389567E1,1.41113405E1,1.0665188E1,1.0906152E1,1.0870402E2,1.2879883E1,7.251254E1,6.1311916E1,9.706269E1,1.2143117E1,2.0909692E2,5.6556997E0,6.1218443E0,1.1094488E1,9.9486685E0,7.9391914E1,2.7079266E2,1.6450937E1,3.4829525E1,6.3941274E0,1.45760975E1,3.3679153E1,1.7903254E1,5.193871E0,4.370709E1,7.911393E0,5.173428E0,5.2161393E0,5.204605E0,5.460583E0,5.1997504E0,5.706401E0,5.652637E0,1.03051384E2,7.4146357E0,5.4652467E0,3.80128E1,3.4499744E1,1.5881322E1,4.543059E1,8.075624E1,1.6306448E1,5.198291E0,6.9448256E0,2.0398126E2,5.1156545E0,5.927887E0,5.1666007E0],"tree_param":{"num_deleted":"0","num_feature":"56","num_nodes":"91","size_leaf_vector":"1"}},{"base_weights":[1.0235904E-2,5.5146897E-1,-6.809125E-1,-3.229794E-2,7.9152673E-1,-1.1666886E0,-2.8654858E-1,3.8319457E-1,-7.6534945E-1,1.8387401E-1,9.574357E-1,-1.4473053E0,-8.620564E-1,-5.969859E-1,3.8342902E-1,-2.0502691E-1,7.1542627E-1,-1.0109551E0,2.910436E-1,8.9558417E-1,-2.9788843E-1,1.0870585E0,1.4612085E-1,-1.4987755E0,-1.3589381E-2,5.4416377E-3,-1.1027292E0,-6.982739E-1,8.9596516E-1,-1.3495542E0,8.3252114E-1,2.4840692E-1,-1.4108442E0,8.654258E-1,-2.5979111E-2,1.97196E-2,-1.2082667E0,6.3331515E-2,-3.8790613E-2,1.152779E-1,1.2624147E0,-3.0602424E-3,-8.024746E-2,1.2362623E0,5.365261E-1,-5.4463603E-2,4.3528336E-1,-2.310186E-2,-1.5399154E0,-6.9021803E-1,7.545765E-1,-1.2528003E0,-2.8156573E-1,-8.426201E-1,3.6481577E-1,1.7186003E-2,6.33117E-2,-7.8828774E-2,-2.7388562E-2,-4.1322853E-2,9.833617E-1,-2.715925E-2,4.4453908E-2,-8.705786E-2,-3.630474E-2,2.246176E-2,5.8618963E-2,-7.216882E-2,-2.4112804E-2,-5.0257664E-2,5.894078E-2,1.8856063E-2,7.5372584E-2,-6.456035E-2,1.782498E-2,3.2107234E-2,6.945336E-2,4.739478E-2,1.0803187E-2,3.9443176E-2,-3.962229E-2,-2.7190456E-2,-7.92317E-2,1.158806E-2,-6.576883E-2,8.016354E-3,5.743861E-2,-9.823708E-3,-6.81652E-2,-6.2337935E-2,3.6396828E-2,-4.689041E-2,1.6912136E-2,4.85998E-2,-2.844075E-2,-1.4967175E-3,6.268375E-2],"categories":[],"categories_nodes":[],"categories_segments":[],"categories_sizes":[],"default_left":[0,0,0,1,0,0,0,0,1,0,1,1,1,0,0,0,1,0,0,0,1,1,1,0,0,0,0,0,0,0,0,0,0,0,0,0,0,0,0,0,0,0,0,0,1,0,1,0,0,0,0,0,0,1,0,0,0,0,0,0,0,0,0,0,0,0,0,0,0,0,0,0,0,0,0,0,0,0,0,0,0,0,0,0,0,0,0,0,0,0,0,0,0,0,0,0,0],"id":6,"left_children":[1,3,5,7,9,11,13,15,17,19,21,23,25,27,29,31,33,35,37,39,41,43,45,47,-1,49,51,53,55,57,59,61,63,65,-1,-1,67,-1,-1,69,71,73,-1,75,77,-1,79,-1,81,83,85,87,89,91,93,-1,-1,-1,-1,-1,95,-1,-1,-1,-1,-1,-1,-1,-1,-1,-1,-1,-1,-1,-1,-1,-1,-1,-1,-1,-1,-1,-1,-1,-1,-1,-1,-1,-1,-1,-1,-1,-1,-1,-1,-1,-1],"loss_changes":[4.6712158E2,9.825627E1,1.0457127E2,6.27506E1,4.976245E1,1.9487854E1,6.3498047E1,2.587257E1,1.971069E1,3.730531E1,4.069333E1,7.0403748E0,2.522065E1,3.21047E1,7.640482E1,2.6759779E1,1.6099018E1,1.7415493E1,1.639832E1,1.22735405E1,2.4875193E1,2.6733826E1,2.003377E1,4.2248535E0,0E0,1.4608262E1,1.1105377E1,3.038459E1,2.186615E0,2.611206E0,2.0231697E1,1.8641779E1,1.5089054E0,8.970245E0,0E0,0E0,8.263458E0,0E0,0E0,1.933373E1,5.675537E0,2.56043E1,0E0,2.2799713E1,9.366762E0,0E0,2.0288223E1,0E0,4.0620117E0,8.74934E0,2.8605633E0,8.82946E0,1.650255E1,1.97873E1,1.42037525E1,0E0,0E0,0E0,0E0,0E0,1.9768341E1,0E0,0E0,0E0,0E0,0E0,0E0,0E0,0E0,0E0,0E0,0E0,0E0,0E0,0E0,0E0,0E0,0E0,0E0,0E0,0E0,0E0,0E0,0E0,0E0,0E0,0E0,0E0,0E0,0E0,0E0,0E0,0E0,0E0,0E0,0E0,0E0],"parents":[2147483647,0,0,1,1,2,2,3,3,4,4,5,5,6,6,7,7,8,8,9,9,10,10,11,11,12,12,13,13,14,14,15,15,16,16,17,17,18,18,19,19,20,20,21,21,22,22,23,23,25,25,26,26,27,27,28,28,29,29,30,30,31,31,32,32,33,33,36,36,39,39,40,40,41,41,43,43,44,44,46,46,48,48,49,49,50,50,51,51,52,52,53,53,54,54,60,60],"right_children":[2,4,6,8,10,12,14,16,18,20,22,24,26,28,30,32,34,36,38,40,42,44,46,48,-1,50,52,54,56,58,60,62,64,66,-1,-1,68,-1,-1,70,72,74,-1,76,78,-1,80,-1,82,84,86,88,90,92,94,-1,-1,-1,-1,-1,96,-1,-1,-1,-1,-1,-1,-1,-1,-1,-1,-1,-1,-1,-1,-1,-1,-1,-1,-1,-1,-1,-1,-1,-1,-1,-1,-1,-1,-1,-1,-1,-1,-1,-1,-1,-1],"split_conditions":[2E0,0E0,0E0,5E0,1.2727E0,4.0993E2,3.52E2,4.82E-1,5.8E1,1.099E1,-6.160286E0,5E-1,4.286E-1,7E1,9.42E-2,5.95E1,8.819E-1,5.49E0,1E0,2.812E-1,9.1216774E1,6.98E-1,4.98E0,2.13E0,-1.3589381E-2,1.26667E1,3.9796356E1,2.83E2,1.8233862E1,2E0,8.5E2,1.17E2,1.91E2,9.013588E1,-2.5979111E-2,1.97196E-2,2.2E2,6.3331515E-2,-3.8790613E-2,1.34E2,1.122E-1,2.11E2,-8.024746E-2,9.25E2,9.752423E0,-5.4463603E-2,7.25E0,-2.310186E-2,2.79E0,1.2727E0,2.14E2,5E0,7.25E0,6.25E-1,6E-1,1.7186003E-2,6.33117E-2,-7.8828774E-2,-2.7388562E-2,-4.1322853E-2,2.0343918E1,-2.715925E-2,4.4453908E-2,-8.705786E-2,-3.630474E-2,2.246176E-2,5.8618963E-2,-7.216882E-2,-2.4112804E-2,-5.0257664E-2,5.894078E-2,1.8856063E-2,7.5372584E-2,-6.456035E-2,1.782498E-2,3.2107234E-2,6.945336E-2,4.739478E-2,1.0803187E-2,3.9443176E-2,-3.962229E-2,-2.7190456E-2,-7.92317E-2,1.158806E-2,-6.576883E-2,8.016354E-3,5.743861E-2,-9.823708E-3,-6.81652E-2,-6.2337935E-2,3.6396828E-2,-4.689041E-2,1.6912136E-2,4.85998E-2,-2.844075E-2,-1.4967175E-3,6.268375E-2],"split_indices":[2,45,45,21,29,11,47,44,4,39,19,38,8,0,16,4,54,39,7,29,5,44,14,11,0,29,5,28,5,7,49,0,6,5,0,0,28,0,0,6,38,47,0,49,5,0,29,0,14,29,47,28,29,38,44,0,0,0,0,0,5,0,0,0,0,0,0,0,0,0,0,0,0,0,0,0,0,0,0,0,0,0,0,0,0,0,0,0,0,0,0,0,0,0,0,0,0],"split_type":[0,0,0,0,0,0,0,0,0,0,0,0,0,0,0,0,0,0,0,0,0,0,0,0,0,0,0,0,0,0,0,0,0,0,0,0,0,0,0,0,0,0,0,0,0,0,0,0,0,0,0,0,0,0,0,0,0,0,0,0,0,0,0,0,0,0,0,0,0,0,0,0,0,0,0,0,0,0,0,0,0,0,0,0,0,0,0,0,0,0,0,0,0,0,0,0,0],"sum_hessian":[1.2467773E3,6.9941644E2,5.473609E2,2.0393674E2,4.954797E2,2.4426462E2,3.030963E2,1.3037898E2,7.355776E1,1.0684903E2,3.8863068E2,1.2502065E2,1.1924396E2,2.0730074E2,9.579557E1,4.7089016E1,8.328996E1,5.9793724E1,1.3764043E1,4.2868206E1,6.3980824E1,3.3469388E2,5.3936775E1,1.1943128E2,5.589376E0,2.6019468E1,9.322449E1,1.9469133E2,1.2609406E1,1.925716E1,7.653841E1,3.4737453E1,1.2351562E1,7.460851E1,8.681446E0,7.1761484E0,5.2617573E1,7.1407027E0,6.62334E0,1.4215807E1,2.86524E1,5.308542E1,1.0895405E1,2.622047E2,7.248919E1,9.639784E0,4.4296993E1,5.1179905E0,1.1431329E2,1.346282E1,1.2556649E1,7.8272446E1,1.49520445E1,1.7168184E2,2.300949E1,5.9433885E0,6.666018E0,1.4157475E1,5.0996847E0,5.950586E0,7.058782E1,1.5536792E1,1.9200663E1,7.192974E0,5.1585875E0,3.2853104E1,4.175541E1,3.8895813E1,1.3721761E1,6.903684E0,7.312123E0,6.850257E0,2.1802141E1,1.1079483E1,4.2005936E1,5.4839844E1,2.0736485E2,3.0748356E1,4.1740833E1,3.4732975E1,9.564018E0,5.57295E0,1.0874034E2,5.629617E0,7.8332024E0,5.6698136E0,6.8868356E0,7.7615085E0,7.051094E1,7.574266E0,7.3777785E0,1.5914394E2,1.2537912E1,1.3982249E1,9.027241E0,1.4974341E1,5.5613483E1],"tree_param":{"num_deleted":"0","num_feature":"56","num_nodes":"97","size_leaf_vector":"1"}},{"base_weights":[-4.4217915E-3,5.577991E-1,-5.7012075E-1,-1.0562152E-1,8.030266E-1,2.489667E-1,-8.1723434E-1,-4.9475503E-1,9.858404E-1,8.6631164E-2,8.9134824E-1,5.223271E-1,-6.7124844E-1,-4.9087203E-1,-1.2732725E0,7.338405E-1,-7.7164114E-1,4.6432737E-1,7.046229E-2,-5.672974E-2,3.4574115E-1,6.70246E-1,1.1086433E0,2.0609973E-1,1.1849421E0,-1.2190243E0,5.0101914E-2,-8.9517266E-1,-5.5247433E-2,-1.3271537E0,3.2280862E-2,-6.193115E-3,9.8624545E-1,-8.223276E-2,-5.1816595E-1,6.3101225E-2,-2.4204634E-2,7.00356E-1,-3.4852353E-1,7.4494815E-1,-6.380211E-2,4.118604E-3,1.1524097E0,8.571554E-1,-1.12354435E-1,5.822726E-1,7.667912E-2,-7.5751706E-3,-7.364622E-2,-2.8346124E-1,-1.1037469E0,-7.3741436E-1,2.7244315E-1,-1.4388187E0,-3.2875368E-1,6.834636E-2,5.7832054E-3,-8.96903E-3,-5.222968E-2,6.26545E-2,-1.5035147E-2,-6.413027E-2,3.729194E-2,4.2122103E-2,-1.3352426E-2,3.149764E-2,6.2345017E-2,5.983596E-2,-1.3793885E-2,5.077873E-3,-7.824641E-2,6.0305584E-2,3.2781865E-3,1.61605E-2,-6.654071E-2,-7.586735E-2,-4.3163072E-2,-1.738598E-2,-7.7924736E-2,2.5922019E-2,-5.015978E-2,-2.4419345E-2,-7.3193066E-2,-5.7215E-2,7.440722E-2],"categories":[],"categories_nodes":[],"categories_segments":[],"categories_sizes":[],"default_left":[1,0,0,1,0,0,1,0,0,0,1,0,0,0,1,0,0,0,0,0,0,0,0,1,1,0,0,1,0,0,0,0,0,0,0,0,0,1,0,0,0,0,0,1,0,1,0,0,0,0,0,1,0,1,1,0,0,0,0,0,0,0,0,0,0,0,0,0,0,0,0,0,0,0,0,0,0,0,0,0,0,0,0,0,0],"id":7,"left_children":[1,3,5,7,9,11,13,15,17,19,21,23,25,27,29,31,33,35,-1,-1,37,39,41,43,45,47,-1,49,51,53,-1,-1,55,-1,57,-1,-1,59,61,63,-1,-1,65,67,69,71,-1,-1,-1,73,75,77,79,81,83,-1,-1,-1,-1,-1,-1,-1,-1,-1,-1,-1,-1,-1,-1,-1,-1,-1,-1,-1,-1,-1,-1,-1,-1,-1,-1,-1,-1,-1,-1],"loss_changes":[3.9762512E2,1.0215141E2,1.26412476E2,7.26309E1,2.8802155E1,3.6842052E1,7.050964E1,4.3444653E1,9.081478E0,1.6608452E1,1.8655853E1,2.3196703E1,3.203259E1,4.9351013E1,2.1510864E1,5.323207E0,2.1814495E1,1.7131699E1,0E0,0E0,1.0943682E1,3.0662727E1,8.933212E0,1.623713E1,6.4685707E0,6.608139E0,0E0,1.8121185E1,3.0751251E1,2.0983612E1,0E0,0E0,5.8102245E0,0E0,1.4259108E1,0E0,0E0,1.6573296E1,1.656575E1,1.9801872E1,0E0,0E0,8.665527E0,1.0299389E1,1.671722E1,4.6051517E0,0E0,0E0,0E0,2.4981937E1,9.203003E0,1.3553648E1,2.95957E1,3.2346191E0,3.2646088E1,0E0,0E0,0E0,0E0,0E0,0E0,0E0,0E0,0E0,0E0,0E0,0E0,0E0,0E0,0E0,0E0,0E0,0E0,0E0,0E0,0E0,0E0,0E0,0E0,0E0,0E0,0E0,0E0,0E0,0E0],"parents":[2147483647,0,0,1,1,2,2,3,3,4,4,5,5,6,6,7,7,8,8,9,9,10,10,11,11,12,12,13,13,14,14,15,15,16,16,17,17,20,20,21,21,22,22,23,23,24,24,25,25,27,27,28,28,29,29,32,32,34,34,37,37,38,38,39,39,42,42,43,43,44,44,45,45,49,49,50,50,51,51,52,52,53,53,54,54],"right_children":[2,4,6,8,10,12,14,16,18,20,22,24,26,28,30,32,34,36,-1,-1,38,40,42,44,46,48,-1,50,52,54,-1,-1,56,-1,58,-1,-1,60,62,64,-1,-1,66,68,70,72,-1,-1,-1,74,76,78,80,82,84,-1,-1,-1,-1,-1,-1,-1,-1,-1,-1,-1,-1,-1,-1,-1,-1,-1,-1,-1,-1,-1,-1,-1,-1,-1,-1,-1,-1,-1,-1],"split_conditions":[1.111E-1,0E0,7.265E-1,4.9E1,5.2E1,1.1E1,7.2E1,6.857E-1,6.3406097E1,1E3,3.33E-2,3.82E2,6.667E-1,2.47E2,1.5394011E2,1.41106E3,4.3E1,6.857E-1,7.046229E-2,-5.672974E-2,3E0,2.2E1,1.42E2,5.997332E-1,3.6667E0,5.957E-1,5.0101914E-2,2.992993E-1,0E0,1.4203E4,3.2280862E-2,-6.193115E-3,9.595847E1,-8.223276E-2,2E0,6.3101225E-2,-2.4204634E-2,1.699E1,2.01517E3,2.78E2,-6.380211E-2,4.118604E-3,1.75E1,3.3333E0,1E0,3.3E1,7.667912E-2,-7.5751706E-3,-7.364622E-2,7E0,9.5E2,9.231E-1,9.6E-1,7.32E-1,1.928E-1,6.834636E-2,5.7832054E-3,-8.96903E-3,-5.222968E-2,6.26545E-2,-1.5035147E-2,-6.413027E-2,3.729194E-2,4.2122103E-2,-1.3352426E-2,3.149764E-2,6.2345017E-2,5.983596E-2,-1.3793885E-2,5.077873E-3,-7.824641E-2,6.0305584E-2,3.2781865E-3,1.61605E-2,-6.654071E-2,-7.586735E-2,-4.3163072E-2,-1.738598E-2,-7.7924736E-2,2.5922019E-2,-5.015978E-2,-2.4419345E-2,-7.3193066E-2,-5.7215E-2,7.440722E-2],"split_indices":[8,45,33,42,28,36,15,33,5,49,35,47,38,47,5,14,28,33,0,0,3,36,47,46,29,33,0,46,45,15,0,0,5,0,3,0,0,40,10,0,0,0,12,29,45,42,0,0,0,2,49,33,33,33,38,0,0,0,0,0,0,0,0,0,0,0,0,0,0,0,0,0,0,0,0,0,0,0,0,0,0,0,0,0,0],"split_type":[0,0,0,0,0,0,0,0,0,0,0,0,0,0,0,0,0,0,0,0,0,0,0,0,0,0,0,0,0,0,0,0,0,0,0,0,0,0,0,0,0,0,0,0,0,0,0,0,0,0,0,0,0,0,0,0,0,0,0,0,0,0,0,0,0,0,0,0,0,0,0,0,0,0,0,0,0,0,0,0,0,0,0,0,0],"sum_hessian":[1.2482018E3,6.259437E2,6.2225806E2,1.6897435E2,4.5696936E2,1.441253E2,4.7813275E2,1.2503468E2,4.393967E1,5.049628E1,4.0647308E2,1.1153393E2,3.2591373E1,2.8002756E2,1.981052E2,2.2626255E1,1.02408424E2,2.073409E1,2.320558E1,8.179634E0,4.2316647E1,2.0372421E2,2.0274889E2,7.6491135E1,3.5042793E1,2.4802982E1,7.788392E0,1.4456923E2,1.3545833E2,1.930451E2,5.0600915E0,5.170238E0,1.7456018E1,2.1719532E1,8.0688896E1,1.1139586E1,9.594504E0,2.8099379E1,1.4217269E1,1.9683783E2,6.8863764E0,8.504118E0,1.9424477E2,2.467249E1,5.1818645E1,1.3926315E1,2.1116478E1,5.148155E0,1.9654827E1,3.7481407E1,1.0708783E2,4.364843E1,9.18099E1,1.7313924E2,1.9905878E1,1.1668641E1,5.7873774E0,5.0025455E1,3.0663437E1,1.8005682E1,1.0093697E1,7.62683E0,6.5904384E0,1.7978412E2,1.7053707E1,3.1086508E1,1.6315826E2,1.9007957E1,5.664531E0,4.591784E1,5.900807E0,5.616991E0,8.309324E0,2.4111137E1,1.3370268E1,3.7267616E1,6.982021E1,3.0647861E1,1.3000569E1,7.753067E1,1.4279225E1,5.0737305E0,1.680655E2,1.40324135E1,5.873464E0],"tree_param":{"num_deleted":"0","num_feature":"56","num_nodes":"85","size_leaf_vector":"1"}},{"base_weights":[-1.1041768E-2,5.419706E-1,-5.637321E-1,-4.4581884E-1,6.9399166E-1,2.7178636E-1,-7.879792E-1,-2.036303E-1,-7.277142E-2,8.582028E-1,1.9896103E-1,-5.5125815E-1,4.8966655E-1,-4.3746188E-1,-1.2294097E0,-1.2656428E0,1.0073515E-1,-1.4558129E-1,9.268168E-1,-1.1036773E0,4.443141E-1,-7.956357E-2,3.3826298E-1,1.2005072E0,2.3640983E-1,-1.8008855E-1,-1.2221221E0,-1.3153605E0,1.1177418E-1,-8.453565E-2,-1.708267E-2,5.8567148E-2,-1.699905E-1,3.4469017E-1,-7.362134E-2,1.0236081E0,3.6006248E-1,-6.375613E-3,-7.974147E-2,6.5516853E-1,-5.555699E-1,-2.8319238E-2,4.440413E-2,2.6470905E-2,1.3402755E0,6.57708E-2,2.3465404E-2,-5.4876965E-1,1.8956238E-1,7.2177956E-3,-1.3455763E0,4.9825157E-3,-1.36129E0,5.8442052E-2,-3.9929718E-2,1.798051E-2,-4.5987915E-2,4.9851283E-2,-6.034376E-2,5.323221E-2,6.9840597E-3,-7.9893395E-2,3.0098904E-2,3.9101925E-2,-3.3905055E-2,-6.6585355E-2,1.6214198E-2,7.785212E-2,2.6219973E-2,-2.6452843E-2,2.6271392E-2,-6.627474E-2,-1.0980464E-2,1.8072605E-2,-4.9086887E-2,-2.383995E-2,-7.313418E-2,-3.317153E-2,-7.2085604E-2],"categories":[],"categories_nodes":[],"categories_segments":[],"categories_sizes":[],"default_left":[1,0,0,0,0,0,1,0,0,0,0,0,1,1,0,1,0,0,0,0,1,0,0,0,0,0,0,0,1,0,0,0,0,0,0,0,0,0,0,0,0,0,0,0,0,0,0,0,0,0,0,0,0,0,0,0,0,0,0,0,0,0,0,0,0,0,0,0,0,0,0,0,0,0,0,0,0,0,0],"id":8,"left_children":[1,3,5,7,9,11,13,15,-1,17,19,21,23,25,27,29,31,33,35,37,39,-1,41,43,45,47,49,51,53,-1,-1,-1,55,57,-1,59,61,-1,-1,63,65,-1,-1,-1,67,-1,69,71,73,-1,75,-1,77,-1,-1,-1,-1,-1,-1,-1,-1,-1,-1,-1,-1,-1,-1,-1,-1,-1,-1,-1,-1,-1,-1,-1,-1,-1,-1],"loss_changes":[3.7604196E2,9.267041E1,1.1557219E2,1.9718266E1,4.3080658E1,2.3732437E1,7.4423615E1,2.2162045E1,0E0,2.7766388E1,4.3350857E1,2.635188E1,1.8313917E1,5.463516E1,2.4962372E1,5.2092133E0,1.5822023E1,1.777263E1,2.0047363E1,9.937418E0,2.4366398E1,0E0,8.363929E0,1.6358032E0,1.7781622E1,2.825917E1,1.1615791E1,1.3355591E1,1.4205775E1,0E0,0E0,0E0,1.7677696E1,2.143373E1,0E0,1.13142395E1,2.7552286E1,0E0,0E0,1.6529396E1,1.4379644E1,0E0,0E0,0E0,2.789772E0,0E0,1.8673428E1,2.6065104E1,2.1158499E1,0E0,5.376381E0,0E0,9.792419E0,0E0,0E0,0E0,0E0,0E0,0E0,0E0,0E0,0E0,0E0,0E0,0E0,0E0,0E0,0E0,0E0,0E0,0E0,0E0,0E0,0E0,0E0,0E0,0E0,0E0,0E0],"parents":[2147483647,0,0,1,1,2,2,3,3,4,4,5,5,6,6,7,7,9,9,10,10,11,11,12,12,13,13,14,14,15,15,16,16,17,17,18,18,19,19,20,20,22,22,23,23,24,24,25,25,26,26,27,27,28,28,32,32,33,33,35,35,36,36,39,39,40,40,44,44,46,46,47,47,48,48,50,50,52,52],"right_children":[2,4,6,8,10,12,14,16,-1,18,20,22,24,26,28,30,32,34,36,38,40,-1,42,44,46,48,50,52,54,-1,-1,-1,56,58,-1,60,62,-1,-1,64,66,-1,-1,-1,68,-1,70,72,74,-1,76,-1,78,-1,-1,-1,-1,-1,-1,-1,-1,-1,-1,-1,-1,-1,-1,-1,-1,-1,-1,-1,-1,-1,-1,-1,-1,-1,-1],"split_conditions":[1.111E-1,5.1E1,7.143E-1,1.5E1,9.016E-1,9E0,3.33E0,5.6E1,-7.277142E-2,1.46E2,1.505E0,5E0,3.75E-1,7.58E-1,6.325E1,7.73E-2,7.015E-1,9.3E1,2.61E2,5.49E0,4.435E1,-7.956357E-2,6.8E1,1.91E2,1E0,2.8E1,3E0,2.6617745E-1,6.664443E-1,-8.453565E-2,-1.708267E-2,5.8567148E-2,2E0,2E0,-7.362134E-2,2.7E1,1.719E1,-6.375613E-3,-7.974147E-2,2.00001E0,6.775E1,-2.8319238E-2,4.440413E-2,2.6470905E-2,2.8285715E1,6.57708E-2,2.1571428E1,1.2458333E1,9.796E-1,7.2177956E-3,4E0,4.9825157E-3,7.617E-1,5.8442052E-2,-3.9929718E-2,1.798051E-2,-4.5987915E-2,4.9851283E-2,-6.034376E-2,5.323221E-2,6.9840597E-3,-7.9893395E-2,3.0098904E-2,3.9101925E-2,-3.3905055E-2,-6.6585355E-2,1.6214198E-2,7.785212E-2,2.6219973E-2,-2.6452843E-2,2.6271392E-2,-6.627474E-2,-1.0980464E-2,1.8072605E-2,-4.9086887E-2,-2.383995E-2,-7.313418E-2,-3.317153E-2,-7.2085604E-2],"split_indices":[8,28,33,41,33,0,13,6,0,47,18,27,34,44,4,35,33,0,0,39,4,0,6,47,36,0,3,46,46,0,0,0,3,2,0,41,12,0,0,33,4,0,0,0,4,0,4,4,33,0,41,0,33,0,0,0,0,0,0,0,0,0,0,0,0,0,0,0,0,0,0,0,0,0,0,0,0,0,0],"split_type":[0,0,0,0,0,0,0,0,0,0,0,0,0,0,0,0,0,0,0,0,0,0,0,0,0,0,0,0,0,0,0,0,0,0,0,0,0,0,0,0,0,0,0,0,0,0,0,0,0,0,0,0,0,0,0,0,0,0,0,0,0,0,0,0,0,0,0,0,0,0,0,0,0,0,0,0,0,0,0],"sum_hessian":[1.2283176E3,6.138992E2,6.144185E2,8.153265E1,5.323665E2,1.2987218E2,4.8454633E2,6.680741E1,1.4725246E1,3.9905624E2,1.3331029E2,2.6767733E1,1.0310444E2,2.713214E2,2.132249E2,1.4251247E1,5.2556164E1,2.5367325E1,3.736889E2,2.0510296E1,1.1279999E2,1.2028143E1,1.4739591E1,2.5998041E1,7.71064E1,2.0532916E2,6.599226E1,2.0047134E2,1.2753549E1,9.118409E0,5.132838E0,1.0010697E1,4.2545464E1,1.9008505E1,6.3588204E0,3.1833975E2,5.534916E1,7.35515E0,1.3155146E1,9.352277E1,1.9277214E1,5.4917364E0,9.247854E0,5.429916E0,2.0568125E1,1.1778242E1,6.5328156E1,1.0269227E2,1.0263689E2,5.3869042E0,6.060536E1,6.1972647E0,1.9427408E2,5.8207536E0,6.932795E0,2.5160364E1,1.7385101E1,1.3679144E1,5.3293605E0,3.0391306E2,1.4426684E1,5.424867E0,4.9924294E1,8.584269E1,7.680088E0,1.0029811E1,9.247403E0,1.5435996E1,5.1321297E0,3.097739E1,3.4350765E1,2.9574396E1,7.3117874E1,9.0179695E1,1.2457196E1,7.9027863E0,5.270257E1,2.115912E1,1.7311496E2],"tree_param":{"num_deleted":"0","num_feature":"56","num_nodes":"79","size_leaf_vector":"1"}},{"base_weights":[-1.0022014E-2,5.279502E-1,-5.4411924E-1,-5.6836076E-2,7.5201553E-1,-2.2305317E-1,-1.0853912E0,-7.0436144E-1,4.188512E-1,9.574308E-1,3.4737313E-1,-7.6261604E-1,6.2130794E-2,-1.2134603E0,6.977438E-1,2.6835838E-2,-8.6083025E-1,7.268219E-1,-4.8362276E-1,3.0790767E-1,1.105795E0,-8.0348775E-2,4.366327E-1,-1.2788459E0,-5.240909E-1,-1.0492125E0,2.7545702E-1,-1.2711394E0,2.3244126E-2,-1.397043E-2,7.468723E-2,-1.1880424E0,-2.0363863E-1,-1.715949E-2,8.4981686E-1,2.500528E-1,-8.015556E-2,5.8874047E-1,-4.985631E-2,6.2317014E-1,1.2442287E0,6.9312495E-1,-3.1446072E-1,-1.0998772E-2,-1.525744E0,-2.358843E-1,-1.3165182E0,-3.0567974E-1,-8.182472E-2,5.9879076E-1,-6.041146E-1,-6.589082E-1,-1.4085416E0,-6.900943E-2,4.449714E-3,2.8497258E-2,-7.254684E-2,4.938932E-2,-1.1052893E-2,-3.6120232E-2,4.4086073E-2,-2.8599555E-2,4.2029362E-2,-4.6059288E-2,4.3611452E-2,6.466344E-2,-0E0,6.504153E-2,2.7178628E-2,2.531497E-2,-5.3525265E-2,-8.0979764E-2,-4.1480403E-2,-2.5412941E-2,3.1963557E-2,-7.5643145E-2,-3.4872618E-2,5.8670184E-3,-5.8820434E-2,-2.9167596E-3,4.7022603E-2,-4.330084E-2,3.922304E-2,-5.5728164E-2,1.3175956E-2,-1.8556962E-2,-7.19278E-2],"categories":[],"categories_nodes":[],"categories_segments":[],"categories_sizes":[],"default_left":[1,0,1,0,1,0,1,1,0,0,0,0,0,0,0,0,0,1,1,1,0,0,0,0,0,1,1,0,0,0,0,1,0,0,0,0,0,0,0,0,1,0,0,0,1,0,0,0,0,0,0,0,0,0,0,0,0,0,0,0,0,0,0,0,0,0,0,0,0,0,0,0,0,0,0,0,0,0,0,0,0,0,0,0,0,0,0],"id":9,"left_children":[1,3,5,7,9,11,13,15,17,19,21,23,25,27,29,-1,31,33,35,37,39,-1,41,43,45,47,49,51,-1,-1,-1,53,55,-1,57,59,-1,61,-1,63,65,67,69,-1,71,73,75,77,-1,79,81,83,85,-1,-1,-1,-1,-1,-1,-1,-1,-1,-1,-1,-1,-1,-1,-1,-1,-1,-1,-1,-1,-1,-1,-1,-1,-1,-1,-1,-1,-1,-1,-1,-1,-1,-1],"loss_changes":[3.488321E2,7.935202E1,1.05513626E2,5.2172554E1,3.5894653E1,5.917756E1,5.2618317E1,1.44277115E1,2.7496603E1,2.7406128E1,2.6579762E1,1.5515823E1,5.9932823E1,2.1167267E1,1.2796345E1,0E0,1.341877E1,9.980427E0,2.1352852E1,2.0822079E1,1.47435E1,0E0,2.7870886E1,1.0255165E1,2.0713717E1,1.7077484E1,6.0711304E1,1.6111145E1,0E0,0E0,0E0,1.0688789E1,2.2759544E1,0E0,1.0054665E1,1.0556017E1,0E0,1.4018526E1,0E0,2.1785126E1,1.1141388E1,8.857124E0,2.3606682E1,0E0,5.770645E-1,1.6834345E1,1.6923409E0,7.3400445E0,0E0,3.5111416E1,2.1581896E1,1.7018658E1,4.467041E0,0E0,0E0,0E0,0E0,0E0,0E0,0E0,0E0,0E0,0E0,0E0,0E0,0E0,0E0,0E0,0E0,0E0,0E0,0E0,0E0,0E0,0E0,0E0,0E0,0E0,0E0,0E0,0E0,0E0,0E0,0E0,0E0,0E0,0E0],"parents":[2147483647,0,0,1,1,2,2,3,3,4,4,5,5,6,6,7,7,8,8,9,9,10,10,11,11,12,12,13,13,14,14,16,16,17,17,18,18,19,19,20,20,22,22,23,23,24,24,25,25,26,26,27,27,31,31,32,32,34,34,35,35,37,37,39,39,40,40,41,41,42,42,44,44,45,45,46,46,47,47,49,49,50,50,51,51,52,52],"right_children":[2,4,6,8,10,12,14,16,18,20,22,24,26,28,30,-1,32,34,36,38,40,-1,42,44,46,48,50,52,-1,-1,-1,54,56,-1,58,60,-1,62,-1,64,66,68,70,-1,72,74,76,78,-1,80,82,84,86,-1,-1,-1,-1,-1,-1,-1,-1,-1,-1,-1,-1,-1,-1,-1,-1,-1,-1,-1,-1,-1,-1,-1,-1,-1,-1,-1,-1,-1,-1,-1,-1,-1,-1],"split_conditions":[7.69E-2,0E0,7.2E1,1.44E2,6.21E-1,0E0,6.25E-1,6.481E-1,8.983E-1,1.2143E0,1.538E-1,4.58E-1,7.5E2,9.9E1,2.25E0,2.6835838E-2,8.91E-1,2E1,2.8E1,9.1216774E1,1.025E3,-8.0348775E-2,9.06E-1,2E0,1.007E0,8.14E-1,6.83E-1,7.188E-1,2.3244126E-2,-1.397043E-2,7.468723E-2,5E1,1.304E0,-1.715949E-2,2.5E1,2.44E1,-8.015556E-2,1.03125E1,-4.985631E-2,3.6E1,5.954E-1,7.143E-1,1.125E3,-1.0998772E-2,-1.65E-1,4.0349846E1,9.3E1,3.30861E1,-8.182472E-2,1.7209816E1,3.3E2,4.1E1,-5.66374E2,-6.900943E-2,4.449714E-3,2.8497258E-2,-7.254684E-2,4.938932E-2,-1.1052893E-2,-3.6120232E-2,4.4086073E-2,-2.8599555E-2,4.2029362E-2,-4.6059288E-2,4.3611452E-2,6.466344E-2,-0E0,6.504153E-2,2.7178628E-2,2.531497E-2,-5.3525265E-2,-8.0979764E-2,-4.1480403E-2,-2.5412941E-2,3.1963557E-2,-7.5643145E-2,-3.4872618E-2,5.8670184E-3,-5.8820434E-2,-2.9167596E-3,4.7022603E-2,-4.330084E-2,3.922304E-2,-5.5728164E-2,1.3175956E-2,-1.8556962E-2,-7.19278E-2],"split_indices":[8,45,15,28,44,45,38,33,33,29,29,44,49,4,29,0,44,42,4,5,49,0,34,37,44,33,44,34,0,0,0,42,44,0,37,4,0,4,0,6,17,29,49,0,18,5,6,5,0,5,28,0,19,0,0,0,0,0,0,0,0,0,0,0,0,0,0,0,0,0,0,0,0,0,0,0,0,0,0,0,0,0,0,0,0,0,0],"split_type":[0,0,0,0,0,0,0,0,0,0,0,0,0,0,0,0,0,0,0,0,0,0,0,0,0,0,0,0,0,0,0,0,0,0,0,0,0,0,0,0,0,0,0,0,0,0,0,0,0,0,0,0,0,0,0,0,0,0,0,0,0,0,0,0,0,0,0,0,0,0,0,0,0,0,0,0,0,0,0,0,0,0,0,0,0,0,0],"sum_hessian":[1.2120435E3,6.037437E2,6.0829974E2,1.6733014E2,4.364136E2,3.828196E2,2.2548015E2,7.0750755E1,9.6579384E1,2.8839676E2,1.4801683E2,1.3191513E2,2.509045E2,2.1072119E2,1.4758966E1,7.577591E0,6.317316E1,7.2234634E1,2.4344746E1,5.432352E1,2.3407324E2,5.6733975E0,1.4234343E2,4.017828E1,9.173685E1,3.9699432E1,2.1120506E2,2.0401218E2,6.7090044E0,6.8605137E0,7.898453E0,4.153379E1,2.163937E1,7.1787534E0,6.5055885E1,1.51217575E1,9.222988E0,4.5218384E1,9.105137E0,5.356212E1,1.8051112E2,1.0626509E2,3.607834E1,8.031142E0,3.214714E1,6.831462E1,2.3422226E1,1.8265293E1,2.143414E1,1.5475096E2,5.64541E1,3.858958E1,1.654226E2,3.6099678E1,5.4341154E0,1.3641618E1,7.997752E0,5.7782288E1,7.273596E0,5.835703E0,9.286054E0,7.7644973E0,3.7453888E1,7.0078583E0,4.655426E1,1.7366783E2,6.8432927E0,1.9334126E1,8.693096E1,1.7393768E1,1.8684568E1,2.7032484E1,5.1146555E0,5.2506523E1,1.5808099E1,1.6563562E1,6.8586636E0,1.2798083E1,5.467211E0,5.3120155E1,1.01630806E2,4.7873013E1,8.581089E0,2.5763296E1,1.2826283E1,5.1209664E0,1.6030164E2],"tree_param":{"num_deleted":"0","num_feature":"56","num_nodes":"87","size_leaf_vector":"1"}},{"base_weights":[1.9023186E-2,4.7816786E-1,-5.881689E-1,-4.7437396E-2,6.98199E-1,-2.260066E-1,-1.0893844E0,3.8609818E-1,-5.6110054E-1,7.8602546E-1,-5.591454E-1,-7.473003E-1,6.544317E-2,-3.5631108E-1,-1.2733916E0,5.1181835E-1,-6.949131E-2,-8.624746E-1,3.5995468E-1,3.4749633E-1,9.030745E-1,-1.2267094E0,1.110549E-1,3.7138447E-1,-9.499338E-1,1.9097778E-1,-7.878602E-2,-8.6845976E-1,8.135428E-1,-1.31969E0,-6.0935305E-3,-9.2574336E-2,8.69859E-1,-1.2476046E0,-3.9456624E-1,5.894033E-2,-1.9347687E-1,1.1094844E0,-6.973548E-2,1.0235255E0,3.678282E-1,-1.0065963E-2,-8.4387824E-2,-3.72245E-2,4.720522E-2,7.185914E-2,-3.8550038E-2,-1.1070124E0,-1.7765266E-1,-3.349825E-1,4.4779706E-1,-1.1975443E0,2.546835E-2,2.2948654E-3,8.9294486E-2,-1.3607662E0,-1.917407E-2,-1.6676158E-2,4.690185E-2,5.2838188E-2,2.6642699E-3,-4.0666215E-2,-7.794002E-2,8.297264E-3,-5.713879E-2,-5.028806E-2,2.8787453E-2,3.241804E-2,7.3977426E-2,1.2917559E-2,-6.95713E-2,5.2896965E-2,-2.3669714E-2,3.54641E-3,5.6837436E-2,-7.081451E-2,-4.2812895E-2,-4.6474125E-2,2.738306E-2,-3.911397E-2,1.5503232E-2,4.105131E-2,3.009485E-3,-1.3509755E-2,-7.0087835E-2,-4.7112457E-2,-7.087843E-2],"categories":[],"categories_nodes":[],"categories_segments":[],"categories_sizes":[],"default_left":[0,0,1,1,0,0,0,1,0,0,0,0,1,0,0,0,0,0,0,0,1,0,1,0,0,0,0,0,0,0,0,1,1,1,1,0,1,0,1,1,0,0,0,0,0,0,0,0,0,0,0,0,0,0,0,0,0,0,0,0,0,0,0,0,0,0,0,0,0,0,0,0,0,0,0,0,0,0,0,0,0,0,0,0,0,0,0],"id":10,"left_children":[1,3,5,7,9,11,13,15,17,19,21,23,25,27,29,31,-1,33,35,37,39,41,43,45,47,49,-1,51,53,55,-1,57,59,61,63,-1,65,67,69,71,73,-1,-1,-1,-1,-1,-1,75,77,79,81,83,-1,-1,-1,85,-1,-1,-1,-1,-1,-1,-1,-1,-1,-1,-1,-1,-1,-1,-1,-1,-1,-1,-1,-1,-1,-1,-1,-1,-1,-1,-1,-1,-1,-1,-1],"loss_changes":[3.34564E2,7.913666E1,9.340733E1,4.5324013E1,5.3683456E1,4.589605E1,2.8566528E1,2.5247835E1,2.6227911E1,2.2709503E1,1.45542965E1,2.495018E1,4.0143124E1,2.7617226E1,8.888428E0,2.2616297E1,0E0,1.2064159E1,1.1020674E1,3.0962E1,2.2381866E1,7.1193733E0,1.26957855E1,2.2171247E1,1.0836494E1,2.4639736E1,0E0,1.508679E1,1.0281976E1,5.6716614E0,0E0,1.0038463E1,9.810051E0,3.6494598E0,1.4315411E1,0E0,9.911539E0,4.6980896E0,2.7972385E1,1.5457581E1,1.5084167E1,0E0,0E0,0E0,0E0,0E0,0E0,4.466446E0,9.735794E0,1.7572504E1,1.755792E1,4.3791313E0,0E0,0E0,0E0,2.1876526E0,0E0,0E0,0E0,0E0,0E0,0E0,0E0,0E0,0E0,0E0,0E0,0E0,0E0,0E0,0E0,0E0,0E0,0E0,0E0,0E0,0E0,0E0,0E0,0E0,0E0,0E0,0E0,0E0,0E0,0E0,0E0],"parents":[2147483647,0,0,1,1,2,2,3,3,4,4,5,5,6,6,7,7,8,8,9,9,10,10,11,11,12,12,13,13,14,14,15,15,17,17,18,18,19,19,20,20,21,21,22,22,23,23,24,24,25,25,27,27,28,28,29,29,31,31,32,32,33,33,34,34,36,36,37,37,38,38,39,39,40,40,47,47,48,48,49,49,50,50,51,51,55,55],"right_children":[2,4,6,8,10,12,14,16,18,20,22,24,26,28,30,32,-1,34,36,38,40,42,44,46,48,50,-1,52,54,56,-1,58,60,62,64,-1,66,68,70,72,74,-1,-1,-1,-1,-1,-1,76,78,80,82,84,-1,-1,-1,86,-1,-1,-1,-1,-1,-1,-1,-1,-1,-1,-1,-1,-1,-1,-1,-1,-1,-1,-1,-1,-1,-1,-1,-1,-1,-1,-1,-1,-1,-1,-1],"split_conditions":[2E0,0E0,3.44E0,6.3603276E-1,1.8E1,1.82E2,7.188E-1,4.52E-2,2.52E2,1.2727E0,5.76E2,4.2727275E0,1.165E0,2.806E2,6.325E1,5E0,-6.949131E-2,1.09E2,2.6277367E1,8.999333E-1,7.17E-1,4.8E1,2.5E0,9E0,4.999E1,0E0,-7.878602E-2,1E1,8.415E0,3.926E3,-6.0935305E-3,8E0,3E0,5.217E-1,1.8E2,5.894033E-2,6.57787E1,1.24E2,6.16E1,6.454E-1,1.759E1,-1.0065963E-2,-8.4387824E-2,-3.72245E-2,4.720522E-2,7.185914E-2,-3.8550038E-2,1.3E1,1.1888889E1,1.2E1,8.188E-1,4.643E-1,2.546835E-2,2.2948654E-3,8.9294486E-2,7.8E-1,-1.917407E-2,-1.6676158E-2,4.690185E-2,5.2838188E-2,2.6642699E-3,-4.0666215E-2,-7.794002E-2,8.297264E-3,-5.713879E-2,-5.028806E-2,2.8787453E-2,3.241804E-2,7.3977426E-2,1.2917559E-2,-6.95713E-2,5.2896965E-2,-2.3669714E-2,3.54641E-3,5.6837436E-2,-7.081451E-2,-4.2812895E-2,-4.6474125E-2,2.738306E-2,-3.911397E-2,1.5503232E-2,4.105131E-2,3.009485E-3,-1.3509755E-2,-7.0087835E-2,-4.7112457E-2,-7.087843E-2],"split_indices":[2,45,13,46,41,47,34,16,28,29,47,4,44,10,4,41,0,0,5,46,44,0,29,2,40,45,0,29,44,37,0,29,29,29,21,0,5,0,4,17,40,0,0,0,0,0,0,37,4,37,34,34,0,0,0,34,0,0,0,0,0,0,0,0,0,0,0,0,0,0,0,0,0,0,0,0,0,0,0,0,0,0,0,0,0,0,0],"split_type":[0,0,0,0,0,0,0,0,0,0,0,0,0,0,0,0,0,0,0,0,0,0,0,0,0,0,0,0,0,0,0,0,0,0,0,0,0,0,0,0,0,0,0,0,0,0,0,0,0,0,0,0,0,0,0,0,0,0,0,0,0,0,0,0,0,0,0,0,0,0,0,0,0,0,0,0,0,0,0,0,0,0,0,0,0,0,0],"sum_hessian":[1.1980923E3,6.8243097E2,5.156614E2,2.014771E2,4.8095386E2,3.0031427E2,2.1534709E2,1.0928955E2,9.2187546E1,4.49977E2,3.0976862E1,1.07254845E2,1.9305943E2,4.3906445E1,1.7144064E2,1.027816E2,6.5079446E0,6.958962E1,2.259792E1,9.581714E1,3.5415985E2,1.5177706E1,1.5799156E1,1.6244894E1,9.100995E1,1.8021883E2,1.2840593E1,3.0776123E1,1.3130321E1,1.6459021E2,6.850432E0,3.840833E1,6.4373276E1,3.7140038E1,3.244959E1,8.730723E0,1.3867196E1,3.3399796E1,6.241734E1,2.8820383E2,6.595604E1,5.2205386E0,9.957168E0,7.7875648E0,8.011592E0,8.315944E0,7.928951E0,7.515985E1,1.5850096E1,5.8899734E1,1.213191E2,2.5006834E1,5.76929E0,7.9801908E0,5.15013E0,1.5713557E2,7.4546366E0,3.1757164E1,6.6511626E0,5.2044296E1,1.23289795E1,1.714655E1,1.9993486E1,1.8920269E1,1.3529319E1,6.658491E0,7.208705E0,1.6215935E1,1.718386E1,5.0588497E1,1.1828844E1,2.8207895E2,6.124862E0,4.846482E1,1.7491219E1,3.139306E1,4.3766792E1,7.7122664E0,8.13783E0,3.474718E1,2.4152555E1,6.1104794E1,6.0214302E1,5.020593E0,1.998624E1,2.1090487E1,1.3604509E2],"tree_param":{"num_deleted":"0","num_feature":"56","num_nodes":"87","size_leaf_vector":"1"}},{"base_weights":[-5.9680487E-3,-4.88496E-1,5.09853E-1,5.303938E-1,-6.357044E-1,6.4940786E-1,-1.6808778E-1,-5.9246534E-1,1.052461E0,-3.5800216E-1,-1.1201191E0,1.7426285E-1,8.049391E-1,3.7921637E-1,-6.694608E-1,-1.071577E0,3.719897E-2,6.3990897E-1,1.4290439E0,-8.758647E-1,-5.22588E-2,-1.2175536E0,2.8930366E-1,4.7572908E-1,-8.036248E-1,9.3799734E-1,2.582136E-1,6.338055E-1,-5.8654387E-2,7.9854506E-1,-1.1596642E0,-1.3374858E-2,-7.918469E-2,9.979886E-1,-3.5745796E-2,4.06612E-2,7.6748595E-2,-5.226451E-1,-1.3028337E0,6.575468E-1,-2.9585806E-1,3.293208E-4,-1.2780664E0,6.685998E-2,-4.7295656E-2,-2.2068775E-1,7.937151E-1,2.0047864E-2,-1.1663452E0,-1.5267384E-2,9.840216E-1,7.7203923E-1,-4.190066E-1,8.3506334E-1,-3.3235308E-2,-1.2463045E-2,7.38364E-2,-1.3724124E0,-1.9110594E-2,2.0063868E-2,7.065803E-2,4.905262E-2,-3.3439238E-2,-2.0493327E-2,-7.174238E-2,-3.2882094E-2,4.5665663E-2,-3.0247862E-2,2.5696537E-2,-6.6360384E-2,-3.116704E-2,-8.075252E-2,1.6780106E-2,-1.5453751E-2,5.1151313E-2,-6.349176E-3,-7.722199E-2,4.149083E-2,6.422951E-2,5.5620056E-2,6.067015E-4,-4.1184127E-2,6.535451E-2,5.4932464E-2,-6.1262217E-3,-7.7757046E-2,-4.104133E-2],"categories":[],"categories_nodes":[],"categories_segments":[],"categories_sizes":[],"default_left":[0,0,1,0,1,0,0,0,1,1,1,0,0,0,0,1,0,0,1,1,1,0,0,0,0,0,0,1,0,0,0,0,0,0,0,0,0,0,1,0,0,0,0,0,0,0,0,0,0,0,0,0,1,1,0,0,0,0,0,0,0,0,0,0,0,0,0,0,0,0,0,0,0,0,0,0,0,0,0,0,0,0,0,0,0,0,0],"id":11,"left_children":[1,3,5,7,9,11,13,15,17,19,21,23,25,27,29,31,-1,33,35,37,39,41,43,45,47,49,51,53,-1,55,57,-1,-1,59,-1,-1,-1,61,63,65,67,-1,69,-1,-1,71,73,-1,75,-1,77,79,81,83,-1,-1,-1,85,-1,-1,-1,-1,-1,-1,-1,-1,-1,-1,-1,-1,-1,-1,-1,-1,-1,-1,-1,-1,-1,-1,-1,-1,-1,-1,-1,-1,-1],"loss_changes":[2.9465927E2,9.210591E1,5.4283386E1,4.6211334E1,7.143132E1,3.4846725E1,2.7266352E1,1.6988707E1,7.1830864E0,5.396461E1,2.7137451E1,3.5288113E1,2.5626526E1,1.94841E1,3.822267E1,7.232092E0,0E0,1.4056728E1,2.7864075E-1,1.8239319E1,3.7513496E1,1.3621979E1,1.853202E1,2.0449917E1,1.2874601E1,1.6779861E1,2.5222502E1,1.1433441E1,0E0,1.008601E1,5.79615E0,0E0,0E0,4.747324E0,0E0,0E0,0E0,1.6252848E1,5.8934937E0,1.9263294E1,4.0778217E1,0E0,4.5620728E0,0E0,0E0,2.339891E1,1.6317402E1,0E0,8.285885E0,0E0,1.1555267E1,1.0494801E1,2.2954203E1,9.443445E0,0E0,0E0,0E0,1.5448647E0,0E0,0E0,0E0,0E0,0E0,0E0,0E0,0E0,0E0,0E0,0E0,0E0,0E0,0E0,0E0,0E0,0E0,0E0,0E0,0E0,0E0,0E0,0E0,0E0,0E0,0E0,0E0,0E0,0E0],"parents":[2147483647,0,0,1,1,2,2,3,3,4,4,5,5,6,6,7,7,8,8,9,9,10,10,11,11,12,12,13,13,14,14,15,15,17,17,18,18,19,19,20,20,21,21,22,22,23,23,24,24,25,25,26,26,27,27,29,29,30,30,33,33,37,37,38,38,39,39,40,40,42,42,45,45,46,46,48,48,50,50,51,51,52,52,53,53,57,57],"right_children":[2,4,6,8,10,12,14,16,18,20,22,24,26,28,30,32,-1,34,36,38,40,42,44,46,48,50,52,54,-1,56,58,-1,-1,60,-1,-1,-1,62,64,66,68,-1,70,-1,-1,72,74,-1,76,-1,78,80,82,84,-1,-1,-1,86,-1,-1,-1,-1,-1,-1,-1,-1,-1,-1,-1,-1,-1,-1,-1,-1,-1,-1,-1,-1,-1,-1,-1,-1,-1,-1,-1,-1,-1],"split_conditions":[6.5E1,6.585E-1,9.73E-2,2.06E2,4.41E0,2.1667E0,1.25E1,4.999E1,3.6E0,1.730078E1,6.325E1,1E0,9.211E-1,9.369E-1,7.6E1,7.9460483E0,3.719897E-2,5.882E-1,9.99E0,7.9986656E-1,3.5668334E-1,1.29E-2,1E0,2E0,9.25E0,2.7740293E0,7E0,5.5E0,-5.8654387E-2,6E0,3.41E2,-1.3374858E-2,-7.918469E-2,5.105E-1,-3.5745796E-2,4.06612E-2,7.6748595E-2,1.54E0,4.2727275E0,5.75E2,3.17E2,3.293208E-4,1.4203E4,6.685998E-2,-4.7295656E-2,1.667E-1,1.05E3,2.0047864E-2,6.826E-1,-1.5267384E-2,1.76E2,1.55E3,1.5E1,7.1408147E-1,-3.3235308E-2,-1.2463045E-2,7.38364E-2,1.71E2,-1.9110594E-2,2.0063868E-2,7.065803E-2,4.905262E-2,-3.3439238E-2,-2.0493327E-2,-7.174238E-2,-3.2882094E-2,4.5665663E-2,-3.0247862E-2,2.5696537E-2,-6.6360384E-2,-3.116704E-2,-8.075252E-2,1.6780106E-2,-1.5453751E-2,5.1151313E-2,-6.349176E-3,-7.722199E-2,4.149083E-2,6.422951E-2,5.5620056E-2,6.067015E-4,-4.1184127E-2,6.535451E-2,5.4932464E-2,-6.1262217E-3,-7.7757046E-2,-4.104133E-2],"split_indices":[0,33,17,47,10,29,39,40,29,5,4,7,33,33,15,5,0,33,40,46,46,16,41,50,39,5,39,29,0,36,37,0,0,33,0,0,0,13,4,49,28,0,15,0,0,29,49,0,33,0,6,49,29,46,0,0,0,28,0,0,0,0,0,0,0,0,0,0,0,0,0,0,0,0,0,0,0,0,0,0,0,0,0,0,0,0,0],"split_type":[0,0,0,0,0,0,0,0,0,0,0,0,0,0,0,0,0,0,0,0,0,0,0,0,0,0,0,0,0,0,0,0,0,0,0,0,0,0,0,0,0,0,0,0,0,0,0,0,0,0,0,0,0,0,0,0,0,0,0,0,0,0,0,0,0,0,0,0,0,0,0,0,0,0,0,0,0,0,0,0,0,0,0,0,0,0,0],"sum_hessian":[1.1818632E3,6.1076556E2,5.7109753E2,7.668878E1,5.340768E2,4.737626E2,9.733495E1,2.423592E1,5.2452858E1,3.4070502E2,1.933718E2,1.1751622E2,3.562464E2,4.655701E1,5.077794E1,1.804121E1,6.194709E0,2.644584E1,2.6007017E1,1.2566469E2,2.1504031E2,1.8106192E2,1.2309874E1,9.029543E1,2.7220781E1,2.8579343E2,7.0452965E1,4.0560856E1,5.9961543E0,1.2502839E1,3.82751E1,7.687924E0,1.0353286E1,2.1184088E1,5.2617536E0,5.229003E0,2.0778015E1,7.011707E1,5.5547615E1,5.440471E1,1.6063562E2,8.492946E0,1.7256898E2,6.6590576E0,5.6508164E0,2.8302355E1,6.1993084E1,6.2114983E0,2.1009283E1,9.92277E0,2.7587064E2,4.0063408E1,3.038956E1,3.5493584E1,5.0672746E0,5.1032395E0,7.3996E0,2.9349712E1,8.925387E0,9.59744E0,1.1586648E1,5.644176E0,6.44729E1,7.780572E0,4.7767044E1,8.538131E0,4.5866577E1,1.16531555E2,4.4104057E1,1.5942339E2,1.3145597E1,7.579798E0,2.0722555E1,1.0536687E1,5.1456394E1,6.030926E0,1.4978356E1,1.8503368E2,9.083698E1,2.7258741E1,1.28046665E1,2.5088427E1,5.3011336E0,2.7798798E1,7.6947846E0,2.0543428E1,8.806285E0],"tree_param":{"num_deleted":"0","num_feature":"56","num_nodes":"87","size_leaf_vector":"1"}},{"base_weights":[2.2451377E-2,4.5373952E-1,-5.3591233E-1,-9.529548E-2,6.788008E-1,-1.0319887E0,-1.6220313E-1,2.614505E-1,-8.273416E-1,7.750315E-1,-4.4491363E-1,3.5856146E-1,-1.1273518E0,4.9134785E-1,-4.251801E-1,7.4544924E-1,-1.541311E-1,-1.1946077E0,7.2364114E-2,-4.10628E-2,8.048501E-1,-7.8436136E-2,-7.437412E-2,-3.7823662E-2,6.131797E-2,-1.3694196E0,-8.9205474E-1,2.2390753E-1,7.621982E-2,-1.63233E-1,-1.1046375E0,-3.3668436E-2,9.372702E-1,-8.020918E-1,4.099591E-1,-1.322876E0,-5.0882697E-3,7.4233395E-1,-6.836607E-2,9.0713745E-1,4.1075444E-1,3.8924405E-1,-6.293996E-2,-7.10853E-2,-1.6972482E-2,-9.7310466E-1,1.9378414E-2,5.3403854E-1,-4.7593814E-1,-7.556398E-2,5.9574164E-2,-1.6137758E-2,-1.2431291E0,1.7996252E-2,6.115256E-2,9.291364E-3,-5.2509554E-2,5.3796202E-2,-1.1800099E-2,-7.151237E-2,-2.2282325E-2,6.0928114E-2,-0E0,-2.1229966E-2,4.7896896E-2,1.8614404E-3,4.570312E-2,-3.4269776E-2,3.8328826E-2,-5.331413E-2,-4.7008507E-3,-2.3428854E-2,3.8447868E-2,-6.590204E-2,1.6663242E-2,1.1905274E-2,-7.46999E-2,-2.6944408E-2,-6.8548135E-2],"categories":[],"categories_nodes":[],"categories_segments":[],"categories_sizes":[],"default_left":[0,0,0,1,0,0,0,0,0,1,0,0,0,0,1,0,0,0,0,0,1,0,0,0,0,1,0,0,0,0,0,0,0,1,0,0,0,0,0,0,0,1,0,0,0,0,0,0,0,0,1,0,0,0,0,0,0,0,0,0,0,0,0,0,0,0,0,0,0,0,0,0,0,0,0,0,0,0,0],"id":12,"left_children":[1,3,5,7,9,11,13,15,17,19,21,23,25,27,29,31,33,35,37,-1,39,41,-1,-1,-1,43,45,47,-1,49,51,-1,53,55,57,59,-1,61,-1,63,65,67,-1,-1,-1,69,-1,71,73,-1,75,-1,77,-1,-1,-1,-1,-1,-1,-1,-1,-1,-1,-1,-1,-1,-1,-1,-1,-1,-1,-1,-1,-1,-1,-1,-1,-1,-1],"loss_changes":[2.8732654E2,8.331587E1,9.609653E1,5.1587894E1,5.204196E1,3.0062683E1,5.138875E1,2.6881409E1,2.1582024E1,2.1628174E1,1.4337565E1,1.5496843E1,1.0460358E1,2.3190857E1,3.7605614E1,1.7428764E1,2.6741816E1,6.183754E0,1.98797E1,0E0,1.695102E1,1.6818367E1,0E0,0E0,0E0,4.7790527E0,1.1750343E1,1.5325261E1,0E0,4.679689E1,5.830078E0,0E0,8.437252E0,8.61566E0,1.7181469E1,3.044693E0,0E0,4.9648495E0,0E0,2.3648712E1,1.702741E1,9.363286E0,0E0,0E0,0E0,8.216942E0,0E0,1.1853179E1,1.5354574E1,0E0,3.7377907E1,0E0,3.5405197E0,0E0,0E0,0E0,0E0,0E0,0E0,0E0,0E0,0E0,0E0,0E0,0E0,0E0,0E0,0E0,0E0,0E0,0E0,0E0,0E0,0E0,0E0,0E0,0E0,0E0,0E0],"parents":[2147483647,0,0,1,1,2,2,3,3,4,4,5,5,6,6,7,7,8,8,9,9,10,10,11,11,12,12,13,13,14,14,15,15,16,16,17,17,18,18,20,20,21,21,25,25,26,26,27,27,29,29,30,30,32,32,33,33,34,34,35,35,37,37,39,39,40,40,41,41,45,45,47,47,48,48,50,50,52,52],"right_children":[2,4,6,8,10,12,14,16,18,20,22,24,26,28,30,32,34,36,38,-1,40,42,-1,-1,-1,44,46,48,-1,50,52,-1,54,56,58,60,-1,62,-1,64,66,68,-1,-1,-1,70,-1,72,74,-1,76,-1,78,-1,-1,-1,-1,-1,-1,-1,-1,-1,-1,-1,-1,-1,-1,-1,-1,-1,-1,-1,-1,-1,-1,-1,-1,-1,-1],"split_conditions":[2E0,0E0,0E0,8.662E-1,1.6E1,6.364E-1,7.32E-1,5.997332E-1,9.16E1,3.056E-1,5E1,1E0,1.654E-1,3.21E2,7.61E-1,3.63E-1,1.42E2,4.6E2,1.7E3,-4.10628E-2,6.94E-1,9.002E-1,-7.437412E-2,-3.7823662E-2,6.131797E-2,2.000667E0,6.7E1,6E0,7.621982E-2,7.5E2,1.2E1,-3.3668436E-2,3.8E1,6.541E-1,2.982076E1,2.06E2,-5.0882697E-3,2.8520373E-1,-6.836607E-2,2.01E-2,1.5E2,2.6021626E1,-6.293996E-2,-7.10853E-2,-1.6972482E-2,1E0,1.9378414E-2,3.1192E2,1.07E2,-7.556398E-2,1.454959E0,-1.6137758E-2,5.49E0,1.7996252E-2,6.115256E-2,9.291364E-3,-5.2509554E-2,5.3796202E-2,-1.1800099E-2,-7.151237E-2,-2.2282325E-2,6.0928114E-2,-0E0,-2.1229966E-2,4.7896896E-2,1.8614404E-3,4.570312E-2,-3.4269776E-2,3.8328826E-2,-5.331413E-2,-4.7008507E-3,-2.3428854E-2,3.8447868E-2,-6.590204E-2,1.6663242E-2,1.1905274E-2,-7.46999E-2,-2.6944408E-2,-6.8548135E-2],"split_indices":[2,45,45,33,41,33,33,46,4,33,42,7,16,28,44,44,28,28,49,0,44,34,0,0,0,46,0,2,0,49,28,0,4,33,5,0,0,46,0,16,0,5,0,0,0,32,0,10,28,0,46,0,39,0,0,0,0,0,0,0,0,0,0,0,0,0,0,0,0,0,0,0,0,0,0,0,0,0,0],"split_type":[0,0,0,0,0,0,0,0,0,0,0,0,0,0,0,0,0,0,0,0,0,0,0,0,0,0,0,0,0,0,0,0,0,0,0,0,0,0,0,0,0,0,0,0,0,0,0,0,0,0,0,0,0,0,0,0,0,0,0,0,0,0,0,0,0,0,0,0,0,0,0,0,0,0,0,0,0,0,0],"sum_hessian":[1.1911632E3,6.722637E2,5.188996E2,1.9549286E2,4.767708E2,2.2207689E2,2.968227E2,1.3177942E2,6.3713444E1,4.3953036E2,3.7240444E1,1.4008034E1,2.0806886E2,8.480829E1,2.1201442E2,6.0622967E1,7.115644E1,4.509054E1,1.8622902E1,7.511652E0,4.320187E2,2.842116E1,8.819285E0,6.136407E0,7.8716273E0,9.997357E1,1.0809529E2,6.8411224E1,1.6397066E1,1.5402248E2,5.799194E1,6.858898E0,5.376407E1,3.3002453E1,3.815399E1,4.0083855E1,5.0066867E0,1.3086722E1,5.5361795E0,3.4175958E2,9.025913E1,2.0775187E1,7.645974E0,9.4689255E1,5.284317E0,1.0195524E2,6.140046E0,4.766754E1,2.0743683E1,2.1089703E1,1.3293277E2,9.336032E0,4.8655907E1,1.8665241E1,3.509883E1,6.59388E0,2.6408571E1,1.8534605E1,1.9619387E1,3.504945E1,5.0344043E0,7.5713024E0,5.51542E0,1.2215029E1,3.2954456E2,5.2539814E1,3.771932E1,5.117929E0,1.5657257E1,9.1888885E1,1.0066359E1,8.779023E0,3.888852E1,9.917615E0,1.0826068E1,1.20048325E2,1.2884447E1,8.396573E0,4.0259335E1],"tree_param":{"num_deleted":"0","num_feature":"56","num_nodes":"79","size_leaf_vector":"1"}},{"base_weights":[-2.0773636E-2,4.601236E-1,-5.1548886E-1,-8.8454686E-2,6.7255026E-1,-2.2798197E-1,-1.0208232E0,-4.3326882E-1,8.8023627E-1,9.616829E-1,4.830918E-1,-9.7013965E-2,-1.2197752E0,-1.8795142E-1,-1.2780298E0,-2.0673437E-1,-9.7225523E-1,1.0949062E0,6.152853E-3,1.166221E-1,1.0464201E0,-7.4191235E-2,5.3358954E-1,-4.703437E-1,1.6389838E-1,-1.3314608E0,-1.5593587E-2,-5.467518E-1,1.0836369E0,-1.3253978E0,5.5866987E-3,-1.2439231E0,-2.9693393E-2,-1.1487383E0,-3.9980207E-3,6.133994E-2,1.3951614E-2,6.054032E-2,-5.3689506E-2,1.0988572E0,-1.603607E-2,6.0379887E-1,-4.462577E-1,-2.6578683E-1,-9.7967273E-1,-1.5532546E-1,6.7445916E-1,-9.840357E-1,-7.3789164E-2,7.3325527E-1,-1.3022877E0,6.8245254E-2,3.008085E-2,-6.807521E-2,-2.8541753E-2,-3.7671696E-2,-7.744801E-2,1.2857026E-2,-3.7097897E-2,-7.457982E-2,-6.125142E-3,5.832553E-2,1.3153927E-2,3.4685235E-4,3.628159E-2,-5.0789446E-2,3.163732E-2,4.2054523E-2,-2.1266177E-2,-7.185423E-2,-2.0392535E-2,6.713295E-3,-2.9491574E-2,3.9268307E-2,-1.2984062E-2,-2.6929736E-2,-6.9899224E-2,-5.354834E-3,7.1906775E-2,-7.403832E-2,-2.4341827E-2],"categories":[],"categories_nodes":[],"categories_segments":[],"categories_sizes":[],"default_left":[1,0,1,1,0,1,0,1,0,0,0,0,1,0,0,0,0,1,0,0,1,0,0,1,0,0,0,1,0,0,0,0,0,1,0,0,0,0,0,1,0,0,0,0,0,0,0,0,0,0,1,0,0,0,0,0,0,0,0,0,0,0,0,0,0,0,0,0,0,0,0,0,0,0,0,0,0,0,0,0,0],"id":13,"left_children":[1,3,5,7,9,11,13,15,17,19,21,23,25,27,29,31,33,35,-1,37,39,-1,41,43,45,47,-1,49,51,53,-1,55,57,59,-1,-1,-1,-1,-1,61,-1,63,65,67,69,71,73,75,-1,77,79,-1,-1,-1,-1,-1,-1,-1,-1,-1,-1,-1,-1,-1,-1,-1,-1,-1,-1,-1,-1,-1,-1,-1,-1,-1,-1,-1,-1,-1,-1],"loss_changes":[2.7687866E2,6.88786E1,8.29986E1,5.5603397E1,2.2704437E1,4.7433186E1,4.4093582E1,1.4671286E1,6.844902E0,1.1738892E1,2.6455074E1,3.1808624E1,3.7446632E0,2.3468367E1,1.069574E1,1.5965472E1,5.443329E0,3.145256E0,0E0,2.277471E1,1.1311478E1,0E0,1.773339E1,1.3607204E1,3.1474117E1,1.8561554E-1,0E0,3.9620903E1,5.188389E-1,3.206421E0,0E0,5.029888E-1,1.5794796E1,1.0151127E1,0E0,0E0,0E0,0E0,0E0,7.8322754E0,0E0,1.7169556E1,1.1397131E1,1.7503262E1,9.160629E0,1.5088576E1,7.946907E0,1.6774244E0,0E0,9.414548E0,2.7956696E0,0E0,0E0,0E0,0E0,0E0,0E0,0E0,0E0,0E0,0E0,0E0,0E0,0E0,0E0,0E0,0E0,0E0,0E0,0E0,0E0,0E0,0E0,0E0,0E0,0E0,0E0,0E0,0E0,0E0,0E0],"parents":[2147483647,0,0,1,1,2,2,3,3,4,4,5,5,6,6,7,7,8,8,9,9,10,10,11,11,12,12,13,13,14,14,15,15,16,16,17,17,19,19,20,20,22,22,23,23,24,24,25,25,27,27,28,28,29,29,31,31,32,32,33,33,39,39,41,41,42,42,43,43,44,44,45,45,46,46,47,47,49,49,50,50],"right_children":[2,4,6,8,10,12,14,16,18,20,22,24,26,28,30,32,34,36,-1,38,40,-1,42,44,46,48,-1,50,52,54,-1,56,58,60,-1,-1,-1,-1,-1,62,-1,64,66,68,70,72,74,76,-1,78,80,-1,-1,-1,-1,-1,-1,-1,-1,-1,-1,-1,-1,-1,-1,-1,-1,-1,-1,-1,-1,-1,-1,-1,-1,-1,-1,-1,-1,-1,-1],"split_conditions":[1.111E-1,0E0,7.2E1,4.8E1,4.77E-1,1.007E0,7.188E-1,1E0,1E0,7.778E-1,2.7740293E0,2.7E1,2.52E0,2.58E2,3.3035E4,1.46E2,1.655E1,7.074E-1,6.152853E-3,1.039E1,9.538E-1,-7.4191235E-2,2.2E1,5.5E0,4.4E1,6.78E-1,-1.5593587E-2,-1.15E1,4.1E2,4.999E1,5.5866987E-3,9.3E1,1.699E1,3.2857E0,-3.9980207E-3,6.133994E-2,1.3951614E-2,6.054032E-2,-5.3689506E-2,-1.1242857E0,-1.603607E-2,2.3E1,4.07E2,2.6E0,1.349E1,1E1,6.524E-1,1.3E1,-7.3789164E-2,4.1E1,3E0,6.8245254E-2,3.008085E-2,-6.807521E-2,-2.8541753E-2,-3.7671696E-2,-7.744801E-2,1.2857026E-2,-3.7097897E-2,-7.457982E-2,-6.125142E-3,5.832553E-2,1.3153927E-2,3.4685235E-4,3.628159E-2,-5.0789446E-2,3.163732E-2,4.2054523E-2,-2.1266177E-2,-7.185423E-2,-2.0392535E-2,6.713295E-3,-2.9491574E-2,3.9268307E-2,-1.2984062E-2,-2.6929736E-2,-6.9899224E-2,-5.354834E-3,7.1906775E-2,-7.403832E-2,-2.4341827E-2],"split_indices":[8,45,15,42,44,44,34,20,26,29,5,42,11,28,15,47,40,54,0,40,54,0,41,29,0,34,0,18,47,40,0,0,39,29,0,0,0,0,0,19,0,42,28,14,40,3,54,41,0,0,29,0,0,0,0,0,0,0,0,0,0,0,0,0,0,0,0,0,0,0,0,0,0,0,0,0,0,0,0,0,0],"split_type":[0,0,0,0,0,0,0,0,0,0,0,0,0,0,0,0,0,0,0,0,0,0,0,0,0,0,0,0,0,0,0,0,0,0,0,0,0,0,0,0,0,0,0,0,0,0,0,0,0,0,0,0,0,0,0,0,0,0,0,0,0,0,0,0,0,0,0,0,0,0,0,0,0,0,0,0,0,0,0,0,0],"sum_hessian":[1.1617893E3,5.890551E2,5.7273425E2,1.6446014E2,4.2459494E2,3.6609552E2,2.0663875E2,1.2177073E2,4.268941E1,1.6626065E2,2.5833432E2,3.2444998E2,4.164553E1,4.9257E1,1.5738174E2,8.684086E1,3.4929867E1,3.280942E1,9.87999E0,1.5476281E1,1.5078436E2,5.7063003E0,2.52628E2,1.3329858E2,1.9115138E2,3.657019E1,5.0753427E0,3.8922905E1,1.0334096E1,1.523088E2,5.0729475E0,1.1700841E1,7.514002E1,2.882853E1,6.101337E0,2.7704529E1,5.1048913E0,8.098918E0,7.377363E0,1.4547406E2,5.3103065E0,2.3619005E2,1.6437962E1,9.632906E1,3.696953E1,1.1792173E2,7.322966E1,1.3230884E1,2.3339306E1,1.4408899E1,2.4514006E1,5.238331E0,5.0957656E0,1.4445943E2,7.849371E0,5.94281E0,5.7580304E0,5.392331E1,2.1216711E1,2.119614E1,7.632389E0,1.3410347E2,1.1370586E1,4.035718E1,1.9583287E2,1.0858027E1,5.579933E0,1.1517931E1,8.481113E1,1.9601696E1,1.7367832E1,7.103732E1,4.6884403E1,6.569612E1,7.533539E0,7.597777E0,5.6331067E0,6.8949714E0,7.5139275E0,1.9342072E1,5.1719337E0],"tree_param":{"num_deleted":"0","num_feature":"56","num_nodes":"81","size_leaf_vector":"1"}},{"base_weights":[3.1738594E-2,3.8815746E-1,-4.7180727E-1,-1.3085444E-1,6.0668075E-1,2.3783757E-1,-6.6476953E-1,2.3465429E-1,-7.168072E-1,8.9970803E-1,3.570041E-1,5.376678E-1,-7.775311E-1,-1.3340451E-1,-8.842602E-1,5.0634426E-1,-4.4066212E-1,2.5507277E-1,-9.5522064E-1,1.5898134E-1,9.6555614E-1,-8.34642E-2,4.496763E-1,-3.322494E-2,6.40384E-1,3.2954977E-3,-1.1003398E0,-4.3936962E-1,8.103571E-1,-3.9958772E-1,-1.0378475E0,8.5397863E-1,-2.450311E-2,4.4415414E-1,-7.105697E-2,-2.5174815E-2,4.9193498E-2,-6.1686105E-1,-1.343368E0,-3.5272997E-2,6.515004E-1,-1.0470367E-2,1.0117291E0,6.6941583E-1,-3.2436594E-1,-1.8737875E-2,7.9194176E-1,-7.5085096E-2,-5.4255007E-3,-2.3947652E-1,-6.6494405E-2,-2.905235E-2,1.1724952E0,4.9567893E-1,-6.748502E-1,-1.2871346E0,-8.3477753E-1,5.625388E-2,7.496275E-3,-7.7513844E-2,1.7565023E-2,-9.937084E-3,3.9181575E-2,-4.7116008E-2,1.427599E-2,-7.24534E-2,-3.5396013E-2,-0E0,6.1565496E-2,5.2896734E-2,9.284137E-4,9.564884E-3,4.706795E-2,-5.782665E-2,9.1352835E-3,2.256699E-2,5.695296E-2,1.4435038E-3,-4.1906815E-2,7.780171E-2,-7.465042E-5,5.0337184E-2,-8.469329E-3,-4.673872E-2,-1.0602756E-4,-7.861568E-3,-6.8626426E-2,-4.96871E-2,1.1911806E-2],"categories":[],"categories_nodes":[],"categories_segments":[],"categories_sizes":[],"default_left":[0,0,0,1,1,0,0,0,0,0,0,0,0,0,0,1,1,0,0,0,1,0,1,0,0,0,0,0,0,0,0,0,0,1,0,0,0,0,1,0,0,0,0,0,1,0,0,0,0,0,0,0,0,0,1,0,0,0,0,0,0,0,0,0,0,0,0,0,0,0,0,0,0,0,0,0,0,0,0,0,0,0,0,0,0,0,0,0,0],"id":14,"left_children":[1,3,5,7,9,11,13,15,17,19,21,23,25,27,29,31,33,35,37,39,41,-1,43,-1,45,-1,47,49,51,53,55,57,59,61,-1,-1,-1,63,65,-1,67,-1,69,71,73,-1,75,-1,-1,77,-1,-1,79,81,83,85,87,-1,-1,-1,-1,-1,-1,-1,-1,-1,-1,-1,-1,-1,-1,-1,-1,-1,-1,-1,-1,-1,-1,-1,-1,-1,-1,-1,-1,-1,-1,-1,-1],"loss_changes":[2.0983504E2,7.77824E1,6.654613E1,4.3811794E1,3.482753E1,3.211788E1,4.425107E1,2.3348877E1,1.8513985E1,1.0512009E1,4.985885E1,1.0439463E1,6.7345753E0,3.288292E1,1.950499E1,1.6791285E1,3.246309E1,9.488227E0,7.297695E0,8.697244E0,1.1284042E1,0E0,4.3035114E1,0E0,1.1926147E1,0E0,6.6676884E0,1.4813976E1,1.47891865E1,1.6774784E1,9.034622E0,1.016045E1,2.167476E1,4.5652246E0,0E0,0E0,0E0,1.0861179E1,6.7448807E-1,0E0,4.8995943E0,0E0,8.830444E0,2.5235764E1,2.401977E1,0E0,7.122822E0,0E0,0E0,1.1584595E1,0E0,0E0,1.0294069E1,5.7476764E0,8.905685E0,8.263062E0,2.0000473E1,0E0,0E0,0E0,0E0,0E0,0E0,0E0,0E0,0E0,0E0,0E0,0E0,0E0,0E0,0E0,0E0,0E0,0E0,0E0,0E0,0E0,0E0,0E0,0E0,0E0,0E0,0E0,0E0,0E0,0E0,0E0,0E0],"parents":[2147483647,0,0,1,1,2,2,3,3,4,4,5,5,6,6,7,7,8,8,9,9,10,10,11,11,12,12,13,13,14,14,15,15,16,16,17,17,18,18,19,19,20,20,22,22,24,24,26,26,27,27,28,28,29,29,30,30,31,31,32,32,33,33,37,37,38,38,40,40,42,42,43,43,44,44,46,46,49,49,52,52,53,53,54,54,55,55,56,56],"right_children":[2,4,6,8,10,12,14,16,18,20,22,24,26,28,30,32,34,36,38,40,42,-1,44,-1,46,-1,48,50,52,54,56,58,60,62,-1,-1,-1,64,66,-1,68,-1,70,72,74,-1,76,-1,-1,78,-1,-1,80,82,84,86,88,-1,-1,-1,-1,-1,-1,-1,-1,-1,-1,-1,-1,-1,-1,-1,-1,-1,-1,-1,-1,-1,-1,-1,-1,-1,-1,-1,-1,-1,-1,-1,-1],"split_conditions":[5E0,0E0,7.093E-1,5E0,9.99E0,1.1E1,9.25E0,8.983E-1,7.32E-1,7.11E0,5.25E2,1.212E1,6.923077E0,2.5E2,4.286E-1,6.996997E-1,2.8285715E1,1.5E2,8.906E-1,1.29E-2,3.503E-1,-8.34642E-2,-3.3905714E0,-3.322494E-2,8E2,3.2954977E-3,2.599E1,9.6E-1,1.932E-1,7.912E-1,1.580975E1,1.2E1,4E0,9.333E-1,-7.105697E-2,-2.5174815E-2,4.9193498E-2,1.46E2,3.528E1,-3.5272997E-2,8.357E-1,-1.0470367E-2,7.05E2,3.7778E0,1.37E-2,-1.8737875E-2,2.74E2,-7.5085096E-2,-5.4255007E-3,1.5E1,-6.6494405E-2,-2.905235E-2,1.7857143E1,5E0,8.022E-1,-2.86732E2,2.0010011E0,5.625388E-2,7.496275E-3,-7.7513844E-2,1.7565023E-2,-9.937084E-3,3.9181575E-2,-4.7116008E-2,1.427599E-2,-7.24534E-2,-3.5396013E-2,-0E0,6.1565496E-2,5.2896734E-2,9.284137E-4,9.564884E-3,4.706795E-2,-5.782665E-2,9.1352835E-3,2.256699E-2,5.695296E-2,1.4435038E-3,-4.1906815E-2,7.780171E-2,-7.465042E-5,5.0337184E-2,-8.469329E-3,-4.673872E-2,-1.0602756E-4,-7.861568E-3,-6.8626426E-2,-4.96871E-2,1.1911806E-2],"split_indices":[3,45,33,21,40,36,39,33,33,10,49,10,4,28,8,46,4,28,33,35,33,0,19,0,49,0,39,33,16,33,5,37,41,33,0,0,0,0,11,0,33,0,28,29,35,0,47,0,0,3,0,0,4,41,54,19,46,0,0,0,0,0,0,0,0,0,0,0,0,0,0,0,0,0,0,0,0,0,0,0,0,0,0,0,0,0,0,0,0],"split_type":[0,0,0,0,0,0,0,0,0,0,0,0,0,0,0,0,0,0,0,0,0,0,0,0,0,0,0,0,0,0,0,0,0,0,0,0,0,0,0,0,0,0,0,0,0,0,0,0,0,0,0,0,0,0,0,0,0,0,0,0,0,0,0,0,0,0,0,0,0,0,0,0,0,0,0,0,0,0,0,0,0,0,0,0,0,0,0,0,0],"sum_hessian":[1.167198E3,6.8369446E2,4.8350354E2,2.0255418E2,4.8114026E2,1.0320444E2,3.802991E2,1.25006096E2,7.7548096E1,2.199716E2,2.6116864E2,8.011583E1,2.308861E1,1.1177248E2,2.685266E2,8.942668E1,3.557941E1,1.51796665E1,6.236843E1,1.836103E1,2.0161058E2,1.06309E1,2.5053773E2,5.7993016E0,7.431653E1,6.525277E0,1.6563332E1,8.4891335E1,2.6881147E1,6.564016E1,2.0288646E2,5.37846E1,3.5642082E1,1.8935963E1,1.6643448E1,7.522155E0,7.657512E0,3.4842274E1,2.752616E1,6.4336567E0,1.1927374E1,7.407622E0,1.9420296E2,1.9534613E2,5.5191616E1,9.376922E0,6.4939606E1,1.135388E1,5.2094517E0,7.045715E1,1.4434181E1,5.3695765E0,2.151157E1,1.51622505E1,5.0477905E1,8.84613E1,1.1442516E2,3.829781E1,1.548679E1,6.478805E0,2.9163279E1,6.5851417E0,1.2350821E1,2.5655674E1,9.186599E0,2.2367762E1,5.158397E0,6.0765796E0,5.850795E0,1.8541104E2,8.791916E0,7.1575874E1,1.23770256E2,2.0486744E1,3.4704872E1,3.4083855E1,3.0855753E1,4.9191856E1,2.1265295E1,1.6033289E1,5.4782805E0,8.3683E0,6.7939496E0,3.6021873E1,1.4456032E1,6.4977326E0,8.196357E1,9.980618E1,1.46189785E1],"tree_param":{"num_deleted":"0","num_feature":"56","num_nodes":"89","size_leaf_vector":"1"}},{"base_weights":[-1.4139459E-3,3.7735903E-1,-4.933866E-1,-9.591311E-2,5.648984E-1,1.9593704E-1,-6.895374E-1,2.0345575E-1,-9.671631E-1,7.5661933E-1,1.938237E-1,-5.944225E-2,1.0057063E0,-3.9237332E-1,-1.0657203E0,-5.352784E-1,4.7137755E-1,-1.9596916E-1,-1.27224E0,-5.4384973E-2,8.1369346E-1,4.2813444E-1,-4.1675654E-1,1.8109511E-1,-1.0282868E0,6.895247E-2,-6.3686892E-3,-1.0703723E0,-1.3704474E-1,-1.2974724E0,-6.635144E-1,1.3748498E-1,-1.0981615E0,-1.7713082E-1,6.1843294E-1,2.4131082E-2,-6.2194403E-2,-3.0106127E-2,-7.0117645E-2,2.4006754E-1,9.493781E-1,-7.050108E-2,5.248666E-1,3.6617163E-1,-1.1487831E0,-4.0358886E-1,4.7808313E-1,-7.0501275E-2,-5.2040587E-3,-8.471144E-2,-1.2818052E0,3.7767537E-2,-1.3126885E0,-6.714889E-2,-1.6612433E-2,1.7916884E-1,-9.8353E-1,-1.4577183E-2,5.1007707E-2,-7.366238E-2,-2.0976705E-2,1.3283259E-2,-5.2336823E-2,3.53445E-2,-2.542603E-2,6.5050304E-2,-6.104803E-3,4.951412E-2,-3.8429312E-2,3.288948E-2,-1.6303742E-2,5.7557005E-2,-1.56757E-2,-1.2082306E-2,-8.698224E-2,3.4404278E-3,-7.2699115E-2,7.650793E-2,1.0789849E-2,4.762135E-2,-5.1423993E-2,-7.602164E-2,-9.920935E-5,7.865771E-3,-6.866103E-2,-7.1875535E-2,-3.811079E-2,-3.3258256E-2,6.420534E-2,-0E0,-5.837844E-2],"categories":[],"categories_nodes":[],"categories_segments":[],"categories_sizes":[],"default_left":[0,0,0,1,1,0,1,0,1,1,0,1,0,0,1,0,1,0,1,0,0,0,0,0,1,0,0,0,1,0,0,0,0,0,1,0,0,0,0,0,0,0,0,0,0,0,0,0,0,0,0,0,0,0,0,1,0,0,0,0,0,0,0,0,0,0,0,0,0,0,0,0,0,0,0,0,0,0,0,0,0,0,0,0,0,0,0,0,0,0,0],"id":15,"left_children":[1,3,5,7,9,11,13,15,17,19,21,23,25,27,29,31,33,35,37,-1,39,41,43,45,47,-1,-1,49,51,53,55,57,59,61,63,-1,-1,-1,-1,65,67,-1,69,71,73,75,77,-1,-1,79,81,83,85,-1,-1,87,89,-1,-1,-1,-1,-1,-1,-1,-1,-1,-1,-1,-1,-1,-1,-1,-1,-1,-1,-1,-1,-1,-1,-1,-1,-1,-1,-1,-1,-1,-1,-1,-1,-1,-1],"loss_changes":[2.133582E2,5.750518E1,6.753884E1,4.83311E1,3.2733093E1,2.311198E1,4.282399E1,2.753439E1,1.0750973E1,3.2971603E1,2.2986732E1,2.013739E1,1.1623753E1,3.7569504E1,1.484111E1,1.428277E1,9.862946E0,1.1133325E1,1.8912659E0,0E0,2.273433E1,2.1245102E1,2.6059752E1,1.2192314E1,5.7657127E0,0E0,0E0,1.2162842E1,3.306576E1,4.086212E0,1.7665136E1,7.070039E0,4.378273E0,7.8535123E0,8.687153E0,0E0,0E0,0E0,0E0,2.2641754E1,1.7602463E1,0E0,1.2781214E1,1.2311794E1,1.1900423E1,1.1994377E1,1.229042E1,0E0,0E0,1.2410215E1,1.4769402E1,2.3745455E1,1.1471176E-1,0E0,0E0,1.8201036E1,8.470737E0,0E0,0E0,0E0,0E0,0E0,0E0,0E0,0E0,0E0,0E0,0E0,0E0,0E0,0E0,0E0,0E0,0E0,0E0,0E0,0E0,0E0,0E0,0E0,0E0,0E0,0E0,0E0,0E0,0E0,0E0,0E0,0E0,0E0,0E0],"parents":[2147483647,0,0,1,1,2,2,3,3,4,4,5,5,6,6,7,7,8,8,9,9,10,10,11,11,12,12,13,13,14,14,15,15,16,16,17,17,18,18,20,20,21,21,22,22,23,23,24,24,27,27,28,28,29,29,30,30,31,31,32,32,33,33,34,34,39,39,40,40,42,42,43,43,44,44,45,45,46,46,49,49,50,50,51,51,52,52,55,55,56,56],"right_children":[2,4,6,8,10,12,14,16,18,20,22,24,26,28,30,32,34,36,38,-1,40,42,44,46,48,-1,-1,50,52,54,56,58,60,62,64,-1,-1,-1,-1,66,68,-1,70,72,74,76,78,-1,-1,80,82,84,86,-1,-1,88,90,-1,-1,-1,-1,-1,-1,-1,-1,-1,-1,-1,-1,-1,-1,-1,-1,-1,-1,-1,-1,-1,-1,-1,-1,-1,-1,-1,-1,-1,-1,-1,-1,-1,-1],"split_conditions":[2E0,0E0,7.143E-1,8.918E-1,6.21E-1,2.8E2,3.33E0,8.3E1,9.25E0,3.503E-1,9.06E-1,-1.555E1,6.5E-1,8.75E2,2.46E-2,1.69E1,2E1,1.9E3,3.636E-1,-5.4384973E-2,1.2727E0,1.538E-1,1.125E3,4.38E-2,2.6E0,6.895247E-2,-6.3686892E-3,8.14E-1,1.007E0,3.94E2,1.25E1,4.493E-1,1.5E1,1.2E2,3.75E-2,2.4131082E-2,-6.2194403E-2,-3.0106127E-2,-7.0117645E-2,1.039E1,3E0,-7.050108E-2,5.1E1,4.24E0,2.8E1,6.339E-1,5E0,-7.0501275E-2,-5.2040587E-3,5.1E-1,4.999E1,1.3E1,9E0,-6.714889E-2,-1.6612433E-2,1.974E1,4.839E-1,-1.4577183E-2,5.1007707E-2,-7.366238E-2,-2.0976705E-2,1.3283259E-2,-5.2336823E-2,3.53445E-2,-2.542603E-2,6.5050304E-2,-6.104803E-3,4.951412E-2,-3.8429312E-2,3.288948E-2,-1.6303742E-2,5.7557005E-2,-1.56757E-2,-1.2082306E-2,-8.698224E-2,3.4404278E-3,-7.2699115E-2,7.650793E-2,1.0789849E-2,4.762135E-2,-5.1423993E-2,-7.602164E-2,-9.920935E-5,7.865771E-3,-6.866103E-2,-7.1875535E-2,-3.811079E-2,-3.3258256E-2,6.420534E-2,-0E0,-5.837844E-2],"split_indices":[2,45,33,33,44,28,13,28,4,33,34,18,33,49,35,39,42,49,29,0,29,29,49,9,29,0,0,33,44,6,39,9,36,6,16,0,0,0,0,40,50,0,42,40,4,34,4,0,0,44,40,2,36,0,0,11,29,0,0,0,0,0,0,0,0,0,0,0,0,0,0,0,0,0,0,0,0,0,0,0,0,0,0,0,0,0,0,0,0,0,0],"split_type":[0,0,0,0,0,0,0,0,0,0,0,0,0,0,0,0,0,0,0,0,0,0,0,0,0,0,0,0,0,0,0,0,0,0,0,0,0,0,0,0,0,0,0,0,0,0,0,0,0,0,0,0,0,0,0,0,0,0,0,0,0,0,0,0,0,0,0,0,0,0,0,0,0,0,0,0,0,0,0,0,0,0,0,0,0,0,0,0,0,0,0],"sum_hessian":[1.142896E3,6.457548E2,4.971412E2,1.8325354E2,4.625013E2,1.1001432E2,3.871269E2,1.3687413E2,4.6379406E1,3.0408365E2,1.5841765E2,8.424791E1,2.5766405E1,2.1756845E2,1.6955843E2,3.6064167E1,1.0080997E2,1.3705037E1,3.267437E1,8.533048E0,2.9555063E2,1.1481852E2,4.359913E1,6.806029E1,1.6187624E1,1.9283712E1,6.4826927E0,5.8539364E1,1.590291E2,1.0600409E2,6.3554337E1,1.6691916E1,1.9372252E1,1.847064E1,8.2339325E1,8.587884E0,5.1171536E0,6.3526573E0,2.6321712E1,5.720686E1,2.3834375E2,5.009773E0,1.0980875E2,2.1242598E1,2.2356531E1,2.2691534E1,4.5368755E1,1.1007264E1,5.18036E0,1.0670252E1,4.7869114E1,1.3921182E2,1.9817278E1,1.0075886E2,5.2452326E0,1.752752E1,4.6026817E1,1.1606763E1,5.0851536E0,1.1627373E1,7.7448783E0,1.2622746E1,5.847893E0,7.67746E1,5.5647283E0,1.3969061E1,4.32378E1,2.3327141E2,5.07235E0,9.527121E1,1.4537538E1,9.604202E0,1.1638395E1,9.4406805E0,1.291585E1,1.6231134E1,6.4604E0,8.012806E0,3.735595E1,5.0288014E0,5.64145E0,4.012206E1,7.7470546E0,1.2922263E2,9.989183E0,1.4692594E1,5.1246843E0,1.010972E1,7.417799E0,7.443062E0,3.8583755E1],"tree_param":{"num_deleted":"0","num_feature":"56","num_nodes":"91","size_leaf_vector":"1"}},{"base_weights":[1.1202519E-2,4.0904328E-1,-3.9823294E-1,-6.685013E-2,5.9483093E-1,-5.3454924E-1,4.884081E-1,2.4500234E-1,-7.562239E-1,6.4779377E-1,-6.8742114E-1,-2.7108666E-1,-9.8007214E-1,8.571624E-1,-6.2205564E-2,-9.4762874E-1,3.7628275E-1,-7.33827E-2,-3.765302E-1,7.726389E-1,1.2404013E-1,1.3384307E-2,-6.902107E-2,-4.4951327E-2,-1.0015464E0,5.8624096E-2,-1.056899E0,1.0133356E0,-1.9851139E-2,-2.1660173E-2,-6.447942E-2,8.2329266E-2,7.8239626E-1,-8.545572E-1,1.688176E-1,8.7092996E-1,1.2409034E-1,6.844273E-1,-4.0665415E-1,-3.058209E-1,7.810456E-1,3.296278E-2,-1.1716615E0,-1.139637E0,-2.0248565E-1,1.1653401E0,-8.575609E-3,1.5905887E-2,-7.0501685E-2,4.9428903E-2,-1.3451099E-2,-7.155308E-2,7.268827E-4,3.8421914E-2,-4.1001238E-2,4.8462007E-2,1.9660344E-2,2.4044205E-2,-4.766522E-2,-2.9710159E-2,4.6440147E-2,-8.931098E-2,7.576468E-3,-6.5707206E-3,-6.308387E-2,-3.694635E-2,4.8907567E-2,-1.6110184E-2,-6.6283695E-2,-2.932468E-2,-6.28252E-2,4.403877E-2,-6.2337972E-2,6.5151244E-2,2.082502E-2],"categories":[],"categories_nodes":[],"categories_segments":[],"categories_sizes":[],"default_left":[1,0,0,1,1,1,0,0,0,0,0,0,0,0,0,0,0,0,0,0,0,0,0,0,0,0,0,0,0,0,0,1,0,1,0,1,0,0,0,0,0,0,0,0,0,0,0,0,0,0,0,0,0,0,0,0,0,0,0,0,0,0,0,0,0,0,0,0,0,0,0,0,0,0,0],"id":16,"left_children":[1,3,5,7,9,11,13,15,17,19,21,23,25,27,-1,29,31,-1,33,35,37,-1,-1,39,41,-1,43,45,-1,-1,-1,47,49,51,53,55,57,59,61,63,65,-1,67,69,71,73,-1,-1,-1,-1,-1,-1,-1,-1,-1,-1,-1,-1,-1,-1,-1,-1,-1,-1,-1,-1,-1,-1,-1,-1,-1,-1,-1,-1,-1],"loss_changes":[1.8415767E2,5.07993E1,6.759273E1,3.5015907E1,2.847049E1,5.634932E1,4.8723225E1,1.7842125E1,1.29674225E1,2.5770172E1,1.1588395E1,5.0278267E1,3.0847443E1,1.264587E1,0E0,1.2602425E0,1.1992917E1,0E0,9.210819E0,2.0203796E1,2.3429008E1,0E0,0E0,5.0671017E1,2.1170403E1,0E0,1.1900665E1,1.0323631E1,0E0,0E0,0E0,2.154797E1,9.541071E0,9.509751E0,1.0621777E1,1.2527435E1,1.711018E1,1.2547255E1,3.1597664E1,2.95106E1,1.7649445E1,0E0,8.008682E0,9.283859E0,1.9959507E1,4.3924637E0,0E0,0E0,0E0,0E0,0E0,0E0,0E0,0E0,0E0,0E0,0E0,0E0,0E0,0E0,0E0,0E0,0E0,0E0,0E0,0E0,0E0,0E0,0E0,0E0,0E0,0E0,0E0,0E0,0E0],"parents":[2147483647,0,0,1,1,2,2,3,3,4,4,5,5,6,6,7,7,8,8,9,9,10,10,11,11,12,12,13,13,15,15,16,16,18,18,19,19,20,20,23,23,24,24,26,26,27,27,31,31,32,32,33,33,34,34,35,35,36,36,37,37,38,38,39,39,40,40,42,42,43,43,44,44,45,45],"right_children":[2,4,6,8,10,12,14,16,18,20,22,24,26,28,-1,30,32,-1,34,36,38,-1,-1,40,42,-1,44,46,-1,-1,-1,48,50,52,54,56,58,60,62,64,66,-1,68,70,72,74,-1,-1,-1,-1,-1,-1,-1,-1,-1,-1,-1,-1,-1,-1,-1,-1,-1,-1,-1,-1,-1,-1,-1,-1,-1,-1,-1,-1,-1],"split_conditions":[1.111E-1,0E0,3.5732665E0,8.718E-1,1.34E0,6.3E1,1.5E1,2.7E1,4.74E-1,9.221E-1,2E0,9.231E-1,3.684E-1,3.52E2,-6.2205564E-2,3.8183765E1,8.18E-1,-7.33827E-2,1.25E2,2.61E2,7E0,1.3384307E-2,-6.902107E-2,2.8E2,3.49E0,5.8624096E-2,1.4203E4,2.00001E0,-1.9851139E-2,-2.1660173E-2,-6.447942E-2,2.91E0,2.19E0,9.5E-1,3.88E2,6.3E1,1.6312776E2,2.7775E2,9.75E2,1.007E0,8.75E2,3.296278E-2,1.23E2,5.711222E-1,1.3034E3,5E0,-8.575609E-3,1.5905887E-2,-7.0501685E-2,4.9428903E-2,-1.3451099E-2,-7.155308E-2,7.268827E-4,3.8421914E-2,-4.1001238E-2,4.8462007E-2,1.9660344E-2,2.4044205E-2,-4.766522E-2,-2.9710159E-2,4.6440147E-2,-8.931098E-2,7.576468E-3,-6.5707206E-3,-6.308387E-2,-3.694635E-2,4.8907567E-2,-1.6110184E-2,-6.6283695E-2,-2.932468E-2,-6.28252E-2,4.403877E-2,-6.2337972E-2,6.5151244E-2,2.082502E-2],"split_indices":[8,45,46,33,44,15,3,28,44,33,50,33,34,28,0,5,44,0,0,0,39,0,0,28,39,0,15,33,0,0,0,13,44,34,47,15,5,14,49,44,49,0,47,46,13,2,0,0,0,0,0,0,0,0,0,0,0,0,0,0,0,0,0,0,0,0,0,0,0,0,0,0,0,0,0],"split_type":[0,0,0,0,0,0,0,0,0,0,0,0,0,0,0,0,0,0,0,0,0,0,0,0,0,0,0,0,0,0,0,0,0,0,0,0,0,0,0,0,0,0,0,0,0,0,0,0,0,0,0,0,0,0,0,0,0,0,0,0,0,0,0,0,0,0,0,0,0,0,0,0,0,0,0],"sum_hessian":[1.1285571E3,5.725075E2,5.560496E2,1.6077802E2,4.117295E2,4.82394E2,7.3655594E1,1.1104435E2,4.9733665E1,3.9594785E2,1.5781654E1,3.0428577E2,1.7810823E2,6.1193886E1,1.2461708E1,1.03191185E1,1.00725235E2,1.6217777E1,3.351589E1,3.1919617E2,7.6751686E1,6.8332953E0,8.9483595E0,2.3326894E2,7.101684E1,5.6014776E0,1.7250676E2,5.4659378E1,6.5345063E0,5.142413E0,5.176705E0,5.9271927E1,4.1453304E1,1.7655903E1,1.5859986E1,2.767553E2,4.244084E1,3.7282227E1,3.946946E1,1.7785036E2,5.5418575E1,6.27658E0,6.474026E1,1.5686563E2,1.5641128E1,4.8533825E1,6.125553E0,5.1922226E1,7.349698E0,3.478658E1,6.666727E0,1.0295169E1,7.360734E0,1.0074789E1,5.7851973E0,2.2849529E2,4.826003E1,3.2368168E1,1.0072676E1,5.686805E0,3.159542E1,1.0787343E1,2.8682114E1,1.514574E2,2.6392963E1,5.9877863E0,4.943079E1,1.0510536E1,5.4229717E1,2.8560411E1,1.2830522E2,7.707097E0,7.93403E0,4.0258186E1,8.2756405E0],"tree_param":{"num_deleted":"0","num_feature":"56","num_nodes":"75","size_leaf_vector":"1"}},{"base_weights":[8.807404E-3,-3.8588068E-1,4.1278493E-1,2.7343193E-1,-5.708561E-1,5.2673936E-1,-9.76198E-2,-1.5711343E-1,6.601901E-1,-3.2297486E-1,-1.0095726E0,6.3665247E-1,7.965923E-2,-3.2388026E-1,8.437929E-1,-4.8352215E-1,4.942252E-1,8.479174E-1,-3.953627E-2,-9.225036E-1,-4.308954E-3,-1.0966218E0,2.8627357E-2,-5.767373E-1,6.9519114E-1,3.2761657E-1,-1.2368672E0,2.975586E-1,-7.101795E-1,-5.24715E-4,6.449133E-2,-1.1629857E0,1.302552E-2,-2.5976239E-2,9.342442E-1,1.0776904E0,3.4895283E-1,3.2788258E-2,-1.018584E0,-9.2583156E-1,2.0285822E-1,-1.2736026E0,-6.8923295E-1,3.6198974E-3,-7.641843E-2,7.4340576E-1,-3.7748504E-1,8.3706945E-1,-1.5765609E-1,-1.7033732E-2,-8.523447E-2,7.979855E-1,-5.9782933E-2,2.8557444E-2,-9.687494E-1,-2.182793E-2,-7.107954E-2,-3.2688428E-2,2.2701403E-2,6.575808E-2,2.0516166E-2,2.3806563E-2,6.1381377E-2,-2.7596606E-2,5.268976E-2,-2.9711057E-2,-6.371019E-2,-2.3023583E-2,-7.1083136E-2,4.4246085E-2,-3.6709271E-3,-4.7545545E-2,-6.646075E-2,-4.60647E-2,1.8542115E-2,4.2431068E-2,1.99226E-2,-7.9340145E-2,2.3714928E-2,-1.5839977E-2,5.2418686E-2,-7.7738665E-2,9.781784E-3,-7.025336E-3,6.884391E-2,-2.0489579E-2,-6.7236684E-2],"categories":[],"categories_nodes":[],"categories_segments":[],"categories_sizes":[],"default_left":[0,0,1,0,1,0,0,0,1,0,0,0,1,0,0,0,0,0,0,0,0,1,0,0,1,0,1,0,0,0,0,0,0,0,0,1,0,0,1,1,1,0,1,0,0,1,0,1,0,0,0,0,0,0,0,0,0,0,0,0,0,0,0,0,0,0,0,0,0,0,0,0,0,0,0,0,0,0,0,0,0,0,0,0,0,0,0],"id":17,"left_children":[1,3,5,7,9,11,13,15,17,19,21,23,25,27,29,31,33,35,-1,37,39,41,-1,43,45,47,49,51,53,-1,-1,55,57,-1,59,61,63,-1,65,67,69,71,73,-1,-1,75,77,79,81,-1,-1,83,-1,-1,85,-1,-1,-1,-1,-1,-1,-1,-1,-1,-1,-1,-1,-1,-1,-1,-1,-1,-1,-1,-1,-1,-1,-1,-1,-1,-1,-1,-1,-1,-1,-1,-1],"loss_changes":[1.7713129E2,6.8701096E1,3.203199E1,2.0742641E1,4.7298874E1,2.1951515E1,2.1714165E1,1.2822844E1,1.8502695E1,5.3822292E1,2.2431046E1,2.600064E1,2.9682768E1,1.9975918E1,7.664668E0,1.3639429E1,9.516762E0,6.187496E0,0E0,1.55399475E1,3.565288E1,9.748047E0,0E0,1.0787081E1,1.8118301E1,1.9127602E1,5.253811E0,2.4900917E1,1.7509766E1,0E0,0E0,2.3876572E0,7.3455305E0,0E0,2.1775522E0,2.801941E0,1.3369103E1,0E0,9.108635E0,7.0706406E0,2.880653E1,3.616333E-1,1.215785E1,0E0,0E0,1.1507538E1,1.6705658E1,9.57501E0,2.016001E1,0E0,0E0,1.3732144E1,0E0,0E0,8.293903E0,0E0,0E0,0E0,0E0,0E0,0E0,0E0,0E0,0E0,0E0,0E0,0E0,0E0,0E0,0E0,0E0,0E0,0E0,0E0,0E0,0E0,0E0,0E0,0E0,0E0,0E0,0E0,0E0,0E0,0E0,0E0,0E0],"parents":[2147483647,0,0,1,1,2,2,3,3,4,4,5,5,6,6,7,7,8,8,9,9,10,10,11,11,12,12,13,13,14,14,15,15,16,16,17,17,19,19,20,20,21,21,23,23,24,24,25,25,26,26,27,27,28,28,31,31,32,32,34,34,35,35,36,36,38,38,39,39,40,40,41,41,42,42,45,45,46,46,47,47,48,48,51,51,54,54],"right_children":[2,4,6,8,10,12,14,16,18,20,22,24,26,28,30,32,34,36,-1,38,40,42,-1,44,46,48,50,52,54,-1,-1,56,58,-1,60,62,64,-1,66,68,70,72,74,-1,-1,76,78,80,82,-1,-1,84,-1,-1,86,-1,-1,-1,-1,-1,-1,-1,-1,-1,-1,-1,-1,-1,-1,-1,-1,-1,-1,-1,-1,-1,-1,-1,-1,-1,-1,-1,-1,-1,-1,-1,-1],"split_conditions":[1.781E-1,7.143E-1,-3.3905714E0,8.6E1,7.6E1,9.202E-1,2.0153E1,6.25E-1,2.57E-2,1.7610888E1,9.34E1,1.918E-1,4.316E1,6.3E1,8.5E1,2.25E0,8E0,6.731E-1,-3.953627E-2,1.54E0,7.25E2,2E-1,2.8627357E-2,8.5E-3,1.3379213E2,7E0,2E1,8.906E-1,8.230769E0,-5.24715E-4,6.449133E-2,5.353824E-1,4.93E-2,-2.5976239E-2,1E0,2.812E-1,3.4E3,3.2788258E-2,-1.6E-2,8.822E-1,3.5668334E-1,8.230769E0,9.4438E2,3.6198974E-3,-7.641843E-2,6.959E-1,6.804E-1,9.231E-1,2.3E1,-1.7033732E-2,-8.523447E-2,2.2E3,-5.9782933E-2,2.8557444E-2,2.6E1,-2.182793E-2,-7.107954E-2,-3.2688428E-2,2.2701403E-2,6.575808E-2,2.0516166E-2,2.3806563E-2,6.1381377E-2,-2.7596606E-2,5.268976E-2,-2.9711057E-2,-6.371019E-2,-2.3023583E-2,-7.1083136E-2,4.4246085E-2,-3.6709271E-3,-4.7545545E-2,-6.646075E-2,-4.60647E-2,1.8542115E-2,4.2431068E-2,1.99226E-2,-7.9340145E-2,2.3714928E-2,-1.5839977E-2,5.2418686E-2,-7.7738665E-2,9.781784E-3,-7.025336E-3,6.884391E-2,-2.0489579E-2,-6.7236684E-2],"split_indices":[9,33,19,6,15,33,44,38,16,5,4,29,4,15,6,27,3,33,0,13,49,38,0,35,5,39,42,33,4,0,0,46,9,0,26,29,49,0,35,33,46,4,14,0,0,54,33,33,42,0,0,49,0,0,42,0,0,0,0,0,0,0,0,0,0,0,0,0,0,0,0,0,0,0,0,0,0,0,0,0,0,0,0,0,0,0,0],"split_type":[0,0,0,0,0,0,0,0,0,0,0,0,0,0,0,0,0,0,0,0,0,0,0,0,0,0,0,0,0,0,0,0,0,0,0,0,0,0,0,0,0,0,0,0,0,0,0,0,0,0,0,0,0,0,0,0,0,0,0,0,0,0,0,0,0,0,0,0,0,0,0,0,0,0,0,0,0,0,0,0,0,0,0,0,0,0,0],"sum_hessian":[1.1089075E3,5.608002E2,5.481073E2,1.2264274E2,4.381574E2,4.4820392E2,9.9903366E1,5.819469E1,6.444805E1,2.812252E2,1.5693222E2,3.5923865E2,8.896526E1,8.1159546E1,1.8743814E1,3.9041035E1,1.9153656E1,5.749372E1,6.9543276E0,9.683464E1,1.8439056E2,1.4909879E2,7.8334317E0,1.6047424E1,3.4319122E2,7.556104E1,1.3404217E1,3.1099958E1,5.005959E1,6.6875124E0,1.2056302E1,1.6002651E1,2.3038383E1,5.6738505E0,1.3479806E1,3.8434418E1,1.9059303E1,5.16274E0,9.16719E1,3.3296135E1,1.5109442E2,1.0228965E2,4.6809135E1,1.0026736E1,6.020687E0,3.28812E2,1.4379228E1,3.6609005E1,3.8952038E1,5.2633505E0,8.140867E0,2.3692406E1,7.407552E0,8.137761E0,4.192183E1,5.0084977E0,1.0994153E1,8.889013E0,1.4149369E1,6.8201275E0,6.659679E0,8.63453E0,2.9799889E1,8.399132E0,1.0660172E1,3.5858253E1,5.581365E1,1.8274788E1,1.5021346E1,4.3027763E1,1.0806666E2,1.7961964E1,8.432768E1,3.858725E1,8.221886E0,2.5061958E2,7.819242E1,5.6343517E0,8.744876E0,5.515888E0,3.1093117E1,7.2325697E0,3.171947E1,9.261821E0,1.4430585E1,1.7806152E1,2.4115679E1],"tree_param":{"num_deleted":"0","num_feature":"56","num_nodes":"87","size_leaf_vector":"1"}},{"base_weights":[-1.5687259E-2,3.7550804E-1,-4.1413045E-1,-1.2784211E-1,5.6396514E-1,-1.6997367E-1,-8.6699724E-1,-3.783116E-1,6.572135E-1,6.1024505E-1,-7.454485E-1,-8.029263E-1,1.00293355E-2,-1.374139E-1,-1.1240605E0,5.6875485E-1,-5.60465E-1,2.1500538E-1,6.582146E-2,-6.401927E-1,6.4984816E-1,-7.521129E-2,4.52777E-3,-1.0658096E0,1.8617873E-1,-4.9889857E-1,2.7481014E-1,2.0646831E-1,-6.706071E-2,-1.1876755E0,2.363438E-2,1.1127962E-3,5.0820958E-2,-6.930903E-1,4.8926058E-1,8.538489E-1,-6.286558E-2,1.7752245E-2,-7.6137535E-2,7.633136E-1,2.3690411E-1,-5.396043E-3,-1.2237959E0,-2.6241323E-2,5.326406E-2,-6.582349E-1,5.743605E-1,4.9106812E-1,-6.129956E-1,1.0192533E0,-2.5349408E-1,-1.2416974E0,7.9225125E-3,-6.73304E-2,-2.0179473E-2,5.8813203E-2,-1.0973199E-2,6.096506E-2,1.6055088E-2,-1.7354246E-3,4.140001E-2,4.6178114E-2,-6.6293934E-3,-1.6269857E-2,-6.728286E-2,1.3951188E-3,-4.3865006E-2,4.9140293E-2,-0E0,1.1575173E-2,5.135401E-2,-4.7843356E-2,3.797592E-2,2.4918294E-2,7.819096E-2,-4.8955686E-2,6.545201E-2,-6.5326355E-2,-5.1255453E-2],"categories":[],"categories_nodes":[],"categories_segments":[],"categories_sizes":[],"default_left":[1,0,1,1,1,0,0,0,0,0,1,0,0,0,0,1,1,0,0,0,0,0,0,0,0,1,1,1,0,0,0,0,0,0,0,0,0,0,0,0,1,0,0,0,0,0,0,0,0,0,0,1,0,0,0,0,0,0,0,0,0,0,0,0,0,0,0,0,0,0,0,0,0,0,0,0,0,0,0],"id":18,"left_children":[1,3,5,7,9,11,13,15,17,19,21,23,25,27,29,31,33,35,-1,37,39,-1,-1,41,43,45,47,49,-1,51,-1,-1,-1,53,55,57,-1,-1,-1,59,61,-1,63,-1,-1,65,67,69,71,73,75,77,-1,-1,-1,-1,-1,-1,-1,-1,-1,-1,-1,-1,-1,-1,-1,-1,-1,-1,-1,-1,-1,-1,-1,-1,-1,-1,-1],"loss_changes":[1.724186E2,